#pragma once
#include <cstdarg>
namespace Eloquent {
    namespace ML {
        namespace Port {
            class SVM {
                public:
                    /**
                    * Predict class for features vector
                    */
                    int predict(float *x) {
                        float kernels[92] = { 0 };
                        float decisions[6] = { 0 };
                        int votes[4] = { 0 };
                        kernels[0] = compute_kernel(x,   -0.01  , -0.02  , 0.02  , -0.02  , -0.02  , -0.01  , 0.01  , 0.16  , 0.03  , -0.03  , -0.22  , 0.19  , 0.04  , -0.09  , -0.21  , 0.13  , 0.32  , -0.2  , -0.01  , 0.21  , 0.13  , -0.03  , 0.03  , 0.07  , -0.01  , 0.03  , 0.01  , -0.01  , 0.1  , 0.01  , -0.01  , 0.12  , -0.03  , -0.02  , 0.09  , 0.01  , -0.02  , 0.09  , 0.01  , -0.01  , 0.12  , 0.01 );
                        kernels[1] = compute_kernel(x,   0.0  , -0.04  , -0.01  , -0.02  , -0.02  , -0.01  , 0.1  , 0.31  , 0.02  , 0.18  , 0.24  , 0.28  , 0.05  , -0.12  , -0.02  , 0.08  , 0.19  , -0.34  , 0.1  , 0.36  , -0.12  , -0.04  , 0.2  , 0.13  , -0.06  , -0.0  , 0.06  , -0.06  , 0.1  , -0.02  , -0.04  , 0.13  , -0.03  , -0.06  , 0.08  , -0.02  , -0.02  , 0.13  , 0.04  , -0.04  , 0.13  , -0.01 );
                        kernels[2] = compute_kernel(x,   -0.0  , -0.02  , 0.03  , 0.01  , 0.05  , 0.01  , 0.01  , 0.11  , 0.06  , 0.01  , -0.22  , 0.21  , 0.05  , -0.08  , -0.23  , 0.15  , 0.21  , -0.26  , 0.04  , 0.24  , 0.08  , 0.03  , 0.1  , 0.08  , -0.06  , -0.05  , 0.03  , -0.01  , 0.05  , -0.0  , 0.0  , 0.08  , -0.02  , 0.0  , 0.1  , 0.01  , -0.01  , 0.11  , -0.02  , -0.02  , 0.07  , 0.01 );
                        kernels[3] = compute_kernel(x,   0.01  , -0.04  , -0.03  , 0.03  , 0.01  , -0.02  , 0.07  , 0.19  , 0.01  , 0.04  , 0.08  , 0.18  , 0.06  , -0.22  , -0.04  , 0.13  , 0.24  , -0.35  , 0.06  , 0.3  , -0.09  , -0.01  , 0.25  , 0.11  , -0.03  , 0.17  , 0.04  , -0.05  , 0.06  , -0.02  , -0.03  , 0.15  , -0.03  , -0.0  , 0.18  , -0.04  , -0.02  , 0.14  , -0.02  , -0.02  , 0.16  , -0.02 );
                        kernels[4] = compute_kernel(x,   0.13  , 0.05  , 0.96  , 0.11  , 0.06  , 0.97  , 0.07  , 0.18  , 1.07  , 0.05  , -0.31  , 1.22  , 0.16  , 0.07  , 0.51  , 0.17  , 0.46  , 0.81  , -0.0  , 0.17  , 1.12  , -0.0  , -0.03  , 0.97  , 0.05  , 0.22  , 0.96  , 0.07  , 0.24  , 0.95  , 0.05  , 0.19  , 0.96  , 0.07  , 0.21  , 0.93  , 0.06  , 0.18  , 0.94  , 0.06  , 0.21  , 0.95 );
                        kernels[5] = compute_kernel(x,   -0.01  , -0.01  , 0.0  , -0.02  , 0.04  , -0.04  , -0.03  , 0.07  , 0.12  , -0.05  , -0.27  , 0.19  , 0.08  , 0.03  , -0.37  , 0.12  , 0.33  , -0.09  , -0.01  , 0.19  , 0.09  , -0.04  , 0.01  , 0.06  , -0.01  , 0.08  , -0.04  , -0.02  , 0.13  , -0.0  , -0.0  , 0.15  , -0.01  , -0.01  , 0.14  , -0.02  , -0.0  , 0.14  , -0.03  , -0.04  , 0.1  , 0.0 );
                        kernels[6] = compute_kernel(x,   -0.0  , 0.01  , 0.01  , -0.0  , 0.03  , -0.01  , 0.0  , 0.08  , 0.18  , 0.01  , -0.17  , 0.12  , 0.06  , 0.01  , -0.32  , 0.16  , 0.35  , -0.11  , -0.03  , 0.21  , 0.16  , -0.06  , 0.01  , 0.01  , 0.02  , 0.1  , 0.01  , -0.05  , 0.14  , 0.03  , -0.02  , 0.15  , 0.02  , -0.02  , 0.15  , 0.02  , -0.0  , 0.16  , -0.01  , -0.01  , 0.13  , -0.0 );
                        kernels[7] = compute_kernel(x,   0.0  , -0.01  , 0.02  , 0.01  , -0.04  , 0.03  , 0.02  , 0.17  , 0.21  , -0.02  , -0.29  , 0.22  , 0.02  , -0.12  , -0.28  , 0.13  , 0.36  , -0.15  , 0.01  , 0.28  , 0.13  , -0.0  , 0.12  , -0.01  , -0.07  , -0.02  , 0.04  , -0.01  , 0.13  , 0.01  , -0.03  , 0.08  , -0.0  , -0.04  , 0.09  , 0.0  , -0.04  , 0.09  , 0.02  , -0.03  , 0.09  , 0.03 );
                        kernels[8] = compute_kernel(x,   0.01  , -0.03  , -0.03  , -0.01  , -0.01  , -0.03  , 0.01  , 0.12  , 0.09  , 0.05  , -0.1  , 0.17  , 0.05  , -0.14  , -0.13  , 0.08  , 0.31  , -0.31  , 0.06  , 0.31  , 0.08  , -0.0  , 0.13  , 0.03  , -0.06  , -0.02  , 0.02  , -0.06  , 0.04  , -0.0  , -0.06  , 0.04  , 0.01  , -0.04  , 0.06  , -0.03  , -0.03  , 0.06  , -0.05  , -0.04  , 0.06  , -0.01 );
                        kernels[9] = compute_kernel(x,   0.02  , 0.07  , 0.02  , 0.03  , 0.09  , 0.04  , 0.05  , 0.35  , 0.37  , 0.02  , -0.09  , 0.02  , 0.1  , 0.51  , -0.39  , 0.01  , 0.49  , 0.18  , -0.08  , 0.13  , 0.18  , -0.04  , 0.16  , 0.04  , -0.02  , 0.18  , 0.04  , -0.04  , 0.17  , 0.04  , -0.01  , 0.17  , 0.03  , 0.0  , 0.16  , 0.05  , 0.01  , 0.18  , 0.04  , 0.01  , 0.2  , 0.06 );
                        kernels[10] = compute_kernel(x,   0.09  , -0.1  , 0.99  , 0.1  , -0.07  , 0.91  , 0.06  , -0.06  , 1.33  , 0.11  , -0.2  , 0.86  , 0.19  , 0.29  , 0.69  , 0.15  , 0.3  , 1.09  , 0.03  , -0.08  , 1.06  , 0.11  , -0.0  , 0.99  , 0.13  , 0.1  , 0.95  , 0.1  , 0.04  , 0.98  , 0.13  , 0.07  , 0.94  , 0.13  , 0.09  , 0.96  , 0.13  , 0.09  , 0.96  , 0.13  , 0.09  , 0.98 );
                        kernels[11] = compute_kernel(x,   -0.0  , 0.0  , 0.04  , 0.0  , 0.03  , -0.0  , -0.01  , 0.04  , 0.13  , -0.07  , -0.28  , 0.14  , 0.07  , 0.03  , -0.42  , 0.04  , 0.3  , 0.01  , -0.07  , 0.08  , 0.14  , -0.11  , -0.07  , 0.05  , -0.04  , 0.05  , 0.0  , -0.03  , 0.1  , 0.01  , -0.04  , 0.08  , 0.01  , -0.02  , 0.1  , -0.02  , -0.04  , 0.12  , 0.02  , -0.03  , 0.11  , 0.02 );
                        kernels[12] = compute_kernel(x,   0.0  , -0.06  , -0.0  , 0.0  , -0.07  , -0.05  , -0.0  , 0.14  , 0.12  , 0.11  , -0.17  , 0.18  , 0.03  , -0.14  , -0.41  , 0.1  , 0.29  , -0.08  , 0.03  , 0.2  , 0.11  , -0.04  , -0.03  , 0.01  , -0.02  , -0.03  , 0.0  , 0.0  , 0.06  , 0.02  , 0.01  , 0.06  , 0.02  , -0.04  , 0.01  , 0.04  , 0.0  , 0.03  , 0.01  , 0.02  , 0.05  , -0.01 );
                        kernels[13] = compute_kernel(x,   -0.02  , -0.01  , -0.01  , -0.01  , 0.07  , -0.01  , -0.02  , 0.09  , 0.05  , -0.01  , -0.18  , 0.17  , 0.05  , 0.01  , -0.29  , 0.11  , 0.18  , -0.14  , 0.03  , 0.21  , 0.03  , -0.06  , 0.02  , 0.04  , -0.07  , 0.04  , 0.04  , -0.05  , 0.1  , -0.01  , -0.06  , 0.11  , -0.02  , -0.04  , 0.12  , -0.02  , -0.05  , 0.1  , 0.02  , -0.05  , 0.11  , -0.03 );
                        kernels[14] = compute_kernel(x,   0.02  , 0.05  , 0.03  , 0.03  , 0.13  , -0.01  , 0.02  , 0.15  , 0.14  , 0.02  , -0.22  , 0.22  , 0.01  , 0.13  , -0.44  , 0.03  , 0.37  , -0.0  , 0.03  , 0.32  , 0.13  , -0.02  , 0.15  , -0.0  , -0.05  , 0.08  , 0.04  , -0.06  , 0.18  , 0.08  , -0.03  , 0.18  , 0.05  , -0.04  , 0.16  , 0.04  , -0.04  , 0.17  , 0.05  , -0.03  , 0.15  , 0.03 );
                        kernels[15] = compute_kernel(x,   0.03  , -0.01  , -0.03  , 0.04  , -0.01  , -0.05  , 0.02  , -0.17  , 0.04  , 0.05  , 0.06  , 0.08  , 0.08  , 0.36  , -0.18  , 0.07  , -0.08  , -0.38  , 0.01  , -0.32  , 0.16  , -0.02  , -0.05  , 0.08  , -0.01  , 0.1  , 0.04  , 0.01  , -0.06  , -0.03  , 0.05  , -0.21  , -0.07  , 0.08  , -0.24  , -0.05  , 0.11  , -0.25  , -0.11  , 0.09  , -0.31  , -0.14 );
                        kernels[16] = compute_kernel(x,   0.0  , 0.0  , 0.03  , -0.05  , 0.05  , 0.01  , 0.1  , 0.27  , 0.35  , -0.07  , -0.15  , -0.08  , 0.1  , 0.52  , -0.28  , 0.03  , 0.49  , 0.22  , -0.09  , 0.27  , 0.14  , -0.09  , 0.15  , 0.13  , -0.07  , 0.24  , 0.09  , -0.05  , 0.27  , 0.09  , -0.05  , 0.26  , 0.07  , -0.07  , 0.22  , 0.11  , -0.05  , 0.27  , 0.11  , -0.02  , 0.27  , 0.05 );
                        kernels[17] = compute_kernel(x,   0.01  , -0.02  , -0.03  , -0.0  , 0.03  , -0.04  , 0.02  , -0.03  , 0.16  , -0.03  , -0.3  , -0.11  , 0.02  , 0.19  , -0.43  , 0.02  , 0.27  , 0.11  , -0.05  , 0.11  , 0.02  , -0.06  , -0.09  , 0.01  , -0.04  , 0.03  , -0.05  , -0.02  , 0.04  , -0.03  , -0.04  , 0.05  , -0.01  , -0.02  , 0.06  , -0.03  , -0.02  , 0.05  , -0.02  , -0.03  , 0.01  , -0.03 );
                        kernels[18] = compute_kernel(x,   0.01  , 0.01  , -0.02  , -0.01  , -0.03  , -0.03  , 0.02  , -0.12  , 0.08  , -0.0  , 0.01  , 0.12  , -0.04  , 0.28  , 0.09  , 0.07  , 0.06  , -0.34  , 0.1  , -0.26  , -0.05  , -0.03  , -0.17  , 0.11  , -0.01  , -0.03  , 0.07  , -0.05  , -0.06  , 0.06  , -0.04  , -0.12  , -0.02  , -0.01  , -0.11  , -0.01  , -0.03  , -0.14  , -0.02  , -0.02  , -0.13  , 0.01 );
                        kernels[19] = compute_kernel(x,   0.01  , -0.01  , -0.01  , 0.01  , 0.02  , -0.03  , 0.11  , 0.25  , 0.11  , -0.01  , -0.32  , 0.01  , 0.07  , 0.03  , -0.33  , 0.09  , 0.41  , -0.01  , -0.05  , 0.1  , 0.13  , -0.03  , -0.06  , -0.0  , 0.02  , 0.12  , -0.02  , 0.0  , 0.13  , -0.04  , 0.0  , 0.13  , -0.01  , 0.03  , 0.16  , -0.03  , -0.01  , 0.07  , -0.03  , -0.02  , 0.02  , 0.01 );
                        kernels[20] = compute_kernel(x,   -0.02  , 0.01  , -0.02  , 0.0  , 0.03  , -0.03  , 0.06  , 0.21  , 0.02  , -0.02  , -0.18  , 0.26  , 0.05  , -0.08  , -0.23  , 0.14  , 0.31  , -0.2  , 0.05  , 0.27  , 0.07  , -0.05  , 0.05  , 0.08  , -0.03  , 0.03  , 0.01  , -0.02  , 0.13  , -0.01  , -0.02  , 0.13  , 0.01  , 0.01  , 0.16  , -0.02  , -0.02  , 0.12  , -0.01  , -0.0  , 0.14  , -0.01 );
                        kernels[21] = compute_kernel(x,   -0.02  , -0.04  , -0.01  , -0.03  , -0.02  , 0.0  , 0.01  , 0.03  , -0.0  , 0.0  , -0.11  , 0.11  , 0.05  , -0.18  , -0.07  , 0.13  , 0.11  , -0.21  , 0.11  , 0.25  , -0.1  , 0.05  , 0.23  , 0.03  , -0.06  , 0.08  , 0.07  , -0.07  , 0.02  , -0.0  , -0.05  , 0.18  , 0.01  , -0.04  , 0.14  , -0.04  , -0.06  , 0.13  , -0.01  , -0.06  , 0.12  , -0.01 );
                        kernels[22] = compute_kernel(x,   0.03  , 0.02  , -0.06  , 0.02  , 0.02  , -0.02  , -0.01  , 0.11  , 0.09  , -0.02  , -0.2  , 0.18  , 0.02  , -0.04  , -0.33  , 0.08  , 0.36  , -0.18  , 0.04  , 0.29  , 0.13  , -0.03  , 0.13  , 0.08  , 0.01  , 0.16  , -0.04  , 0.0  , 0.22  , -0.05  , -0.02  , 0.2  , -0.05  , -0.0  , 0.24  , -0.04  , -0.02  , 0.25  , -0.02  , -0.02  , 0.22  , -0.01 );
                        kernels[23] = compute_kernel(x,   -0.01  , -0.03  , 0.05  , 0.01  , -0.03  , -0.05  , 0.14  , 0.16  , 0.29  , 0.03  , -0.01  , 0.19  , 0.09  , 0.02  , -0.18  , 0.09  , -0.07  , -0.3  , -0.06  , -0.26  , -0.08  , -0.08  , -0.2  , 0.27  , -0.11  , -0.01  , 0.11  , -0.09  , -0.12  , 0.01  , -0.06  , -0.1  , 0.03  , -0.07  , -0.12  , -0.01  , -0.11  , -0.21  , -0.02  , -0.08  , -0.16  , 0.01 );
                        kernels[24] = compute_kernel(x,   0.01  , 0.02  , 0.02  , 0.01  , 0.01  , -0.03  , 0.05  , 0.04  , 0.25  , 0.02  , -0.12  , 0.14  , 0.13  , 0.09  , -0.34  , 0.17  , 0.08  , -0.23  , -0.02  , -0.24  , 0.13  , -0.02  , -0.1  , 0.13  , -0.03  , -0.0  , -0.08  , -0.01  , -0.18  , 0.01  , -0.02  , -0.13  , 0.02  , -0.02  , -0.13  , 0.02  , -0.01  , -0.13  , 0.01  , -0.01  , -0.08  , -0.02 );
                        kernels[25] = compute_kernel(x,   0.01  , -0.0  , -0.0  , 0.0  , -0.01  , -0.02  , -0.01  , 0.1  , 0.6  , -0.05  , 0.07  , -0.01  , 0.04  , -0.14  , -0.42  , -0.03  , -0.37  , 0.09  , -0.05  , -0.0  , 0.11  , -0.08  , -0.08  , -0.02  , -0.08  , -0.18  , 0.04  , -0.07  , -0.19  , 0.01  , 0.0  , -0.11  , -0.05  , -0.11  , -0.23  , -0.01  , -0.1  , -0.17  , -0.0  , -0.08  , -0.17  , 0.01 );
                        kernels[26] = compute_kernel(x,   0.02  , -0.02  , -0.0  , 0.02  , -0.01  , 0.0  , 0.04  , -0.18  , 0.13  , 0.09  , 0.03  , 0.15  , 0.1  , -0.06  , -0.35  , 0.08  , -0.16  , -0.03  , 0.07  , -0.17  , 0.14  , 0.03  , -0.01  , -0.02  , 0.04  , -0.11  , -0.01  , 0.03  , -0.21  , 0.0  , 0.02  , -0.18  , -0.0  , 0.02  , -0.2  , -0.01  , 0.02  , -0.15  , -0.07  , 0.03  , -0.16  , -0.0 );
                        kernels[27] = compute_kernel(x,   -0.01  , -0.01  , -0.0  , -0.03  , -0.03  , -0.05  , 0.09  , 0.07  , 0.21  , 0.06  , 0.04  , 0.18  , -0.03  , -0.11  , -0.52  , -0.03  , -0.19  , 0.08  , -0.09  , -0.24  , 0.26  , -0.11  , -0.18  , -0.04  , -0.07  , -0.3  , -0.01  , -0.06  , -0.28  , -0.03  , -0.06  , -0.24  , -0.02  , -0.06  , -0.25  , -0.03  , -0.08  , -0.28  , -0.02  , -0.08  , -0.25  , -0.05 );
                        kernels[28] = compute_kernel(x,   -0.01  , -0.03  , -0.01  , -0.03  , -0.07  , 0.04  , 0.01  , -0.09  , 0.25  , 0.03  , 0.03  , 0.12  , 0.11  , -0.12  , -0.29  , 0.03  , -0.15  , -0.19  , 0.04  , -0.19  , 0.19  , -0.06  , -0.13  , 0.18  , -0.06  , -0.01  , -0.07  , -0.04  , -0.17  , 0.04  , -0.06  , -0.21  , 0.02  , -0.03  , -0.17  , 0.03  , -0.04  , -0.18  , 0.01  , -0.05  , -0.24  , 0.05 );
                        kernels[29] = compute_kernel(x,   0.13  , -0.09  , 0.97  , 0.12  , -0.1  , 0.96  , 0.12  , -0.1  , 0.99  , 0.24  , 0.05  , 1.34  , 0.09  , -0.23  , 1.02  , 0.27  , -0.05  , 0.41  , 0.1  , -0.01  , 0.9  , 0.07  , 0.29  , 1.23  , -0.11  , -0.1  , 0.98  , -0.03  , -0.11  , 0.94  , 0.01  , 0.12  , 0.95  , 0.04  , 0.17  , 1.01  , 0.05  , 0.1  , 0.98  , 0.04  , 0.08  , 0.97 );
                        kernels[30] = compute_kernel(x,   0.0  , 0.02  , 0.01  , 0.0  , 0.01  , -0.01  , 0.03  , -0.2  , 0.1  , 0.11  , 0.23  , 0.19  , 0.15  , 0.09  , -0.34  , 0.19  , 0.05  , -0.32  , -0.01  , -0.24  , 0.05  , 0.01  , -0.02  , 0.16  , -0.04  , -0.0  , 0.03  , -0.04  , -0.1  , 0.01  , -0.01  , -0.08  , -0.04  , -0.03  , -0.12  , -0.03  , -0.06  , -0.18  , -0.01  , -0.03  , -0.13  , -0.01 );
                        kernels[31] = compute_kernel(x,   0.0  , 0.0  , 0.04  , 0.01  , 0.0  , 0.0  , 0.03  , 0.2  , 0.01  , -0.01  , -0.17  , 0.24  , 0.11  , 0.02  , -0.22  , 0.13  , 0.07  , -0.23  , 0.03  , 0.22  , 0.08  , -0.06  , 0.09  , 0.24  , -0.16  , -0.19  , 0.03  , -0.06  , 0.11  , -0.04  , -0.06  , 0.11  , 0.04  , -0.05  , 0.11  , -0.01  , -0.06  , 0.12  , 0.07  , -0.06  , 0.1  , 0.02 );
                        kernels[32] = compute_kernel(x,   -0.06  , -0.02  , 0.99  , -0.07  , 0.0  , 0.93  , -0.1  , -0.06  , 1.51  , 0.01  , -0.04  , 0.53  , 0.04  , 0.0  , 0.63  , -0.02  , 0.31  , 1.08  , -0.09  , -0.12  , 1.12  , -0.02  , 0.02  , 0.99  , -0.01  , 0.1  , 0.95  , -0.01  , 0.12  , 0.95  , -0.01  , 0.11  , 0.99  , -0.03  , 0.07  , 0.96  , -0.01  , 0.1  , 0.97  , -0.02  , 0.08  , 0.96 );
                        kernels[33] = compute_kernel(x,   0.02  , -0.0  , -0.01  , 0.01  , 0.01  , 0.01  , -0.0  , 0.04  , 0.23  , 0.04  , -0.08  , -0.01  , 0.14  , 0.07  , -0.29  , 0.03  , -0.01  , -0.08  , -0.0  , 0.27  , 0.1  , -0.15  , -0.07  , 0.01  , -0.13  , -0.09  , 0.01  , -0.09  , 0.05  , 0.01  , -0.05  , 0.1  , -0.01  , -0.07  , 0.09  , 0.01  , -0.08  , 0.08  , -0.01  , -0.08  , 0.09  , 0.03 );
                        kernels[34] = compute_kernel(x,   -0.01  , -0.04  , -0.0  , -0.01  , -0.03  , -0.04  , -0.01  , -0.11  , 0.17  , 0.02  , 0.01  , 0.24  , 0.01  , -0.1  , -0.39  , -0.0  , -0.18  , -0.12  , 0.01  , -0.19  , 0.16  , -0.06  , -0.09  , 0.07  , -0.03  , -0.12  , -0.04  , 0.01  , -0.09  , -0.0  , -0.03  , -0.14  , 0.03  , -0.05  , -0.2  , 0.03  , -0.04  , -0.14  , -0.08  , -0.04  , -0.18  , -0.0 );
                        kernels[35] = compute_kernel(x,   0.01  , 0.01  , 0.01  , 0.0  , -0.03  , -0.01  , -0.03  , -0.05  , 0.16  , 0.05  , 0.13  , 0.13  , 0.11  , 0.03  , -0.21  , 0.11  , -0.02  , -0.14  , 0.09  , -0.11  , 0.16  , 0.05  , -0.06  , 0.09  , 0.05  , 0.01  , -0.02  , 0.04  , -0.14  , 0.01  , 0.06  , -0.09  , 0.02  , 0.03  , -0.15  , -0.0  , 0.03  , -0.13  , 0.03  , 0.01  , -0.13  , 0.04 );
                        kernels[36] = compute_kernel(x,   0.03  , 0.02  , -0.01  , 0.02  , 0.04  , -0.02  , 0.04  , 0.12  , 0.31  , 0.02  , -0.08  , 0.15  , 0.13  , 0.02  , -0.4  , 0.11  , 0.17  , -0.1  , -0.08  , 0.08  , 0.09  , -0.24  , -0.06  , 0.21  , -0.14  , -0.06  , -0.05  , -0.13  , 0.05  , -0.04  , -0.14  , 0.03  , 0.02  , -0.12  , 0.09  , -0.03  , -0.09  , 0.06  , 0.02  , -0.05  , 0.12  , -0.03 );
                        kernels[37] = compute_kernel(x,   0.13  , -0.01  , 0.9  , 0.12  , 0.01  , 1.0  , 0.26  , 0.3  , 1.14  , 0.05  , -0.2  , 0.89  , 0.09  , 0.03  , 0.65  , 0.08  , 0.33  , 1.2  , 0.06  , -0.22  , 1.0  , 0.19  , 0.22  , 1.0  , 0.17  , 0.09  , 1.05  , 0.13  , 0.09  , 1.02  , 0.14  , 0.04  , 0.91  , 0.15  , 0.05  , 0.96  , 0.14  , 0.09  , 1.01  , 0.16  , 0.06  , 0.97 );
                        kernels[38] = compute_kernel(x,   -0.0  , 0.0  , 0.0  , 0.01  , 0.0  , -0.03  , 0.04  , 0.02  , 0.26  , 0.0  , 0.11  , 0.09  , 0.07  , 0.03  , -0.47  , -0.05  , -0.24  , 0.04  , -0.06  , -0.26  , 0.19  , -0.07  , -0.13  , 0.03  , -0.02  , -0.05  , -0.02  , -0.01  , -0.17  , 0.05  , -0.04  , -0.14  , 0.02  , -0.04  , -0.14  , 0.01  , -0.04  , -0.12  , -0.01  , -0.08  , -0.13  , -0.02 );
                        kernels[39] = compute_kernel(x,   0.01  , 0.02  , 0.01  , -0.0  , 0.11  , -0.03  , 0.0  , -0.15  , 0.11  , 0.09  , 0.08  , -0.15  , 0.11  , 0.14  , -0.12  , 0.06  , 0.29  , 0.06  , -0.06  , 0.14  , 0.11  , -0.06  , 0.05  , -0.08  , -0.03  , 0.16  , 0.02  , -0.02  , 0.16  , -0.05  , -0.02  , 0.16  , 0.02  , -0.01  , 0.17  , 0.01  , -0.01  , 0.17  , -0.0  , -0.02  , 0.16  , 0.02 );
                        kernels[40] = compute_kernel(x,   0.24  , 0.08  , -0.06  , 0.15  , 0.21  , -0.14  , 0.17  , 0.15  , 0.29  , 0.2  , -0.03  , -0.18  , 0.25  , 0.08  , -0.58  , 0.26  , 0.39  , -0.1  , 0.04  , 0.17  , 0.27  , -0.02  , -0.09  , -0.01  , 0.01  , 0.1  , 0.02  , 0.07  , 0.19  , -0.0  , 0.04  , 0.12  , 0.01  , 0.04  , 0.09  , -0.01  , 0.06  , 0.15  , 0.03  , 0.04  , 0.15  , -0.03 );
                        kernels[41] = compute_kernel(x,   -0.01  , 0.03  , -0.01  , -0.01  , 0.01  , -0.01  , 0.09  , 0.42  , -0.02  , -0.05  , -0.07  , 0.36  , 0.02  , 0.09  , -0.28  , 0.03  , 0.25  , -0.03  , 0.02  , 0.41  , 0.13  , -0.07  , 0.17  , 0.07  , -0.02  , 0.2  , 0.04  , -0.01  , 0.28  , -0.01  , -0.01  , 0.28  , 0.01  , -0.01  , 0.24  , 0.02  , 0.0  , 0.28  , 0.04  , 0.0  , 0.22  , 0.04 );
                        kernels[42] = compute_kernel(x,   -0.01  , 0.03  , -0.01  , -0.01  , 0.04  , -0.01  , -0.01  , 0.31  , 0.07  , -0.04  , 0.02  , 0.39  , 0.07  , 0.12  , -0.47  , 0.06  , 0.19  , 0.07  , 0.07  , 0.35  , 0.24  , 0.04  , 0.22  , 0.05  , 0.05  , 0.28  , -0.01  , 0.05  , 0.28  , 0.01  , 0.08  , 0.31  , 0.01  , 0.06  , 0.28  , -0.01  , 0.07  , 0.3  , -0.0  , 0.06  , 0.29  , -0.01 );
                        kernels[43] = compute_kernel(x,   -0.01  , -0.03  , 0.02  , -0.01  , 0.0  , -0.02  , 0.02  , 0.01  , 0.48  , 0.04  , -0.01  , 0.05  , 0.13  , -0.05  , -0.54  , 0.08  , 0.01  , -0.16  , 0.05  , 0.21  , 0.12  , -0.0  , 0.11  , 0.09  , 0.01  , 0.07  , -0.01  , 0.0  , 0.08  , -0.01  , 0.03  , 0.11  , 0.01  , 0.04  , 0.12  , 0.01  , 0.04  , 0.12  , 0.02  , 0.04  , 0.13  , 0.02 );
                        kernels[44] = compute_kernel(x,   0.0  , -0.02  , -0.0  , 0.01  , -0.03  , -0.03  , 0.01  , -0.05  , 0.1  , 0.01  , 0.19  , 0.16  , 0.04  , 0.07  , -0.38  , 0.06  , -0.06  , 0.05  , 0.02  , -0.06  , 0.14  , -0.05  , 0.1  , -0.07  , -0.05  , -0.05  , 0.01  , -0.04  , -0.06  , 0.0  , -0.01  , -0.1  , -0.02  , -0.05  , -0.11  , -0.06  , -0.02  , -0.08  , -0.01  , 0.0  , -0.07  , -0.02 );
                        kernels[45] = compute_kernel(x,   -0.0  , 0.02  , 0.02  , -0.02  , 0.06  , -0.04  , -0.09  , -0.3  , 0.14  , 0.06  , -0.01  , -0.23  , 0.07  , 0.1  , -0.11  , 0.01  , 0.26  , 0.17  , -0.13  , -0.04  , 0.07  , -0.08  , 0.03  , 0.04  , -0.0  , 0.23  , 0.07  , -0.01  , 0.13  , 0.0  , 0.0  , 0.17  , 0.01  , -0.02  , 0.14  , 0.0  , -0.01  , 0.14  , 0.02  , -0.01  , 0.15  , 0.01 );
                        kernels[46] = compute_kernel(x,   -0.01  , 0.0  , -0.01  , -0.03  , 0.01  , -0.02  , -0.06  , 0.29  , 0.09  , -0.02  , -0.17  , 0.26  , 0.12  , 0.06  , -0.44  , 0.1  , 0.1  , -0.29  , 0.05  , 0.24  , 0.14  , -0.05  , 0.03  , 0.1  , -0.07  , 0.04  , -0.0  , -0.04  , 0.18  , -0.01  , -0.1  , 0.04  , -0.07  , -0.05  , 0.13  , -0.02  , -0.03  , 0.17  , -0.02  , -0.09  , 0.03  , 0.04 );
                        kernels[47] = compute_kernel(x,   -0.03  , -0.02  , 0.02  , -0.03  , 0.01  , -0.08  , -0.09  , 0.18  , 0.31  , -0.11  , -0.2  , 0.31  , -0.07  , -0.01  , -0.32  , 0.05  , 0.24  , -0.28  , 0.01  , 0.31  , -0.02  , -0.09  , 0.14  , 0.03  , -0.1  , -0.03  , 0.06  , -0.09  , 0.08  , -0.0  , -0.09  , 0.1  , -0.0  , -0.09  , 0.08  , 0.0  , -0.08  , 0.06  , 0.01  , -0.08  , 0.12  , -0.01 );
                        kernels[48] = compute_kernel(x,   -0.0  , -0.02  , -0.01  , -0.02  , -0.01  , -0.04  , -0.04  , -0.24  , 0.14  , -0.06  , 0.39  , 0.2  , 0.05  , 0.18  , -0.27  , 0.15  , -0.02  , -0.26  , 0.1  , -0.06  , 0.06  , -0.03  , 0.04  , 0.05  , -0.04  , 0.12  , 0.08  , -0.07  , 0.05  , -0.09  , -0.03  , 0.01  , 0.0  , -0.03  , 0.04  , -0.04  , -0.03  , -0.0  , -0.01  , -0.04  , 0.02  , -0.03 );
                        kernels[49] = compute_kernel(x,   0.0  , 0.02  , 0.01  , 0.0  , 0.02  , 0.0  , -0.05  , 0.15  , 0.24  , -0.0  , -0.3  , 0.1  , 0.1  , -0.03  , -0.37  , 0.2  , 0.36  , -0.17  , 0.03  , 0.24  , 0.04  , -0.06  , 0.02  , 0.15  , -0.03  , -0.04  , -0.04  , -0.04  , 0.05  , 0.03  , -0.04  , 0.05  , 0.03  , -0.02  , 0.05  , 0.0  , -0.01  , 0.02  , 0.03  , -0.02  , 0.05  , 0.01 );
                        kernels[50] = compute_kernel(x,   -0.02  , -0.01  , 0.03  , -0.0  , 0.02  , 0.02  , -0.11  , 0.13  , -0.1  , -0.1  , 0.08  , 0.25  , -0.19  , -0.47  , 0.07  , -0.05  , -0.05  , -0.2  , -0.01  , 0.28  , -0.28  , -0.03  , 0.43  , 0.07  , -0.14  , 0.11  , 0.21  , -0.16  , 0.01  , 0.1  , -0.19  , 0.03  , 0.03  , -0.16  , 0.03  , 0.04  , -0.16  , 0.03  , 0.04  , -0.15  , 0.04  , 0.05 );
                        kernels[51] = compute_kernel(x,   0.03  , 0.11  , 0.03  , 0.0  , 0.06  , 0.08  , -0.03  , 0.06  , 0.01  , -0.06  , 0.04  , 0.04  , -0.06  , 0.06  , 0.02  , -0.08  , -0.01  , 0.01  , -0.07  , 0.01  , 0.04  , -0.06  , 0.04  , 0.03  , -0.08  , -0.03  , -0.0  , -0.06  , 0.01  , 0.02  , -0.06  , -0.01  , -0.0  , -0.05  , 0.03  , 0.02  , -0.03  , -0.06  , -0.05  , -0.08  , 0.01  , -0.06 );
                        kernels[52] = compute_kernel(x,   0.0  , -0.01  , 0.02  , -0.0  , -0.01  , -0.01  , -0.04  , 0.28  , 0.05  , -0.02  , -0.21  , 0.31  , 0.01  , -0.03  , -0.23  , 0.1  , 0.3  , -0.26  , 0.05  , 0.31  , 0.23  , -0.06  , 0.02  , 0.11  , -0.05  , -0.01  , -0.09  , -0.01  , 0.05  , -0.03  , 0.01  , 0.05  , 0.02  , -0.0  , 0.03  , 0.03  , 0.0  , 0.02  , 0.01  , 0.0  , 0.02  , 0.01 );
                        kernels[53] = compute_kernel(x,   -0.03  , -0.02  , 0.02  , 0.0  , 0.05  , 0.01  , 0.01  , -0.12  , 0.32  , 0.12  , 0.04  , -0.36  , 0.23  , 0.37  , -0.19  , 0.07  , 0.26  , 0.16  , -0.02  , -0.05  , 0.16  , 0.02  , 0.03  , -0.05  , 0.02  , -0.0  , -0.01  , 0.01  , 0.03  , 0.01  , 0.0  , 0.04  , 0.03  , 0.01  , 0.04  , 0.02  , 0.01  , 0.05  , 0.04  , 0.02  , 0.04  , 0.03 );
                        kernels[54] = compute_kernel(x,   0.01  , 0.01  , -0.02  , 0.01  , 0.07  , -0.05  , -0.03  , -0.21  , 0.35  , 0.1  , -0.21  , -0.2  , 0.22  , 0.27  , -0.31  , 0.12  , 0.17  , -0.03  , 0.04  , 0.13  , 0.21  , -0.06  , -0.09  , 0.03  , -0.03  , -0.06  , -0.03  , -0.02  , -0.02  , 0.01  , -0.02  , 0.01  , 0.01  , -0.03  , -0.01  , -0.0  , -0.02  , -0.0  , 0.0  , -0.03  , -0.0  , 0.01 );
                        kernels[55] = compute_kernel(x,   -0.01  , -0.06  , 0.0  , -0.01  , -0.08  , 0.0  , -0.01  , 0.43  , 0.03  , -0.1  , -0.36  , 0.3  , -0.02  , -0.03  , -0.38  , 0.1  , 0.33  , -0.05  , -0.05  , 0.12  , 0.14  , -0.09  , -0.09  , 0.12  , -0.07  , -0.04  , -0.01  , -0.07  , -0.02  , -0.03  , -0.05  , -0.02  , 0.06  , -0.07  , -0.02  , 0.01  , -0.06  , -0.02  , -0.03  , -0.06  , -0.0  , -0.01 );
                        kernels[56] = compute_kernel(x,   0.01  , 0.03  , 0.03  , -0.01  , 0.01  , -0.05  , -0.1  , 0.14  , -0.06  , -0.19  , 0.12  , 0.18  , -0.18  , -0.24  , 0.18  , -0.13  , -0.21  , -0.05  , -0.03  , 0.11  , -0.19  , -0.05  , 0.19  , -0.23  , -0.12  , 0.23  , 0.07  , -0.15  , 0.06  , 0.12  , -0.16  , 0.08  , -0.03  , -0.14  , 0.08  , 0.02  , -0.14  , 0.07  , 0.01  , -0.12  , 0.08  , 0.02 );
                        kernels[57] = compute_kernel(x,   0.03  , -0.09  , 0.99  , 0.03  , -0.09  , 0.97  , 0.11  , 0.55  , 1.21  , -0.17  , -0.63  , 1.17  , 0.14  , 0.11  , 0.48  , 0.12  , 0.23  , 0.83  , -0.0  , 0.2  , 1.16  , -0.02  , -0.22  , 0.91  , -0.02  , -0.05  , 0.98  , 0.0  , -0.03  , 0.96  , -0.01  , -0.02  , 0.97  , -0.0  , -0.03  , 0.98  , 0.0  , -0.02  , 0.99  , -0.01  , -0.04  , 0.99 );
                        kernels[58] = compute_kernel(x,   0.0  , 0.0  , -0.01  , -0.0  , -0.06  , -0.01  , 0.06  , 0.08  , 0.27  , 0.13  , 0.27  , -0.17  , 0.22  , 0.09  , -0.25  , 0.1  , -0.2  , -0.04  , 0.06  , -0.09  , 0.12  , 0.01  , 0.1  , 0.04  , 0.01  , 0.08  , -0.01  , 0.03  , 0.02  , 0.02  , -0.01  , -0.1  , -0.1  , -0.01  , -0.04  , 0.01  , 0.01  , 0.01  , -0.01  , 0.01  , -0.03  , 0.01 );
                        kernels[59] = compute_kernel(x,   0.01  , 0.01  , -0.0  , 0.01  , -0.0  , -0.02  , -0.04  , 0.26  , 0.35  , 0.04  , -0.29  , 0.08  , 0.14  , -0.04  , -0.36  , 0.24  , 0.32  , -0.16  , 0.09  , 0.14  , 0.03  , 0.0  , -0.01  , 0.09  , -0.0  , -0.12  , 0.01  , -0.01  , -0.04  , -0.05  , 0.0  , -0.0  , 0.02  , 0.0  , 0.02  , -0.01  , -0.01  , 0.0  , -0.01  , 0.01  , 0.02  , -0.01 );
                        kernels[60] = compute_kernel(x,   -0.01  , -0.0  , -0.0  , 0.0  , -0.05  , 0.08  , 0.08  , 0.22  , -0.01  , 0.07  , 0.04  , -0.25  , -0.01  , -0.17  , -0.16  , -0.14  , -0.08  , -0.02  , -0.17  , 0.08  , 0.26  , -0.19  , 0.2  , 0.14  , -0.14  , 0.29  , 0.0  , -0.07  , 0.04  , -0.07  , -0.02  , 0.02  , 0.03  , -0.03  , 0.0  , -0.02  , -0.03  , 0.02  , 0.01  , -0.02  , 0.01  , 0.0 );
                        kernels[61] = compute_kernel(x,   -0.01  , -0.01  , -0.0  , 0.0  , -0.04  , -0.0  , 0.05  , 0.09  , 0.43  , 0.05  , 0.23  , -0.16  , 0.15  , 0.02  , -0.3  , 0.08  , -0.27  , -0.13  , -0.04  , -0.22  , 0.13  , -0.04  , 0.1  , 0.09  , -0.03  , 0.04  , -0.04  , -0.07  , -0.04  , 0.01  , -0.02  , -0.03  , -0.0  , -0.04  , -0.05  , -0.02  , -0.06  , -0.05  , 0.04  , -0.05  , -0.06  , -0.0 );
                        kernels[62] = compute_kernel(x,   0.01  , 0.01  , -0.04  , 0.01  , 0.02  , -0.05  , -0.0  , -0.15  , 0.06  , 0.07  , 0.22  , 0.09  , 0.14  , 0.2  , -0.23  , 0.17  , -0.02  , -0.22  , 0.15  , -0.14  , -0.01  , -0.01  , -0.19  , 0.04  , -0.03  , 0.04  , 0.01  , -0.02  , 0.01  , -0.03  , -0.03  , 0.02  , -0.02  , -0.03  , -0.05  , -0.02  , -0.04  , -0.04  , -0.05  , -0.03  , -0.03  , -0.03 );
                        kernels[63] = compute_kernel(x,   0.0  , 0.04  , 0.01  , -0.0  , 0.01  , 0.03  , 0.07  , 0.13  , 0.19  , 0.09  , 0.21  , -0.21  , 0.2  , 0.07  , -0.14  , 0.08  , -0.04  , -0.06  , 0.02  , 0.05  , 0.02  , -0.14  , -0.07  , 0.13  , -0.11  , 0.15  , 0.11  , -0.09  , 0.27  , 0.04  , -0.06  , 0.1  , -0.07  , -0.01  , 0.03  , -0.03  , 0.01  , 0.08  , 0.03  , 0.0  , 0.04  , -0.01 );
                        kernels[64] = compute_kernel(x,   0.0  , 0.02  , -0.02  , 0.0  , 0.02  , 0.02  , -0.01  , 0.22  , 0.11  , -0.02  , -0.25  , 0.2  , 0.11  , -0.1  , -0.2  , 0.21  , 0.21  , -0.23  , 0.19  , 0.22  , -0.07  , 0.08  , 0.21  , 0.13  , -0.03  , -0.05  , 0.07  , -0.08  , -0.17  , -0.05  , -0.03  , -0.04  , -0.05  , -0.01  , 0.01  , -0.0  , -0.03  , -0.0  , 0.01  , -0.03  , 0.02  , 0.01 );
                        kernels[65] = compute_kernel(x,   0.02  , -0.11  , 0.99  , -0.01  , -0.19  , 1.0  , -0.01  , -0.15  , 1.03  , -0.03  , 0.04  , 0.97  , -0.01  , -0.08  , 0.99  , -0.01  , -0.06  , 0.97  , -0.01  , -0.02  , 0.98  , -0.01  , -0.05  , 0.97  , -0.04  , -0.17  , 0.94  , -0.05  , -0.18  , 0.98  , -0.08  , -0.14  , 0.88  , 0.16  , -0.32  , 0.85  , 0.39  , -0.85  , -1.57  , 0.08  , -0.62  , 0.92 );
                        kernels[66] = compute_kernel(x,   -0.01  , -0.01  , -0.01  , 0.0  , -0.0  , -0.01  , -0.01  , 0.2  , 0.24  , -0.06  , -0.39  , 0.17  , 0.09  , -0.02  , -0.39  , 0.18  , 0.38  , -0.25  , -0.02  , 0.14  , 0.12  , -0.09  , 0.0  , 0.13  , -0.06  , -0.13  , -0.11  , -0.04  , -0.03  , -0.01  , -0.06  , 0.01  , 0.0  , -0.06  , -0.02  , -0.02  , -0.02  , 0.08  , -0.04  , -0.05  , -0.0  , -0.01 );
                        kernels[67] = compute_kernel(x,   -0.02  , 0.01  , 0.98  , -0.02  , 0.01  , 0.94  , -0.14  , 0.59  , 1.06  , -0.14  , -0.31  , 1.58  , -0.06  , -0.1  , 0.65  , 0.1  , 0.27  , 0.66  , 0.01  , 0.39  , 0.79  , -0.12  , 0.24  , 1.01  , -0.14  , 0.04  , 1.0  , -0.14  , 0.06  , 0.96  , -0.11  , 0.12  , 0.96  , -0.1  , 0.09  , 1.0  , -0.08  , 0.06  , 1.0  , -0.08  , 0.03  , 0.96 );
                        kernels[68] = compute_kernel(x,   -0.01  , 0.01  , -0.02  , -0.01  , -0.03  , 0.05  , 0.08  , 0.11  , 0.2  , 0.1  , 0.11  , -0.19  , 0.17  , 0.12  , -0.24  , 0.03  , -0.09  , -0.1  , -0.08  , 0.01  , 0.05  , -0.17  , 0.01  , 0.11  , -0.19  , 0.16  , 0.11  , -0.15  , 0.29  , 0.01  , -0.07  , 0.11  , -0.07  , -0.02  , 0.05  , 0.01  , -0.01  , 0.07  , 0.02  , 0.01  , 0.1  , 0.04 );
                        kernels[69] = compute_kernel(x,   0.0  , 0.0  , 0.01  , -0.0  , -0.02  , 0.0  , -0.02  , 0.22  , -0.01  , -0.07  , -0.23  , 0.18  , -0.04  , -0.06  , -0.16  , 0.05  , 0.21  , -0.27  , 0.02  , 0.31  , -0.01  , -0.04  , 0.19  , 0.15  , -0.1  , -0.01  , 0.02  , -0.08  , 0.08  , -0.03  , -0.05  , 0.1  , 0.0  , -0.05  , 0.07  , -0.01  , -0.04  , 0.08  , -0.02  , -0.04  , 0.07  , 0.0 );
                        kernels[70] = compute_kernel(x,   0.0  , -0.02  , 0.02  , 0.0  , -0.03  , 0.02  , -0.0  , 0.14  , -0.06  , 0.04  , -0.07  , 0.36  , -0.0  , -0.24  , -0.07  , 0.12  , 0.19  , -0.35  , 0.08  , 0.28  , 0.13  , -0.06  , -0.07  , 0.19  , -0.05  , -0.1  , 0.0  , -0.02  , 0.03  , -0.0  , -0.02  , 0.03  , 0.0  , -0.02  , 0.02  , 0.02  , -0.02  , -0.01  , -0.0  , -0.01  , 0.0  , 0.01 );
                        kernels[71] = compute_kernel(x,   0.01  , 0.0  , -0.01  , -0.01  , -0.03  , 0.0  , -0.1  , -0.24  , -0.06  , 0.01  , 0.22  , 0.18  , -0.02  , -0.01  , -0.35  , 0.0  , -0.18  , 0.01  , 0.07  , 0.0  , 0.23  , -0.01  , 0.05  , -0.2  , 0.02  , -0.09  , -0.16  , -0.04  , -0.15  , 0.1  , 0.01  , -0.07  , 0.02  , -0.07  , -0.11  , -0.02  , -0.01  , -0.13  , -0.04  , -0.0  , -0.11  , -0.02 );
                        kernels[72] = compute_kernel(x,   0.05  , 0.02  , 0.0  , 0.02  , 0.01  , -0.01  , 0.17  , 0.37  , 0.03  , -0.05  , -0.11  , 0.09  , 0.09  , 0.15  , -0.35  , 0.08  , 0.33  , 0.18  , 0.01  , 0.08  , 0.29  , 0.02  , 0.07  , -0.09  , 0.11  , 0.14  , -0.22  , 0.09  , 0.33  , 0.16  , -0.01  , 0.13  , 0.08  , 0.04  , 0.18  , 0.19  , 0.13  , 0.22  , 0.0  , 0.09  , 0.18  , 0.02 );
                        kernels[73] = compute_kernel(x,   0.01  , 0.02  , -0.04  , 0.01  , 0.01  , -0.04  , -0.12  , 0.13  , -0.11  , -0.1  , -0.11  , 0.3  , 0.05  , 0.03  , -0.46  , 0.01  , 0.11  , -0.02  , 0.1  , 0.17  , 0.14  , 0.03  , 0.05  , -0.07  , 0.04  , 0.01  , -0.33  , 0.1  , 0.23  , 0.03  , -0.01  , 0.12  , 0.01  , -0.05  , -0.03  , 0.03  , 0.03  , 0.04  , -0.02  , 0.01  , 0.07  , -0.03 );
                        kernels[74] = compute_kernel(x,   -0.02  , -0.02  , 0.0  , -0.0  , 0.02  , 0.03  , -0.16  , -0.19  , 0.55  , 0.01  , 0.05  , -0.47  , 0.03  , 0.19  , 0.04  , 0.02  , 0.15  , 0.31  , -0.03  , 0.02  , -0.05  , 0.03  , 0.12  , -0.26  , 0.04  , 0.3  , 0.1  , -0.03  , 0.14  , 0.11  , -0.03  , 0.09  , -0.04  , 0.01  , 0.15  , 0.03  , 0.02  , 0.15  , 0.05  , -0.01  , 0.1  , 0.02 );
                        kernels[75] = compute_kernel(x,   -0.0  , -0.02  , -0.04  , 0.01  , 0.0  , -0.03  , 0.03  , 0.12  , 0.3  , -0.06  , -0.13  , -0.3  , 0.03  , 0.18  , -0.17  , 0.03  , 0.26  , 0.28  , -0.07  , -0.01  , -0.05  , -0.03  , 0.02  , -0.31  , 0.01  , 0.26  , 0.06  , -0.1  , 0.07  , -0.01  , -0.09  , 0.01  , -0.11  , -0.08  , 0.13  , 0.12  , -0.07  , 0.05  , -0.02  , -0.07  , 0.06  , -0.02 );
                        kernels[76] = compute_kernel(x,   0.0  , -0.01  , -0.01  , 0.02  , 0.01  , -0.02  , -0.01  , -0.06  , -0.02  , 0.05  , -0.05  , 0.25  , 0.03  , 0.2  , -0.27  , 0.0  , -0.12  , -0.06  , 0.07  , -0.06  , 0.4  , -0.0  , -0.03  , -0.04  , -0.04  , -0.16  , -0.23  , 0.05  , -0.14  , 0.11  , 0.03  , -0.02  , 0.0  , -0.03  , -0.12  , 0.0  , -0.02  , -0.15  , -0.02  , -0.04  , -0.19  , -0.05 );
                        kernels[77] = compute_kernel(x,   -0.02  , -0.07  , -0.0  , 0.01  , -0.06  , -0.01  , -0.36  , -0.31  , 0.46  , -0.04  , -0.13  , -0.49  , -0.11  , 0.16  , 0.03  , -0.12  , -0.03  , 0.27  , -0.11  , -0.05  , -0.05  , -0.07  , -0.01  , -0.3  , -0.01  , 0.26  , 0.17  , -0.14  , -0.01  , 0.06  , -0.09  , 0.07  , -0.0  , -0.03  , 0.1  , -0.05  , -0.09  , 0.03  , 0.01  , -0.08  , 0.02  , -0.01 );
                        kernels[78] = compute_kernel(x,   0.01  , -0.01  , -0.01  , -0.04  , 0.05  , 0.04  , -0.05  , -0.05  , 0.04  , -0.07  , -0.1  , -0.19  , -0.02  , 0.15  , -0.08  , 0.05  , 0.2  , 0.28  , -0.04  , -0.01  , 0.01  , -0.0  , 0.07  , -0.29  , 0.01  , 0.23  , 0.04  , -0.04  , 0.1  , 0.05  , -0.08  , 0.08  , -0.01  , -0.05  , 0.1  , -0.01  , -0.04  , 0.11  , 0.05  , -0.04  , 0.15  , -0.01 );
                        kernels[79] = compute_kernel(x,   -0.01  , 0.0  , 0.02  , -0.04  , -0.05  , 0.05  , -0.06  , 0.09  , 0.46  , -0.1  , -0.1  , -0.22  , -0.09  , -0.25  , -0.27  , -0.13  , -0.3  , 0.16  , -0.09  , -0.07  , 0.27  , -0.13  , -0.16  , -0.38  , -0.2  , -0.38  , 0.1  , -0.13  , -0.29  , 0.12  , -0.17  , -0.17  , -0.01  , -0.19  , -0.3  , 0.06  , -0.1  , -0.27  , 0.03  , -0.15  , -0.32  , 0.01 );
                        kernels[80] = compute_kernel(x,   0.01  , 0.05  , 0.0  , -0.02  , 0.0  , 0.0  , -0.07  , -0.05  , -0.05  , -0.03  , 0.16  , 0.15  , 0.02  , 0.06  , -0.31  , 0.02  , -0.04  , 0.03  , -0.0  , -0.04  , 0.2  , -0.05  , 0.06  , 0.01  , 0.06  , 0.1  , -0.33  , -0.03  , -0.14  , 0.07  , -0.0  , -0.11  , 0.09  , -0.04  , 0.03  , -0.02  , -0.11  , -0.16  , 0.44  , -0.05  , -0.17  , -0.02 );
                        kernels[81] = compute_kernel(x,   -0.01  , -0.01  , 0.01  , -0.01  , -0.0  , -0.01  , -0.08  , -0.2  , 0.03  , 0.01  , 0.11  , 0.01  , 0.01  , 0.01  , -0.3  , -0.0  , -0.12  , 0.07  , 0.0  , 0.08  , 0.27  , 0.01  , 0.08  , -0.2  , 0.0  , -0.09  , -0.0  , -0.05  , -0.18  , 0.06  , -0.1  , -0.01  , -0.02  , -0.08  , -0.1  , 0.02  , -0.08  , -0.13  , -0.02  , -0.07  , -0.12  , -0.02 );
                        kernels[82] = compute_kernel(x,   0.02  , -0.0  , -0.02  , 0.01  , -0.0  , -0.02  , 0.07  , 0.21  , 0.08  , -0.06  , -0.01  , 0.29  , 0.02  , 0.17  , -0.53  , 0.01  , 0.34  , 0.1  , -0.04  , 0.06  , 0.31  , -0.02  , 0.12  , -0.26  , 0.02  , 0.21  , -0.11  , 0.01  , 0.34  , 0.15  , -0.12  , 0.07  , 0.04  , -0.09  , 0.12  , -0.03  , -0.01  , 0.21  , 0.04  , -0.02  , 0.19  , 0.01 );
                        kernels[83] = compute_kernel(x,   0.02  , 0.01  , -0.0  , 0.01  , -0.01  , -0.0  , 0.06  , 0.01  , 0.06  , 0.03  , 0.03  , 0.25  , 0.04  , 0.05  , -0.16  , 0.06  , -0.01  , -0.14  , 0.06  , -0.1  , 0.02  , 0.03  , 0.05  , 0.28  , 0.05  , 0.01  , -0.07  , 0.06  , -0.03  , -0.27  , 0.11  , -0.07  , 0.06  , 0.04  , -0.07  , 0.07  , -0.0  , 0.03  , 0.03  , -0.02  , -0.03  , -0.03 );
                        kernels[84] = compute_kernel(x,   -0.0  , -0.03  , -0.01  , -0.01  , 0.01  , 0.0  , -0.03  , -0.05  , 0.01  , -0.02  , -0.1  , 0.31  , -0.06  , 0.08  , -0.19  , -0.05  , -0.06  , -0.11  , -0.07  , -0.17  , 0.19  , -0.13  , -0.05  , 0.12  , -0.02  , 0.04  , -0.35  , -0.1  , -0.32  , 0.06  , -0.1  , -0.14  , 0.05  , -0.17  , -0.05  , -0.02  , -0.12  , -0.17  , 0.0  , -0.07  , -0.13  , -0.01 );
                        kernels[85] = compute_kernel(x,   0.02  , 0.01  , -0.0  , -0.01  , -0.07  , -0.01  , 0.05  , -0.01  , 0.16  , -0.06  , 0.07  , -0.04  , -0.03  , -0.16  , -0.2  , 0.03  , -0.08  , 0.16  , 0.04  , 0.06  , 0.21  , 0.03  , -0.0  , -0.22  , -0.06  , -0.23  , 0.0  , -0.08  , -0.22  , 0.13  , -0.08  , -0.15  , 0.02  , -0.06  , -0.14  , 0.01  , -0.08  , -0.21  , -0.01  , -0.06  , -0.18  , -0.05 );
                        kernels[86] = compute_kernel(x,   0.07  , 0.1  , 0.01  , 0.07  , 0.11  , 0.02  , 0.05  , 0.29  , 0.09  , 0.02  , -0.01  , 0.12  , 0.16  , 0.21  , -0.4  , 0.09  , 0.3  , 0.15  , 0.11  , 0.18  , 0.31  , 0.13  , 0.1  , -0.19  , 0.16  , 0.21  , -0.14  , 0.13  , 0.3  , 0.13  , 0.04  , 0.1  , 0.07  , 0.02  , 0.06  , 0.03  , 0.03  , 0.1  , 0.04  , 0.06  , 0.11  , 0.01 );
                        kernels[87] = compute_kernel(x,   0.01  , -0.0  , -0.01  , 0.01  , -0.0  , -0.01  , -0.02  , 0.05  , -0.13  , -0.18  , -0.09  , 0.39  , -0.01  , 0.07  , -0.47  , 0.04  , 0.28  , 0.07  , -0.02  , 0.17  , 0.31  , -0.04  , 0.1  , -0.23  , 0.03  , 0.2  , -0.21  , -0.01  , 0.33  , 0.14  , -0.15  , 0.02  , 0.06  , -0.07  , 0.16  , 0.0  , -0.02  , 0.16  , -0.01  , -0.09  , 0.13  , 0.0 );
                        kernels[88] = compute_kernel(x,   -0.03  , -0.13  , 0.07  , -0.05  , -0.14  , 0.05  , 0.03  , -0.02  , 0.1  , -0.06  , -0.2  , 0.04  , 0.02  , -0.11  , -0.33  , 0.1  , 0.16  , 0.24  , 0.02  , -0.14  , 0.3  , -0.02  , -0.18  , -0.24  , 0.1  , 0.0  , 0.0  , 0.02  , -0.01  , 0.2  , 0.0  , -0.11  , 0.06  , -0.04  , -0.19  , 0.03  , -0.05  , -0.13  , 0.01  , -0.04  , -0.15  , 0.02 );
                        kernels[89] = compute_kernel(x,   0.01  , -0.01  , -0.01  , -0.01  , 0.04  , -0.04  , 0.14  , 0.06  , 0.22  , 0.05  , 0.11  , -0.21  , 0.08  , 0.24  , -0.13  , 0.07  , 0.15  , 0.23  , -0.01  , -0.02  , -0.0  , 0.1  , 0.14  , -0.26  , 0.12  , 0.29  , 0.05  , -0.04  , 0.21  , 0.18  , -0.02  , 0.08  , -0.03  , 0.0  , 0.17  , 0.02  , 0.01  , 0.19  , 0.04  , 0.0  , 0.14  , 0.03 );
                        kernels[90] = compute_kernel(x,   0.03  , -0.02  , 0.05  , 0.03  , 0.05  , 0.06  , 0.09  , 0.1  , 0.18  , -0.01  , -0.01  , -0.11  , 0.1  , 0.08  , -0.14  , 0.11  , 0.3  , 0.22  , 0.04  , 0.03  , 0.24  , 0.04  , 0.01  , -0.26  , 0.11  , 0.17  , 0.08  , 0.05  , 0.18  , 0.19  , 0.0  , 0.04  , 0.07  , 0.07  , 0.1  , 0.04  , 0.02  , 0.06  , 0.07  , 0.04  , 0.06  , 0.07 );
                        kernels[91] = compute_kernel(x,   0.01  , 0.01  , -0.0  , -0.01  , -0.01  , -0.0  , 0.17  , 0.09  , 0.05  , -0.03  , 0.29  , 0.28  , -0.02  , 0.14  , -0.47  , -0.05  , -0.15  , 0.11  , 0.01  , 0.12  , 0.4  , -0.05  , 0.02  , -0.3  , -0.05  , -0.13  , -0.11  , -0.04  , -0.19  , 0.06  , -0.11  , -0.09  , 0.03  , -0.1  , -0.23  , -0.11  , -0.06  , -0.18  , -0.03  , -0.03  , -0.18  , -0.03 );
                        decisions[0] = -0.450160385951
                        + kernels[1]
                        + kernels[2]
                        + kernels[3] * 0.323400189635
                        + kernels[4]
                        + kernels[5] * 0.026843952082
                        + kernels[6]
                        + kernels[9]
                        + kernels[10]
                        + kernels[11]
                        + kernels[12]
                        + kernels[13]
                        + kernels[14] * 0.444814497083
                        + kernels[15]
                        + kernels[16]
                        + kernels[17]
                        + kernels[18]
                        + kernels[21] * 0.852483700037
                        + kernels[22] * 0.924907292331
                        + kernels[23] * -0.409548504684
                        - kernels[24]
                        + kernels[29] * -0.670550251643
                        + kernels[30] * -0.363191239716
                        - kernels[31]
                        + kernels[32] * -0.955103266463
                        - kernels[33]
                        + kernels[35] * -0.863766639663
                        - kernels[36]
                        - kernels[37]
                        - kernels[39]
                        - kernels[40]
                        - kernels[41]
                        - kernels[42]
                        - kernels[43]
                        + kernels[44] * -0.310289729002
                        - kernels[45]
                        - kernels[46]
                        ;
                        decisions[1] = -0.599832101028
                        + kernels[0]
                        + kernels[1]
                        + kernels[2]
                        + kernels[3]
                        + kernels[4]
                        + kernels[5] * 0.419755315123
                        + kernels[7]
                        + kernels[8]
                        + kernels[9]
                        + kernels[10]
                        + kernels[11]
                        + kernels[12]
                        + kernels[13]
                        + kernels[15]
                        + kernels[16] * 0.512781332468
                        + kernels[17]
                        + kernels[18]
                        + kernels[19] * 0.896521053558
                        + kernels[20] * 0.413776465519
                        + kernels[21]
                        - kernels[47]
                        + kernels[48] * -0.771132591306
                        - kernels[49]
                        + kernels[50] * -0.920057134645
                        + kernels[51] * -0.894947307967
                        - kernels[52]
                        - kernels[53]
                        + kernels[54] * -0.977804027226
                        - kernels[55]
                        + kernels[56] * -0.283246219596
                        + kernels[57] * -0.937845353162
                        - kernels[59]
                        + kernels[60] * -0.563408804404
                        + kernels[62] * -0.834573927116
                        + kernels[63] * -0.168236732289
                        - kernels[64]
                        + kernels[65] * -0.400188451259
                        - kernels[66]
                        + kernels[67] * -0.491393617697
                        - kernels[68]
                        - kernels[69]
                        - kernels[70]
                        ;
                        decisions[2] = 0.034208838859
                        + kernels[1] * 0.44144236934
                        + kernels[4] * 0.64957356357
                        + kernels[9]
                        + kernels[10] * 0.649584406355
                        + kernels[11]
                        + kernels[12]
                        + kernels[14] * 0.560462294017
                        + kernels[15]
                        + kernels[16] * 0.61254675542
                        + kernels[17]
                        + kernels[18]
                        + kernels[19]
                        + kernels[21] * 0.834967743015
                        - kernels[72]
                        - kernels[73]
                        + kernels[74] * -0.222028898837
                        - kernels[75]
                        + kernels[76] * -0.709537970433
                        + kernels[77] * -0.500695748233
                        + kernels[78] * -0.582298686317
                        + kernels[79] * -0.697038713807
                        + kernels[80] * -0.013536341628
                        + kernels[81] * -0.109306645422
                        - kernels[82]
                        - kernels[83]
                        - kernels[84]
                        + kernels[86] * -0.503719592324
                        + kernels[87] * -0.238678153237
                        + kernels[88] * -0.38468494883
                        + kernels[89] * -0.049814828662
                        + kernels[90] * -0.737236603986
                        ;
                        decisions[3] = -0.07957955332
                        + kernels[23]
                        + kernels[24]
                        + kernels[25]
                        + kernels[26] * 0.320738875459
                        + kernels[28] * 0.518441933612
                        + kernels[29]
                        + kernels[30]
                        + kernels[31]
                        + kernels[32] * 0.861913761044
                        + kernels[33]
                        + kernels[35]
                        + kernels[36]
                        + kernels[37]
                        + kernels[39]
                        + kernels[40]
                        + kernels[41]
                        + kernels[42] * 0.618514239435
                        + kernels[43]
                        + kernels[44]
                        + kernels[45]
                        + kernels[46]
                        - kernels[47]
                        - kernels[48]
                        - kernels[49]
                        + kernels[50] * -0.292171825765
                        - kernels[51]
                        + kernels[52] * -0.893999694899
                        - kernels[53]
                        - kernels[54]
                        + kernels[55] * -0.860843522132
                        + kernels[56] * -0.312684892923
                        - kernels[57]
                        - kernels[58]
                        - kernels[59]
                        + kernels[60] * -0.726432134752
                        - kernels[61]
                        - kernels[62]
                        + kernels[63] * -0.644078022944
                        + kernels[64] * -0.050854678357
                        + kernels[65] * -0.920729737655
                        + kernels[66] * -0.675078545813
                        + kernels[67] * -0.942735754311
                        - kernels[68]
                        - kernels[70]
                        ;
                        decisions[4] = 0.148746662748
                        + kernels[24] * 0.319495827514
                        + kernels[25] * 0.775790999091
                        + kernels[26]
                        + kernels[27]
                        + kernels[29] * 0.719136163568
                        + kernels[32] * 0.587201075984
                        + kernels[33]
                        + kernels[34]
                        + kernels[35]
                        + kernels[37] * 0.52855560819
                        + kernels[38]
                        + kernels[39]
                        + kernels[40] * 0.849451472335
                        + kernels[41]
                        + kernels[42]
                        + kernels[44]
                        + kernels[45]
                        + kernels[46] * 0.63709065911
                        + kernels[71] * -0.985588224467
                        - kernels[72]
                        - kernels[73]
                        + kernels[74] * -0.803033020131
                        + kernels[75] * -0.464084109388
                        - kernels[76]
                        + kernels[77] * -0.683370943484
                        - kernels[79]
                        + kernels[80] * -0.470311439475
                        - kernels[81]
                        - kernels[82]
                        - kernels[83]
                        - kernels[84]
                        - kernels[85]
                        + kernels[86] * -0.654580122303
                        + kernels[88] * -0.647737979239
                        + kernels[89] * -0.9429568815
                        + kernels[91] * -0.765059085803
                        ;
                        decisions[5] = 0.228647310063
                        + kernels[47] * 0.106866532734
                        + kernels[48] * 0.690278320621
                        + kernels[49] * 0.096197181369
                        + kernels[51]
                        + kernels[52]
                        + kernels[53]
                        + kernels[54]
                        + kernels[55]
                        + kernels[56]
                        + kernels[57] * 0.572832525132
                        + kernels[58]
                        + kernels[60] * 0.989738072205
                        + kernels[61] * 0.640058486365
                        + kernels[62]
                        + kernels[64] * 0.04201090805
                        + kernels[65] * 0.771219968899
                        + kernels[66] * 0.125211033151
                        + kernels[67] * 0.572723692997
                        + kernels[72] * -0.759598329475
                        - kernels[73]
                        + kernels[74] * -0.53146261986
                        + kernels[75] * -0.912792636318
                        + kernels[76] * -0.831306368702
                        + kernels[77] * -0.929183212136
                        + kernels[79] * -0.805294200192
                        + kernels[80] * -0.81619180915
                        - kernels[81]
                        + kernels[82] * -0.16649672392
                        - kernels[83]
                        - kernels[84]
                        + kernels[85] * -0.626584606183
                        + kernels[86] * -0.04265828617
                        + kernels[87] * -0.40702791266
                        + kernels[89] * -0.980268485871
                        + kernels[90] * -0.663889653051
                        + kernels[91] * -0.134381877833
                        ;
                        votes[decisions[0] > 0 ? 0 : 1] += 1;
                        votes[decisions[1] > 0 ? 0 : 2] += 1;
                        votes[decisions[2] > 0 ? 0 : 3] += 1;
                        votes[decisions[3] > 0 ? 1 : 2] += 1;
                        votes[decisions[4] > 0 ? 1 : 3] += 1;
                        votes[decisions[5] > 0 ? 2 : 3] += 1;
                        int val = votes[0];
                        int idx = 0;

                        for (int i = 1; i < 4; i++) {
                            if (votes[i] > val) {
                                val = votes[i];
                                idx = i;
                            }
                        }

                        return idx;
                    }

                protected:
                    /**
                    * Compute kernel between feature vector and support vector.
                    * Kernel type: rbf
                    */
                    float compute_kernel(float *x, ...) {
                        va_list w;
                        va_start(w, 42);
                        float kernel = 0.0;

                        for (uint16_t i = 0; i < 42; i++) {
                            kernel += pow(x[i] - va_arg(w, double), 2);
                        }

                        return exp(-0.9999 * kernel);
                    }
                };
            }
        }
    }