#pragma once
#include <cstdarg>
namespace Eloquent {
    namespace ML {
        namespace Port {
            class SVM {
                public:
                    /**
                    * Predict class for features vector
                    */
                    int predict(float *x) {
                        float kernels[96] = { 0 };
                        float decisions[1] = { 0 };
                        int votes[2] = { 0 };
                        kernels[0] = compute_kernel(x,   -0.04  , 0.04  , 0.98  , -0.04  , 0.01  , 0.98  , -0.05  , 0.04  , 0.98  , -0.03  , 0.02  , 0.98  , -0.05  , 0.02  , 0.98  , -0.03  , 0.03  , 0.99  , -0.04  , 0.01  , 0.98  , -0.05  , 0.04  , 0.98  , -0.03  , 0.01  , 0.98  , -0.05  , 0.03  , 0.98  , -0.03  , 0.03  , 0.98  , -0.05  , 0.02  , 0.98  , -0.04  , 0.04  , 0.98  , -0.04  , 0.01  , 0.98  , -0.05  , 0.04  , 0.98  , -0.03  , 0.03  , 0.98  , -0.05  , 0.02  , 0.98  , -0.04  , 0.04  , 0.98  , -0.04  , 0.01  , 0.98  , -0.05  , 0.04  , 0.98 );
                        kernels[1] = compute_kernel(x,   -0.03  , 0.02  , 0.98  , -0.05  , 0.03  , 0.98  , -0.03  , 0.0  , 0.98  , -0.05  , 0.02  , 0.98  , -0.03  , 0.04  , 0.99  , -0.05  , 0.02  , 0.98  , -0.04  , 0.04  , 0.98  , -0.04  , 0.01  , 0.98  , -0.04  , 0.04  , 0.99  , -0.04  , 0.01  , 0.98  , -0.05  , 0.04  , 0.98  , -0.04  , 0.01  , 0.98  , -0.05  , 0.04  , 0.98  , -0.04  , 0.01  , 0.98  , -0.05  , 0.04  , 0.98  , -0.03  , 0.02  , 0.98  , -0.05  , 0.04  , 0.98  , -0.03  , 0.02  , 0.98  , -0.05  , 0.03  , 0.98  , -0.03  , 0.02  , 0.98 );
                        kernels[2] = compute_kernel(x,   -0.04  , 0.04  , 0.98  , -0.04  , 0.01  , 0.98  , -0.04  , 0.04  , 0.98  , -0.04  , 0.01  , 0.98  , -0.04  , 0.04  , 0.98  , -0.04  , 0.01  , 0.98  , -0.05  , 0.03  , 0.98  , -0.03  , 0.02  , 0.98  , -0.05  , 0.02  , 0.98  , -0.04  , 0.04  , 0.99  , -0.04  , 0.01  , 0.98  , -0.05  , 0.04  , 0.98  , -0.03  , 0.02  , 0.98  , -0.05  , 0.03  , 0.98  , -0.03  , 0.03  , 0.98  , -0.05  , 0.02  , 0.98  , -0.04  , 0.04  , 0.98  , -0.04  , 0.01  , 0.98  , -0.05  , 0.04  , 0.98  , -0.03  , 0.02  , 0.98 );
                        kernels[3] = compute_kernel(x,   -0.04  , 0.04  , 0.98  , -0.04  , 0.01  , 0.98  , -0.05  , 0.04  , 0.98  , -0.03  , 0.02  , 0.98  , -0.05  , 0.02  , 0.98  , -0.03  , 0.03  , 0.98  , -0.04  , 0.01  , 0.98  , -0.05  , 0.04  , 0.98  , -0.03  , 0.02  , 0.98  , -0.04  , 0.03  , 0.99  , -0.03  , 0.03  , 0.99  , -0.04  , 0.01  , 0.98  , -0.04  , 0.04  , 0.98  , -0.04  , 0.01  , 0.99  , -0.05  , 0.03  , 0.98  , -0.03  , 0.03  , 0.98  , -0.05  , 0.02  , 0.98  , -0.04  , 0.04  , 0.98  , -0.04  , 0.01  , 0.98  , -0.05  , 0.04  , 0.98 );
                        kernels[4] = compute_kernel(x,   -0.05  , 0.02  , 0.98  , -0.03  , 0.04  , 0.99  , -0.05  , 0.02  , 0.98  , -0.04  , 0.04  , 0.98  , -0.04  , 0.01  , 0.98  , -0.04  , 0.04  , 0.99  , -0.04  , 0.01  , 0.98  , -0.05  , 0.04  , 0.98  , -0.04  , 0.01  , 0.98  , -0.05  , 0.04  , 0.98  , -0.04  , 0.01  , 0.98  , -0.05  , 0.04  , 0.98  , -0.03  , 0.02  , 0.98  , -0.05  , 0.04  , 0.98  , -0.03  , 0.02  , 0.98  , -0.05  , 0.03  , 0.98  , -0.03  , 0.02  , 0.98  , -0.05  , 0.02  , 0.98  , -0.03  , 0.03  , 0.98  , -0.05  , 0.02  , 0.98 );
                        kernels[5] = compute_kernel(x,   -0.04  , 0.01  , 0.98  , -0.05  , 0.04  , 0.98  , -0.04  , 0.01  , 0.98  , -0.05  , 0.04  , 0.98  , -0.04  , 0.01  , 0.98  , -0.05  , 0.04  , 0.98  , -0.03  , 0.02  , 0.98  , -0.05  , 0.04  , 0.98  , -0.03  , 0.02  , 0.98  , -0.05  , 0.03  , 0.98  , -0.03  , 0.02  , 0.98  , -0.05  , 0.02  , 0.98  , -0.03  , 0.03  , 0.98  , -0.05  , 0.02  , 0.98  , -0.04  , 0.04  , 0.98  , -0.04  , 0.02  , 0.98  , -0.04  , 0.04  , 0.98  , -0.04  , 0.01  , 0.98  , -0.04  , 0.04  , 0.98  , -0.04  , 0.01  , 0.98 );
                        kernels[6] = compute_kernel(x,   -0.04  , 0.04  , 0.98  , -0.04  , 0.01  , 0.98  , -0.05  , 0.04  , 0.98  , -0.03  , 0.02  , 0.98  , -0.05  , 0.03  , 0.98  , -0.03  , 0.03  , 0.98  , -0.05  , 0.02  , 0.98  , -0.04  , 0.04  , 0.98  , -0.04  , 0.01  , 0.98  , -0.04  , 0.04  , 0.98  , -0.03  , 0.01  , 0.98  , -0.05  , 0.03  , 0.98  , -0.03  , 0.02  , 0.98  , -0.05  , 0.03  , 0.98  , -0.03  , 0.0  , 0.98  , -0.05  , 0.02  , 0.98  , -0.03  , 0.04  , 0.99  , -0.05  , 0.02  , 0.98  , -0.04  , 0.04  , 0.98  , -0.04  , 0.01  , 0.98 );
                        kernels[7] = compute_kernel(x,   -0.04  , 0.01  , 0.98  , -0.04  , 0.04  , 0.98  , -0.04  , 0.01  , 0.98  , -0.05  , 0.04  , 0.98  , -0.03  , 0.02  , 0.98  , -0.05  , 0.02  , 0.98  , -0.03  , 0.03  , 0.99  , -0.04  , 0.01  , 0.98  , -0.05  , 0.04  , 0.98  , -0.03  , 0.01  , 0.98  , -0.05  , 0.03  , 0.98  , -0.03  , 0.03  , 0.98  , -0.05  , 0.02  , 0.98  , -0.04  , 0.04  , 0.98  , -0.04  , 0.01  , 0.98  , -0.05  , 0.04  , 0.98  , -0.03  , 0.03  , 0.98  , -0.05  , 0.02  , 0.98  , -0.04  , 0.04  , 0.98  , -0.04  , 0.01  , 0.98 );
                        kernels[8] = compute_kernel(x,   -0.05  , 0.02  , 0.98  , -0.04  , 0.04  , 0.98  , -0.04  , 0.01  , 0.98  , -0.04  , 0.04  , 0.99  , -0.04  , 0.01  , 0.98  , -0.05  , 0.04  , 0.98  , -0.04  , 0.01  , 0.98  , -0.05  , 0.04  , 0.98  , -0.04  , 0.01  , 0.98  , -0.05  , 0.04  , 0.98  , -0.03  , 0.02  , 0.98  , -0.05  , 0.04  , 0.98  , -0.03  , 0.02  , 0.98  , -0.05  , 0.03  , 0.98  , -0.03  , 0.02  , 0.98  , -0.05  , 0.02  , 0.98  , -0.03  , 0.03  , 0.98  , -0.05  , 0.02  , 0.98  , -0.04  , 0.04  , 0.98  , -0.04  , 0.02  , 0.98 );
                        kernels[9] = compute_kernel(x,   -0.05  , 0.04  , 0.98  , -0.03  , 0.02  , 0.98  , -0.05  , 0.03  , 0.98  , -0.03  , 0.03  , 0.98  , -0.05  , 0.02  , 0.98  , -0.04  , 0.04  , 0.98  , -0.04  , 0.01  , 0.98  , -0.05  , 0.04  , 0.98  , -0.03  , 0.02  , 0.98  , -0.05  , 0.02  , 0.98  , -0.03  , 0.03  , 0.98  , -0.04  , 0.01  , 0.98  , -0.05  , 0.04  , 0.98  , -0.03  , 0.02  , 0.98  , -0.04  , 0.03  , 0.99  , -0.03  , 0.03  , 0.99  , -0.04  , 0.01  , 0.98  , -0.04  , 0.04  , 0.98  , -0.04  , 0.01  , 0.99  , -0.05  , 0.03  , 0.98 );
                        kernels[10] = compute_kernel(x,   -0.04  , 0.01  , 0.98  , -0.05  , 0.04  , 0.98  , -0.04  , 0.01  , 0.98  , -0.05  , 0.04  , 0.98  , -0.03  , 0.02  , 0.98  , -0.05  , 0.04  , 0.98  , -0.03  , 0.02  , 0.98  , -0.05  , 0.03  , 0.98  , -0.03  , 0.02  , 0.98  , -0.05  , 0.02  , 0.98  , -0.03  , 0.03  , 0.98  , -0.05  , 0.02  , 0.98  , -0.04  , 0.04  , 0.98  , -0.04  , 0.02  , 0.98  , -0.04  , 0.04  , 0.98  , -0.04  , 0.01  , 0.98  , -0.04  , 0.04  , 0.98  , -0.04  , 0.01  , 0.98  , -0.05  , 0.04  , 0.98  , -0.03  , 0.01  , 0.98 );
                        kernels[11] = compute_kernel(x,   -0.05  , 0.03  , 0.98  , -0.03  , 0.0  , 0.98  , -0.05  , 0.02  , 0.98  , -0.03  , 0.04  , 0.99  , -0.05  , 0.02  , 0.98  , -0.04  , 0.04  , 0.98  , -0.04  , 0.01  , 0.98  , -0.04  , 0.04  , 0.99  , -0.04  , 0.01  , 0.98  , -0.05  , 0.04  , 0.98  , -0.04  , 0.01  , 0.98  , -0.05  , 0.04  , 0.98  , -0.04  , 0.01  , 0.98  , -0.05  , 0.04  , 0.98  , -0.03  , 0.02  , 0.98  , -0.05  , 0.04  , 0.98  , -0.03  , 0.02  , 0.98  , -0.05  , 0.03  , 0.98  , -0.03  , 0.02  , 0.98  , -0.05  , 0.02  , 0.98 );
                        kernels[12] = compute_kernel(x,   -0.04  , 0.01  , 0.98  , -0.05  , 0.03  , 0.98  , -0.03  , 0.02  , 0.98  , -0.05  , 0.02  , 0.98  , -0.04  , 0.04  , 0.99  , -0.04  , 0.01  , 0.98  , -0.05  , 0.04  , 0.98  , -0.03  , 0.02  , 0.98  , -0.05  , 0.03  , 0.98  , -0.03  , 0.03  , 0.98  , -0.05  , 0.02  , 0.98  , -0.04  , 0.04  , 0.98  , -0.04  , 0.01  , 0.98  , -0.05  , 0.04  , 0.98  , -0.03  , 0.02  , 0.98  , -0.05  , 0.02  , 0.98  , -0.03  , 0.03  , 0.98  , -0.04  , 0.01  , 0.98  , -0.05  , 0.04  , 0.98  , -0.03  , 0.02  , 0.98 );
                        kernels[13] = compute_kernel(x,   -0.03  , 0.01  , 0.98  , -0.05  , 0.04  , 0.98  , -0.03  , 0.02  , 0.98  , -0.05  , 0.03  , 0.98  , -0.04  , 0.04  , 0.98  , -0.04  , 0.01  , 0.98  , -0.05  , 0.04  , 0.98  , -0.03  , 0.02  , 0.98  , -0.05  , 0.03  , 0.98  , -0.03  , 0.03  , 0.98  , -0.05  , 0.02  , 0.98  , -0.04  , 0.04  , 0.98  , -0.04  , 0.01  , 0.98  , -0.04  , 0.04  , 0.98  , -0.03  , 0.01  , 0.98  , -0.05  , 0.03  , 0.98  , -0.03  , 0.02  , 0.98  , -0.05  , 0.03  , 0.98  , -0.03  , 0.0  , 0.98  , -0.05  , 0.02  , 0.98 );
                        kernels[14] = compute_kernel(x,   -0.04  , 0.04  , 0.99  , -0.03  , 0.01  , 0.98  , -0.05  , 0.03  , 0.98  , -0.03  , 0.02  , 0.98  , -0.05  , 0.03  , 0.98  , -0.03  , 0.03  , 0.98  , -0.05  , 0.02  , 0.98  , -0.04  , 0.04  , 0.98  , -0.04  , 0.01  , 0.98  , -0.04  , 0.04  , 0.98  , -0.03  , 0.01  , 0.98  , -0.05  , 0.04  , 0.98  , -0.03  , 0.02  , 0.98  , -0.05  , 0.02  , 0.98  , -0.03  , 0.03  , 0.98  , -0.04  , 0.01  , 0.98  , -0.05  , 0.04  , 0.99  , -0.04  , 0.01  , 0.98  , -0.05  , 0.04  , 0.98  , -0.03  , 0.02  , 0.98 );
                        kernels[15] = compute_kernel(x,   -0.04  , 0.01  , 0.98  , -0.04  , 0.04  , 0.98  , -0.03  , 0.01  , 0.98  , -0.05  , 0.03  , 0.98  , -0.03  , 0.02  , 0.98  , -0.05  , 0.03  , 0.98  , -0.03  , 0.03  , 0.98  , -0.05  , 0.02  , 0.98  , -0.03  , 0.04  , 0.98  , -0.05  , 0.02  , 0.98  , -0.04  , 0.04  , 0.98  , -0.04  , 0.01  , 0.98  , -0.04  , 0.04  , 0.98  , -0.04  , 0.01  , 0.98  , -0.04  , 0.04  , 0.98  , -0.04  , 0.01  , 0.98  , -0.05  , 0.03  , 0.98  , -0.03  , 0.02  , 0.98  , -0.05  , 0.02  , 0.98  , -0.04  , 0.04  , 0.99 );
                        kernels[16] = compute_kernel(x,   -0.03  , 0.02  , 0.98  , -0.05  , 0.03  , 0.98  , -0.04  , 0.04  , 0.98  , -0.04  , 0.01  , 0.98  , -0.05  , 0.04  , 0.98  , -0.03  , 0.02  , 0.98  , -0.05  , 0.03  , 0.98  , -0.03  , 0.03  , 0.98  , -0.05  , 0.02  , 0.98  , -0.04  , 0.04  , 0.98  , -0.04  , 0.01  , 0.98  , -0.04  , 0.04  , 0.98  , -0.03  , 0.01  , 0.98  , -0.05  , 0.03  , 0.98  , -0.03  , 0.02  , 0.98  , -0.05  , 0.03  , 0.98  , -0.03  , 0.0  , 0.98  , -0.05  , 0.02  , 0.98  , -0.03  , 0.04  , 0.99  , -0.05  , 0.02  , 0.98 );
                        kernels[17] = compute_kernel(x,   -0.03  , 0.03  , 0.98  , -0.05  , 0.02  , 0.98  , -0.03  , 0.04  , 0.98  , -0.05  , 0.02  , 0.98  , -0.04  , 0.04  , 0.98  , -0.04  , 0.01  , 0.98  , -0.04  , 0.04  , 0.98  , -0.04  , 0.01  , 0.98  , -0.04  , 0.04  , 0.98  , -0.04  , 0.01  , 0.98  , -0.05  , 0.03  , 0.98  , -0.03  , 0.02  , 0.98  , -0.05  , 0.02  , 0.98  , -0.04  , 0.04  , 0.99  , -0.04  , 0.01  , 0.98  , -0.05  , 0.04  , 0.98  , -0.03  , 0.02  , 0.98  , -0.05  , 0.03  , 0.98  , -0.03  , 0.03  , 0.98  , -0.05  , 0.02  , 0.98 );
                        kernels[18] = compute_kernel(x,   -0.05  , 0.03  , 0.98  , -0.03  , 0.02  , 0.98  , -0.05  , 0.02  , 0.98  , -0.04  , 0.04  , 0.99  , -0.04  , 0.01  , 0.98  , -0.05  , 0.04  , 0.98  , -0.03  , 0.02  , 0.98  , -0.05  , 0.03  , 0.98  , -0.03  , 0.03  , 0.98  , -0.05  , 0.02  , 0.98  , -0.04  , 0.04  , 0.98  , -0.04  , 0.01  , 0.98  , -0.05  , 0.04  , 0.98  , -0.03  , 0.02  , 0.98  , -0.05  , 0.02  , 0.98  , -0.03  , 0.03  , 0.98  , -0.04  , 0.01  , 0.98  , -0.05  , 0.04  , 0.98  , -0.03  , 0.02  , 0.98  , -0.04  , 0.03  , 0.99 );
                        kernels[19] = compute_kernel(x,   -0.04  , 0.01  , 0.98  , -0.04  , 0.04  , 0.98  , -0.04  , 0.01  , 0.98  , -0.04  , 0.04  , 0.98  , -0.04  , 0.01  , 0.98  , -0.05  , 0.03  , 0.98  , -0.03  , 0.02  , 0.98  , -0.05  , 0.02  , 0.98  , -0.04  , 0.04  , 0.99  , -0.04  , 0.01  , 0.98  , -0.05  , 0.04  , 0.98  , -0.03  , 0.02  , 0.98  , -0.05  , 0.03  , 0.98  , -0.03  , 0.03  , 0.98  , -0.05  , 0.02  , 0.98  , -0.04  , 0.04  , 0.98  , -0.04  , 0.01  , 0.98  , -0.05  , 0.04  , 0.98  , -0.03  , 0.02  , 0.98  , -0.05  , 0.02  , 0.98 );
                        kernels[20] = compute_kernel(x,   -0.05  , 0.02  , 0.98  , -0.04  , 0.04  , 0.98  , -0.04  , 0.01  , 0.98  , -0.05  , 0.04  , 0.98  , -0.03  , 0.02  , 0.98  , -0.05  , 0.02  , 0.98  , -0.03  , 0.03  , 0.98  , -0.04  , 0.01  , 0.98  , -0.05  , 0.04  , 0.98  , -0.03  , 0.02  , 0.98  , -0.04  , 0.03  , 0.99  , -0.03  , 0.03  , 0.99  , -0.04  , 0.01  , 0.98  , -0.04  , 0.04  , 0.98  , -0.04  , 0.01  , 0.99  , -0.05  , 0.03  , 0.98  , -0.03  , 0.03  , 0.98  , -0.05  , 0.02  , 0.98  , -0.04  , 0.04  , 0.98  , -0.04  , 0.01  , 0.98 );
                        kernels[21] = compute_kernel(x,   -0.05  , 0.02  , 0.98  , -0.04  , 0.04  , 0.98  , -0.04  , 0.01  , 0.98  , -0.04  , 0.04  , 0.98  , -0.04  , 0.01  , 0.98  , -0.04  , 0.04  , 0.98  , -0.04  , 0.01  , 0.98  , -0.05  , 0.03  , 0.98  , -0.03  , 0.02  , 0.98  , -0.05  , 0.02  , 0.98  , -0.04  , 0.04  , 0.99  , -0.04  , 0.01  , 0.98  , -0.05  , 0.04  , 0.98  , -0.03  , 0.02  , 0.98  , -0.05  , 0.03  , 0.98  , -0.03  , 0.03  , 0.98  , -0.05  , 0.02  , 0.98  , -0.04  , 0.04  , 0.98  , -0.04  , 0.01  , 0.98  , -0.05  , 0.04  , 0.98 );
                        kernels[22] = compute_kernel(x,   -0.04  , 0.01  , 0.98  , -0.04  , 0.04  , 0.98  , -0.04  , 0.01  , 0.98  , -0.05  , 0.03  , 0.98  , -0.03  , 0.02  , 0.98  , -0.05  , 0.02  , 0.98  , -0.04  , 0.04  , 0.99  , -0.04  , 0.01  , 0.98  , -0.05  , 0.04  , 0.98  , -0.03  , 0.02  , 0.98  , -0.05  , 0.03  , 0.98  , -0.03  , 0.03  , 0.98  , -0.05  , 0.02  , 0.98  , -0.04  , 0.04  , 0.98  , -0.04  , 0.01  , 0.98  , -0.05  , 0.04  , 0.98  , -0.03  , 0.02  , 0.98  , -0.05  , 0.02  , 0.98  , -0.03  , 0.03  , 0.98  , -0.04  , 0.01  , 0.98 );
                        kernels[23] = compute_kernel(x,   -0.04  , 0.01  , 0.98  , -0.05  , 0.04  , 0.98  , -0.03  , 0.02  , 0.98  , -0.05  , 0.02  , 0.98  , -0.03  , 0.03  , 0.99  , -0.04  , 0.01  , 0.98  , -0.05  , 0.04  , 0.98  , -0.03  , 0.01  , 0.98  , -0.05  , 0.03  , 0.98  , -0.03  , 0.03  , 0.98  , -0.05  , 0.02  , 0.98  , -0.04  , 0.04  , 0.98  , -0.04  , 0.01  , 0.98  , -0.05  , 0.04  , 0.98  , -0.03  , 0.03  , 0.98  , -0.05  , 0.02  , 0.98  , -0.04  , 0.04  , 0.98  , -0.04  , 0.01  , 0.98  , -0.05  , 0.04  , 0.98  , -0.03  , 0.02  , 0.98 );
                        kernels[24] = compute_kernel(x,   -0.05  , 0.02  , 0.98  , -0.03  , 0.04  , 0.98  , -0.05  , 0.02  , 0.98  , -0.04  , 0.04  , 0.98  , -0.04  , 0.01  , 0.98  , -0.04  , 0.04  , 0.98  , -0.04  , 0.01  , 0.98  , -0.04  , 0.04  , 0.98  , -0.04  , 0.01  , 0.98  , -0.05  , 0.03  , 0.98  , -0.03  , 0.02  , 0.98  , -0.05  , 0.02  , 0.98  , -0.04  , 0.04  , 0.99  , -0.04  , 0.01  , 0.98  , -0.05  , 0.04  , 0.98  , -0.03  , 0.02  , 0.98  , -0.05  , 0.03  , 0.98  , -0.03  , 0.03  , 0.98  , -0.05  , 0.02  , 0.98  , -0.04  , 0.04  , 0.98 );
                        kernels[25] = compute_kernel(x,   -0.04  , 0.01  , 0.98  , -0.05  , 0.04  , 0.98  , -0.03  , 0.02  , 0.98  , -0.05  , 0.02  , 0.98  , -0.03  , 0.03  , 0.98  , -0.04  , 0.01  , 0.98  , -0.05  , 0.04  , 0.98  , -0.03  , 0.02  , 0.98  , -0.04  , 0.03  , 0.99  , -0.03  , 0.03  , 0.99  , -0.04  , 0.01  , 0.98  , -0.04  , 0.04  , 0.98  , -0.04  , 0.01  , 0.99  , -0.05  , 0.03  , 0.98  , -0.03  , 0.03  , 0.98  , -0.05  , 0.02  , 0.98  , -0.04  , 0.04  , 0.98  , -0.04  , 0.01  , 0.98  , -0.05  , 0.04  , 0.98  , -0.03  , 0.02  , 0.98 );
                        kernels[26] = compute_kernel(x,   -0.05  , 0.02  , 0.98  , -0.03  , 0.03  , 0.98  , -0.04  , 0.01  , 0.98  , -0.05  , 0.04  , 0.98  , -0.03  , 0.02  , 0.98  , -0.04  , 0.03  , 0.99  , -0.03  , 0.03  , 0.99  , -0.04  , 0.01  , 0.98  , -0.04  , 0.04  , 0.98  , -0.04  , 0.01  , 0.99  , -0.05  , 0.03  , 0.98  , -0.03  , 0.03  , 0.98  , -0.05  , 0.02  , 0.98  , -0.04  , 0.04  , 0.98  , -0.04  , 0.01  , 0.98  , -0.05  , 0.04  , 0.98  , -0.03  , 0.02  , 0.98  , -0.05  , 0.03  , 0.98  , -0.03  , 0.03  , 0.98  , -0.05  , 0.02  , 0.98 );
                        kernels[27] = compute_kernel(x,   -0.03  , 0.01  , 0.98  , -0.05  , 0.03  , 0.98  , -0.03  , 0.02  , 0.98  , -0.05  , 0.03  , 0.98  , -0.03  , 0.03  , 0.98  , -0.05  , 0.02  , 0.98  , -0.04  , 0.04  , 0.98  , -0.04  , 0.01  , 0.98  , -0.04  , 0.04  , 0.98  , -0.03  , 0.01  , 0.98  , -0.05  , 0.04  , 0.98  , -0.03  , 0.02  , 0.98  , -0.05  , 0.02  , 0.98  , -0.03  , 0.03  , 0.98  , -0.04  , 0.01  , 0.98  , -0.05  , 0.04  , 0.99  , -0.04  , 0.01  , 0.98  , -0.05  , 0.04  , 0.98  , -0.03  , 0.02  , 0.98  , -0.05  , 0.03  , 0.98 );
                        kernels[28] = compute_kernel(x,   -0.04  , 0.01  , 0.98  , -0.05  , 0.04  , 0.98  , -0.03  , 0.02  , 0.98  , -0.05  , 0.03  , 0.98  , -0.03  , 0.03  , 0.98  , -0.05  , 0.02  , 0.98  , -0.04  , 0.04  , 0.98  , -0.04  , 0.01  , 0.98  , -0.05  , 0.04  , 0.98  , -0.03  , 0.02  , 0.98  , -0.05  , 0.02  , 0.98  , -0.03  , 0.03  , 0.98  , -0.04  , 0.01  , 0.98  , -0.05  , 0.04  , 0.98  , -0.03  , 0.02  , 0.98  , -0.04  , 0.03  , 0.99  , -0.03  , 0.03  , 0.99  , -0.04  , 0.01  , 0.98  , -0.04  , 0.04  , 0.98  , -0.04  , 0.01  , 0.99 );
                        kernels[29] = compute_kernel(x,   -0.03  , 0.02  , 0.98  , -0.05  , 0.03  , 0.98  , -0.03  , 0.03  , 0.98  , -0.05  , 0.02  , 0.98  , -0.04  , 0.04  , 0.98  , -0.04  , 0.01  , 0.98  , -0.04  , 0.04  , 0.98  , -0.03  , 0.01  , 0.98  , -0.05  , 0.04  , 0.98  , -0.03  , 0.02  , 0.98  , -0.05  , 0.02  , 0.98  , -0.03  , 0.03  , 0.98  , -0.04  , 0.01  , 0.98  , -0.05  , 0.04  , 0.99  , -0.04  , 0.01  , 0.98  , -0.05  , 0.04  , 0.98  , -0.03  , 0.02  , 0.98  , -0.05  , 0.03  , 0.98  , -0.03  , 0.03  , 0.98  , -0.05  , 0.02  , 0.98 );
                        kernels[30] = compute_kernel(x,   -0.03  , 0.03  , 0.98  , -0.05  , 0.02  , 0.98  , -0.04  , 0.04  , 0.98  , -0.04  , 0.01  , 0.98  , -0.04  , 0.04  , 0.98  , -0.03  , 0.01  , 0.98  , -0.05  , 0.03  , 0.98  , -0.03  , 0.02  , 0.98  , -0.05  , 0.03  , 0.98  , -0.03  , 0.0  , 0.98  , -0.05  , 0.02  , 0.98  , -0.03  , 0.04  , 0.99  , -0.05  , 0.02  , 0.98  , -0.04  , 0.04  , 0.98  , -0.04  , 0.01  , 0.98  , -0.04  , 0.04  , 0.99  , -0.04  , 0.01  , 0.98  , -0.05  , 0.04  , 0.98  , -0.04  , 0.01  , 0.98  , -0.05  , 0.04  , 0.98 );
                        kernels[31] = compute_kernel(x,   -0.03  , 0.01  , 0.98  , -0.05  , 0.03  , 0.98  , -0.03  , 0.02  , 0.98  , -0.05  , 0.03  , 0.98  , -0.03  , 0.03  , 0.98  , -0.05  , 0.02  , 0.98  , -0.03  , 0.04  , 0.98  , -0.05  , 0.02  , 0.98  , -0.04  , 0.04  , 0.98  , -0.04  , 0.01  , 0.98  , -0.04  , 0.04  , 0.98  , -0.04  , 0.01  , 0.98  , -0.04  , 0.04  , 0.98  , -0.04  , 0.01  , 0.98  , -0.05  , 0.03  , 0.98  , -0.03  , 0.02  , 0.98  , -0.05  , 0.02  , 0.98  , -0.04  , 0.04  , 0.99  , -0.04  , 0.01  , 0.98  , -0.05  , 0.04  , 0.98 );
                        kernels[32] = compute_kernel(x,   -0.03  , 0.02  , 0.98  , -0.05  , 0.03  , 0.98  , -0.03  , 0.03  , 0.98  , -0.05  , 0.02  , 0.98  , -0.04  , 0.04  , 0.98  , -0.04  , 0.01  , 0.98  , -0.04  , 0.04  , 0.98  , -0.03  , 0.01  , 0.98  , -0.05  , 0.03  , 0.98  , -0.03  , 0.02  , 0.98  , -0.05  , 0.03  , 0.98  , -0.03  , 0.0  , 0.98  , -0.05  , 0.02  , 0.98  , -0.03  , 0.04  , 0.99  , -0.05  , 0.02  , 0.98  , -0.04  , 0.04  , 0.98  , -0.04  , 0.01  , 0.98  , -0.04  , 0.04  , 0.99  , -0.04  , 0.01  , 0.98  , -0.05  , 0.04  , 0.98 );
                        kernels[33] = compute_kernel(x,   -0.05  , 0.03  , 0.98  , -0.04  , 0.04  , 0.98  , -0.04  , 0.01  , 0.98  , -0.05  , 0.04  , 0.98  , -0.03  , 0.02  , 0.98  , -0.05  , 0.03  , 0.98  , -0.03  , 0.03  , 0.98  , -0.05  , 0.02  , 0.98  , -0.04  , 0.04  , 0.98  , -0.04  , 0.01  , 0.98  , -0.04  , 0.04  , 0.98  , -0.03  , 0.01  , 0.98  , -0.05  , 0.03  , 0.98  , -0.03  , 0.02  , 0.98  , -0.05  , 0.03  , 0.98  , -0.03  , 0.0  , 0.98  , -0.05  , 0.02  , 0.98  , -0.03  , 0.04  , 0.99  , -0.05  , 0.02  , 0.98  , -0.04  , 0.04  , 0.98 );
                        kernels[34] = compute_kernel(x,   -0.04  , 0.01  , 0.98  , -0.04  , 0.04  , 0.99  , -0.04  , 0.01  , 0.98  , -0.05  , 0.04  , 0.98  , -0.04  , 0.01  , 0.98  , -0.05  , 0.04  , 0.98  , -0.04  , 0.01  , 0.98  , -0.05  , 0.04  , 0.98  , -0.03  , 0.02  , 0.98  , -0.05  , 0.04  , 0.98  , -0.03  , 0.02  , 0.98  , -0.05  , 0.03  , 0.98  , -0.03  , 0.02  , 0.98  , -0.05  , 0.02  , 0.98  , -0.03  , 0.03  , 0.98  , -0.05  , 0.02  , 0.98  , -0.04  , 0.04  , 0.98  , -0.04  , 0.02  , 0.98  , -0.04  , 0.04  , 0.98  , -0.04  , 0.01  , 0.98 );
                        kernels[35] = compute_kernel(x,   -0.05  , 0.03  , 0.98  , -0.03  , 0.03  , 0.98  , -0.05  , 0.02  , 0.98  , -0.04  , 0.04  , 0.98  , -0.04  , 0.01  , 0.98  , -0.04  , 0.04  , 0.98  , -0.03  , 0.01  , 0.98  , -0.05  , 0.03  , 0.98  , -0.03  , 0.02  , 0.98  , -0.05  , 0.03  , 0.98  , -0.03  , 0.0  , 0.98  , -0.05  , 0.02  , 0.98  , -0.03  , 0.04  , 0.99  , -0.05  , 0.02  , 0.98  , -0.04  , 0.04  , 0.98  , -0.04  , 0.01  , 0.98  , -0.04  , 0.04  , 0.99  , -0.04  , 0.01  , 0.98  , -0.05  , 0.04  , 0.98  , -0.04  , 0.01  , 0.98 );
                        kernels[36] = compute_kernel(x,   -0.03  , 0.01  , 0.98  , -0.05  , 0.03  , 0.98  , -0.03  , 0.02  , 0.98  , -0.05  , 0.03  , 0.98  , -0.03  , 0.0  , 0.98  , -0.05  , 0.02  , 0.98  , -0.03  , 0.04  , 0.99  , -0.05  , 0.02  , 0.98  , -0.04  , 0.04  , 0.98  , -0.04  , 0.01  , 0.98  , -0.04  , 0.04  , 0.99  , -0.04  , 0.01  , 0.98  , -0.05  , 0.04  , 0.98  , -0.04  , 0.01  , 0.98  , -0.05  , 0.04  , 0.98  , -0.04  , 0.01  , 0.98  , -0.05  , 0.04  , 0.98  , -0.03  , 0.02  , 0.98  , -0.05  , 0.04  , 0.98  , -0.03  , 0.02  , 0.98 );
                        kernels[37] = compute_kernel(x,   -0.05  , 0.02  , 0.98  , -0.04  , 0.04  , 0.98  , -0.04  , 0.02  , 0.98  , -0.04  , 0.04  , 0.98  , -0.04  , 0.01  , 0.98  , -0.05  , 0.04  , 0.98  , -0.03  , 0.02  , 0.98  , -0.05  , 0.03  , 0.98  , -0.03  , 0.04  , 0.98  , -0.04  , 0.01  , 0.98  , -0.04  , 0.04  , 0.98  , -0.04  , 0.01  , 0.98  , -0.05  , 0.04  , 0.98  , -0.03  , 0.02  , 0.98  , -0.05  , 0.02  , 0.98  , -0.03  , 0.03  , 0.99  , -0.04  , 0.01  , 0.98  , -0.05  , 0.04  , 0.98  , -0.03  , 0.01  , 0.98  , -0.05  , 0.03  , 0.98 );
                        kernels[38] = compute_kernel(x,   -0.04  , 0.01  , 0.98  , -0.04  , 0.04  , 0.99  , -0.03  , 0.01  , 0.98  , -0.05  , 0.03  , 0.98  , -0.03  , 0.02  , 0.98  , -0.05  , 0.03  , 0.98  , -0.03  , 0.03  , 0.98  , -0.05  , 0.02  , 0.98  , -0.04  , 0.04  , 0.98  , -0.04  , 0.01  , 0.98  , -0.04  , 0.04  , 0.98  , -0.03  , 0.01  , 0.98  , -0.05  , 0.04  , 0.98  , -0.03  , 0.02  , 0.98  , -0.05  , 0.02  , 0.98  , -0.03  , 0.03  , 0.98  , -0.04  , 0.01  , 0.98  , -0.05  , 0.04  , 0.99  , -0.04  , 0.01  , 0.98  , -0.05  , 0.04  , 0.98 );
                        kernels[39] = compute_kernel(x,   -0.04  , 0.04  , 0.98  , -0.04  , 0.01  , 0.98  , -0.05  , 0.03  , 0.98  , -0.03  , 0.02  , 0.98  , -0.05  , 0.02  , 0.98  , -0.04  , 0.04  , 0.99  , -0.04  , 0.01  , 0.98  , -0.05  , 0.04  , 0.98  , -0.03  , 0.02  , 0.98  , -0.05  , 0.03  , 0.98  , -0.03  , 0.03  , 0.98  , -0.05  , 0.02  , 0.98  , -0.04  , 0.04  , 0.98  , -0.04  , 0.01  , 0.98  , -0.05  , 0.04  , 0.98  , -0.03  , 0.02  , 0.98  , -0.05  , 0.02  , 0.98  , -0.03  , 0.03  , 0.98  , -0.04  , 0.01  , 0.98  , -0.05  , 0.04  , 0.98 );
                        kernels[40] = compute_kernel(x,   -0.05  , 0.02  , 0.98  , -0.04  , 0.04  , 0.98  , -0.04  , 0.01  , 0.98  , -0.04  , 0.04  , 0.98  , -0.03  , 0.01  , 0.98  , -0.05  , 0.03  , 0.98  , -0.03  , 0.02  , 0.98  , -0.05  , 0.03  , 0.98  , -0.03  , 0.0  , 0.98  , -0.05  , 0.02  , 0.98  , -0.03  , 0.04  , 0.99  , -0.05  , 0.02  , 0.98  , -0.04  , 0.04  , 0.98  , -0.04  , 0.01  , 0.98  , -0.04  , 0.04  , 0.99  , -0.04  , 0.01  , 0.98  , -0.05  , 0.04  , 0.98  , -0.04  , 0.01  , 0.98  , -0.05  , 0.04  , 0.98  , -0.04  , 0.01  , 0.98 );
                        kernels[41] = compute_kernel(x,   -0.04  , 0.04  , 0.98  , -0.03  , 0.01  , 0.98  , -0.05  , 0.04  , 0.98  , -0.03  , 0.02  , 0.98  , -0.05  , 0.03  , 0.98  , -0.04  , 0.04  , 0.98  , -0.04  , 0.01  , 0.98  , -0.05  , 0.04  , 0.98  , -0.03  , 0.02  , 0.98  , -0.05  , 0.03  , 0.98  , -0.03  , 0.03  , 0.98  , -0.05  , 0.02  , 0.98  , -0.04  , 0.04  , 0.98  , -0.04  , 0.01  , 0.98  , -0.04  , 0.04  , 0.98  , -0.03  , 0.01  , 0.98  , -0.05  , 0.03  , 0.98  , -0.03  , 0.02  , 0.98  , -0.05  , 0.03  , 0.98  , -0.03  , 0.0  , 0.98 );
                        kernels[42] = compute_kernel(x,   -0.04  , 0.04  , 0.98  , -0.04  , 0.01  , 0.98  , -0.04  , 0.04  , 0.98  , -0.03  , 0.01  , 0.98  , -0.05  , 0.03  , 0.98  , -0.03  , 0.02  , 0.98  , -0.05  , 0.03  , 0.98  , -0.03  , 0.03  , 0.98  , -0.05  , 0.02  , 0.98  , -0.03  , 0.04  , 0.98  , -0.05  , 0.02  , 0.98  , -0.04  , 0.04  , 0.98  , -0.04  , 0.01  , 0.98  , -0.04  , 0.04  , 0.98  , -0.04  , 0.01  , 0.98  , -0.04  , 0.04  , 0.98  , -0.04  , 0.01  , 0.98  , -0.05  , 0.03  , 0.98  , -0.03  , 0.02  , 0.98  , -0.05  , 0.02  , 0.98 );
                        kernels[43] = compute_kernel(x,   -0.04  , 0.04  , 0.98  , -0.04  , 0.01  , 0.98  , -0.04  , 0.04  , 0.98  , -0.04  , 0.01  , 0.98  , -0.05  , 0.03  , 0.98  , -0.03  , 0.02  , 0.98  , -0.05  , 0.02  , 0.98  , -0.04  , 0.04  , 0.99  , -0.04  , 0.01  , 0.98  , -0.05  , 0.04  , 0.98  , -0.03  , 0.02  , 0.98  , -0.05  , 0.03  , 0.98  , -0.03  , 0.03  , 0.98  , -0.05  , 0.02  , 0.98  , -0.04  , 0.04  , 0.98  , -0.04  , 0.01  , 0.98  , -0.05  , 0.04  , 0.98  , -0.03  , 0.02  , 0.98  , -0.05  , 0.02  , 0.98  , -0.03  , 0.03  , 0.98 );
                        kernels[44] = compute_kernel(x,   -0.05  , 0.03  , 0.98  , -0.03  , 0.02  , 0.98  , -0.05  , 0.03  , 0.98  , -0.03  , 0.03  , 0.98  , -0.05  , 0.02  , 0.98  , -0.03  , 0.04  , 0.98  , -0.05  , 0.02  , 0.98  , -0.04  , 0.04  , 0.98  , -0.04  , 0.01  , 0.98  , -0.04  , 0.04  , 0.98  , -0.04  , 0.01  , 0.98  , -0.04  , 0.04  , 0.98  , -0.04  , 0.01  , 0.98  , -0.05  , 0.03  , 0.98  , -0.03  , 0.02  , 0.98  , -0.05  , 0.02  , 0.98  , -0.04  , 0.04  , 0.99  , -0.04  , 0.01  , 0.98  , -0.05  , 0.04  , 0.98  , -0.03  , 0.02  , 0.98 );
                        kernels[45] = compute_kernel(x,   -0.04  , 0.04  , 0.98  , -0.03  , 0.01  , 0.98  , -0.05  , 0.03  , 0.98  , -0.03  , 0.02  , 0.98  , -0.05  , 0.03  , 0.98  , -0.03  , 0.03  , 0.98  , -0.05  , 0.02  , 0.98  , -0.03  , 0.04  , 0.98  , -0.05  , 0.02  , 0.98  , -0.04  , 0.04  , 0.98  , -0.04  , 0.01  , 0.98  , -0.04  , 0.04  , 0.98  , -0.04  , 0.01  , 0.98  , -0.04  , 0.04  , 0.98  , -0.04  , 0.01  , 0.98  , -0.05  , 0.03  , 0.98  , -0.03  , 0.02  , 0.98  , -0.05  , 0.02  , 0.98  , -0.04  , 0.04  , 0.99  , -0.04  , 0.01  , 0.98 );
                        kernels[46] = compute_kernel(x,   -0.04  , 0.04  , 0.98  , -0.04  , 0.01  , 0.98  , -0.04  , 0.04  , 0.98  , -0.03  , 0.01  , 0.98  , -0.05  , 0.03  , 0.98  , -0.03  , 0.02  , 0.98  , -0.05  , 0.03  , 0.98  , -0.03  , 0.0  , 0.98  , -0.05  , 0.02  , 0.98  , -0.03  , 0.04  , 0.99  , -0.05  , 0.02  , 0.98  , -0.04  , 0.04  , 0.98  , -0.04  , 0.01  , 0.98  , -0.04  , 0.04  , 0.99  , -0.04  , 0.01  , 0.98  , -0.05  , 0.04  , 0.98  , -0.04  , 0.01  , 0.98  , -0.05  , 0.04  , 0.98  , -0.04  , 0.01  , 0.98  , -0.05  , 0.04  , 0.98 );
                        kernels[47] = compute_kernel(x,   -0.03  , 0.02  , 0.98  , -0.04  , 0.03  , 0.99  , -0.03  , 0.03  , 0.99  , -0.04  , 0.01  , 0.98  , -0.04  , 0.04  , 0.98  , -0.04  , 0.01  , 0.99  , -0.05  , 0.03  , 0.98  , -0.03  , 0.03  , 0.98  , -0.05  , 0.02  , 0.98  , -0.04  , 0.04  , 0.98  , -0.04  , 0.01  , 0.98  , -0.05  , 0.04  , 0.98  , -0.03  , 0.02  , 0.98  , -0.05  , 0.03  , 0.98  , -0.03  , 0.03  , 0.98  , -0.05  , 0.02  , 0.98  , -0.03  , 0.03  , 0.98  , -0.04  , 0.01  , 0.98  , -0.04  , 0.03  , 0.98  , -0.05  , 0.02  , 0.98 );
                        kernels[48] = compute_kernel(x,   -0.06  , -0.01  , 0.99  , -0.06  , -0.01  , 0.99  , -0.06  , -0.01  , 0.99  , -0.06  , -0.01  , 0.99  , -0.06  , -0.01  , 0.99  , -0.06  , -0.01  , 0.99  , -0.06  , -0.01  , 0.99  , -0.06  , -0.01  , 0.99  , -0.06  , -0.01  , 0.99  , -0.07  , -0.01  , 0.99  , -0.06  , -0.02  , 0.99  , -0.06  , -0.02  , 0.99  , -0.06  , -0.02  , 0.99  , -0.06  , -0.02  , 0.99  , -0.06  , -0.01  , 0.99  , -0.06  , -0.02  , 0.99  , -0.06  , -0.02  , 0.98  , -0.06  , -0.02  , 0.98  , -0.07  , -0.0  , 0.99  , -0.07  , -0.02  , 0.98 );
                        kernels[49] = compute_kernel(x,   -0.07  , -0.0  , 0.99  , -0.07  , -0.0  , 0.99  , -0.07  , -0.01  , 0.98  , -0.07  , -0.01  , 0.98  , -0.07  , -0.02  , 0.98  , -0.07  , -0.02  , 0.98  , -0.07  , -0.01  , 0.98  , -0.07  , -0.01  , 0.98  , -0.07  , -0.01  , 0.99  , -0.07  , -0.01  , 0.99  , -0.07  , -0.01  , 0.99  , -0.07  , -0.01  , 0.99  , -0.07  , -0.01  , 0.99  , -0.06  , -0.01  , 0.99  , -0.07  , -0.01  , 0.99  , -0.07  , -0.01  , 0.99  , -0.07  , -0.01  , 0.99  , -0.07  , -0.01  , 0.99  , -0.06  , -0.01  , 0.99  , -0.06  , -0.01  , 0.99 );
                        kernels[50] = compute_kernel(x,   -0.07  , -0.01  , 0.99  , -0.07  , -0.0  , 0.99  , -0.07  , -0.01  , 0.99  , -0.07  , -0.0  , 0.99  , -0.07  , -0.01  , 0.99  , -0.07  , -0.01  , 0.99  , -0.07  , -0.01  , 0.99  , -0.07  , -0.0  , 0.99  , -0.07  , -0.01  , 0.99  , -0.07  , -0.01  , 0.99  , -0.07  , -0.01  , 0.99  , -0.07  , -0.0  , 0.99  , -0.07  , -0.01  , 0.99  , -0.07  , -0.01  , 0.99  , -0.07  , -0.01  , 0.99  , -0.07  , -0.0  , 0.99  , -0.07  , -0.0  , 0.99  , -0.07  , -0.0  , 0.99  , -0.07  , -0.01  , 0.99  , -0.07  , -0.03  , 0.98 );
                        kernels[51] = compute_kernel(x,   -0.07  , -0.0  , 0.99  , -0.07  , -0.01  , 0.98  , -0.07  , -0.01  , 0.98  , -0.07  , -0.02  , 0.98  , -0.07  , -0.02  , 0.98  , -0.07  , -0.01  , 0.98  , -0.07  , -0.01  , 0.98  , -0.07  , -0.01  , 0.99  , -0.07  , -0.01  , 0.99  , -0.07  , -0.01  , 0.99  , -0.07  , -0.01  , 0.99  , -0.07  , -0.01  , 0.99  , -0.06  , -0.01  , 0.99  , -0.07  , -0.01  , 0.99  , -0.07  , -0.01  , 0.99  , -0.07  , -0.01  , 0.99  , -0.07  , -0.01  , 0.99  , -0.06  , -0.01  , 0.99  , -0.06  , -0.01  , 0.99  , -0.06  , -0.01  , 0.99 );
                        kernels[52] = compute_kernel(x,   -0.06  , -0.02  , 0.99  , -0.07  , -0.01  , 0.99  , -0.06  , -0.01  , 0.99  , -0.06  , -0.01  , 0.99  , -0.07  , -0.01  , 0.99  , -0.07  , -0.01  , 0.99  , -0.07  , -0.01  , 0.99  , -0.07  , -0.01  , 0.99  , -0.07  , -0.0  , 0.99  , -0.07  , -0.01  , 0.99  , -0.07  , -0.01  , 0.99  , -0.07  , -0.01  , 0.99  , -0.07  , -0.01  , 0.99  , -0.07  , -0.01  , 0.99  , -0.07  , -0.01  , 0.98  , -0.07  , -0.01  , 0.98  , -0.07  , -0.01  , 0.98  , -0.07  , -0.01  , 0.99  , -0.07  , -0.01  , 0.99  , -0.07  , -0.01  , 0.99 );
                        kernels[53] = compute_kernel(x,   -0.06  , -0.01  , 0.99  , -0.06  , -0.01  , 0.99  , -0.06  , -0.01  , 0.99  , -0.07  , -0.01  , 0.99  , -0.06  , -0.01  , 0.99  , -0.07  , -0.01  , 0.99  , -0.07  , -0.0  , 0.99  , -0.07  , -0.01  , 0.99  , -0.07  , -0.0  , 0.99  , -0.07  , -0.01  , 0.99  , -0.07  , -0.01  , 0.99  , -0.07  , -0.01  , 0.99  , -0.07  , -0.0  , 0.99  , -0.07  , -0.01  , 0.99  , -0.07  , -0.01  , 0.99  , -0.07  , -0.01  , 0.99  , -0.07  , -0.0  , 0.99  , -0.07  , -0.01  , 0.99  , -0.07  , -0.01  , 0.99  , -0.07  , -0.01  , 0.99 );
                        kernels[54] = compute_kernel(x,   -0.07  , -0.01  , 0.98  , -0.07  , -0.01  , 0.99  , -0.07  , -0.0  , 0.99  , -0.07  , -0.0  , 0.99  , -0.07  , -0.0  , 0.99  , -0.07  , -0.0  , 0.99  , -0.07  , -0.01  , 0.98  , -0.07  , -0.01  , 0.98  , -0.07  , -0.02  , 0.98  , -0.07  , -0.02  , 0.98  , -0.07  , -0.01  , 0.98  , -0.07  , -0.01  , 0.98  , -0.07  , -0.01  , 0.99  , -0.07  , -0.01  , 0.99  , -0.07  , -0.01  , 0.99  , -0.07  , -0.01  , 0.99  , -0.07  , -0.01  , 0.99  , -0.06  , -0.01  , 0.99  , -0.07  , -0.01  , 0.99  , -0.07  , -0.01  , 0.99 );
                        kernels[55] = compute_kernel(x,   -0.06  , -0.01  , 0.99  , -0.07  , -0.01  , 0.99  , -0.07  , -0.01  , 0.99  , -0.07  , -0.0  , 0.99  , -0.07  , -0.01  , 0.99  , -0.07  , -0.01  , 0.99  , -0.07  , -0.01  , 0.99  , -0.07  , -0.0  , 0.99  , -0.07  , -0.01  , 0.99  , -0.07  , -0.01  , 0.99  , -0.07  , -0.01  , 0.99  , -0.07  , -0.01  , 0.98  , -0.07  , -0.02  , 0.98  , -0.07  , -0.02  , 0.98  , -0.07  , -0.02  , 0.98  , -0.07  , -0.03  , 0.97  , -0.07  , -0.02  , 0.98  , -0.06  , -0.01  , 0.99  , -0.07  , -0.0  , 0.99  , -0.07  , -0.0  , 0.99 );
                        kernels[56] = compute_kernel(x,   -0.07  , -0.01  , 0.99  , -0.07  , -0.01  , 0.99  , -0.07  , -0.01  , 0.99  , -0.07  , -0.01  , 0.99  , -0.06  , -0.01  , 0.99  , -0.07  , -0.01  , 0.99  , -0.07  , -0.01  , 0.99  , -0.07  , -0.01  , 0.99  , -0.07  , -0.01  , 0.99  , -0.06  , -0.01  , 0.99  , -0.06  , -0.01  , 0.99  , -0.06  , -0.01  , 0.99  , -0.06  , -0.01  , 0.99  , -0.06  , -0.01  , 0.99  , -0.06  , -0.01  , 0.99  , -0.06  , -0.01  , 0.99  , -0.06  , -0.01  , 0.99  , -0.06  , -0.01  , 0.99  , -0.07  , -0.01  , 0.99  , -0.06  , -0.02  , 0.99 );
                        kernels[57] = compute_kernel(x,   -0.06  , -0.01  , 0.99  , -0.07  , -0.01  , 0.99  , -0.06  , -0.01  , 0.99  , -0.07  , -0.01  , 0.99  , -0.07  , -0.0  , 0.99  , -0.07  , -0.01  , 0.99  , -0.07  , -0.0  , 0.99  , -0.07  , -0.01  , 0.99  , -0.07  , -0.01  , 0.99  , -0.07  , -0.01  , 0.99  , -0.07  , -0.0  , 0.99  , -0.07  , -0.01  , 0.99  , -0.07  , -0.01  , 0.99  , -0.07  , -0.01  , 0.99  , -0.07  , -0.0  , 0.99  , -0.07  , -0.01  , 0.99  , -0.07  , -0.01  , 0.99  , -0.07  , -0.01  , 0.99  , -0.07  , -0.0  , 0.99  , -0.07  , -0.0  , 0.99 );
                        kernels[58] = compute_kernel(x,   -0.07  , -0.01  , 0.99  , -0.07  , -0.01  , 0.99  , -0.07  , -0.0  , 0.99  , -0.07  , -0.01  , 0.99  , -0.07  , -0.01  , 0.99  , -0.07  , -0.01  , 0.99  , -0.07  , -0.01  , 0.98  , -0.07  , -0.02  , 0.98  , -0.07  , -0.02  , 0.98  , -0.07  , -0.02  , 0.98  , -0.07  , -0.03  , 0.97  , -0.07  , -0.02  , 0.98  , -0.06  , -0.01  , 0.99  , -0.07  , -0.0  , 0.99  , -0.07  , -0.0  , 0.99  , -0.07  , -0.01  , 0.99  , -0.07  , -0.0  , 0.99  , -0.07  , -0.01  , 0.99  , -0.07  , -0.01  , 0.98  , -0.07  , -0.02  , 0.98 );
                        kernels[59] = compute_kernel(x,   -0.07  , -0.0  , 0.99  , -0.07  , -0.0  , 0.99  , -0.07  , -0.0  , 0.99  , -0.07  , -0.01  , 0.98  , -0.07  , -0.01  , 0.98  , -0.07  , -0.02  , 0.98  , -0.07  , -0.02  , 0.98  , -0.07  , -0.01  , 0.98  , -0.07  , -0.01  , 0.98  , -0.07  , -0.01  , 0.99  , -0.07  , -0.01  , 0.99  , -0.07  , -0.01  , 0.99  , -0.07  , -0.01  , 0.99  , -0.07  , -0.01  , 0.99  , -0.06  , -0.01  , 0.99  , -0.07  , -0.01  , 0.99  , -0.07  , -0.01  , 0.99  , -0.07  , -0.01  , 0.99  , -0.07  , -0.01  , 0.99  , -0.06  , -0.01  , 0.99 );
                        kernels[60] = compute_kernel(x,   -0.06  , -0.01  , 0.99  , -0.07  , -0.01  , 0.99  , -0.07  , -0.0  , 0.99  , -0.07  , -0.01  , 0.99  , -0.07  , -0.0  , 0.99  , -0.07  , -0.01  , 0.99  , -0.07  , -0.01  , 0.99  , -0.07  , -0.01  , 0.99  , -0.07  , -0.0  , 0.99  , -0.07  , -0.01  , 0.99  , -0.07  , -0.01  , 0.99  , -0.07  , -0.01  , 0.99  , -0.07  , -0.0  , 0.99  , -0.07  , -0.01  , 0.99  , -0.07  , -0.01  , 0.99  , -0.07  , -0.01  , 0.99  , -0.07  , -0.0  , 0.99  , -0.07  , -0.0  , 0.99  , -0.07  , -0.0  , 0.99  , -0.07  , -0.01  , 0.99 );
                        kernels[61] = compute_kernel(x,   -0.07  , -0.0  , 0.99  , -0.07  , -0.01  , 0.99  , -0.07  , -0.0  , 0.99  , -0.07  , -0.01  , 0.99  , -0.07  , -0.01  , 0.99  , -0.07  , -0.01  , 0.99  , -0.07  , -0.0  , 0.99  , -0.07  , -0.01  , 0.99  , -0.07  , -0.01  , 0.99  , -0.07  , -0.01  , 0.99  , -0.07  , -0.0  , 0.99  , -0.07  , -0.01  , 0.99  , -0.07  , -0.01  , 0.99  , -0.07  , -0.01  , 0.99  , -0.07  , -0.0  , 0.99  , -0.07  , -0.0  , 0.99  , -0.07  , -0.0  , 0.99  , -0.07  , -0.01  , 0.99  , -0.07  , -0.03  , 0.98  , -0.07  , -0.03  , 0.97 );
                        kernels[62] = compute_kernel(x,   -0.07  , -0.01  , 0.99  , -0.07  , -0.01  , 0.99  , -0.07  , -0.01  , 0.99  , -0.07  , -0.01  , 0.99  , -0.06  , -0.01  , 0.99  , -0.06  , -0.01  , 0.99  , -0.06  , -0.01  , 0.99  , -0.06  , -0.01  , 0.99  , -0.06  , -0.01  , 0.99  , -0.06  , -0.01  , 0.99  , -0.06  , -0.01  , 0.99  , -0.06  , -0.01  , 0.99  , -0.06  , -0.01  , 0.99  , -0.07  , -0.01  , 0.99  , -0.06  , -0.02  , 0.99  , -0.06  , -0.02  , 0.99  , -0.06  , -0.02  , 0.99  , -0.06  , -0.02  , 0.99  , -0.06  , -0.01  , 0.99  , -0.06  , -0.02  , 0.99 );
                        kernels[63] = compute_kernel(x,   -0.07  , -0.03  , 0.98  , -0.07  , -0.03  , 0.98  , -0.06  , -0.02  , 0.98  , -0.07  , -0.02  , 0.98  , -0.06  , -0.02  , 0.99  , -0.07  , -0.02  , 0.99  , -0.06  , -0.01  , 0.99  , -0.06  , -0.01  , 0.99  , -0.06  , -0.01  , 0.99  , -0.07  , -0.01  , 0.99  , -0.06  , -0.01  , 0.99  , -0.07  , -0.01  , 0.99  , -0.07  , -0.0  , 0.99  , -0.07  , -0.01  , 0.99  , -0.07  , -0.0  , 0.99  , -0.07  , -0.01  , 0.99  , -0.07  , -0.01  , 0.99  , -0.07  , -0.01  , 0.99  , -0.07  , -0.0  , 0.99  , -0.07  , -0.01  , 0.99 );
                        kernels[64] = compute_kernel(x,   -0.07  , -0.01  , 0.99  , -0.07  , -0.01  , 0.99  , -0.07  , -0.0  , 0.99  , -0.07  , -0.01  , 0.99  , -0.07  , -0.01  , 0.99  , -0.07  , -0.01  , 0.99  , -0.07  , -0.0  , 0.99  , -0.07  , -0.01  , 0.99  , -0.07  , -0.01  , 0.99  , -0.07  , -0.01  , 0.99  , -0.07  , -0.01  , 0.98  , -0.07  , -0.02  , 0.98  , -0.07  , -0.02  , 0.98  , -0.07  , -0.02  , 0.98  , -0.07  , -0.03  , 0.97  , -0.07  , -0.02  , 0.98  , -0.06  , -0.01  , 0.99  , -0.07  , -0.0  , 0.99  , -0.07  , -0.0  , 0.99  , -0.07  , -0.01  , 0.99 );
                        kernels[65] = compute_kernel(x,   -0.07  , -0.01  , 0.99  , -0.07  , -0.01  , 0.99  , -0.07  , -0.01  , 0.99  , -0.07  , -0.0  , 0.99  , -0.07  , -0.01  , 0.99  , -0.07  , -0.01  , 0.99  , -0.07  , -0.01  , 0.99  , -0.07  , -0.0  , 0.99  , -0.07  , -0.01  , 0.99  , -0.07  , -0.01  , 0.99  , -0.07  , -0.01  , 0.99  , -0.07  , -0.0  , 0.99  , -0.07  , -0.0  , 0.99  , -0.07  , -0.0  , 0.99  , -0.07  , -0.01  , 0.99  , -0.07  , -0.03  , 0.98  , -0.07  , -0.03  , 0.97  , -0.07  , -0.01  , 0.98  , -0.07  , -0.01  , 0.98  , -0.07  , -0.03  , 0.98 );
                        kernels[66] = compute_kernel(x,   -0.06  , -0.01  , 0.99  , -0.06  , -0.01  , 0.99  , -0.06  , -0.01  , 0.99  , -0.06  , -0.01  , 0.99  , -0.06  , -0.01  , 0.99  , -0.06  , -0.01  , 0.99  , -0.06  , -0.01  , 0.99  , -0.06  , -0.01  , 0.99  , -0.07  , -0.01  , 0.99  , -0.06  , -0.02  , 0.99  , -0.06  , -0.02  , 0.99  , -0.06  , -0.02  , 0.99  , -0.06  , -0.02  , 0.99  , -0.06  , -0.01  , 0.99  , -0.06  , -0.02  , 0.99  , -0.06  , -0.02  , 0.98  , -0.06  , -0.02  , 0.98  , -0.07  , -0.0  , 0.99  , -0.07  , -0.02  , 0.98  , -0.07  , -0.03  , 0.97 );
                        kernels[67] = compute_kernel(x,   -0.07  , -0.01  , 0.99  , -0.07  , -0.01  , 0.99  , -0.06  , -0.01  , 0.99  , -0.06  , -0.01  , 0.99  , -0.06  , -0.01  , 0.99  , -0.06  , -0.01  , 0.99  , -0.06  , -0.01  , 0.99  , -0.06  , -0.01  , 0.99  , -0.06  , -0.01  , 0.99  , -0.06  , -0.01  , 0.99  , -0.06  , -0.01  , 0.99  , -0.07  , -0.01  , 0.99  , -0.06  , -0.02  , 0.99  , -0.06  , -0.02  , 0.99  , -0.06  , -0.02  , 0.99  , -0.06  , -0.02  , 0.99  , -0.06  , -0.01  , 0.99  , -0.06  , -0.02  , 0.99  , -0.06  , -0.02  , 0.98  , -0.06  , -0.02  , 0.98 );
                        kernels[68] = compute_kernel(x,   -0.07  , -0.01  , 0.99  , -0.07  , -0.01  , 0.99  , -0.07  , -0.01  , 0.99  , -0.06  , -0.01  , 0.99  , -0.07  , -0.01  , 0.99  , -0.07  , -0.01  , 0.99  , -0.07  , -0.01  , 0.99  , -0.07  , -0.01  , 0.99  , -0.06  , -0.01  , 0.99  , -0.06  , -0.01  , 0.99  , -0.06  , -0.01  , 0.99  , -0.06  , -0.01  , 0.99  , -0.06  , -0.01  , 0.99  , -0.06  , -0.01  , 0.99  , -0.06  , -0.01  , 0.99  , -0.06  , -0.01  , 0.99  , -0.06  , -0.01  , 0.99  , -0.07  , -0.01  , 0.99  , -0.06  , -0.02  , 0.99  , -0.06  , -0.02  , 0.99 );
                        kernels[69] = compute_kernel(x,   -0.07  , -0.02  , 0.98  , -0.07  , -0.02  , 0.98  , -0.07  , -0.01  , 0.98  , -0.07  , -0.01  , 0.98  , -0.07  , -0.01  , 0.99  , -0.07  , -0.01  , 0.99  , -0.07  , -0.01  , 0.99  , -0.07  , -0.01  , 0.99  , -0.07  , -0.01  , 0.99  , -0.06  , -0.01  , 0.99  , -0.07  , -0.01  , 0.99  , -0.07  , -0.01  , 0.99  , -0.07  , -0.01  , 0.99  , -0.07  , -0.01  , 0.99  , -0.06  , -0.01  , 0.99  , -0.06  , -0.01  , 0.99  , -0.06  , -0.01  , 0.99  , -0.06  , -0.01  , 0.99  , -0.06  , -0.01  , 0.99  , -0.06  , -0.01  , 0.99 );
                        kernels[70] = compute_kernel(x,   -0.07  , -0.01  , 0.99  , -0.07  , -0.0  , 0.99  , -0.07  , -0.0  , 0.99  , -0.07  , -0.0  , 0.99  , -0.07  , -0.0  , 0.99  , -0.07  , -0.01  , 0.98  , -0.07  , -0.01  , 0.98  , -0.07  , -0.02  , 0.98  , -0.07  , -0.02  , 0.98  , -0.07  , -0.01  , 0.98  , -0.07  , -0.01  , 0.98  , -0.07  , -0.01  , 0.99  , -0.07  , -0.01  , 0.99  , -0.07  , -0.01  , 0.99  , -0.07  , -0.01  , 0.99  , -0.07  , -0.01  , 0.99  , -0.06  , -0.01  , 0.99  , -0.07  , -0.01  , 0.99  , -0.07  , -0.01  , 0.99  , -0.07  , -0.01  , 0.99 );
                        kernels[71] = compute_kernel(x,   -0.07  , -0.03  , 0.98  , -0.06  , -0.02  , 0.99  , -0.07  , -0.01  , 0.99  , -0.06  , -0.01  , 0.99  , -0.06  , -0.01  , 0.99  , -0.07  , -0.01  , 0.99  , -0.07  , -0.01  , 0.99  , -0.07  , -0.01  , 0.99  , -0.07  , -0.01  , 0.99  , -0.07  , -0.0  , 0.99  , -0.07  , -0.01  , 0.99  , -0.07  , -0.01  , 0.99  , -0.07  , -0.01  , 0.99  , -0.07  , -0.01  , 0.99  , -0.07  , -0.01  , 0.99  , -0.07  , -0.01  , 0.98  , -0.07  , -0.01  , 0.98  , -0.07  , -0.01  , 0.98  , -0.07  , -0.01  , 0.99  , -0.07  , -0.01  , 0.99 );
                        kernels[72] = compute_kernel(x,   -0.07  , -0.02  , 0.98  , -0.06  , -0.02  , 0.99  , -0.07  , -0.02  , 0.99  , -0.06  , -0.01  , 0.99  , -0.06  , -0.01  , 0.99  , -0.06  , -0.01  , 0.99  , -0.07  , -0.01  , 0.99  , -0.06  , -0.01  , 0.99  , -0.07  , -0.01  , 0.99  , -0.07  , -0.0  , 0.99  , -0.07  , -0.01  , 0.99  , -0.07  , -0.0  , 0.99  , -0.07  , -0.01  , 0.99  , -0.07  , -0.01  , 0.99  , -0.07  , -0.01  , 0.99  , -0.07  , -0.0  , 0.99  , -0.07  , -0.01  , 0.99  , -0.07  , -0.01  , 0.99  , -0.07  , -0.01  , 0.99  , -0.07  , -0.0  , 0.99 );
                        kernels[73] = compute_kernel(x,   -0.06  , -0.02  , 0.99  , -0.06  , -0.01  , 0.99  , -0.07  , -0.01  , 0.99  , -0.07  , -0.01  , 0.99  , -0.07  , -0.0  , 0.99  , -0.07  , -0.01  , 0.99  , -0.07  , -0.01  , 0.99  , -0.07  , -0.01  , 0.99  , -0.07  , -0.0  , 0.99  , -0.07  , -0.01  , 0.99  , -0.07  , -0.01  , 0.99  , -0.07  , -0.01  , 0.99  , -0.07  , -0.01  , 0.98  , -0.07  , -0.02  , 0.98  , -0.07  , -0.02  , 0.98  , -0.07  , -0.02  , 0.98  , -0.07  , -0.03  , 0.97  , -0.07  , -0.02  , 0.98  , -0.06  , -0.01  , 0.99  , -0.07  , -0.0  , 0.99 );
                        kernels[74] = compute_kernel(x,   -0.07  , -0.01  , 0.98  , -0.07  , -0.02  , 0.98  , -0.07  , -0.02  , 0.98  , -0.07  , -0.01  , 0.98  , -0.07  , -0.01  , 0.98  , -0.07  , -0.01  , 0.99  , -0.07  , -0.01  , 0.99  , -0.07  , -0.01  , 0.99  , -0.07  , -0.01  , 0.99  , -0.07  , -0.01  , 0.99  , -0.06  , -0.01  , 0.99  , -0.07  , -0.01  , 0.99  , -0.07  , -0.01  , 0.99  , -0.07  , -0.01  , 0.99  , -0.07  , -0.01  , 0.99  , -0.06  , -0.01  , 0.99  , -0.06  , -0.01  , 0.99  , -0.06  , -0.01  , 0.99  , -0.06  , -0.01  , 0.99  , -0.06  , -0.01  , 0.99 );
                        kernels[75] = compute_kernel(x,   -0.07  , -0.02  , 0.99  , -0.06  , -0.01  , 0.99  , -0.06  , -0.01  , 0.99  , -0.06  , -0.01  , 0.99  , -0.07  , -0.01  , 0.99  , -0.06  , -0.01  , 0.99  , -0.07  , -0.01  , 0.99  , -0.07  , -0.0  , 0.99  , -0.07  , -0.01  , 0.99  , -0.07  , -0.0  , 0.99  , -0.07  , -0.01  , 0.99  , -0.07  , -0.01  , 0.99  , -0.07  , -0.01  , 0.99  , -0.07  , -0.0  , 0.99  , -0.07  , -0.01  , 0.99  , -0.07  , -0.01  , 0.99  , -0.07  , -0.01  , 0.99  , -0.07  , -0.0  , 0.99  , -0.07  , -0.01  , 0.99  , -0.07  , -0.01  , 0.99 );
                        kernels[76] = compute_kernel(x,   -0.06  , -0.01  , 0.99  , -0.06  , -0.01  , 0.99  , -0.06  , -0.01  , 0.99  , -0.06  , -0.01  , 0.99  , -0.06  , -0.01  , 0.99  , -0.06  , -0.01  , 0.99  , -0.06  , -0.01  , 0.99  , -0.07  , -0.01  , 0.99  , -0.06  , -0.02  , 0.99  , -0.06  , -0.02  , 0.99  , -0.06  , -0.02  , 0.99  , -0.06  , -0.02  , 0.99  , -0.06  , -0.01  , 0.99  , -0.06  , -0.02  , 0.99  , -0.06  , -0.02  , 0.98  , -0.06  , -0.02  , 0.98  , -0.07  , -0.0  , 0.99  , -0.07  , -0.02  , 0.98  , -0.07  , -0.03  , 0.97  , -0.07  , -0.03  , 0.97 );
                        kernels[77] = compute_kernel(x,   -0.06  , -0.02  , 0.99  , -0.07  , -0.02  , 0.99  , -0.06  , -0.01  , 0.99  , -0.06  , -0.01  , 0.99  , -0.06  , -0.01  , 0.99  , -0.07  , -0.01  , 0.99  , -0.06  , -0.01  , 0.99  , -0.07  , -0.01  , 0.99  , -0.07  , -0.0  , 0.99  , -0.07  , -0.01  , 0.99  , -0.07  , -0.0  , 0.99  , -0.07  , -0.01  , 0.99  , -0.07  , -0.01  , 0.99  , -0.07  , -0.01  , 0.99  , -0.07  , -0.0  , 0.99  , -0.07  , -0.01  , 0.99  , -0.07  , -0.01  , 0.99  , -0.07  , -0.01  , 0.99  , -0.07  , -0.0  , 0.99  , -0.07  , -0.01  , 0.99 );
                        kernels[78] = compute_kernel(x,   -0.07  , -0.01  , 0.99  , -0.07  , -0.01  , 0.99  , -0.06  , -0.01  , 0.99  , -0.07  , -0.01  , 0.99  , -0.07  , -0.01  , 0.99  , -0.07  , -0.01  , 0.99  , -0.07  , -0.01  , 0.99  , -0.06  , -0.01  , 0.99  , -0.06  , -0.01  , 0.99  , -0.06  , -0.01  , 0.99  , -0.06  , -0.01  , 0.99  , -0.06  , -0.01  , 0.99  , -0.06  , -0.01  , 0.99  , -0.06  , -0.01  , 0.99  , -0.06  , -0.01  , 0.99  , -0.06  , -0.01  , 0.99  , -0.07  , -0.01  , 0.99  , -0.06  , -0.02  , 0.99  , -0.06  , -0.02  , 0.99  , -0.06  , -0.02  , 0.99 );
                        kernels[79] = compute_kernel(x,   -0.07  , -0.01  , 0.99  , -0.07  , -0.0  , 0.99  , -0.07  , -0.01  , 0.99  , -0.07  , -0.01  , 0.99  , -0.07  , -0.01  , 0.99  , -0.07  , -0.0  , 0.99  , -0.07  , -0.01  , 0.99  , -0.07  , -0.01  , 0.99  , -0.07  , -0.01  , 0.99  , -0.07  , -0.0  , 0.99  , -0.07  , -0.01  , 0.99  , -0.07  , -0.01  , 0.99  , -0.07  , -0.01  , 0.99  , -0.07  , -0.0  , 0.99  , -0.07  , -0.0  , 0.99  , -0.07  , -0.0  , 0.99  , -0.07  , -0.01  , 0.99  , -0.07  , -0.03  , 0.98  , -0.07  , -0.03  , 0.97  , -0.07  , -0.01  , 0.98 );
                        kernels[80] = compute_kernel(x,   -0.06  , -0.02  , 0.98  , -0.07  , -0.02  , 0.98  , -0.06  , -0.02  , 0.99  , -0.07  , -0.02  , 0.99  , -0.06  , -0.01  , 0.99  , -0.06  , -0.01  , 0.99  , -0.06  , -0.01  , 0.99  , -0.07  , -0.01  , 0.99  , -0.06  , -0.01  , 0.99  , -0.07  , -0.01  , 0.99  , -0.07  , -0.0  , 0.99  , -0.07  , -0.01  , 0.99  , -0.07  , -0.0  , 0.99  , -0.07  , -0.01  , 0.99  , -0.07  , -0.01  , 0.99  , -0.07  , -0.01  , 0.99  , -0.07  , -0.0  , 0.99  , -0.07  , -0.01  , 0.99  , -0.07  , -0.01  , 0.99  , -0.07  , -0.01  , 0.99 );
                        kernels[81] = compute_kernel(x,   -0.07  , -0.01  , 0.99  , -0.07  , -0.01  , 0.99  , -0.07  , -0.01  , 0.99  , -0.07  , -0.0  , 0.99  , -0.07  , -0.01  , 0.99  , -0.07  , -0.01  , 0.99  , -0.07  , -0.01  , 0.99  , -0.07  , -0.01  , 0.98  , -0.07  , -0.02  , 0.98  , -0.07  , -0.02  , 0.98  , -0.07  , -0.02  , 0.98  , -0.07  , -0.03  , 0.97  , -0.07  , -0.02  , 0.98  , -0.06  , -0.01  , 0.99  , -0.07  , -0.0  , 0.99  , -0.07  , -0.0  , 0.99  , -0.07  , -0.01  , 0.99  , -0.07  , -0.0  , 0.99  , -0.07  , -0.01  , 0.99  , -0.07  , -0.01  , 0.98 );
                        kernels[82] = compute_kernel(x,   -0.07  , -0.03  , 0.98  , -0.06  , -0.02  , 0.98  , -0.07  , -0.02  , 0.98  , -0.06  , -0.02  , 0.99  , -0.07  , -0.02  , 0.99  , -0.06  , -0.01  , 0.99  , -0.06  , -0.01  , 0.99  , -0.06  , -0.01  , 0.99  , -0.07  , -0.01  , 0.99  , -0.06  , -0.01  , 0.99  , -0.07  , -0.01  , 0.99  , -0.07  , -0.0  , 0.99  , -0.07  , -0.01  , 0.99  , -0.07  , -0.0  , 0.99  , -0.07  , -0.01  , 0.99  , -0.07  , -0.01  , 0.99  , -0.07  , -0.01  , 0.99  , -0.07  , -0.0  , 0.99  , -0.07  , -0.01  , 0.99  , -0.07  , -0.01  , 0.99 );
                        kernels[83] = compute_kernel(x,   -0.07  , -0.02  , 0.98  , -0.07  , -0.01  , 0.98  , -0.07  , -0.01  , 0.98  , -0.07  , -0.01  , 0.99  , -0.07  , -0.01  , 0.99  , -0.07  , -0.01  , 0.99  , -0.07  , -0.01  , 0.99  , -0.07  , -0.01  , 0.99  , -0.06  , -0.01  , 0.99  , -0.07  , -0.01  , 0.99  , -0.07  , -0.01  , 0.99  , -0.07  , -0.01  , 0.99  , -0.07  , -0.01  , 0.99  , -0.06  , -0.01  , 0.99  , -0.06  , -0.01  , 0.99  , -0.06  , -0.01  , 0.99  , -0.06  , -0.01  , 0.99  , -0.06  , -0.01  , 0.99  , -0.06  , -0.01  , 0.99  , -0.06  , -0.01  , 0.99 );
                        kernels[84] = compute_kernel(x,   -0.07  , -0.01  , 0.99  , -0.07  , -0.01  , 0.99  , -0.07  , -0.01  , 0.99  , -0.06  , -0.01  , 0.99  , -0.06  , -0.01  , 0.99  , -0.06  , -0.01  , 0.99  , -0.06  , -0.01  , 0.99  , -0.06  , -0.01  , 0.99  , -0.06  , -0.01  , 0.99  , -0.06  , -0.01  , 0.99  , -0.06  , -0.01  , 0.99  , -0.06  , -0.01  , 0.99  , -0.07  , -0.01  , 0.99  , -0.06  , -0.02  , 0.99  , -0.06  , -0.02  , 0.99  , -0.06  , -0.02  , 0.99  , -0.06  , -0.02  , 0.99  , -0.06  , -0.01  , 0.99  , -0.06  , -0.02  , 0.99  , -0.06  , -0.02  , 0.98 );
                        kernels[85] = compute_kernel(x,   -0.06  , -0.01  , 0.99  , -0.07  , -0.01  , 0.99  , -0.07  , -0.01  , 0.99  , -0.07  , -0.01  , 0.99  , -0.07  , -0.01  , 0.99  , -0.06  , -0.01  , 0.99  , -0.06  , -0.01  , 0.99  , -0.06  , -0.01  , 0.99  , -0.06  , -0.01  , 0.99  , -0.06  , -0.01  , 0.99  , -0.06  , -0.01  , 0.99  , -0.06  , -0.01  , 0.99  , -0.06  , -0.01  , 0.99  , -0.06  , -0.01  , 0.99  , -0.07  , -0.01  , 0.99  , -0.06  , -0.02  , 0.99  , -0.06  , -0.02  , 0.99  , -0.06  , -0.02  , 0.99  , -0.06  , -0.02  , 0.99  , -0.06  , -0.01  , 0.99 );
                        kernels[86] = compute_kernel(x,   -0.07  , -0.01  , 0.98  , -0.07  , -0.01  , 0.99  , -0.07  , -0.01  , 0.99  , -0.07  , -0.01  , 0.99  , -0.07  , -0.01  , 0.99  , -0.07  , -0.01  , 0.99  , -0.06  , -0.01  , 0.99  , -0.07  , -0.01  , 0.99  , -0.07  , -0.01  , 0.99  , -0.07  , -0.01  , 0.99  , -0.07  , -0.01  , 0.99  , -0.06  , -0.01  , 0.99  , -0.06  , -0.01  , 0.99  , -0.06  , -0.01  , 0.99  , -0.06  , -0.01  , 0.99  , -0.06  , -0.01  , 0.99  , -0.06  , -0.01  , 0.99  , -0.06  , -0.01  , 0.99  , -0.06  , -0.01  , 0.99  , -0.06  , -0.01  , 0.99 );
                        kernels[87] = compute_kernel(x,   -0.07  , -0.01  , 0.99  , -0.07  , -0.0  , 0.99  , -0.07  , -0.01  , 0.99  , -0.07  , -0.01  , 0.99  , -0.07  , -0.01  , 0.99  , -0.07  , -0.0  , 0.99  , -0.07  , -0.01  , 0.99  , -0.07  , -0.01  , 0.99  , -0.07  , -0.01  , 0.99  , -0.07  , -0.01  , 0.98  , -0.07  , -0.02  , 0.98  , -0.07  , -0.02  , 0.98  , -0.07  , -0.02  , 0.98  , -0.07  , -0.03  , 0.97  , -0.07  , -0.02  , 0.98  , -0.06  , -0.01  , 0.99  , -0.07  , -0.0  , 0.99  , -0.07  , -0.0  , 0.99  , -0.07  , -0.01  , 0.99  , -0.07  , -0.0  , 0.99 );
                        kernels[88] = compute_kernel(x,   -0.07  , -0.01  , 0.98  , -0.07  , -0.01  , 0.98  , -0.07  , -0.01  , 0.99  , -0.07  , -0.01  , 0.99  , -0.07  , -0.01  , 0.99  , -0.07  , -0.01  , 0.99  , -0.07  , -0.01  , 0.99  , -0.06  , -0.01  , 0.99  , -0.07  , -0.01  , 0.99  , -0.07  , -0.01  , 0.99  , -0.07  , -0.01  , 0.99  , -0.07  , -0.01  , 0.99  , -0.06  , -0.01  , 0.99  , -0.06  , -0.01  , 0.99  , -0.06  , -0.01  , 0.99  , -0.06  , -0.01  , 0.99  , -0.06  , -0.01  , 0.99  , -0.06  , -0.01  , 0.99  , -0.06  , -0.01  , 0.99  , -0.06  , -0.01  , 0.99 );
                        kernels[89] = compute_kernel(x,   -0.07  , -0.01  , 0.98  , -0.07  , -0.01  , 0.98  , -0.07  , -0.02  , 0.98  , -0.07  , -0.02  , 0.98  , -0.07  , -0.01  , 0.98  , -0.07  , -0.01  , 0.98  , -0.07  , -0.01  , 0.99  , -0.07  , -0.01  , 0.99  , -0.07  , -0.01  , 0.99  , -0.07  , -0.01  , 0.99  , -0.07  , -0.01  , 0.99  , -0.06  , -0.01  , 0.99  , -0.07  , -0.01  , 0.99  , -0.07  , -0.01  , 0.99  , -0.07  , -0.01  , 0.99  , -0.07  , -0.01  , 0.99  , -0.06  , -0.01  , 0.99  , -0.06  , -0.01  , 0.99  , -0.06  , -0.01  , 0.99  , -0.06  , -0.01  , 0.99 );
                        kernels[90] = compute_kernel(x,   -0.07  , -0.01  , 0.99  , -0.06  , -0.01  , 0.99  , -0.07  , -0.01  , 0.99  , -0.07  , -0.01  , 0.99  , -0.07  , -0.01  , 0.99  , -0.07  , -0.01  , 0.99  , -0.06  , -0.01  , 0.99  , -0.06  , -0.01  , 0.99  , -0.06  , -0.01  , 0.99  , -0.06  , -0.01  , 0.99  , -0.06  , -0.01  , 0.99  , -0.06  , -0.01  , 0.99  , -0.06  , -0.01  , 0.99  , -0.06  , -0.01  , 0.99  , -0.06  , -0.01  , 0.99  , -0.07  , -0.01  , 0.99  , -0.06  , -0.02  , 0.99  , -0.06  , -0.02  , 0.99  , -0.06  , -0.02  , 0.99  , -0.06  , -0.02  , 0.99 );
                        kernels[91] = compute_kernel(x,   -0.07  , -0.0  , 0.99  , -0.07  , -0.0  , 0.99  , -0.07  , -0.0  , 0.99  , -0.07  , -0.0  , 0.99  , -0.07  , -0.01  , 0.98  , -0.07  , -0.01  , 0.98  , -0.07  , -0.02  , 0.98  , -0.07  , -0.02  , 0.98  , -0.07  , -0.01  , 0.98  , -0.07  , -0.01  , 0.98  , -0.07  , -0.01  , 0.99  , -0.07  , -0.01  , 0.99  , -0.07  , -0.01  , 0.99  , -0.07  , -0.01  , 0.99  , -0.07  , -0.01  , 0.99  , -0.06  , -0.01  , 0.99  , -0.07  , -0.01  , 0.99  , -0.07  , -0.01  , 0.99  , -0.07  , -0.01  , 0.99  , -0.07  , -0.01  , 0.99 );
                        kernels[92] = compute_kernel(x,   -0.07  , -0.01  , 0.99  , -0.06  , -0.01  , 0.99  , -0.06  , -0.01  , 0.99  , -0.06  , -0.01  , 0.99  , -0.06  , -0.01  , 0.99  , -0.06  , -0.01  , 0.99  , -0.06  , -0.01  , 0.99  , -0.06  , -0.01  , 0.99  , -0.06  , -0.01  , 0.99  , -0.06  , -0.01  , 0.99  , -0.07  , -0.01  , 0.99  , -0.06  , -0.02  , 0.99  , -0.06  , -0.02  , 0.99  , -0.06  , -0.02  , 0.99  , -0.06  , -0.02  , 0.99  , -0.06  , -0.01  , 0.99  , -0.06  , -0.02  , 0.99  , -0.06  , -0.02  , 0.98  , -0.06  , -0.02  , 0.98  , -0.07  , -0.0  , 0.99 );
                        kernels[93] = compute_kernel(x,   -0.07  , -0.03  , 0.97  , -0.07  , -0.02  , 0.98  , -0.07  , -0.02  , 0.98  , -0.07  , -0.01  , 0.98  , -0.07  , -0.01  , 0.99  , -0.07  , -0.0  , 0.99  , -0.07  , -0.0  , 0.99  , -0.07  , -0.0  , 0.99  , -0.07  , -0.0  , 0.99  , -0.07  , -0.01  , 0.98  , -0.07  , -0.01  , 0.98  , -0.07  , -0.02  , 0.98  , -0.07  , -0.02  , 0.98  , -0.07  , -0.01  , 0.98  , -0.07  , -0.01  , 0.98  , -0.07  , -0.01  , 0.99  , -0.07  , -0.01  , 0.99  , -0.07  , -0.01  , 0.99  , -0.07  , -0.01  , 0.99  , -0.07  , -0.01  , 0.99 );
                        kernels[94] = compute_kernel(x,   -0.06  , -0.01  , 0.99  , -0.07  , -0.01  , 0.99  , -0.07  , -0.01  , 0.99  , -0.07  , -0.01  , 0.99  , -0.07  , -0.01  , 0.99  , -0.07  , -0.0  , 0.99  , -0.07  , -0.01  , 0.99  , -0.07  , -0.01  , 0.99  , -0.07  , -0.01  , 0.99  , -0.07  , -0.01  , 0.99  , -0.07  , -0.01  , 0.99  , -0.07  , -0.01  , 0.98  , -0.07  , -0.01  , 0.98  , -0.07  , -0.01  , 0.98  , -0.07  , -0.01  , 0.99  , -0.07  , -0.01  , 0.99  , -0.07  , -0.01  , 0.99  , -0.07  , -0.01  , 0.98  , -0.07  , -0.02  , 0.98  , -0.07  , -0.02  , 0.98 );
                        kernels[95] = compute_kernel(x,   -0.07  , -0.03  , 0.98  , -0.07  , -0.03  , 0.98  , -0.06  , -0.02  , 0.99  , -0.07  , -0.01  , 0.99  , -0.06  , -0.01  , 0.99  , -0.06  , -0.01  , 0.99  , -0.07  , -0.01  , 0.99  , -0.07  , -0.01  , 0.99  , -0.07  , -0.01  , 0.99  , -0.07  , -0.01  , 0.99  , -0.07  , -0.0  , 0.99  , -0.07  , -0.01  , 0.99  , -0.07  , -0.01  , 0.99  , -0.07  , -0.01  , 0.99  , -0.07  , -0.01  , 0.99  , -0.07  , -0.01  , 0.99  , -0.07  , -0.01  , 0.98  , -0.07  , -0.01  , 0.98  , -0.07  , -0.01  , 0.98  , -0.07  , -0.01  , 0.99 );
                        float decision = -0.090577656875;
                        decision = decision - ( + kernels[0] * -1.0  + kernels[1] * -1.0  + kernels[2] * -1.0  + kernels[3] * -1.0  + kernels[4] * -1.0  + kernels[5] * -1.0  + kernels[6] * -1.0  + kernels[7] * -1.0  + kernels[8] * -1.0  + kernels[9] * -1.0  + kernels[10] * -1.0  + kernels[11] * -1.0  + kernels[12] * -1.0  + kernels[13] * -1.0  + kernels[14] * -1.0  + kernels[15] * -1.0  + kernels[16] * -1.0  + kernels[17] * -0.96754278262  + kernels[18] * -1.0  + kernels[19] * -1.0  + kernels[20] * -1.0  + kernels[21] * -1.0  + kernels[22] * -1.0  + kernels[23] * -1.0  + kernels[24] * -0.55000520165  + kernels[25] * -1.0  + kernels[26] * -1.0  + kernels[27] * -1.0  + kernels[28] * -1.0  + kernels[29] * -1.0  + kernels[30] * -1.0  + kernels[31] * -1.0  + kernels[32] * -1.0  + kernels[33] * -1.0  + kernels[34] * -1.0  + kernels[35] * -1.0  + kernels[36] * -1.0  + kernels[37] * -0.808234854518  + kernels[38] * -1.0  + kernels[39] * -1.0  + kernels[40] * -1.0  + kernels[41] * -1.0  + kernels[42] * -1.0  + kernels[43] * -1.0  + kernels[44] * -1.0  + kernels[45] * -1.0  + kernels[46] * -1.0  + kernels[47] * -1.0 );
                        decision = decision - ( + kernels[48] * 1.0  + kernels[49] * 1.0  + kernels[50] * 1.0  + kernels[51] * 1.0  + kernels[52] * 1.0  + kernels[53] * 1.0  + kernels[54] * 1.0  + kernels[55] * 1.0  + kernels[56] * 1.0  + kernels[57] * 1.0  + kernels[58] * 1.0  + kernels[59] * 1.0  + kernels[60] * 1.0  + kernels[61] * 1.0  + kernels[62] * 1.0  + kernels[63] * 1.0  + kernels[64] * 1.0  + kernels[65] * 1.0  + kernels[66] * 1.0  + kernels[67] * 1.0  + kernels[68] * 1.0  + kernels[69] * 1.0  + kernels[70] * 1.0  + kernels[71] * 1.0  + kernels[72] * 1.0  + kernels[73] * 1.0  + kernels[74] * 1.0  + kernels[75] * 1.0  + kernels[76] * 1.0  + kernels[77] * 1.0  + kernels[78] * 1.0  + kernels[79] * 1.0  + kernels[80] * 1.0  + kernels[81] * 1.0  + kernels[82] * 1.0  + kernels[83] * 1.0  + kernels[84] * 1.0  + kernels[85] * 1.0  + kernels[86] * 1.0  + kernels[87] * 1.0  + kernels[88] * 1.0  + kernels[89] * 1.0  + kernels[90] * 1.0  + kernels[91] * 1.0  + kernels[92] * 1.0  + kernels[93] * 1.0  + kernels[94] * 1.0  + kernels[95] * 0.325782838788 );

                        return decision > 0 ? 0 : 1;
                    }

                protected:
                    /**
                    * Compute kernel between feature vector and support vector.
                    * Kernel type: rbf
                    */
                    float compute_kernel(float *x, ...) {
                        va_list w;
                        va_start(w, 60);
                        float kernel = 0.0;

                        for (uint16_t i = 0; i < 60; i++) {
                            kernel += pow(x[i] - va_arg(w, double), 2);
                        }

                        return exp(-0.5 * kernel);
                    }
                };
            }
        }
    }