#pragma once
#include <cstdarg>
namespace Eloquent {
    namespace ML {
        namespace Port {
            class DecisionTree {
                public:
                    /**
                    * Predict class for features vector
                    */
                    int predict(float *x) {
                        if (x[34] <= 0.044999999925494194) {
                            if (x[33] <= -0.024999999441206455) {
                                if (x[46] <= 0.014999999664723873) {
                                    if (x[27] <= -0.06499999947845936) {
                                        if (x[6] <= -0.054999999701976776) {
                                            if (x[39] <= -0.054999999701976776) {
                                                if (x[51] <= -0.054999999701976776) {
                                                    if (x[24] <= -0.054999999701976776) {
                                                        if (x[45] <= -0.04499999899417162) {
                                                            return 1;
                                                        }

                                                        else {
                                                            if (x[13] <= -0.0400000000372529) {
                                                                return 2;
                                                            }

                                                            else {
                                                                return 4;
                                                            }
                                                        }
                                                    }

                                                    else {
                                                        return 4;
                                                    }
                                                }

                                                else {
                                                    if (x[52] <= -0.024999999441206455) {
                                                        return 2;
                                                    }

                                                    else {
                                                        return 4;
                                                    }
                                                }
                                            }

                                            else {
                                                if (x[16] <= -0.024999999441206455) {
                                                    if (x[18] <= -0.06499999947845936) {
                                                        return 4;
                                                    }

                                                    else {
                                                        return 2;
                                                    }
                                                }

                                                else {
                                                    if (x[1] <= -0.029999999329447746) {
                                                        return 2;
                                                    }

                                                    else {
                                                        if (x[13] <= -0.03499999921768904) {
                                                            return 2;
                                                        }

                                                        else {
                                                            return 4;
                                                        }
                                                    }
                                                }
                                            }
                                        }

                                        else {
                                            if (x[16] <= -0.024999999441206455) {
                                                if (x[48] <= -0.06499999947845936) {
                                                    return 4;
                                                }

                                                else {
                                                    if (x[42] <= -0.024999999441206455) {
                                                        if (x[51] <= -0.0950000025331974) {
                                                            return 4;
                                                        }

                                                        else {
                                                            return 2;
                                                        }
                                                    }

                                                    else {
                                                        return 4;
                                                    }
                                                }
                                            }

                                            else {
                                                if (x[4] <= -0.03499999921768904) {
                                                    if (x[10] <= 0.014999999664723873) {
                                                        return 2;
                                                    }

                                                    else {
                                                        return 4;
                                                    }
                                                }

                                                else {
                                                    if (x[43] <= -0.024999999441206455) {
                                                        if (x[18] <= -0.044999999925494194) {
                                                            return 2;
                                                        }

                                                        else {
                                                            if (x[21] <= -0.044999999925494194) {
                                                                return 4;
                                                            }

                                                            else {
                                                                return 2;
                                                            }
                                                        }
                                                    }

                                                    else {
                                                        if (x[13] <= -0.044999999925494194) {
                                                            return 2;
                                                        }

                                                        else {
                                                            return 4;
                                                        }
                                                    }
                                                }
                                            }
                                        }
                                    }

                                    else {
                                        if (x[28] <= -0.024999999441206455) {
                                            if (x[45] <= -0.024999999441206455) {
                                                if (x[21] <= -0.06499999947845936) {
                                                    if (x[22] <= -0.004999999888241291) {
                                                        if (x[51] <= -0.06499999947845936) {
                                                            return 1;
                                                        }

                                                        else {
                                                            return 4;
                                                        }
                                                    }

                                                    else {
                                                        if (x[9] <= -0.019999999552965164) {
                                                            if (x[55] <= 0.019999999552965164) {
                                                                return 2;
                                                            }

                                                            else {
                                                                return 4;
                                                            }
                                                        }

                                                        else {
                                                            return 4;
                                                        }
                                                    }
                                                }

                                                else {
                                                    if (x[10] <= 0.024999999441206455) {
                                                        if (x[3] <= -0.024999999441206455) {
                                                            if (x[18] <= -0.08500000089406967) {
                                                                if (x[21] <= -0.054999999701976776) {
                                                                    return 2;
                                                                }

                                                                else {
                                                                    return 4;
                                                                }
                                                            }

                                                            else {
                                                                if (x[42] <= -0.019999999552965164) {
                                                                    if (x[0] <= -0.08500000089406967) {
                                                                        return 4;
                                                                    }

                                                                    else {
                                                                        if (x[19] <= 0.024999999441206455) {
                                                                            if (x[31] <= 0.014999999664723873) {
                                                                                if (x[3] <= -0.06499999947845936) {
                                                                                    if (x[18] <= -0.06499999947845936) {
                                                                                        return 1;
                                                                                    }

                                                                                    else {
                                                                                        return 2;
                                                                                    }
                                                                                }

                                                                                else {
                                                                                    return 2;
                                                                                }
                                                                            }

                                                                            else {
                                                                                if (x[4] <= -0.004999999888241291) {
                                                                                    return 2;
                                                                                }

                                                                                else {
                                                                                    return 4;
                                                                                }
                                                                            }
                                                                        }

                                                                        else {
                                                                            return 4;
                                                                        }
                                                                    }
                                                                }

                                                                else {
                                                                    return 4;
                                                                }
                                                            }
                                                        }

                                                        else {
                                                            return 4;
                                                        }
                                                    }

                                                    else {
                                                        return 4;
                                                    }
                                                }
                                            }

                                            else {
                                                if (x[0] <= -0.009999999776482582) {
                                                    if (x[31] <= -0.029999999329447746) {
                                                        return 2;
                                                    }

                                                    else {
                                                        return 4;
                                                    }
                                                }

                                                else {
                                                    return 5;
                                                }
                                            }
                                        }

                                        else {
                                            if (x[24] <= 0.004999999888241291) {
                                                if (x[40] <= -0.03499999921768904) {
                                                    if (x[58] <= 0.024999999441206455) {
                                                        if (x[45] <= -0.10000000149011612) {
                                                            return 4;
                                                        }

                                                        else {
                                                            return 2;
                                                        }
                                                    }

                                                    else {
                                                        return 4;
                                                    }
                                                }

                                                else {
                                                    if (x[43] <= 0.03499999921768904) {
                                                        if (x[10] <= -0.004999999888241291) {
                                                            if (x[3] <= -0.06499999947845936) {
                                                                if (x[27] <= -0.054999999701976776) {
                                                                    if (x[51] <= -0.054999999701976776) {
                                                                        if (x[4] <= 0.0) {
                                                                            return 1;
                                                                        }

                                                                        else {
                                                                            return 2;
                                                                        }
                                                                    }

                                                                    else {
                                                                        if (x[22] <= -0.024999999441206455) {
                                                                            return 2;
                                                                        }

                                                                        else {
                                                                            return 4;
                                                                        }
                                                                    }
                                                                }

                                                                else {
                                                                    if (x[49] <= -0.024999999441206455) {
                                                                        if (x[12] <= -0.054999999701976776) {
                                                                            return 2;
                                                                        }

                                                                        else {
                                                                            return 4;
                                                                        }
                                                                    }

                                                                    else {
                                                                        return 4;
                                                                    }
                                                                }
                                                            }

                                                            else {
                                                                if (x[4] <= -0.024999999441206455) {
                                                                    if (x[21] <= -0.029999999329447746) {
                                                                        if (x[25] <= 0.019999999552965164) {
                                                                            if (x[7] <= 0.014999999664723873) {
                                                                                return 2;
                                                                            }

                                                                            else {
                                                                                return 4;
                                                                            }
                                                                        }

                                                                        else {
                                                                            return 4;
                                                                        }
                                                                    }

                                                                    else {
                                                                        return 4;
                                                                    }
                                                                }

                                                                else {
                                                                    if (x[16] <= -0.03499999921768904) {
                                                                        if (x[9] <= -0.019999999552965164) {
                                                                            return 2;
                                                                        }

                                                                        else {
                                                                            return 4;
                                                                        }
                                                                    }

                                                                    else {
                                                                        if (x[55] <= -0.024999999441206455) {
                                                                            if (x[54] <= -0.054999999701976776) {
                                                                                if (x[24] <= -0.04999999888241291) {
                                                                                    return 1;
                                                                                }

                                                                                else {
                                                                                    return 4;
                                                                                }
                                                                            }

                                                                            else {
                                                                                return 2;
                                                                            }
                                                                        }

                                                                        else {
                                                                            if (x[7] <= -0.024999999441206455) {
                                                                                if (x[23] <= 0.9850000143051147) {
                                                                                    return 4;
                                                                                }

                                                                                else {
                                                                                    return 2;
                                                                                }
                                                                            }

                                                                            else {
                                                                                if (x[42] <= 0.009999999776482582) {
                                                                                    if (x[11] <= 0.9850000143051147) {
                                                                                        if (x[25] <= -0.044999999925494194) {
                                                                                            return 2;
                                                                                        }

                                                                                        else {
                                                                                            if (x[31] <= -0.03499999921768904) {
                                                                                                return 2;
                                                                                            }

                                                                                            else {
                                                                                                if (x[22] <= -0.024999999441206455) {
                                                                                                    if (x[37] <= -0.004999999888241291) {
                                                                                                        if (x[6] <= -0.06499999947845936) {
                                                                                                            return 1;
                                                                                                        }

                                                                                                        else {
                                                                                                            return 2;
                                                                                                        }
                                                                                                    }

                                                                                                    else {
                                                                                                        return 4;
                                                                                                    }
                                                                                                }

                                                                                                else {
                                                                                                    return 4;
                                                                                                }
                                                                                            }
                                                                                        }
                                                                                    }

                                                                                    else {
                                                                                        if (x[3] <= -0.054999999701976776) {
                                                                                            return 1;
                                                                                        }

                                                                                        else {
                                                                                            if (x[2] <= 0.9850000143051147) {
                                                                                                return 4;
                                                                                            }

                                                                                            else {
                                                                                                return 2;
                                                                                            }
                                                                                        }
                                                                                    }
                                                                                }

                                                                                else {
                                                                                    return 5;
                                                                                }
                                                                            }
                                                                        }
                                                                    }
                                                                }
                                                            }
                                                        }

                                                        else {
                                                            if (x[55] <= -0.03499999921768904) {
                                                                if (x[49] <= 0.004999999888241291) {
                                                                    return 2;
                                                                }

                                                                else {
                                                                    if (x[1] <= -0.03000000026077032) {
                                                                        return 2;
                                                                    }

                                                                    else {
                                                                        return 4;
                                                                    }
                                                                }
                                                            }

                                                            else {
                                                                if (x[37] <= -0.024999999441206455) {
                                                                    if (x[43] <= -0.014999999664723873) {
                                                                        if (x[51] <= -0.029999999329447746) {
                                                                            if (x[40] <= 0.014999999664723873) {
                                                                                return 2;
                                                                            }

                                                                            else {
                                                                                if (x[21] <= -0.054999999701976776) {
                                                                                    return 2;
                                                                                }

                                                                                else {
                                                                                    return 4;
                                                                                }
                                                                            }
                                                                        }

                                                                        else {
                                                                            return 4;
                                                                        }
                                                                    }

                                                                    else {
                                                                        if (x[3] <= -0.054999999701976776) {
                                                                            if (x[40] <= -0.004999999888241291) {
                                                                                return 2;
                                                                            }

                                                                            else {
                                                                                if (x[4] <= -0.004999999888241291) {
                                                                                    return 5;
                                                                                }

                                                                                else {
                                                                                    return 4;
                                                                                }
                                                                            }
                                                                        }

                                                                        else {
                                                                            return 4;
                                                                        }
                                                                    }
                                                                }

                                                                else {
                                                                    if (x[42] <= 0.009999999776482582) {
                                                                        if (x[58] <= -0.03499999921768904) {
                                                                            if (x[24] <= -0.07499999925494194) {
                                                                                return 4;
                                                                            }

                                                                            else {
                                                                                return 2;
                                                                            }
                                                                        }

                                                                        else {
                                                                            if (x[34] <= 0.03499999921768904) {
                                                                                if (x[22] <= -0.03499999921768904) {
                                                                                    if (x[30] <= -0.054999999701976776) {
                                                                                        return 4;
                                                                                    }

                                                                                    else {
                                                                                        return 2;
                                                                                    }
                                                                                }

                                                                                else {
                                                                                    if (x[25] <= -0.044999999925494194) {
                                                                                        if (x[51] <= -0.044999999925494194) {
                                                                                            return 2;
                                                                                        }

                                                                                        else {
                                                                                            return 4;
                                                                                        }
                                                                                    }

                                                                                    else {
                                                                                        if (x[35] <= 0.9950000047683716) {
                                                                                            if (x[46] <= -0.044999999925494194) {
                                                                                                return 2;
                                                                                            }

                                                                                            else {
                                                                                                if (x[43] <= -0.044999999925494194) {
                                                                                                    return 2;
                                                                                                }

                                                                                                else {
                                                                                                    if (x[31] <= -0.044999999925494194) {
                                                                                                        if (x[50] <= 0.9800000190734863) {
                                                                                                            return 2;
                                                                                                        }

                                                                                                        else {
                                                                                                            return 4;
                                                                                                        }
                                                                                                    }

                                                                                                    else {
                                                                                                        if (x[52] <= 0.03499999921768904) {
                                                                                                            if (x[1] <= 0.03499999921768904) {
                                                                                                                if (x[1] <= -0.024999999441206455) {
                                                                                                                    if (x[16] <= -0.024999999441206455) {
                                                                                                                        return 1;
                                                                                                                    }

                                                                                                                    else {
                                                                                                                        return 4;
                                                                                                                    }
                                                                                                                }

                                                                                                                else {
                                                                                                                    return 4;
                                                                                                                }
                                                                                                            }

                                                                                                            else {
                                                                                                                if (x[51] <= -0.060000001452863216) {
                                                                                                                    return 4;
                                                                                                                }

                                                                                                                else {
                                                                                                                    return 0;
                                                                                                                }
                                                                                                            }
                                                                                                        }

                                                                                                        else {
                                                                                                            if (x[54] <= -0.044999999925494194) {
                                                                                                                return 0;
                                                                                                            }

                                                                                                            else {
                                                                                                                return 4;
                                                                                                            }
                                                                                                        }
                                                                                                    }
                                                                                                }
                                                                                            }
                                                                                        }

                                                                                        else {
                                                                                            return 2;
                                                                                        }
                                                                                    }
                                                                                }
                                                                            }

                                                                            else {
                                                                                if (x[30] <= -0.044999999925494194) {
                                                                                    return 4;
                                                                                }

                                                                                else {
                                                                                    return 0;
                                                                                }
                                                                            }
                                                                        }
                                                                    }

                                                                    else {
                                                                        return 5;
                                                                    }
                                                                }
                                                            }
                                                        }
                                                    }

                                                    else {
                                                        if (x[49] <= 0.024999999441206455) {
                                                            return 4;
                                                        }

                                                        else {
                                                            return 0;
                                                        }
                                                    }
                                                }
                                            }

                                            else {
                                                return 5;
                                            }
                                        }
                                    }
                                }

                                else {
                                    if (x[47] <= 0.9850000143051147) {
                                        if (x[25] <= 0.06499999947845936) {
                                            if (x[34] <= 0.004999999888241291) {
                                                if (x[0] <= -0.009999999776482582) {
                                                    if (x[55] <= -0.03500000014901161) {
                                                        return 2;
                                                    }

                                                    else {
                                                        if (x[52] <= 0.03499999921768904) {
                                                            return 4;
                                                        }

                                                        else {
                                                            return 0;
                                                        }
                                                    }
                                                }

                                                else {
                                                    return 5;
                                                }
                                            }

                                            else {
                                                if (x[40] <= 0.004999999888241291) {
                                                    return 4;
                                                }

                                                else {
                                                    if (x[5] <= 0.9750000238418579) {
                                                        if (x[35] <= 0.9850000143051147) {
                                                            return 3;
                                                        }

                                                        else {
                                                            return 2;
                                                        }
                                                    }

                                                    else {
                                                        return 0;
                                                    }
                                                }
                                            }
                                        }

                                        else {
                                            return 3;
                                        }
                                    }

                                    else {
                                        if (x[52] <= 0.03499999921768904) {
                                            if (x[42] <= 0.009999999776482582) {
                                                if (x[16] <= -0.024999999441206455) {
                                                    if (x[48] <= -0.019999999552965164) {
                                                        return 2;
                                                    }

                                                    else {
                                                        return 4;
                                                    }
                                                }

                                                else {
                                                    if (x[25] <= -0.0400000000372529) {
                                                        return 2;
                                                    }

                                                    else {
                                                        if (x[0] <= -0.004999999888241291) {
                                                            if (x[13] <= -0.044999999925494194) {
                                                                if (x[36] <= -0.054999999701976776) {
                                                                    return 4;
                                                                }

                                                                else {
                                                                    return 2;
                                                                }
                                                            }

                                                            else {
                                                                if (x[49] <= -0.03499999921768904) {
                                                                    return 2;
                                                                }

                                                                else {
                                                                    if (x[1] <= 0.03499999921768904) {
                                                                        if (x[4] <= 0.03499999921768904) {
                                                                            return 4;
                                                                        }

                                                                        else {
                                                                            if (x[57] <= -0.04999999888241291) {
                                                                                return 4;
                                                                            }

                                                                            else {
                                                                                return 0;
                                                                            }
                                                                        }
                                                                    }

                                                                    else {
                                                                        return 0;
                                                                    }
                                                                }
                                                            }
                                                        }

                                                        else {
                                                            if (x[0] <= 0.019999999552965164) {
                                                                return 3;
                                                            }

                                                            else {
                                                                return 5;
                                                            }
                                                        }
                                                    }
                                                }
                                            }

                                            else {
                                                return 5;
                                            }
                                        }

                                        else {
                                            if (x[37] <= 0.044999999925494194) {
                                                return 0;
                                            }

                                            else {
                                                return 3;
                                            }
                                        }
                                    }
                                }
                            }

                            else {
                                if (x[54] <= -0.044999999925494194) {
                                    if (x[36] <= -0.03499999921768904) {
                                        if (x[52] <= -0.0400000000372529) {
                                            return 2;
                                        }

                                        else {
                                            if (x[21] <= -0.03499999921768904) {
                                                return 4;
                                            }

                                            else {
                                                return 0;
                                            }
                                        }
                                    }

                                    else {
                                        return 5;
                                    }
                                }

                                else {
                                    if (x[7] <= 0.06499999947845936) {
                                        if (x[0] <= -0.06999999843537807) {
                                            return 4;
                                        }

                                        else {
                                            if (x[51] <= -0.06999999843537807) {
                                                return 4;
                                            }

                                            else {
                                                if (x[57] <= -0.06499999947845936) {
                                                    return 4;
                                                }

                                                else {
                                                    return 5;
                                                }
                                            }
                                        }
                                    }

                                    else {
                                        if (x[37] <= 0.03999999910593033) {
                                            return 5;
                                        }

                                        else {
                                            return 3;
                                        }
                                    }
                                }
                            }
                        }

                        else {
                            if (x[40] <= 0.014999999664723873) {
                                if (x[13] <= 0.04999999888241291) {
                                    if (x[33] <= -0.03000000026077032) {
                                        return 4;
                                    }

                                    else {
                                        return 5;
                                    }
                                }

                                else {
                                    return 3;
                                }
                            }

                            else {
                                if (x[49] <= -0.014999999664723873) {
                                    return 5;
                                }

                                else {
                                    if (x[22] <= -0.004999999888241291) {
                                        return 4;
                                    }

                                    else {
                                        if (x[52] <= 0.024999999441206455) {
                                            if (x[10] <= 0.044999999925494194) {
                                                return 0;
                                            }

                                            else {
                                                return 3;
                                            }
                                        }

                                        else {
                                            return 3;
                                        }
                                    }
                                }
                            }
                        }
                    }

                protected:
                };
            }
        }
    }