#pragma once
#include <cstdarg>
namespace Eloquent {
    namespace ML {
        namespace Port {
            class GaussianNB {
                public:
                    /**
                    * Predict class for features vector
                    */
                    int predict(float *x) {
                        float votes[6] = { 0.0f };
                        float theta[60] = { 0 };
                        float sigma[60] = { 0 };
                        theta[0] = -0.040363825364; theta[1] = 0.027827442827; theta[2] = 0.980207900208; theta[3] = -0.04053014553; theta[4] = 0.027733887734; theta[5] = 0.98025987526; theta[6] = -0.040384615385; theta[7] = 0.027817047817; theta[8] = 0.980197505198; theta[9] = -0.040467775468; theta[10] = 0.027681912682; theta[11] = 0.980228690229; theta[12] = -0.040405405405; theta[13] = 0.027920997921; theta[14] = 0.980239085239; theta[15] = -0.040478170478; theta[16] = 0.027723492723; theta[17] = 0.980239085239; theta[18] = -0.040478170478; theta[19] = 0.02788981289; theta[20] = 0.98025987526; theta[21] = -0.040415800416; theta[22] = 0.027692307692; theta[23] = 0.980239085239; theta[24] = -0.04051975052; theta[25] = 0.027733887734; theta[26] = 0.980249480249; theta[27] = -0.040363825364; theta[28] = 0.02761954262; theta[29] = 0.98027027027; theta[30] = -0.040498960499; theta[31] = 0.027806652807; theta[32] = 0.980228690229; theta[33] = -0.040374220374; theta[34] = 0.027785862786; theta[35] = 0.98027027027; theta[36] = -0.040550935551; theta[37] = 0.027681912682; theta[38] = 0.980228690229; theta[39] = -0.040353430353; theta[40] = 0.027765072765; theta[41] = 0.980228690229; theta[42] = -0.040467775468; theta[43] = 0.027650727651; theta[44] = 0.980228690229; theta[45] = -0.040384615385; theta[46] = 0.027837837838; theta[47] = 0.98025987526; theta[48] = -0.040415800416; theta[49] = 0.027536382536; theta[50] = 0.98027027027; theta[51] = -0.040498960499; theta[52] = 0.027817047817; theta[53] = 0.98027027027; theta[54] = -0.040384615385; theta[55] = 0.027515592516; theta[56] = 0.980239085239; theta[57] = -0.040634095634; theta[58] = 0.027920997921; theta[59] = 0.98025987526;
                        sigma[0] = 7.3360358e-05; sigma[1] = 0.000113471267; sigma[2] = 2.035783e-06; sigma[3] = 7.3835373e-05; sigma[4] = 0.000110457254; sigma[5] = 2.531221e-06; sigma[6] = 7.3968499e-05; sigma[7] = 0.000112906241; sigma[8] = 1.936047e-06; sigma[9] = 7.2650213e-05; sigma[10] = 0.000111362442; sigma[11] = 2.234607e-06; sigma[12] = 7.4367875e-05; sigma[13] = 0.00011127027; sigma[14] = 2.333694e-06; sigma[15] = 7.295223e-05; sigma[16] = 0.000109890283; sigma[17] = 2.333694e-06; sigma[18] = 7.5031232e-05; sigma[19] = 0.00011165938; sigma[20] = 2.531221e-06; sigma[21] = 7.3007987e-05; sigma[22] = 0.000110890776; sigma[23] = 2.333694e-06; sigma[24] = 7.3326537e-05; sigma[25] = 0.000112328356; sigma[26] = 2.432566e-06; sigma[27] = 7.4399859e-05; sigma[28] = 0.000112732595; sigma[29] = 2.62966e-06; sigma[30] = 7.3763516e-05; sigma[31] = 0.000110469897; sigma[32] = 2.234607e-06; sigma[33] = 7.3664537e-05; sigma[34] = 0.000111833567; sigma[35] = 2.62966e-06; sigma[36] = 7.3812898e-05; sigma[37] = 0.000113441444; sigma[38] = 2.234607e-06; sigma[39] = 7.3471764e-05; sigma[40] = 0.00011153317; sigma[41] = 2.234607e-06; sigma[42] = 7.4729215e-05; sigma[43] = 0.000109865538; sigma[44] = 2.234607e-06; sigma[45] = 7.52159e-05; sigma[46] = 0.000109670173; sigma[47] = 2.531221e-06; sigma[48] = 7.4255388e-05; sigma[49] = 0.000112537661; sigma[50] = 2.62966e-06; sigma[51] = 7.4595117e-05; sigma[52] = 0.000114153642; sigma[53] = 2.62966e-06; sigma[54] = 7.2928998e-05; sigma[55] = 0.000112642692; sigma[56] = 2.333694e-06; sigma[57] = 7.2674849e-05; sigma[58] = 0.000110646569; sigma[59] = 2.531221e-06;
                        votes[0] = 0.144379408675 - gauss(x, theta, sigma);
                        theta[0] = -0.068191489362; theta[1] = -0.020195035461; theta[2] = 0.981382978723; theta[3] = -0.068280141844; theta[4] = -0.020292553191; theta[5] = 0.981294326241; theta[6] = -0.06829787234; theta[7] = -0.020354609929; theta[8] = 0.981205673759; theta[9] = -0.068289007092; theta[10] = -0.020390070922; theta[11] = 0.981276595745; theta[12] = -0.068235815603; theta[13] = -0.020372340426; theta[14] = 0.98125; theta[15] = -0.06820035461; theta[16] = -0.020319148936; theta[17] = 0.981303191489; theta[18] = -0.068244680851; theta[19] = -0.02024822695; theta[20] = 0.981409574468; theta[21] = -0.068218085106; theta[22] = -0.020265957447; theta[23] = 0.981418439716; theta[24] = -0.068271276596; theta[25] = -0.020239361702; theta[26] = 0.981329787234; theta[27] = -0.068262411348; theta[28] = -0.020354609929; theta[29] = 0.981320921986; theta[30] = -0.068209219858; theta[31] = -0.02030141844; theta[32] = 0.981338652482; theta[33] = -0.068156028369; theta[34] = -0.020132978723; theta[35] = 0.981542553192; theta[36] = -0.068164893617; theta[37] = -0.020008865248; theta[38] = 0.981595744681; theta[39] = -0.068173758865; theta[40] = -0.019875886525; theta[41] = 0.98164893617; theta[42] = -0.068226950355; theta[43] = -0.019725177305; theta[44] = 0.981826241135; theta[45] = -0.068226950355; theta[46] = -0.01975177305; theta[47] = 0.981755319149; theta[48] = -0.068271276596; theta[49] = -0.019929078014; theta[50] = 0.981613475177; theta[51] = -0.068271276596; theta[52] = -0.020008865248; theta[53] = 0.981560283688; theta[54] = -0.068226950355; theta[55] = -0.020062056738; theta[56] = 0.981515957447; theta[57] = -0.068289007092; theta[58] = -0.020212765957; theta[59] = 0.98140070922;
                        sigma[0] = 1.4814399e-05; sigma[1] = 8.4713738e-05; sigma[2] = 5.6598012e-05; sigma[3] = 1.4240673e-05; sigma[4] = 8.7414416e-05; sigma[5] = 5.7721886e-05; sigma[6] = 1.4124042e-05; sigma[7] = 8.5335248e-05; sigma[8] = 5.7588908e-05; sigma[9] = 1.4182436e-05; sigma[10] = 8.4954231e-05; sigma[11] = 5.6171725e-05; sigma[12] = 1.4529501e-05; sigma[13] = 8.4258529e-05; sigma[14] = 5.615027e-05; sigma[15] = 1.4757734e-05; sigma[16] = 8.5891055e-05; sigma[17] = 5.6723681e-05; sigma[18] = 1.447205e-05; sigma[19] = 8.5931295e-05; sigma[20] = 5.6257784e-05; sigma[21] = 1.4643932e-05; sigma[22] = 8.5390263e-05; sigma[23] = 5.6321366e-05; sigma[24] = 1.4298753e-05; sigma[25] = 8.5846965e-05; sigma[26] = 5.6210393e-05; sigma[27] = 1.4356676e-05; sigma[28] = 8.5512553e-05; sigma[29] = 5.6677155e-05; sigma[30] = 1.4700912e-05; sigma[31] = 8.5902058e-05; sigma[32] = 5.8048439e-05; sigma[33] = 1.5039489e-05; sigma[34] = 8.4468136e-05; sigma[35] = 5.6485782e-05; sigma[36] = 1.4983452e-05; sigma[37] = 8.3953826e-05; sigma[38] = 5.6141546e-05; sigma[39] = 1.4927258e-05; sigma[40] = 8.4736373e-05; sigma[41] = 5.7210091e-05; sigma[42] = 1.4586795e-05; sigma[43] = 8.5119512e-05; sigma[44] = 5.57074e-05; sigma[45] = 1.4586795e-05; sigma[46] = 8.4512855e-05; sigma[47] = 5.5961412e-05; sigma[48] = 1.4298753e-05; sigma[49] = 8.5810577e-05; sigma[50] = 5.5730035e-05; sigma[51] = 1.4298753e-05; sigma[52] = 8.625879e-05; sigma[53] = 5.6430767e-05; sigma[54] = 1.4586795e-05; sigma[55] = 8.5368493e-05; sigma[56] = 5.7010387e-05; sigma[57] = 1.4182436e-05; sigma[58] = 8.5415727e-05; sigma[59] = 5.6903266e-05;
                        votes[1] = 0.169293111211 - gauss(x, theta, sigma);
                        theta[0] = -0.052952941176; theta[1] = -0.019752941176; theta[2] = 0.982905882353; theta[3] = -0.053235294118; theta[4] = -0.019517647059; theta[5] = 0.982976470588; theta[6] = -0.053211764706; theta[7] = -0.019705882353; theta[8] = 0.983023529412; theta[9] = -0.053317647059; theta[10] = -0.019282352941; theta[11] = 0.982952941176; theta[12] = -0.053494117647; theta[13] = -0.018976470588; theta[14] = 0.983035294118; theta[15] = -0.053176470588; theta[16] = -0.019894117647; theta[17] = 0.982717647059; theta[18] = -0.053352941176; theta[19] = -0.019129411765; theta[20] = 0.982952941176; theta[21] = -0.053211764706; theta[22] = -0.019564705882; theta[23] = 0.982870588235; theta[24] = -0.053141176471; theta[25] = -0.019576470588; theta[26] = 0.982870588235; theta[27] = -0.053223529412; theta[28] = -0.019741176471; theta[29] = 0.982823529412; theta[30] = -0.053188235294; theta[31] = -0.019329411765; theta[32] = 0.982929411765; theta[33] = -0.053282352941; theta[34] = -0.019470588235; theta[35] = 0.982741176471; theta[36] = -0.053305882353; theta[37] = -0.019741176471; theta[38] = 0.982729411765; theta[39] = -0.053235294118; theta[40] = -0.019717647059; theta[41] = 0.982647058824; theta[42] = -0.053341176471; theta[43] = -0.019717647059; theta[44] = 0.982776470588; theta[45] = -0.053294117647; theta[46] = -0.019552941176; theta[47] = 0.982823529412; theta[48] = -0.053294117647; theta[49] = -0.019011764706; theta[50] = 0.982964705882; theta[51] = -0.053141176471; theta[52] = -0.019658823529; theta[53] = 0.982658823529; theta[54] = -0.053188235294; theta[55] = -0.019588235294; theta[56] = 0.982823529412; theta[57] = -0.052941176471; theta[58] = -0.02; theta[59] = 0.982764705882;
                        sigma[0] = 0.000115868377; sigma[1] = 0.000510409554; sigma[2] = 6.2497028e-05; sigma[3] = 0.000117650523; sigma[4] = 0.000515414398; sigma[5] = 6.3258274e-05; sigma[6] = 0.000117096336; sigma[7] = 0.000513913498; sigma[8] = 6.1093568e-05; sigma[9] = 0.000112287339; sigma[10] = 0.00050454381; sigma[11] = 6.2456613e-05; sigma[12] = 0.000116379381; sigma[13] = 0.000501187685; sigma[14] = 6.2081111e-05; sigma[15] = 0.000116498274; sigma[16] = 0.000512577028; sigma[17] = 6.4261457e-05; sigma[18] = 0.000116640142; sigma[19] = 0.000507712668; sigma[20] = 6.2221319e-05; sigma[21] = 0.000115449277; sigma[22] = 0.00052110464; sigma[23] = 6.2347962e-05; sigma[24] = 0.000119191838; sigma[25] = 0.000517702979; sigma[26] = 6.3995021e-05; sigma[27] = 0.000117138274; sigma[28] = 0.00051287419; sigma[29] = 6.1910038e-05; sigma[30] = 0.000112305748; sigma[31] = 0.000505315021; sigma[32] = 6.3065609e-05; sigma[33] = 0.000116167339; sigma[34] = 0.000510896197; sigma[35] = 6.389772e-05; sigma[36] = 0.00011930644; sigma[37] = 0.000513815367; sigma[38] = 6.4550315e-05; sigma[39] = 0.000116474052; sigma[40] = 0.000513332045; sigma[41] = 6.3228377e-05; sigma[42] = 0.000119660073; sigma[43] = 0.000520626163; sigma[44] = 6.2408862e-05; sigma[45] = 0.000113854675; sigma[46] = 0.000504976613; sigma[47] = 6.4733568e-05; sigma[48] = 0.000117148793; sigma[49] = 0.000517141042; sigma[50] = 6.4151699e-05; sigma[51] = 0.000114956543; sigma[52] = 0.000523530661; sigma[53] = 6.4224779e-05; sigma[54] = 0.000118188101; sigma[55] = 0.000507948101; sigma[56] = 6.2615921e-05; sigma[57] = 0.000116761249; sigma[58] = 0.000503058827; sigma[59] = 6.3062287e-05;
                        votes[2] = 0.12757016359 - gauss(x, theta, sigma);
                        theta[0] = -0.004202401372; theta[1] = 0.088044596913; theta[2] = 0.979622641509; theta[3] = -0.003670668954; theta[4] = 0.088679245283; theta[5] = 0.979777015437; theta[6] = -0.003739279588; theta[7] = 0.088953687822; theta[8] = 0.979382504288; theta[9] = -0.003687821612; theta[10] = 0.088927958834; theta[11] = 0.980334476844; theta[12] = -0.003936535163; theta[13] = 0.089202401372; theta[14] = 0.979699828473; theta[15] = -0.003619210978; theta[16] = 0.088610634648; theta[17] = 0.979699828473; theta[18] = -0.003910806175; theta[19] = 0.087727272727; theta[20] = 0.980162950257; theta[21] = -0.003387650086; theta[22] = 0.088627787307; theta[23] = 0.980317324185; theta[24] = -0.004219554031; theta[25] = 0.088070325901; theta[26] = 0.980300171527; theta[27] = -0.005411663808; theta[28] = 0.087066895369; theta[29] = 0.979373927959; theta[30] = -0.004022298456; theta[31] = 0.088542024014; theta[32] = 0.97987135506; theta[33] = -0.00397084048; theta[34] = 0.089005145798; theta[35] = 0.980154373928; theta[36] = -0.003867924528; theta[37] = 0.089090909091; theta[38] = 0.979656946827; theta[39] = -0.004176672384; theta[40] = 0.088370497427; theta[41] = 0.979888507719; theta[42] = -0.003567753002; theta[43] = 0.089202401372; theta[44] = 0.979451114923; theta[45] = -0.003259005146; theta[46] = 0.088662092624; theta[47] = 0.979965694683; theta[48] = -0.003653516295; theta[49] = 0.089090909091; theta[50] = 0.979854202401; theta[51] = -0.004193825043; theta[52] = 0.088542024014; theta[53] = 0.979502572899; theta[54] = -0.003756432247; theta[55] = 0.088404802744; theta[56] = 0.979476843911; theta[57] = -0.004193825043; theta[58] = 0.08858490566; theta[59] = 0.979939965695;
                        sigma[0] = 0.000983712039; sigma[1] = 0.00106513009; sigma[2] = 0.000586307004; sigma[3] = 0.000983610241; sigma[4] = 0.001027243604; sigma[5] = 0.000593089218; sigma[6] = 0.001000082972; sigma[7] = 0.001026006435; sigma[8] = 0.000601848548; sigma[9] = 0.000965988312; sigma[10] = 0.001028439068; sigma[11] = 0.000580934441; sigma[12] = 0.00097944366; sigma[13] = 0.001037871559; sigma[14] = 0.000602568563; sigma[15] = 0.000954482791; sigma[16] = 0.001002357832; sigma[17] = 0.00060222551; sigma[18] = 0.000987964604; sigma[19] = 0.001059242948; sigma[20] = 0.00057261496; sigma[21] = 0.000926516969; sigma[22] = 0.001034137619; sigma[23] = 0.00056945334; sigma[24] = 0.000999691079; sigma[25] = 0.00104284583; sigma[26] = 0.000588503383; sigma[27] = 0.00096736913; sigma[28] = 0.000988309422; sigma[29] = 0.000605868758; sigma[30] = 0.000978761084; sigma[31] = 0.001045044121; sigma[32] = 0.000593208154; sigma[33] = 0.000959275311; sigma[34] = 0.000997809583; sigma[35] = 0.000585224886; sigma[36] = 0.000975690965; sigma[37] = 0.001030905976; sigma[38] = 0.000591820569; sigma[39] = 0.000951766389; sigma[40] = 0.00102324524; sigma[41] = 0.000593555326; sigma[42] = 0.000996533578; sigma[43] = 0.00101368631; sigma[44] = 0.000609647271; sigma[45] = 0.000972912337; sigma[46] = 0.001035945857; sigma[47] = 0.000588678072; sigma[48] = 0.000970528323; sigma[49] = 0.001036909406; sigma[50] = 0.000602808935; sigma[51] = 0.000965173413; sigma[52] = 0.001032694207; sigma[53] = 0.000580541592; sigma[54] = 0.000973882359; sigma[55] = 0.001016666327; sigma[56] = 0.000618679999; sigma[57] = 0.000998621098; sigma[58] = 0.00102244005; sigma[59] = 0.000592363466;
                        votes[3] = 0.174996247936 - gauss(x, theta, sigma);
                        theta[0] = -0.053879539415; theta[1] = 0.000690876882; theta[2] = 0.982683790965; theta[3] = -0.053932683791; theta[4] = 0.000531443756; theta[5] = 0.982595217006; theta[6] = -0.054083259522; theta[7] = 0.000859167405; theta[8] = 0.982692648361; theta[9] = -0.053817537644; theta[10] = 0.000407440213; theta[11] = 0.982577502214; theta[12] = -0.054038972542; theta[13] = 0.000442869796; theta[14] = 0.982524357839; theta[15] = -0.053985828167; theta[16] = 0.000770593446; theta[17] = 0.982683790965; theta[18] = -0.053923826395; theta[19] = 0.000159433127; theta[20] = 0.982506643047; theta[21] = -0.053737821081; theta[22] = 0.000336581045; theta[23] = 0.982559787423; theta[24] = -0.053666961913; theta[25] = 0.000708591674; theta[26] = 0.982710363153; theta[27] = -0.05358724535; theta[28] = 0.000389725421; theta[29] = 0.982604074402; theta[30] = -0.053976970771; theta[31] = 0.000620017715; theta[32] = 0.982666076174; theta[33] = -0.053985828167; theta[34] = 0.000513728964; theta[35] = 0.982701505757; theta[36] = -0.053835252436; theta[37] = 0.000593445527; theta[38] = 0.98267493357; theta[39] = -0.053720106289; theta[40] = -0.000132860939; theta[41] = 0.982542072631; theta[42] = -0.053551815766; theta[43] = 0.000664304694; theta[44] = 0.982736935341; theta[45] = -0.053622674934; theta[46] = 0.000248007086; theta[47] = 0.98258635961; theta[48] = -0.053844109832; theta[49] = 0.000248007086; theta[50] = 0.982648361382; theta[51] = -0.05378210806; theta[52] = 0.00076173605; theta[53] = 0.982754650133; theta[54] = -0.053746678477; theta[55] = 0.000628875111; theta[56] = 0.982754650133; theta[57] = -0.053923826395; theta[58] = 0.000593445527; theta[59] = 0.982834366696;
                        sigma[0] = 0.000305764058; sigma[1] = 0.000243632524; sigma[2] = 4.089293e-05; sigma[3] = 0.000306943214; sigma[4] = 0.000238512965; sigma[5] = 3.9234737e-05; sigma[6] = 0.000309013444; sigma[7] = 0.000237437211; sigma[8] = 3.9339551e-05; sigma[9] = 0.000308278491; sigma[10] = 0.00023526358; sigma[11] = 3.8617779e-05; sigma[12] = 0.000300781479; sigma[13] = 0.000242673666; sigma[14] = 4.012895e-05; sigma[15] = 0.000301030804; sigma[16] = 0.000230672797; sigma[17] = 3.8058563e-05; sigma[18] = 0.00031099863; sigma[19] = 0.000243198677; sigma[20] = 3.7206558e-05; sigma[21] = 0.0002921403; sigma[22] = 0.000228938975; sigma[23] = 3.6760158e-05; sigma[24] = 0.000302053837; sigma[25] = 0.000241836254; sigma[26] = 3.8358098e-05; sigma[27] = 0.000299709177; sigma[28] = 0.000240237843; sigma[29] = 3.7682928e-05; sigma[30] = 0.000294812582; sigma[31] = 0.000233096538; sigma[32] = 3.6381855e-05; sigma[33] = 0.000304573762; sigma[34] = 0.000242428735; sigma[35] = 3.7077424e-05; sigma[36] = 0.000301411303; sigma[37] = 0.000233394505; sigma[38] = 3.6068826e-05; sigma[39] = 0.000296523966; sigma[40] = 0.000232488995; sigma[41] = 3.738198e-05; sigma[42] = 0.0002965963; sigma[43] = 0.000240037002; sigma[44] = 3.7770482e-05; sigma[45] = 0.000308311128; sigma[46] = 0.000238025299; sigma[47] = 3.7243431e-05; sigma[48] = 0.00028761432; sigma[49] = 0.000232533713; sigma[50] = 3.6298852e-05; sigma[51] = 0.000306421969; sigma[52] = 0.000238569452; sigma[53] = 3.7318904e-05; sigma[54] = 0.000309345929; sigma[55] = 0.000222190879; sigma[56] = 3.6610312e-05; sigma[57] = 0.000300901199; sigma[58] = 0.000235343132; sigma[59] = 3.7670532e-05;
                        votes[4] = 0.169443193757 - gauss(x, theta, sigma);
                        theta[0] = 0.02331232493; theta[1] = 0.001477591036; theta[2] = 0.982317927171; theta[3] = 0.023102240896; theta[4] = 0.001715686275; theta[5] = 0.983130252101; theta[6] = 0.022927170868; theta[7] = 0.001491596639; theta[8] = 0.982443977591; theta[9] = 0.02337535014; theta[10] = 0.001764705882; theta[11] = 0.982906162465; theta[12] = 0.023417366947; theta[13] = 0.001974789916; theta[14] = 0.982885154062; theta[15] = 0.022745098039; theta[16] = 0.001393557423; theta[17] = 0.982808123249; theta[18] = 0.023263305322; theta[19] = 0.001589635854; theta[20] = 0.982577030812; theta[21] = 0.022542016807; theta[22] = 0.001547619048; theta[23] = 0.983151260504; theta[24] = 0.0231232493; theta[25] = 0.001344537815; theta[26] = 0.98243697479; theta[27] = 0.022934173669; theta[28] = 0.001533613445; theta[29] = 0.98306022409; theta[30] = 0.022941176471; theta[31] = 0.001358543417; theta[32] = 0.982605042017; theta[33] = 0.022927170868; theta[34] = 0.001666666667; theta[35] = 0.982808123249; theta[36] = 0.023172268908; theta[37] = 0.001491596639; theta[38] = 0.982836134454; theta[39] = 0.022633053221; theta[40] = 0.001631652661; theta[41] = 0.982528011204; theta[42] = 0.022941176471; theta[43] = 0.00130952381; theta[44] = 0.982542016807; theta[45] = 0.023893557423; theta[46] = 0.00130952381; theta[47] = 0.982773109244; theta[48] = 0.023193277311; theta[49] = 0.001449579832; theta[50] = 0.983214285714; theta[51] = 0.022542016807; theta[52] = 0.001631652661; theta[53] = 0.98243697479; theta[54] = 0.023508403361; theta[55] = 0.001701680672; theta[56] = 0.982738095238; theta[57] = 0.023886554622; theta[58] = 0.001918767507; theta[59] = 0.98318627451;
                        sigma[0] = 0.001290499095; sigma[1] = 0.000382060426; sigma[2] = 0.000818506769; sigma[3] = 0.001316776665; sigma[4] = 0.000398527012; sigma[5] = 0.000825705727; sigma[6] = 0.001329386856; sigma[7] = 0.00038061828; sigma[8] = 0.000806281879; sigma[9] = 0.00131871906; sigma[10] = 0.000388762567; sigma[11] = 0.000856190078; sigma[12] = 0.001300366425; sigma[13] = 0.000389937743; sigma[14] = 0.000857222108; sigma[15] = 0.001272716541; sigma[16] = 0.00038720366; sigma[17] = 0.000877898761; sigma[18] = 0.001289350842; sigma[19] = 0.000381156535; sigma[20] = 0.000833134826; sigma[21] = 0.001286325269; sigma[22] = 0.000399215523; sigma[23] = 0.000841049953; sigma[24] = 0.001284783133; sigma[25] = 0.000382926115; sigma[26] = 0.00087109197; sigma[27] = 0.001281376623; sigma[28] = 0.000392255877; sigma[29] = 0.000880060802; sigma[30] = 0.00126193772; sigma[31] = 0.000398014307; sigma[32] = 0.0008918132; sigma[33] = 0.001305437277; sigma[34] = 0.000377054159; sigma[35] = 0.000835041618; sigma[36] = 0.001287345677; sigma[37] = 0.000395044051; sigma[38] = 0.000853090799; sigma[39] = 0.001316736502; sigma[40] = 0.000379340514; sigma[41] = 0.000843118967; sigma[42] = 0.001282105787; sigma[43] = 0.000385329969; sigma[44] = 0.000846269247; sigma[45] = 0.001292123127; sigma[46] = 0.000377766944; sigma[47] = 0.000829984939; sigma[48] = 0.001298066289; sigma[49] = 0.000390405725; sigma[50] = 0.000849122152; sigma[51] = 0.001298650199; sigma[52] = 0.00038760382; sigma[53] = 0.000834677404; sigma[54] = 0.001300086067; sigma[55] = 0.000387930617; sigma[56] = 0.000843553258; sigma[57] = 0.001306673408; sigma[58] = 0.000394637663; sigma[59] = 0.000868909283;
                        votes[5] = 0.214317874831 - gauss(x, theta, sigma);
                        // return argmax of votes
                        uint8_t classIdx = 0;
                        float maxVotes = votes[0];

                        for (uint8_t i = 1; i < 6; i++) {
                            if (votes[i] > maxVotes) {
                                classIdx = i;
                                maxVotes = votes[i];
                            }
                        }

                        return classIdx;
                    }

                protected:
                    /**
                    * Compute gaussian value
                    */
                    float gauss(float *x, float *theta, float *sigma) {
                        float gauss = 0.0f;

                        for (uint16_t i = 0; i < 60; i++) {
                            gauss += log(sigma[i]);
                            gauss += abs(x[i] - theta[i]) / sigma[i];
                        }

                        return gauss;
                    }
                };
            }
        }
    }