#pragma once
#include <cstdarg>
namespace Eloquent {
    namespace ML {
        namespace Port {
            class RandomForest {
                public:
                    /**
                    * Predict class for features vector
                    */
                    int predict(float *x) {
                        uint8_t votes[5] = { 0 };
                        // tree #1
                        if (x[21] <= 0.6615733802318573) {
                            if (x[2] <= 0.28762052953243256) {
                                if (x[7] <= 1.3475778102874756) {
                                    if (x[4] <= -0.1444118544459343) {
                                        if (x[9] <= -0.3699517548084259) {
                                            if (x[15] <= -0.3872824013233185) {
                                                if (x[3] <= -0.9095975160598755) {
                                                    votes[3] += 1;
                                                }

                                                else {
                                                    votes[4] += 1;
                                                }
                                            }

                                            else {
                                                if (x[11] <= -0.4236878603696823) {
                                                    if (x[22] <= -0.062192726880311966) {
                                                        if (x[7] <= -0.5438479483127594) {
                                                            votes[0] += 1;
                                                        }

                                                        else {
                                                            if (x[27] <= 0.2757769897580147) {
                                                                if (x[29] <= -0.4382423460483551) {
                                                                    votes[1] += 1;
                                                                }

                                                                else {
                                                                    votes[2] += 1;
                                                                }
                                                            }

                                                            else {
                                                                votes[4] += 1;
                                                            }
                                                        }
                                                    }

                                                    else {
                                                        if (x[10] <= -0.4603993743658066) {
                                                            if (x[23] <= 0.9746613204479218) {
                                                                votes[4] += 1;
                                                            }

                                                            else {
                                                                votes[0] += 1;
                                                            }
                                                        }

                                                        else {
                                                            votes[3] += 1;
                                                        }
                                                    }
                                                }

                                                else {
                                                    if (x[15] <= -0.21701008081436157) {
                                                        votes[1] += 1;
                                                    }

                                                    else {
                                                        if (x[11] <= -0.3363301008939743) {
                                                            votes[0] += 1;
                                                        }

                                                        else {
                                                            if (x[15] <= 1.6492407135665417) {
                                                                votes[2] += 1;
                                                            }

                                                            else {
                                                                votes[1] += 1;
                                                            }
                                                        }
                                                    }
                                                }
                                            }
                                        }

                                        else {
                                            if (x[15] <= 0.7102594673633575) {
                                                if (x[29] <= 0.48237937688827515) {
                                                    if (x[7] <= -0.41082797944545746) {
                                                        votes[3] += 1;
                                                    }

                                                    else {
                                                        if (x[15] <= 0.35404977202415466) {
                                                            if (x[3] <= -0.2543213292956352) {
                                                                if (x[6] <= -0.42082230746746063) {
                                                                    if (x[7] <= -0.3040355145931244) {
                                                                        votes[4] += 1;
                                                                    }

                                                                    else {
                                                                        votes[3] += 1;
                                                                    }
                                                                }

                                                                else {
                                                                    votes[4] += 1;
                                                                }
                                                            }

                                                            else {
                                                                if (x[19] <= -0.2491683065891266) {
                                                                    votes[0] += 1;
                                                                }

                                                                else {
                                                                    votes[1] += 1;
                                                                }
                                                            }
                                                        }

                                                        else {
                                                            votes[0] += 1;
                                                        }
                                                    }
                                                }

                                                else {
                                                    if (x[15] <= 0.26709292083978653) {
                                                        votes[3] += 1;
                                                    }

                                                    else {
                                                        if (x[8] <= -0.1375497318804264) {
                                                            votes[2] += 1;
                                                        }

                                                        else {
                                                            if (x[16] <= 0.761962503194809) {
                                                                votes[0] += 1;
                                                            }

                                                            else {
                                                                votes[4] += 1;
                                                            }
                                                        }
                                                    }
                                                }
                                            }

                                            else {
                                                if (x[9] <= 0.17034542560577393) {
                                                    votes[2] += 1;
                                                }

                                                else {
                                                    votes[1] += 1;
                                                }
                                            }
                                        }
                                    }

                                    else {
                                        if (x[20] <= 0.20212773233652115) {
                                            if (x[21] <= -0.5018855035305023) {
                                                if (x[26] <= -0.43179114162921906) {
                                                    if (x[13] <= -0.3883860111236572) {
                                                        votes[3] += 1;
                                                    }

                                                    else {
                                                        votes[1] += 1;
                                                    }
                                                }

                                                else {
                                                    votes[2] += 1;
                                                }
                                            }

                                            else {
                                                if (x[15] <= -0.40637828409671783) {
                                                    votes[1] += 1;
                                                }

                                                else {
                                                    if (x[5] <= -0.11449776589870453) {
                                                        if (x[31] <= -0.3445713222026825) {
                                                            votes[4] += 1;
                                                        }

                                                        else {
                                                            votes[2] += 1;
                                                        }
                                                    }

                                                    else {
                                                        if (x[3] <= 0.3477828949689865) {
                                                            if (x[8] <= 0.14609694108366966) {
                                                                if (x[20] <= -0.3477355092763901) {
                                                                    votes[2] += 1;
                                                                }

                                                                else {
                                                                    votes[0] += 1;
                                                                }
                                                            }

                                                            else {
                                                                votes[0] += 1;
                                                            }
                                                        }

                                                        else {
                                                            if (x[12] <= -0.22381561249494553) {
                                                                votes[3] += 1;
                                                            }

                                                            else {
                                                                votes[1] += 1;
                                                            }
                                                        }
                                                    }
                                                }
                                            }
                                        }

                                        else {
                                            if (x[7] <= 0.3258607089519501) {
                                                if (x[24] <= -0.08544890582561493) {
                                                    votes[1] += 1;
                                                }

                                                else {
                                                    votes[0] += 1;
                                                }
                                            }

                                            else {
                                                if (x[10] <= 1.220278263092041) {
                                                    votes[4] += 1;
                                                }

                                                else {
                                                    votes[1] += 1;
                                                }
                                            }
                                        }
                                    }
                                }

                                else {
                                    if (x[13] <= 4.185575485229492) {
                                        if (x[29] <= 0.9210861027240753) {
                                            votes[2] += 1;
                                        }

                                        else {
                                            if (x[9] <= 3.4449506998062134) {
                                                votes[0] += 1;
                                            }

                                            else {
                                                votes[2] += 1;
                                            }
                                        }
                                    }

                                    else {
                                        votes[1] += 1;
                                    }
                                }
                            }

                            else {
                                if (x[8] <= -0.12066347151994705) {
                                    if (x[10] <= -0.12010660953819752) {
                                        if (x[27] <= -0.5308113098144531) {
                                            votes[0] += 1;
                                        }

                                        else {
                                            if (x[13] <= -0.48423783481121063) {
                                                if (x[9] <= -0.13856831192970276) {
                                                    votes[3] += 1;
                                                }

                                                else {
                                                    votes[2] += 1;
                                                }
                                            }

                                            else {
                                                if (x[7] <= -0.19792520999908447) {
                                                    votes[3] += 1;
                                                }

                                                else {
                                                    if (x[14] <= -0.2072468176484108) {
                                                        if (x[15] <= -0.2982124388217926) {
                                                            votes[3] += 1;
                                                        }

                                                        else {
                                                            votes[2] += 1;
                                                        }
                                                    }

                                                    else {
                                                        votes[2] += 1;
                                                    }
                                                }
                                            }
                                        }
                                    }

                                    else {
                                        votes[1] += 1;
                                    }
                                }

                                else {
                                    if (x[19] <= 0.16653446108102798) {
                                        if (x[21] <= 0.11634588986635208) {
                                            if (x[8] <= 0.08161479234695435) {
                                                if (x[2] <= 1.0289930999279022) {
                                                    votes[4] += 1;
                                                }

                                                else {
                                                    votes[3] += 1;
                                                }
                                            }

                                            else {
                                                if (x[9] <= 0.5365786999464035) {
                                                    if (x[19] <= -0.24943888187408447) {
                                                        if (x[10] <= -0.22500314004719257) {
                                                            votes[2] += 1;
                                                        }

                                                        else {
                                                            votes[3] += 1;
                                                        }
                                                    }

                                                    else {
                                                        if (x[16] <= 0.19583355635404587) {
                                                            votes[2] += 1;
                                                        }

                                                        else {
                                                            votes[4] += 1;
                                                        }
                                                    }
                                                }

                                                else {
                                                    if (x[11] <= 0.5786532908678055) {
                                                        votes[0] += 1;
                                                    }

                                                    else {
                                                        if (x[5] <= 0.6211090981960297) {
                                                            votes[0] += 1;
                                                        }

                                                        else {
                                                            votes[2] += 1;
                                                        }
                                                    }
                                                }
                                            }
                                        }

                                        else {
                                            votes[2] += 1;
                                        }
                                    }

                                    else {
                                        if (x[13] <= 0.056000976357609034) {
                                            votes[3] += 1;
                                        }

                                        else {
                                            if (x[25] <= 1.0620969384908676) {
                                                if (x[14] <= 0.2564795985817909) {
                                                    if (x[6] <= 0.08488217368721962) {
                                                        votes[1] += 1;
                                                    }

                                                    else {
                                                        votes[4] += 1;
                                                    }
                                                }

                                                else {
                                                    votes[4] += 1;
                                                }
                                            }

                                            else {
                                                votes[2] += 1;
                                            }
                                        }
                                    }
                                }
                            }
                        }

                        else {
                            if (x[16] <= 2.1393887996673584) {
                                if (x[14] <= 0.3733527511358261) {
                                    if (x[3] <= -0.5480234324932098) {
                                        if (x[29] <= 0.7894324958324432) {
                                            votes[2] += 1;
                                        }

                                        else {
                                            votes[3] += 1;
                                        }
                                    }

                                    else {
                                        if (x[1] <= 0.24779002368450165) {
                                            if (x[5] <= 0.25485944002866745) {
                                                votes[1] += 1;
                                            }

                                            else {
                                                votes[0] += 1;
                                            }
                                        }

                                        else {
                                            if (x[9] <= -0.36583249270915985) {
                                                votes[3] += 1;
                                            }

                                            else {
                                                votes[2] += 1;
                                            }
                                        }
                                    }
                                }

                                else {
                                    if (x[24] <= 2.9011679887771606) {
                                        if (x[21] <= 0.7075762748718262) {
                                            votes[0] += 1;
                                        }

                                        else {
                                            if (x[9] <= 0.6513902246952057) {
                                                if (x[24] <= 1.724429965019226) {
                                                    votes[2] += 1;
                                                }

                                                else {
                                                    votes[4] += 1;
                                                }
                                            }

                                            else {
                                                votes[4] += 1;
                                            }
                                        }
                                    }

                                    else {
                                        if (x[31] <= 1.1246278285980225) {
                                            votes[4] += 1;
                                        }

                                        else {
                                            if (x[0] <= 0.5224591046571732) {
                                                votes[1] += 1;
                                            }

                                            else {
                                                if (x[29] <= 6.74947452545166) {
                                                    if (x[4] <= 0.04359903186559677) {
                                                        votes[3] += 1;
                                                    }

                                                    else {
                                                        votes[0] += 1;
                                                    }
                                                }

                                                else {
                                                    votes[1] += 1;
                                                }
                                            }
                                        }
                                    }
                                }
                            }

                            else {
                                if (x[28] <= 2.0094017386436462) {
                                    if (x[9] <= -0.3666238784790039) {
                                        if (x[9] <= -0.3837451636791229) {
                                            votes[1] += 1;
                                        }

                                        else {
                                            votes[2] += 1;
                                        }
                                    }

                                    else {
                                        votes[1] += 1;
                                    }
                                }

                                else {
                                    if (x[24] <= 6.355351209640503) {
                                        if (x[15] <= 4.21856164932251) {
                                            votes[4] += 1;
                                        }

                                        else {
                                            votes[2] += 1;
                                        }
                                    }

                                    else {
                                        if (x[17] <= 3.9412014484405518) {
                                            votes[1] += 1;
                                        }

                                        else {
                                            votes[3] += 1;
                                        }
                                    }
                                }
                            }
                        }

                        // tree #2
                        if (x[12] <= 1.6621178984642029) {
                            if (x[9] <= -0.25191885232925415) {
                                if (x[2] <= 0.46305814385414124) {
                                    if (x[21] <= -0.38647012412548065) {
                                        if (x[16] <= -0.057916948571801186) {
                                            if (x[24] <= -0.12202060222625732) {
                                                if (x[27] <= -0.04925241880118847) {
                                                    if (x[14] <= -0.22487249225378036) {
                                                        if (x[16] <= -0.3916922062635422) {
                                                            votes[3] += 1;
                                                        }

                                                        else {
                                                            votes[1] += 1;
                                                        }
                                                    }

                                                    else {
                                                        if (x[30] <= 0.1601358624175191) {
                                                            votes[2] += 1;
                                                        }

                                                        else {
                                                            votes[0] += 1;
                                                        }
                                                    }
                                                }

                                                else {
                                                    votes[4] += 1;
                                                }
                                            }

                                            else {
                                                votes[2] += 1;
                                            }
                                        }

                                        else {
                                            if (x[7] <= -0.26990920305252075) {
                                                votes[0] += 1;
                                            }

                                            else {
                                                if (x[13] <= -0.35530985891819) {
                                                    votes[3] += 1;
                                                }

                                                else {
                                                    votes[1] += 1;
                                                }
                                            }
                                        }
                                    }

                                    else {
                                        if (x[13] <= -0.3867695480585098) {
                                            if (x[3] <= -0.8303264081478119) {
                                                if (x[1] <= -1.0880038142204285) {
                                                    votes[0] += 1;
                                                }

                                                else {
                                                    votes[3] += 1;
                                                }
                                            }

                                            else {
                                                if (x[31] <= -0.16476345248520374) {
                                                    if (x[25] <= -0.17740187793970108) {
                                                        votes[2] += 1;
                                                    }

                                                    else {
                                                        votes[4] += 1;
                                                    }
                                                }

                                                else {
                                                    votes[0] += 1;
                                                }
                                            }
                                        }

                                        else {
                                            if (x[12] <= -0.35074807703495026) {
                                                if (x[31] <= 0.200315922498703) {
                                                    votes[1] += 1;
                                                }

                                                else {
                                                    votes[2] += 1;
                                                }
                                            }

                                            else {
                                                if (x[0] <= 0.05380886793136597) {
                                                    if (x[9] <= -0.3542407602071762) {
                                                        if (x[3] <= -1.0539688467979431) {
                                                            votes[3] += 1;
                                                        }

                                                        else {
                                                            votes[1] += 1;
                                                        }
                                                    }

                                                    else {
                                                        votes[4] += 1;
                                                    }
                                                }

                                                else {
                                                    if (x[2] <= 0.07660848833620548) {
                                                        if (x[8] <= -0.3875300884246826) {
                                                            votes[2] += 1;
                                                        }

                                                        else {
                                                            if (x[7] <= -0.23100780323147774) {
                                                                votes[0] += 1;
                                                            }

                                                            else {
                                                                if (x[17] <= 0.3146496117115021) {
                                                                    votes[1] += 1;
                                                                }

                                                                else {
                                                                    votes[2] += 1;
                                                                }
                                                            }
                                                        }
                                                    }

                                                    else {
                                                        votes[3] += 1;
                                                    }
                                                }
                                            }
                                        }
                                    }
                                }

                                else {
                                    if (x[31] <= -0.5990315675735474) {
                                        votes[2] += 1;
                                    }

                                    else {
                                        if (x[25] <= -0.5131652355194092) {
                                            votes[0] += 1;
                                        }

                                        else {
                                            votes[3] += 1;
                                        }
                                    }
                                }
                            }

                            else {
                                if (x[8] <= 0.5407426059246063) {
                                    if (x[23] <= 3.4359325170516968) {
                                        if (x[28] <= 0.05326102487742901) {
                                            if (x[6] <= 0.36453115940093994) {
                                                if (x[0] <= 1.1110777854919434) {
                                                    if (x[6] <= -0.3882293254137039) {
                                                        if (x[10] <= -0.019011206924915314) {
                                                            votes[4] += 1;
                                                        }

                                                        else {
                                                            votes[0] += 1;
                                                        }
                                                    }

                                                    else {
                                                        if (x[5] <= 0.28995221853256226) {
                                                            votes[4] += 1;
                                                        }

                                                        else {
                                                            votes[0] += 1;
                                                        }
                                                    }
                                                }

                                                else {
                                                    if (x[19] <= -0.03878958523273468) {
                                                        votes[1] += 1;
                                                    }

                                                    else {
                                                        if (x[0] <= 1.8786446452140808) {
                                                            votes[2] += 1;
                                                        }

                                                        else {
                                                            votes[4] += 1;
                                                        }
                                                    }
                                                }
                                            }

                                            else {
                                                if (x[26] <= -0.19947471469640732) {
                                                    if (x[16] <= 0.12878239899873734) {
                                                        votes[0] += 1;
                                                    }

                                                    else {
                                                        votes[4] += 1;
                                                    }
                                                }

                                                else {
                                                    votes[3] += 1;
                                                }
                                            }
                                        }

                                        else {
                                            if (x[5] <= -0.3001752346754074) {
                                                if (x[7] <= -0.253071554005146) {
                                                    if (x[31] <= 0.21124317497015) {
                                                        votes[2] += 1;
                                                    }

                                                    else {
                                                        votes[0] += 1;
                                                    }
                                                }

                                                else {
                                                    votes[4] += 1;
                                                }
                                            }

                                            else {
                                                if (x[14] <= -0.19362405687570572) {
                                                    votes[2] += 1;
                                                }

                                                else {
                                                    if (x[0] <= 1.644024908542633) {
                                                        if (x[2] <= 0.10569046437740326) {
                                                            if (x[13] <= 0.664360523223877) {
                                                                if (x[27] <= 1.8008885979652405) {
                                                                    votes[2] += 1;
                                                                }

                                                                else {
                                                                    votes[3] += 1;
                                                                }
                                                            }

                                                            else {
                                                                votes[4] += 1;
                                                            }
                                                        }

                                                        else {
                                                            if (x[6] <= 1.1791990399360657) {
                                                                if (x[8] <= 0.26392267271876335) {
                                                                    votes[3] += 1;
                                                                }

                                                                else {
                                                                    votes[0] += 1;
                                                                }
                                                            }

                                                            else {
                                                                votes[1] += 1;
                                                            }
                                                        }
                                                    }

                                                    else {
                                                        votes[2] += 1;
                                                    }
                                                }
                                            }
                                        }
                                    }

                                    else {
                                        if (x[6] <= -0.34706223011016846) {
                                            votes[1] += 1;
                                        }

                                        else {
                                            votes[3] += 1;
                                        }
                                    }
                                }

                                else {
                                    if (x[1] <= 0.5886583626270294) {
                                        if (x[24] <= 0.2950088381767273) {
                                            if (x[31] <= -0.5359279215335846) {
                                                if (x[24] <= -0.31632256507873535) {
                                                    votes[2] += 1;
                                                }

                                                else {
                                                    votes[0] += 1;
                                                }
                                            }

                                            else {
                                                if (x[28] <= -0.5371572077274323) {
                                                    if (x[6] <= 1.0202325284481049) {
                                                        votes[0] += 1;
                                                    }

                                                    else {
                                                        votes[3] += 1;
                                                    }
                                                }

                                                else {
                                                    votes[0] += 1;
                                                }
                                            }
                                        }

                                        else {
                                            if (x[18] <= 2.731572985649109) {
                                                if (x[26] <= 3.9120030403137207) {
                                                    if (x[7] <= 0.9818837642669678) {
                                                        if (x[14] <= 0.2994856536388397) {
                                                            votes[0] += 1;
                                                        }

                                                        else {
                                                            votes[4] += 1;
                                                        }
                                                    }

                                                    else {
                                                        votes[2] += 1;
                                                    }
                                                }

                                                else {
                                                    if (x[14] <= 1.2503747940063477) {
                                                        votes[1] += 1;
                                                    }

                                                    else {
                                                        votes[3] += 1;
                                                    }
                                                }
                                            }

                                            else {
                                                votes[0] += 1;
                                            }
                                        }
                                    }

                                    else {
                                        if (x[6] <= 0.7802788317203522) {
                                            if (x[4] <= 0.2573107108473778) {
                                                votes[0] += 1;
                                            }

                                            else {
                                                votes[4] += 1;
                                            }
                                        }

                                        else {
                                            if (x[27] <= 1.6553701162338257) {
                                                if (x[22] <= 0.03356322646141052) {
                                                    if (x[0] <= 0.6318773180246353) {
                                                        votes[2] += 1;
                                                    }

                                                    else {
                                                        votes[0] += 1;
                                                    }
                                                }

                                                else {
                                                    votes[2] += 1;
                                                }
                                            }

                                            else {
                                                if (x[12] <= 1.2044503092765808) {
                                                    votes[1] += 1;
                                                }

                                                else {
                                                    votes[4] += 1;
                                                }
                                            }
                                        }
                                    }
                                }
                            }
                        }

                        else {
                            if (x[2] <= -1.1442210674285889) {
                                if (x[20] <= -0.29957593977451324) {
                                    votes[3] += 1;
                                }

                                else {
                                    if (x[14] <= 2.63577938079834) {
                                        votes[2] += 1;
                                    }

                                    else {
                                        votes[3] += 1;
                                    }
                                }
                            }

                            else {
                                if (x[7] <= 0.427676796913147) {
                                    if (x[20] <= 5.1652116775512695) {
                                        votes[1] += 1;
                                    }

                                    else {
                                        if (x[22] <= 3.1982697248458862) {
                                            votes[2] += 1;
                                        }

                                        else {
                                            votes[1] += 1;
                                        }
                                    }
                                }

                                else {
                                    if (x[28] <= -0.2545587942004204) {
                                        if (x[30] <= -0.5034589469432831) {
                                            votes[0] += 1;
                                        }

                                        else {
                                            votes[1] += 1;
                                        }
                                    }

                                    else {
                                        if (x[18] <= 0.9283434450626373) {
                                            if (x[14] <= 1.824733316898346) {
                                                votes[0] += 1;
                                            }

                                            else {
                                                votes[2] += 1;
                                            }
                                        }

                                        else {
                                            if (x[14] <= 3.190001368522644) {
                                                votes[4] += 1;
                                            }

                                            else {
                                                if (x[5] <= 0.40640706568956375) {
                                                    votes[2] += 1;
                                                }

                                                else {
                                                    votes[1] += 1;
                                                }
                                            }
                                        }
                                    }
                                }
                            }
                        }

                        // tree #3
                        if (x[12] <= 3.0491024255752563) {
                            if (x[15] <= 1.6661533117294312) {
                                if (x[1] <= 0.3443460166454315) {
                                    if (x[8] <= 0.3922582417726517) {
                                        if (x[2] <= -0.3201902061700821) {
                                            if (x[5] <= -0.6418927907943726) {
                                                if (x[13] <= -0.42913487553596497) {
                                                    votes[3] += 1;
                                                }

                                                else {
                                                    if (x[31] <= 0.443822979927063) {
                                                        if (x[9] <= -0.5592802464962006) {
                                                            if (x[22] <= 0.058753013610839844) {
                                                                votes[0] += 1;
                                                            }

                                                            else {
                                                                votes[3] += 1;
                                                            }
                                                        }

                                                        else {
                                                            if (x[14] <= 0.3804331421852112) {
                                                                votes[2] += 1;
                                                            }

                                                            else {
                                                                votes[4] += 1;
                                                            }
                                                        }
                                                    }

                                                    else {
                                                        if (x[17] <= -0.1808987334370613) {
                                                            votes[1] += 1;
                                                        }

                                                        else {
                                                            if (x[29] <= 0.7671684920787811) {
                                                                votes[0] += 1;
                                                            }

                                                            else {
                                                                if (x[22] <= 0.5528724938631058) {
                                                                    votes[4] += 1;
                                                                }

                                                                else {
                                                                    votes[3] += 1;
                                                                }
                                                            }
                                                        }
                                                    }
                                                }
                                            }

                                            else {
                                                if (x[3] <= -0.5507628321647644) {
                                                    if (x[29] <= 2.5400067567825317) {
                                                        votes[4] += 1;
                                                    }

                                                    else {
                                                        votes[3] += 1;
                                                    }
                                                }

                                                else {
                                                    if (x[1] <= -0.5186420679092407) {
                                                        votes[2] += 1;
                                                    }

                                                    else {
                                                        if (x[7] <= 0.37734654545783997) {
                                                            votes[4] += 1;
                                                        }

                                                        else {
                                                            votes[0] += 1;
                                                        }
                                                    }
                                                }
                                            }
                                        }

                                        else {
                                            if (x[9] <= 0.0049562957137823105) {
                                                if (x[6] <= 0.15601586177945137) {
                                                    if (x[28] <= -0.45528820157051086) {
                                                        votes[1] += 1;
                                                    }

                                                    else {
                                                        if (x[18] <= -0.11720197275280952) {
                                                            if (x[9] <= -0.46050943434238434) {
                                                                votes[3] += 1;
                                                            }

                                                            else {
                                                                if (x[21] <= 0.04260738007724285) {
                                                                    votes[0] += 1;
                                                                }

                                                                else {
                                                                    votes[3] += 1;
                                                                }
                                                            }
                                                        }

                                                        else {
                                                            votes[0] += 1;
                                                        }
                                                    }
                                                }

                                                else {
                                                    if (x[8] <= -0.17191698402166367) {
                                                        if (x[3] <= 0.44995608925819397) {
                                                            votes[2] += 1;
                                                        }

                                                        else {
                                                            votes[3] += 1;
                                                        }
                                                    }

                                                    else {
                                                        if (x[1] <= -0.13073203712701797) {
                                                            votes[4] += 1;
                                                        }

                                                        else {
                                                            votes[1] += 1;
                                                        }
                                                    }
                                                }
                                            }

                                            else {
                                                if (x[24] <= -0.05911383172497153) {
                                                    votes[4] += 1;
                                                }

                                                else {
                                                    if (x[15] <= 0.5938829183578491) {
                                                        votes[3] += 1;
                                                    }

                                                    else {
                                                        votes[1] += 1;
                                                    }
                                                }
                                            }
                                        }
                                    }

                                    else {
                                        if (x[17] <= 0.3064029812812805) {
                                            if (x[4] <= 0.3936142325401306) {
                                                if (x[5] <= 0.7439853847026825) {
                                                    if (x[3] <= -0.5614381283521652) {
                                                        votes[1] += 1;
                                                    }

                                                    else {
                                                        if (x[2] <= -0.8595415949821472) {
                                                            votes[1] += 1;
                                                        }

                                                        else {
                                                            if (x[7] <= 0.5450705885887146) {
                                                                if (x[6] <= 0.43562208116054535) {
                                                                    votes[0] += 1;
                                                                }

                                                                else {
                                                                    votes[2] += 1;
                                                                }
                                                            }

                                                            else {
                                                                votes[0] += 1;
                                                            }
                                                        }
                                                    }
                                                }

                                                else {
                                                    votes[2] += 1;
                                                }
                                            }

                                            else {
                                                if (x[29] <= 0.13659025169909) {
                                                    if (x[31] <= -0.26748492009937763) {
                                                        votes[1] += 1;
                                                    }

                                                    else {
                                                        votes[0] += 1;
                                                    }
                                                }

                                                else {
                                                    votes[2] += 1;
                                                }
                                            }
                                        }

                                        else {
                                            if (x[19] <= 3.31754207611084) {
                                                if (x[4] <= -0.41912855207920074) {
                                                    if (x[19] <= 0.5440625571645796) {
                                                        votes[2] += 1;
                                                    }

                                                    else {
                                                        votes[1] += 1;
                                                    }
                                                }

                                                else {
                                                    if (x[16] <= 0.5793618708848953) {
                                                        if (x[24] <= 0.7390629649162292) {
                                                            votes[4] += 1;
                                                        }

                                                        else {
                                                            votes[0] += 1;
                                                        }
                                                    }

                                                    else {
                                                        votes[4] += 1;
                                                    }
                                                }
                                            }

                                            else {
                                                votes[0] += 1;
                                            }
                                        }
                                    }
                                }

                                else {
                                    if (x[12] <= -0.20552963018417358) {
                                        if (x[19] <= -0.11232251673936844) {
                                            if (x[22] <= -0.2394072562456131) {
                                                if (x[9] <= -0.516296923160553) {
                                                    votes[2] += 1;
                                                }

                                                else {
                                                    if (x[16] <= -0.04761167815013323) {
                                                        if (x[24] <= -0.44713589549064636) {
                                                            votes[0] += 1;
                                                        }

                                                        else {
                                                            if (x[2] <= 0.6906434446573257) {
                                                                votes[2] += 1;
                                                            }

                                                            else {
                                                                votes[3] += 1;
                                                            }
                                                        }
                                                    }

                                                    else {
                                                        votes[1] += 1;
                                                    }
                                                }
                                            }

                                            else {
                                                if (x[6] <= -0.5761218965053558) {
                                                    if (x[10] <= -0.47809329628944397) {
                                                        votes[2] += 1;
                                                    }

                                                    else {
                                                        votes[3] += 1;
                                                    }
                                                }

                                                else {
                                                    votes[3] += 1;
                                                }
                                            }
                                        }

                                        else {
                                            if (x[25] <= 0.16244305670261383) {
                                                votes[2] += 1;
                                            }

                                            else {
                                                if (x[5] <= 0.5681808143854141) {
                                                    votes[2] += 1;
                                                }

                                                else {
                                                    votes[3] += 1;
                                                }
                                            }
                                        }
                                    }

                                    else {
                                        if (x[19] <= -0.3727193921804428) {
                                            if (x[16] <= 0.06838950887322426) {
                                                votes[2] += 1;
                                            }

                                            else {
                                                if (x[8] <= 0.05581174069084227) {
                                                    votes[3] += 1;
                                                }

                                                else {
                                                    votes[4] += 1;
                                                }
                                            }
                                        }

                                        else {
                                            if (x[4] <= 0.41750504076480865) {
                                                if (x[12] <= 0.4723069965839386) {
                                                    if (x[6] <= -0.5322749614715576) {
                                                        if (x[7] <= -0.382792592048645) {
                                                            votes[3] += 1;
                                                        }

                                                        else {
                                                            votes[0] += 1;
                                                        }
                                                    }

                                                    else {
                                                        if (x[3] <= 0.8865396678447723) {
                                                            if (x[24] <= 0.339489683508873) {
                                                                if (x[19] <= 0.016701411455869675) {
                                                                    if (x[4] <= 0.11498403176665306) {
                                                                        votes[4] += 1;
                                                                    }

                                                                    else {
                                                                        votes[3] += 1;
                                                                    }
                                                                }

                                                                else {
                                                                    votes[4] += 1;
                                                                }
                                                            }

                                                            else {
                                                                votes[2] += 1;
                                                            }
                                                        }

                                                        else {
                                                            votes[1] += 1;
                                                        }
                                                    }
                                                }

                                                else {
                                                    if (x[20] <= 1.458819717168808) {
                                                        if (x[3] <= 0.5027483552694321) {
                                                            votes[2] += 1;
                                                        }

                                                        else {
                                                            votes[4] += 1;
                                                        }
                                                    }

                                                    else {
                                                        votes[0] += 1;
                                                    }
                                                }
                                            }

                                            else {
                                                if (x[8] <= 0.11422757524996996) {
                                                    if (x[9] <= -0.1059693694114685) {
                                                        votes[3] += 1;
                                                    }

                                                    else {
                                                        votes[1] += 1;
                                                    }
                                                }

                                                else {
                                                    if (x[12] <= -0.12594277784228325) {
                                                        if (x[2] <= 0.36071115732192993) {
                                                            votes[2] += 1;
                                                        }

                                                        else {
                                                            votes[0] += 1;
                                                        }
                                                    }

                                                    else {
                                                        if (x[13] <= -0.037005904130637646) {
                                                            votes[2] += 1;
                                                        }

                                                        else {
                                                            if (x[25] <= 0.9900379478931427) {
                                                                votes[3] += 1;
                                                            }

                                                            else {
                                                                votes[2] += 1;
                                                            }
                                                        }
                                                    }
                                                }
                                            }
                                        }
                                    }
                                }
                            }

                            else {
                                if (x[8] <= 0.37181206792593) {
                                    if (x[17] <= 4.010819673538208) {
                                        if (x[13] <= 3.4870253801345825) {
                                            votes[1] += 1;
                                        }

                                        else {
                                            votes[2] += 1;
                                        }
                                    }

                                    else {
                                        if (x[28] <= 1.4889167845249176) {
                                            votes[1] += 1;
                                        }

                                        else {
                                            votes[3] += 1;
                                        }
                                    }
                                }

                                else {
                                    if (x[10] <= 0.6981231570243835) {
                                        votes[4] += 1;
                                    }

                                    else {
                                        if (x[24] <= 2.6106201261281967) {
                                            votes[0] += 1;
                                        }

                                        else {
                                            if (x[4] <= -0.3905292898416519) {
                                                votes[1] += 1;
                                            }

                                            else {
                                                votes[3] += 1;
                                            }
                                        }
                                    }
                                }
                            }
                        }

                        else {
                            if (x[16] <= 1.436096011660993) {
                                votes[3] += 1;
                            }

                            else {
                                votes[1] += 1;
                            }
                        }

                        // tree #4
                        if (x[18] <= 2.4098563194274902) {
                            if (x[14] <= 0.3722408264875412) {
                                if (x[7] <= 0.5283149480819702) {
                                    if (x[9] <= -0.2613089382648468) {
                                        if (x[2] <= 0.773378849029541) {
                                            if (x[15] <= -0.25280025601387024) {
                                                if (x[24] <= 0.22057238966226578) {
                                                    if (x[11] <= -0.5881268084049225) {
                                                        votes[4] += 1;
                                                    }

                                                    else {
                                                        if (x[13] <= -0.34122878313064575) {
                                                            if (x[0] <= 0.3214443251490593) {
                                                                votes[3] += 1;
                                                            }

                                                            else {
                                                                if (x[2] <= -0.8967927992343903) {
                                                                    votes[3] += 1;
                                                                }

                                                                else {
                                                                    if (x[7] <= -0.28972892463207245) {
                                                                        votes[2] += 1;
                                                                    }

                                                                    else {
                                                                        if (x[31] <= -0.34527044743299484) {
                                                                            votes[1] += 1;
                                                                        }

                                                                        else {
                                                                            votes[0] += 1;
                                                                        }
                                                                    }
                                                                }
                                                            }
                                                        }

                                                        else {
                                                            votes[1] += 1;
                                                        }
                                                    }
                                                }

                                                else {
                                                    if (x[26] <= 0.5811614692211151) {
                                                        votes[0] += 1;
                                                    }

                                                    else {
                                                        if (x[11] <= -0.4548238515853882) {
                                                            if (x[25] <= 1.9499899744987488) {
                                                                votes[0] += 1;
                                                            }

                                                            else {
                                                                votes[2] += 1;
                                                            }
                                                        }

                                                        else {
                                                            votes[3] += 1;
                                                        }
                                                    }
                                                }
                                            }

                                            else {
                                                if (x[22] <= -0.06597988307476044) {
                                                    if (x[7] <= -0.38098467886447906) {
                                                        votes[2] += 1;
                                                    }

                                                    else {
                                                        if (x[27] <= -0.07008646451868117) {
                                                            votes[3] += 1;
                                                        }

                                                        else {
                                                            if (x[10] <= -0.3293694108724594) {
                                                                votes[1] += 1;
                                                            }

                                                            else {
                                                                votes[2] += 1;
                                                            }
                                                        }
                                                    }
                                                }

                                                else {
                                                    if (x[18] <= 0.3519512712955475) {
                                                        if (x[3] <= -0.5528628379106522) {
                                                            votes[4] += 1;
                                                        }

                                                        else {
                                                            if (x[11] <= -0.3008112460374832) {
                                                                votes[0] += 1;
                                                            }

                                                            else {
                                                                if (x[27] <= 0.336565837264061) {
                                                                    votes[4] += 1;
                                                                }

                                                                else {
                                                                    if (x[9] <= -0.39587466418743134) {
                                                                        votes[3] += 1;
                                                                    }

                                                                    else {
                                                                        votes[1] += 1;
                                                                    }
                                                                }
                                                            }
                                                        }
                                                    }

                                                    else {
                                                        votes[2] += 1;
                                                    }
                                                }
                                            }
                                        }

                                        else {
                                            votes[3] += 1;
                                        }
                                    }

                                    else {
                                        if (x[12] <= 0.08172564208507538) {
                                            if (x[0] <= 0.35520660877227783) {
                                                if (x[5] <= -0.5608370900154114) {
                                                    votes[2] += 1;
                                                }

                                                else {
                                                    if (x[2] <= -0.39281468093395233) {
                                                        votes[4] += 1;
                                                    }

                                                    else {
                                                        if (x[3] <= 0.027374718338251114) {
                                                            if (x[14] <= -0.009368792176246643) {
                                                                if (x[31] <= -0.4370128810405731) {
                                                                    votes[1] += 1;
                                                                }

                                                                else {
                                                                    votes[2] += 1;
                                                                }
                                                            }

                                                            else {
                                                                votes[4] += 1;
                                                            }
                                                        }

                                                        else {
                                                            votes[0] += 1;
                                                        }
                                                    }
                                                }
                                            }

                                            else {
                                                if (x[23] <= -0.3230820447206497) {
                                                    votes[2] += 1;
                                                }

                                                else {
                                                    if (x[2] <= 1.0912483930587769) {
                                                        if (x[25] <= -0.1255825199186802) {
                                                            votes[1] += 1;
                                                        }

                                                        else {
                                                            if (x[6] <= -0.3999037891626358) {
                                                                votes[4] += 1;
                                                            }

                                                            else {
                                                                votes[2] += 1;
                                                            }
                                                        }
                                                    }

                                                    else {
                                                        votes[0] += 1;
                                                    }
                                                }
                                            }
                                        }

                                        else {
                                            if (x[25] <= -0.00012623448856174946) {
                                                if (x[18] <= 0.11741127818822861) {
                                                    votes[4] += 1;
                                                }

                                                else {
                                                    votes[3] += 1;
                                                }
                                            }

                                            else {
                                                if (x[1] <= 1.2291397750377655) {
                                                    if (x[9] <= -0.07199565693736076) {
                                                        votes[2] += 1;
                                                    }

                                                    else {
                                                        votes[3] += 1;
                                                    }
                                                }

                                                else {
                                                    votes[1] += 1;
                                                }
                                            }
                                        }
                                    }
                                }

                                else {
                                    if (x[4] <= 0.40229736268520355) {
                                        if (x[11] <= 2.7422550916671753) {
                                            if (x[15] <= 0.45892512798309326) {
                                                votes[0] += 1;
                                            }

                                            else {
                                                votes[4] += 1;
                                            }
                                        }

                                        else {
                                            if (x[26] <= -0.1607515662908554) {
                                                votes[1] += 1;
                                            }

                                            else {
                                                votes[3] += 1;
                                            }
                                        }
                                    }

                                    else {
                                        if (x[11] <= 0.5240308791399002) {
                                            if (x[23] <= 0.320864200592041) {
                                                if (x[1] <= -0.6802618503570557) {
                                                    votes[1] += 1;
                                                }

                                                else {
                                                    if (x[8] <= 0.37731336057186127) {
                                                        if (x[0] <= 1.4752463847398758) {
                                                            votes[3] += 1;
                                                        }

                                                        else {
                                                            votes[2] += 1;
                                                        }
                                                    }

                                                    else {
                                                        if (x[21] <= 0.010300863534212112) {
                                                            votes[0] += 1;
                                                        }

                                                        else {
                                                            votes[2] += 1;
                                                        }
                                                    }
                                                }
                                            }

                                            else {
                                                votes[3] += 1;
                                            }
                                        }

                                        else {
                                            votes[2] += 1;
                                        }
                                    }
                                }
                            }

                            else {
                                if (x[11] <= 1.5311564207077026) {
                                    if (x[9] <= -0.2337525337934494) {
                                        if (x[17] <= 1.3833699896931648) {
                                            if (x[6] <= -0.6225560009479523) {
                                                votes[3] += 1;
                                            }

                                            else {
                                                votes[2] += 1;
                                            }
                                        }

                                        else {
                                            votes[1] += 1;
                                        }
                                    }

                                    else {
                                        if (x[12] <= 1.245047390460968) {
                                            if (x[28] <= 4.551674246788025) {
                                                if (x[5] <= 1.0916147828102112) {
                                                    if (x[24] <= 2.8022713661193848) {
                                                        if (x[8] <= 1.1196630597114563) {
                                                            votes[4] += 1;
                                                        }

                                                        else {
                                                            if (x[8] <= 1.290114402770996) {
                                                                votes[0] += 1;
                                                            }

                                                            else {
                                                                votes[4] += 1;
                                                            }
                                                        }
                                                    }

                                                    else {
                                                        if (x[31] <= 1.5635568499565125) {
                                                            votes[4] += 1;
                                                        }

                                                        else {
                                                            votes[3] += 1;
                                                        }
                                                    }
                                                }

                                                else {
                                                    votes[2] += 1;
                                                }
                                            }

                                            else {
                                                votes[2] += 1;
                                            }
                                        }

                                        else {
                                            votes[0] += 1;
                                        }
                                    }
                                }

                                else {
                                    if (x[15] <= 2.550646185874939) {
                                        if (x[4] <= 0.2533085271716118) {
                                            if (x[1] <= -0.5717833638191223) {
                                                if (x[24] <= 0.5257316529750824) {
                                                    votes[2] += 1;
                                                }

                                                else {
                                                    votes[3] += 1;
                                                }
                                            }

                                            else {
                                                votes[0] += 1;
                                            }
                                        }

                                        else {
                                            if (x[10] <= 1.7846922278404236) {
                                                votes[1] += 1;
                                            }

                                            else {
                                                votes[4] += 1;
                                            }
                                        }
                                    }

                                    else {
                                        votes[1] += 1;
                                    }
                                }
                            }
                        }

                        else {
                            if (x[29] <= 16.98973560333252) {
                                if (x[21] <= 0.4813653826713562) {
                                    if (x[27] <= -0.05969228781759739) {
                                        votes[1] += 1;
                                    }

                                    else {
                                        votes[0] += 1;
                                    }
                                }

                                else {
                                    if (x[28] <= 10.499478816986084) {
                                        if (x[8] <= 1.3372175097465515) {
                                            votes[1] += 1;
                                        }

                                        else {
                                            votes[4] += 1;
                                        }
                                    }

                                    else {
                                        if (x[31] <= 9.5734224319458) {
                                            votes[0] += 1;
                                        }

                                        else {
                                            votes[3] += 1;
                                        }
                                    }
