#pragma once
#include <cstdarg>
namespace Eloquent {
    namespace ML {
        namespace Port {
            class SVM {
                public:
                    /**
                    * Predict class for features vector
                    */
                    int predict(float *x) {
                        float kernels[110] = { 0 };
                        float decisions[10] = { 0 };
                        int votes[5] = { 0 };
                        kernels[0] = compute_kernel(x,   0.31  , -0.18  , 0.9  , 0.31  , -0.22  , 0.97  , 0.23  , -0.48  , 0.99  , 0.21  , 0.39  , 0.62  , 0.18  , 0.37  , 1.15  , 0.21  , -0.36  , 1.26  , 0.16  , -0.09  , 0.47  , 0.26  , 0.35  , 0.96  , 0.1  , 0.08  , 1.16  , 0.11  , -0.16  , 0.97  , 0.09  , 0.07  , 0.99  , 0.12  , 0.07  , 0.95  , 0.1  , 0.04  , 0.97  , 0.1  , 0.05  , 0.98 );
                        kernels[1] = compute_kernel(x,   0.03  , -0.01  , 0.0  , 0.06  , -0.01  , 0.07  , 0.02  , -0.13  , -0.06  , 0.03  , 0.16  , -0.17  , -0.01  , 0.2  , -0.01  , -0.03  , 0.01  , 0.16  , -0.02  , -0.04  , -0.02  , 0.01  , 0.08  , -0.18  , -0.06  , 0.05  , -0.05  , -0.06  , -0.02  , 0.11  , -0.08  , -0.07  , -0.02  , -0.07  , 0.01  , 0.0  , -0.06  , 0.03  , -0.02  , -0.06  , 0.02  , 0.03 );
                        kernels[2] = compute_kernel(x,   -0.02  , 0.02  , 0.01  , 0.0  , 0.05  , -0.02  , 0.03  , -0.1  , 0.12  , 0.01  , -0.01  , -0.21  , 0.05  , 0.33  , -0.11  , 0.0  , 0.32  , 0.12  , 0.01  , 0.03  , 0.14  , -0.04  , 0.03  , -0.21  , -0.04  , 0.06  , -0.1  , -0.03  , 0.19  , 0.11  , -0.06  , 0.09  , 0.02  , -0.09  , 0.04  , -0.0  , -0.09  , 0.08  , 0.01  , -0.07  , 0.11  , -0.0 );
                        kernels[3] = compute_kernel(x,   0.03  , 0.02  , 0.0  , 0.04  , -0.06  , 0.01  , 0.06  , -0.06  , -0.16  , 0.06  , 0.11  , -0.28  , -0.07  , 0.29  , 0.11  , -0.08  , -0.05  , 0.17  , -0.01  , -0.05  , -0.25  , -0.03  , 0.11  , -0.01  , -0.1  , 0.08  , 0.09  , -0.1  , -0.05  , -0.01  , -0.1  , 0.01  , -0.01  , -0.08  , -0.0  , -0.05  , -0.09  , 0.01  , 0.0  , -0.08  , 0.01  , -0.03 );
                        kernels[4] = compute_kernel(x,   0.01  , -0.01  , -0.04  , 0.02  , -0.01  , 0.04  , 0.03  , -0.1  , -0.03  , 0.06  , 0.08  , -0.26  , -0.02  , 0.15  , -0.18  , -0.08  , 0.22  , 0.18  , -0.09  , -0.12  , 0.01  , -0.01  , 0.1  , -0.27  , -0.04  , 0.1  , -0.09  , -0.14  , 0.09  , 0.12  , -0.09  , 0.03  , -0.02  , -0.08  , 0.04  , -0.04  , -0.07  , 0.08  , -0.02  , -0.07  , 0.08  , -0.03 );
                        kernels[5] = compute_kernel(x,   0.05  , 0.02  , -0.03  , 0.06  , -0.02  , 0.06  , 0.07  , -0.05  , -0.05  , 0.05  , 0.12  , -0.23  , 0.07  , 0.26  , -0.04  , -0.0  , 0.12  , 0.15  , -0.02  , -0.04  , 0.04  , 0.03  , 0.08  , -0.22  , 0.0  , 0.15  , -0.02  , -0.05  , 0.1  , 0.09  , -0.08  , -0.06  , -0.02  , -0.02  , 0.08  , -0.02  , -0.02  , 0.06  , -0.03  , -0.03  , 0.03  , -0.0 );
                        kernels[6] = compute_kernel(x,   -0.01  , -0.02  , 0.01  , 0.01  , 0.01  , 0.0  , 0.02  , -0.05  , 0.12  , 0.06  , -0.03  , -0.09  , 0.07  , 0.06  , -0.11  , 0.05  , 0.15  , -0.02  , 0.01  , 0.2  , 0.06  , -0.02  , 0.05  , 0.13  , -0.01  , -0.0  , 0.02  , 0.0  , -0.03  , -0.16  , -0.01  , 0.0  , -0.04  , -0.06  , 0.09  , 0.11  , -0.07  , -0.01  , 0.03  , -0.06  , 0.0  , -0.0 );
                        kernels[7] = compute_kernel(x,   0.01  , 0.0  , -0.05  , 0.04  , -0.09  , 0.08  , -0.01  , 0.03  , -0.22  , -0.03  , 0.06  , -0.09  , -0.03  , 0.22  , 0.01  , -0.01  , 0.08  , 0.14  , -0.02  , 0.01  , 0.04  , 0.02  , 0.06  , -0.16  , 0.07  , 0.17  , -0.06  , 0.03  , 0.2  , 0.02  , -0.05  , 0.12  , 0.1  , -0.07  , 0.06  , -0.0  , -0.09  , 0.04  , -0.02  , -0.11  , 0.03  , -0.02 );
                        kernels[8] = compute_kernel(x,   0.03  , 0.03  , -0.05  , 0.04  , 0.01  , -0.0  , 0.0  , -0.17  , -0.02  , 0.02  , 0.14  , -0.28  , 0.02  , 0.36  , 0.04  , 0.01  , -0.07  , 0.25  , -0.04  , 0.01  , -0.16  , -0.01  , 0.04  , -0.2  , 0.03  , 0.25  , 0.03  , -0.1  , -0.02  , 0.04  , -0.07  , -0.06  , -0.03  , -0.08  , 0.02  , -0.01  , -0.07  , 0.04  , -0.01  , -0.08  , 0.04  , -0.0 );
                        kernels[9] = compute_kernel(x,   0.03  , 0.0  , 0.03  , 0.02  , -0.06  , 0.04  , -0.02  , -0.01  , -0.18  , 0.01  , 0.33  , -0.12  , -0.1  , 0.22  , 0.12  , -0.08  , -0.02  , 0.22  , -0.05  , 0.06  , -0.03  , -0.02  , 0.07  , -0.23  , -0.03  , 0.13  , -0.02  , -0.06  , 0.27  , 0.21  , -0.1  , 0.1  , 0.04  , -0.1  , 0.04  , 0.02  , -0.1  , 0.13  , 0.01  , -0.12  , 0.08  , 0.04 );
                        kernels[10] = compute_kernel(x,   -0.0  , -0.01  , 0.01  , 0.01  , -0.02  , 0.06  , 0.02  , -0.14  , 0.04  , 0.05  , 0.03  , -0.23  , 0.02  , 0.16  , -0.07  , -0.05  , 0.23  , 0.11  , -0.09  , -0.07  , 0.17  , -0.0  , 0.02  , -0.17  , 0.02  , 0.1  , -0.06  , -0.04  , 0.15  , 0.06  , -0.09  , 0.05  , 0.03  , -0.08  , -0.06  , -0.02  , -0.06  , 0.03  , -0.03  , -0.09  , -0.01  , -0.03 );
                        kernels[11] = compute_kernel(x,   -0.01  , 0.01  , -0.01  , 0.02  , -0.01  , 0.01  , -0.06  , -0.22  , 0.05  , -0.11  , 0.24  , -0.27  , -0.08  , 0.36  , 0.1  , -0.07  , -0.0  , 0.35  , -0.06  , 0.04  , -0.03  , -0.06  , 0.05  , -0.35  , -0.05  , 0.26  , -0.01  , -0.16  , 0.17  , 0.13  , -0.18  , 0.01  , 0.06  , -0.17  , 0.07  , 0.06  , -0.19  , 0.07  , 0.01  , -0.17  , 0.1  , 0.04 );
                        kernels[12] = compute_kernel(x,   0.19  , -0.06  , 0.95  , 0.2  , -0.08  , 0.97  , 0.23  , -0.22  , 0.87  , 0.11  , -0.04  , 0.64  , 0.16  , 0.4  , 1.07  , 0.16  , -0.07  , 1.36  , 0.11  , -0.04  , 0.79  , 0.17  , 0.08  , 0.76  , 0.08  , 0.21  , 1.09  , 0.03  , -0.09  , 1.01  , 0.05  , -0.04  , 0.97  , 0.07  , 0.02  , 0.99  , 0.07  , 0.03  , 0.98  , 0.09  , 0.03  , 0.96 );
                        kernels[13] = compute_kernel(x,   0.01  , 0.02  , 0.0  , 0.03  , 0.06  , 0.05  , 0.04  , -0.09  , 0.05  , 0.01  , 0.13  , -0.18  , 0.03  , 0.31  , 0.01  , -0.0  , 0.19  , 0.15  , 0.0  , 0.04  , 0.08  , -0.03  , -0.01  , -0.17  , 0.01  , 0.11  , -0.05  , -0.01  , 0.21  , 0.06  , -0.06  , 0.06  , 0.05  , -0.06  , 0.06  , 0.02  , -0.06  , 0.07  , -0.01  , -0.06  , 0.09  , 0.03 );
                        kernels[14] = compute_kernel(x,   -0.23  , 0.3  , 0.01  , -0.16  , 0.41  , -0.0  , -0.2  , 0.13  , 0.06  , -0.11  , 0.59  , -0.39  , -0.15  , 0.89  , -0.01  , -0.25  , 0.59  , 0.24  , -0.23  , 0.32  , -0.04  , -0.16  , 0.5  , -0.23  , -0.22  , 0.5  , -0.02  , -0.26  , 0.52  , 0.09  , -0.26  , 0.41  , -0.03  , -0.25  , 0.46  , -0.02  , -0.26  , 0.47  , -0.02  , -0.27  , 0.42  , -0.02 );
                        kernels[15] = compute_kernel(x,   0.01  , 0.04  , 0.02  , 0.03  , 0.05  , 0.04  , 0.03  , -0.12  , 0.04  , 0.08  , 0.09  , -0.16  , 0.07  , 0.31  , -0.02  , -0.02  , 0.33  , 0.08  , -0.05  , 0.03  , 0.21  , 0.04  , 0.15  , 0.0  , 0.02  , 0.07  , -0.2  , -0.04  , 0.13  , 0.03  , -0.03  , 0.21  , 0.11  , -0.08  , 0.05  , 0.04  , -0.07  , 0.14  , 0.05  , -0.09  , 0.11  , 0.02 );
                        kernels[16] = compute_kernel(x,   -0.01  , -0.02  , -0.03  , 0.01  , 0.01  , -0.04  , 0.05  , -0.07  , 0.15  , -0.0  , -0.06  , -0.11  , 0.02  , 0.17  , -0.18  , 0.03  , 0.31  , 0.05  , -0.02  , 0.04  , 0.13  , -0.03  , -0.02  , -0.03  , -0.03  , -0.01  , -0.22  , -0.02  , 0.11  , -0.05  , -0.06  , 0.12  , 0.04  , -0.11  , -0.08  , 0.05  , -0.09  , 0.03  , -0.01  , -0.07  , 0.04  , 0.0 );
                        kernels[17] = compute_kernel(x,   -0.01  , -0.02  , 0.0  , -0.01  , -0.04  , 0.02  , 0.0  , -0.1  , 0.04  , -0.02  , 0.08  , -0.23  , 0.03  , 0.35  , 0.0  , -0.08  , -0.04  , 0.29  , -0.1  , -0.06  , -0.09  , -0.02  , 0.11  , -0.18  , -0.07  , 0.16  , 0.11  , -0.13  , -0.08  , 0.03  , -0.11  , 0.02  , 0.02  , -0.12  , 0.01  , 0.03  , -0.11  , 0.03  , 0.01  , -0.12  , 0.02  , 0.02 );
                        kernels[18] = compute_kernel(x,   0.01  , -0.0  , -0.02  , 0.02  , 0.03  , -0.05  , 0.04  , -0.22  , 0.07  , 0.03  , 0.12  , -0.27  , 0.07  , 0.43  , -0.15  , 0.02  , 0.28  , 0.22  , -0.05  , -0.07  , 0.1  , -0.05  , -0.05  , -0.29  , -0.02  , 0.19  , -0.04  , -0.01  , 0.2  , 0.11  , -0.07  , -0.03  , -0.01  , -0.09  , 0.01  , -0.01  , -0.07  , 0.08  , -0.02  , -0.07  , 0.01  , -0.01 );
                        kernels[19] = compute_kernel(x,   0.02  , 0.0  , -0.01  , -0.0  , 0.02  , 0.01  , 0.02  , 0.11  , 0.08  , 0.07  , -0.13  , 0.1  , 0.08  , -0.02  , -0.16  , 0.17  , 0.21  , -0.12  , 0.08  , 0.17  , 0.06  , 0.01  , 0.08  , 0.09  , 0.01  , -0.04  , 0.02  , 0.01  , 0.05  , -0.01  , 0.03  , 0.11  , 0.02  , 0.04  , 0.11  , -0.01  , 0.01  , 0.06  , 0.02  , 0.02  , 0.08  , 0.01 );
                        kernels[20] = compute_kernel(x,   0.02  , 0.05  , 0.03  , 0.03  , 0.13  , -0.01  , 0.02  , 0.15  , 0.14  , 0.02  , -0.22  , 0.22  , 0.01  , 0.13  , -0.44  , 0.03  , 0.37  , -0.0  , 0.03  , 0.32  , 0.13  , -0.02  , 0.15  , -0.0  , -0.05  , 0.08  , 0.04  , -0.06  , 0.18  , 0.08  , -0.03  , 0.18  , 0.05  , -0.04  , 0.16  , 0.04  , -0.04  , 0.17  , 0.05  , -0.03  , 0.15  , 0.03 );
                        kernels[21] = compute_kernel(x,   -0.0  , -0.02  , 0.03  , 0.01  , 0.05  , 0.01  , 0.01  , 0.11  , 0.06  , 0.01  , -0.22  , 0.21  , 0.05  , -0.08  , -0.23  , 0.15  , 0.21  , -0.26  , 0.04  , 0.24  , 0.08  , 0.03  , 0.1  , 0.08  , -0.06  , -0.05  , 0.03  , -0.01  , 0.05  , -0.0  , 0.0  , 0.08  , -0.02  , 0.0  , 0.1  , 0.01  , -0.01  , 0.11  , -0.02  , -0.02  , 0.07  , 0.01 );
                        kernels[22] = compute_kernel(x,   0.13  , 0.05  , 0.96  , 0.11  , 0.06  , 0.97  , 0.07  , 0.18  , 1.07  , 0.05  , -0.31  , 1.22  , 0.16  , 0.07  , 0.51  , 0.17  , 0.46  , 0.81  , -0.0  , 0.17  , 1.12  , -0.0  , -0.03  , 0.97  , 0.05  , 0.22  , 0.96  , 0.07  , 0.24  , 0.95  , 0.05  , 0.19  , 0.96  , 0.07  , 0.21  , 0.93  , 0.06  , 0.18  , 0.94  , 0.06  , 0.21  , 0.95 );
                        kernels[23] = compute_kernel(x,   -0.02  , -0.01  , -0.01  , -0.01  , 0.07  , -0.01  , -0.02  , 0.09  , 0.05  , -0.01  , -0.18  , 0.17  , 0.05  , 0.01  , -0.29  , 0.11  , 0.18  , -0.14  , 0.03  , 0.21  , 0.03  , -0.06  , 0.02  , 0.04  , -0.07  , 0.04  , 0.04  , -0.05  , 0.1  , -0.01  , -0.06  , 0.11  , -0.02  , -0.04  , 0.12  , -0.02  , -0.05  , 0.1  , 0.02  , -0.05  , 0.11  , -0.03 );
                        kernels[24] = compute_kernel(x,   -0.0  , 0.01  , 0.01  , -0.0  , 0.03  , -0.01  , 0.0  , 0.08  , 0.18  , 0.01  , -0.17  , 0.12  , 0.06  , 0.01  , -0.32  , 0.16  , 0.35  , -0.11  , -0.03  , 0.21  , 0.16  , -0.06  , 0.01  , 0.01  , 0.02  , 0.1  , 0.01  , -0.05  , 0.14  , 0.03  , -0.02  , 0.15  , 0.02  , -0.02  , 0.15  , 0.02  , -0.0  , 0.16  , -0.01  , -0.01  , 0.13  , -0.0 );
                        kernels[25] = compute_kernel(x,   0.01  , -0.03  , -0.03  , -0.01  , -0.01  , -0.03  , 0.01  , 0.12  , 0.09  , 0.05  , -0.1  , 0.17  , 0.05  , -0.14  , -0.13  , 0.08  , 0.31  , -0.31  , 0.06  , 0.31  , 0.08  , -0.0  , 0.13  , 0.03  , -0.06  , -0.02  , 0.02  , -0.06  , 0.04  , -0.0  , -0.06  , 0.04  , 0.01  , -0.04  , 0.06  , -0.03  , -0.03  , 0.06  , -0.05  , -0.04  , 0.06  , -0.01 );
                        kernels[26] = compute_kernel(x,   0.01  , -0.02  , -0.03  , -0.0  , 0.03  , -0.04  , 0.02  , -0.03  , 0.16  , -0.03  , -0.3  , -0.11  , 0.02  , 0.19  , -0.43  , 0.02  , 0.27  , 0.11  , -0.05  , 0.11  , 0.02  , -0.06  , -0.09  , 0.01  , -0.04  , 0.03  , -0.05  , -0.02  , 0.04  , -0.03  , -0.04  , 0.05  , -0.01  , -0.02  , 0.06  , -0.03  , -0.02  , 0.05  , -0.02  , -0.03  , 0.01  , -0.03 );
                        kernels[27] = compute_kernel(x,   0.0  , -0.06  , -0.0  , 0.0  , -0.07  , -0.05  , -0.0  , 0.14  , 0.12  , 0.11  , -0.17  , 0.18  , 0.03  , -0.14  , -0.41  , 0.1  , 0.29  , -0.08  , 0.03  , 0.2  , 0.11  , -0.04  , -0.03  , 0.01  , -0.02  , -0.03  , 0.0  , 0.0  , 0.06  , 0.02  , 0.01  , 0.06  , 0.02  , -0.04  , 0.01  , 0.04  , 0.0  , 0.03  , 0.01  , 0.02  , 0.05  , -0.01 );
                        kernels[28] = compute_kernel(x,   0.03  , -0.01  , -0.03  , 0.04  , -0.01  , -0.05  , 0.02  , -0.17  , 0.04  , 0.05  , 0.06  , 0.08  , 0.08  , 0.36  , -0.18  , 0.07  , -0.08  , -0.38  , 0.01  , -0.32  , 0.16  , -0.02  , -0.05  , 0.08  , -0.01  , 0.1  , 0.04  , 0.01  , -0.06  , -0.03  , 0.05  , -0.21  , -0.07  , 0.08  , -0.24  , -0.05  , 0.11  , -0.25  , -0.11  , 0.09  , -0.31  , -0.14 );
                        kernels[29] = compute_kernel(x,   0.01  , -0.04  , -0.03  , 0.03  , 0.01  , -0.02  , 0.07  , 0.19  , 0.01  , 0.04  , 0.08  , 0.18  , 0.06  , -0.22  , -0.04  , 0.13  , 0.24  , -0.35  , 0.06  , 0.3  , -0.09  , -0.01  , 0.25  , 0.11  , -0.03  , 0.17  , 0.04  , -0.05  , 0.06  , -0.02  , -0.03  , 0.15  , -0.03  , -0.0  , 0.18  , -0.04  , -0.02  , 0.14  , -0.02  , -0.02  , 0.16  , -0.02 );
                        kernels[30] = compute_kernel(x,   -0.02  , -0.04  , -0.01  , -0.03  , -0.02  , 0.0  , 0.01  , 0.03  , -0.0  , 0.0  , -0.11  , 0.11  , 0.05  , -0.18  , -0.07  , 0.13  , 0.11  , -0.21  , 0.11  , 0.25  , -0.1  , 0.05  , 0.23  , 0.03  , -0.06  , 0.08  , 0.07  , -0.07  , 0.02  , -0.0  , -0.05  , 0.18  , 0.01  , -0.04  , 0.14  , -0.04  , -0.06  , 0.13  , -0.01  , -0.06  , 0.12  , -0.01 );
                        kernels[31] = compute_kernel(x,   -0.02  , -0.01  , 0.01  , -0.01  , 0.05  , -0.02  , -0.03  , 0.06  , 0.09  , 0.04  , -0.11  , 0.21  , 0.02  , -0.05  , -0.24  , 0.17  , 0.3  , -0.16  , 0.05  , 0.23  , 0.07  , -0.06  , 0.03  , 0.09  , -0.06  , 0.04  , 0.05  , -0.04  , 0.09  , 0.01  , -0.04  , 0.13  , 0.03  , -0.03  , 0.12  , 0.01  , -0.02  , 0.13  , 0.01  , -0.03  , 0.14  , -0.02 );
                        kernels[32] = compute_kernel(x,   0.0  , -0.0  , 0.02  , -0.01  , -0.01  , -0.02  , 0.02  , 0.18  , 0.08  , 0.01  , -0.26  , 0.22  , -0.01  , 0.01  , -0.4  , 0.11  , 0.47  , -0.06  , -0.04  , 0.12  , 0.13  , -0.05  , 0.01  , 0.0  , -0.04  , 0.03  , 0.04  , -0.04  , 0.07  , 0.02  , -0.04  , 0.06  , 0.02  , -0.06  , 0.01  , 0.03  , -0.03  , 0.07  , 0.03  , -0.03  , 0.07  , -0.0 );
                        kernels[33] = compute_kernel(x,   0.0  , -0.01  , 0.02  , 0.01  , -0.04  , 0.03  , 0.02  , 0.17  , 0.21  , -0.02  , -0.29  , 0.22  , 0.02  , -0.12  , -0.28  , 0.13  , 0.36  , -0.15  , 0.01  , 0.28  , 0.13  , -0.0  , 0.12  , -0.01  , -0.07  , -0.02  , 0.04  , -0.01  , 0.13  , 0.01  , -0.03  , 0.08  , -0.0  , -0.04  , 0.09  , 0.0  , -0.04  , 0.09  , 0.02  , -0.03  , 0.09  , 0.03 );
                        kernels[34] = compute_kernel(x,   0.0  , -0.04  , -0.01  , -0.02  , -0.02  , -0.01  , 0.1  , 0.31  , 0.02  , 0.18  , 0.24  , 0.28  , 0.05  , -0.12  , -0.02  , 0.08  , 0.19  , -0.34  , 0.1  , 0.36  , -0.12  , -0.04  , 0.2  , 0.13  , -0.06  , -0.0  , 0.06  , -0.06  , 0.1  , -0.02  , -0.04  , 0.13  , -0.03  , -0.06  , 0.08  , -0.02  , -0.02  , 0.13  , 0.04  , -0.04  , 0.13  , -0.01 );
                        kernels[35] = compute_kernel(x,   -0.0  , 0.0  , 0.04  , 0.0  , 0.03  , -0.0  , -0.01  , 0.04  , 0.13  , -0.07  , -0.28  , 0.14  , 0.07  , 0.03  , -0.42  , 0.04  , 0.3  , 0.01  , -0.07  , 0.08  , 0.14  , -0.11  , -0.07  , 0.05  , -0.04  , 0.05  , 0.0  , -0.03  , 0.1  , 0.01  , -0.04  , 0.08  , 0.01  , -0.02  , 0.1  , -0.02  , -0.04  , 0.12  , 0.02  , -0.03  , 0.11  , 0.02 );
                        kernels[36] = compute_kernel(x,   -0.01  , -0.04  , -0.04  , -0.04  , -0.12  , -0.03  , 0.02  , -0.22  , 0.09  , -0.01  , 0.11  , 0.06  , 0.02  , 0.26  , -0.29  , 0.01  , -0.29  , -0.29  , 0.0  , -0.13  , 0.15  , -0.07  , -0.04  , 0.0  , -0.05  , 0.01  , -0.04  , -0.05  , -0.13  , -0.02  , -0.06  , -0.16  , -0.03  , -0.03  , -0.21  , -0.03  , -0.01  , -0.2  , -0.04  , -0.01  , -0.2  , -0.04 );
                        kernels[37] = compute_kernel(x,   0.0  , 0.0  , 0.03  , -0.05  , 0.05  , 0.01  , 0.1  , 0.27  , 0.35  , -0.07  , -0.15  , -0.08  , 0.1  , 0.52  , -0.28  , 0.03  , 0.49  , 0.22  , -0.09  , 0.27  , 0.14  , -0.09  , 0.15  , 0.13  , -0.07  , 0.24  , 0.09  , -0.05  , 0.27  , 0.09  , -0.05  , 0.26  , 0.07  , -0.07  , 0.22  , 0.11  , -0.05  , 0.27  , 0.11  , -0.02  , 0.27  , 0.05 );
                        kernels[38] = compute_kernel(x,   0.01  , -0.01  , -0.01  , 0.01  , 0.02  , -0.03  , 0.11  , 0.25  , 0.11  , -0.01  , -0.32  , 0.01  , 0.07  , 0.03  , -0.33  , 0.09  , 0.41  , -0.01  , -0.05  , 0.1  , 0.13  , -0.03  , -0.06  , -0.0  , 0.02  , 0.12  , -0.02  , 0.0  , 0.13  , -0.04  , 0.0  , 0.13  , -0.01  , 0.03  , 0.16  , -0.03  , -0.01  , 0.07  , -0.03  , -0.02  , 0.02  , 0.01 );
                        kernels[39] = compute_kernel(x,   -0.02  , -0.02  , 0.0  , -0.01  , 0.0  , 0.01  , -0.07  , 0.16  , 0.05  , 0.02  , -0.11  , 0.25  , -0.03  , -0.19  , -0.18  , 0.13  , 0.45  , -0.33  , -0.0  , 0.36  , 0.1  , -0.06  , 0.04  , 0.07  , -0.08  , 0.01  , 0.03  , -0.07  , 0.07  , -0.02  , -0.03  , 0.11  , -0.03  , -0.02  , 0.1  , -0.02  , -0.03  , 0.09  , -0.01  , -0.05  , 0.06  , 0.0 );
                        kernels[40] = compute_kernel(x,   -0.01  , -0.03  , -0.01  , -0.03  , -0.07  , 0.04  , 0.01  , -0.09  , 0.25  , 0.03  , 0.03  , 0.12  , 0.11  , -0.12  , -0.29  , 0.03  , -0.15  , -0.19  , 0.04  , -0.19  , 0.19  , -0.06  , -0.13  , 0.18  , -0.06  , -0.01  , -0.07  , -0.04  , -0.17  , 0.04  , -0.06  , -0.21  , 0.02  , -0.03  , -0.17  , 0.03  , -0.04  , -0.18  , 0.01  , -0.05  , -0.24  , 0.05 );
                        kernels[41] = compute_kernel(x,   -0.01  , -0.02  , 0.02  , -0.02  , -0.05  , 0.0  , 0.1  , -0.06  , 0.22  , 0.05  , 0.16  , -0.1  , 0.08  , -0.04  , -0.36  , 0.0  , -0.22  , 0.11  , -0.05  , -0.03  , 0.14  , -0.03  , -0.03  , 0.0  , -0.03  , -0.12  , 0.0  , -0.01  , -0.09  , 0.02  , -0.03  , -0.14  , 0.02  , -0.04  , -0.15  , 0.01  , -0.06  , -0.1  , -0.09  , -0.04  , -0.12  , 0.03 );
                        kernels[42] = compute_kernel(x,   -0.0  , 0.02  , 0.02  , -0.02  , 0.06  , -0.04  , -0.09  , -0.3  , 0.14  , 0.06  , -0.01  , -0.23  , 0.07  , 0.1  , -0.11  , 0.01  , 0.26  , 0.17  , -0.13  , -0.04  , 0.07  , -0.08  , 0.03  , 0.04  , -0.0  , 0.23  , 0.07  , -0.01  , 0.13  , 0.0  , 0.0  , 0.17  , 0.01  , -0.02  , 0.14  , 0.0  , -0.01  , 0.14  , 0.02  , -0.01  , 0.15  , 0.01 );
                        kernels[43] = compute_kernel(x,   0.02  , -0.0  , -0.01  , 0.01  , 0.01  , 0.01  , -0.0  , 0.04  , 0.23  , 0.04  , -0.08  , -0.01  , 0.14  , 0.07  , -0.29  , 0.03  , -0.01  , -0.08  , -0.0  , 0.27  , 0.1  , -0.15  , -0.07  , 0.01  , -0.13  , -0.09  , 0.01  , -0.09  , 0.05  , 0.01  , -0.05  , 0.1  , -0.01  , -0.07  , 0.09  , 0.01  , -0.08  , 0.08  , -0.01  , -0.08  , 0.09  , 0.03 );
                        kernels[44] = compute_kernel(x,   0.01  , 0.01  , 0.01  , 0.0  , -0.03  , -0.01  , -0.03  , -0.05  , 0.16  , 0.05  , 0.13  , 0.13  , 0.11  , 0.03  , -0.21  , 0.11  , -0.02  , -0.14  , 0.09  , -0.11  , 0.16  , 0.05  , -0.06  , 0.09  , 0.05  , 0.01  , -0.02  , 0.04  , -0.14  , 0.01  , 0.06  , -0.09  , 0.02  , 0.03  , -0.15  , -0.0  , 0.03  , -0.13  , 0.03  , 0.01  , -0.13  , 0.04 );
                        kernels[45] = compute_kernel(x,   -0.01  , 0.03  , -0.01  , -0.01  , 0.04  , -0.01  , -0.01  , 0.31  , 0.07  , -0.04  , 0.02  , 0.39  , 0.07  , 0.12  , -0.47  , 0.06  , 0.19  , 0.07  , 0.07  , 0.35  , 0.24  , 0.04  , 0.22  , 0.05  , 0.05  , 0.28  , -0.01  , 0.05  , 0.28  , 0.01  , 0.08  , 0.31  , 0.01  , 0.06  , 0.28  , -0.01  , 0.07  , 0.3  , -0.0  , 0.06  , 0.29  , -0.01 );
                        kernels[46] = compute_kernel(x,   0.13  , -0.01  , 0.9  , 0.12  , 0.01  , 1.0  , 0.26  , 0.3  , 1.14  , 0.05  , -0.2  , 0.89  , 0.09  , 0.03  , 0.65  , 0.08  , 0.33  , 1.2  , 0.06  , -0.22  , 1.0  , 0.19  , 0.22  , 1.0  , 0.17  , 0.09  , 1.05  , 0.13  , 0.09  , 1.02  , 0.14  , 0.04  , 0.91  , 0.15  , 0.05  , 0.96  , 0.14  , 0.09  , 1.01  , 0.16  , 0.06  , 0.97 );
                        kernels[47] = compute_kernel(x,   0.0  , 0.0  , 0.0  , -0.01  , -0.02  , 0.01  , -0.03  , -0.09  , 0.14  , 0.06  , 0.3  , 0.17  , 0.05  , -0.07  , -0.33  , 0.06  , -0.03  , -0.07  , -0.06  , -0.25  , 0.16  , -0.11  , -0.06  , -0.01  , -0.08  , -0.15  , 0.02  , -0.08  , -0.22  , -0.0  , -0.08  , -0.2  , 0.02  , -0.07  , -0.22  , 0.0  , -0.08  , -0.21  , 0.03  , -0.07  , -0.2  , 0.02 );
                        kernels[48] = compute_kernel(x,   -0.01  , 0.0  , -0.01  , -0.03  , 0.01  , -0.02  , -0.06  , 0.29  , 0.09  , -0.02  , -0.17  , 0.26  , 0.12  , 0.06  , -0.44  , 0.1  , 0.1  , -0.29  , 0.05  , 0.24  , 0.14  , -0.05  , 0.03  , 0.1  , -0.07  , 0.04  , -0.0  , -0.04  , 0.18  , -0.01  , -0.1  , 0.04  , -0.07  , -0.05  , 0.13  , -0.02  , -0.03  , 0.17  , -0.02  , -0.09  , 0.03  , 0.04 );
                        kernels[49] = compute_kernel(x,   0.0  , -0.02  , -0.0  , 0.01  , -0.03  , -0.03  , 0.01  , -0.05  , 0.1  , 0.01  , 0.19  , 0.16  , 0.04  , 0.07  , -0.38  , 0.06  , -0.06  , 0.05  , 0.02  , -0.06  , 0.14  , -0.05  , 0.1  , -0.07  , -0.05  , -0.05  , 0.01  , -0.04  , -0.06  , 0.0  , -0.01  , -0.1  , -0.02  , -0.05  , -0.11  , -0.06  , -0.02  , -0.08  , -0.01  , 0.0  , -0.07  , -0.02 );
                        kernels[50] = compute_kernel(x,   0.03  , 0.02  , -0.01  , 0.05  , 0.04  , -0.03  , -0.02  , -0.22  , 0.14  , 0.06  , 0.14  , 0.21  , 0.12  , 0.02  , -0.12  , 0.2  , 0.04  , -0.36  , 0.18  , -0.03  , -0.1  , 0.02  , -0.28  , 0.01  , 0.0  , -0.11  , 0.14  , 0.0  , -0.01  , -0.06  , -0.01  , -0.14  , -0.03  , -0.0  , -0.14  , -0.03  , 0.03  , -0.12  , -0.03  , -0.03  , -0.16  , 0.03 );
                        kernels[51] = compute_kernel(x,   -0.01  , -0.02  , 0.01  , -0.03  , -0.05  , 0.02  , 0.02  , 0.22  , 0.13  , -0.05  , -0.16  , 0.14  , 0.05  , 0.0  , -0.21  , 0.06  , 0.1  , -0.01  , -0.01  , 0.23  , 0.12  , -0.09  , 0.12  , 0.09  , -0.06  , 0.05  , -0.01  , -0.04  , 0.07  , 0.01  , -0.04  , 0.04  , 0.01  , -0.03  , 0.13  , 0.02  , -0.03  , 0.06  , 0.03  , -0.03  , 0.09  , 0.01 );
                        kernels[52] = compute_kernel(x,   -0.01  , -0.01  , -0.0  , -0.03  , -0.03  , -0.05  , 0.09  , 0.07  , 0.21  , 0.06  , 0.04  , 0.18  , -0.03  , -0.11  , -0.52  , -0.03  , -0.19  , 0.08  , -0.09  , -0.24  , 0.26  , -0.11  , -0.18  , -0.04  , -0.07  , -0.3  , -0.01  , -0.06  , -0.28  , -0.03  , -0.06  , -0.24  , -0.02  , -0.06  , -0.25  , -0.03  , -0.08  , -0.28  , -0.02  , -0.08  , -0.25  , -0.05 );
                        kernels[53] = compute_kernel(x,   0.24  , 0.08  , -0.06  , 0.15  , 0.21  , -0.14  , 0.17  , 0.15  , 0.29  , 0.2  , -0.03  , -0.18  , 0.25  , 0.08  , -0.58  , 0.26  , 0.39  , -0.1  , 0.04  , 0.17  , 0.27  , -0.02  , -0.09  , -0.01  , 0.01  , 0.1  , 0.02  , 0.07  , 0.19  , -0.0  , 0.04  , 0.12  , 0.01  , 0.04  , 0.09  , -0.01  , 0.06  , 0.15  , 0.03  , 0.04  , 0.15  , -0.03 );
                        kernels[54] = compute_kernel(x,   -0.01  , 0.03  , -0.01  , -0.01  , 0.01  , -0.01  , 0.09  , 0.42  , -0.02  , -0.05  , -0.07  , 0.36  , 0.02  , 0.09  , -0.28  , 0.03  , 0.25  , -0.03  , 0.02  , 0.41  , 0.13  , -0.07  , 0.17  , 0.07  , -0.02  , 0.2  , 0.04  , -0.01  , 0.28  , -0.01  , -0.01  , 0.28  , 0.01  , -0.01  , 0.24  , 0.02  , 0.0  , 0.28  , 0.04  , 0.0  , 0.22  , 0.04 );
                        kernels[55] = compute_kernel(x,   0.02  , -0.02  , -0.0  , 0.02  , -0.01  , 0.0  , 0.04  , -0.18  , 0.13  , 0.09  , 0.03  , 0.15  , 0.1  , -0.06  , -0.35  , 0.08  , -0.16  , -0.03  , 0.07  , -0.17  , 0.14  , 0.03  , -0.01  , -0.02  , 0.04  , -0.11  , -0.01  , 0.03  , -0.21  , 0.0  , 0.02  , -0.18  , -0.0  , 0.02  , -0.2  , -0.01  , 0.02  , -0.15  , -0.07  , 0.03  , -0.16  , -0.0 );
                        kernels[56] = compute_kernel(x,   -0.0  , 0.03  , 0.01  , -0.02  , -0.02  , -0.0  , -0.0  , -0.19  , 0.2  , 0.05  , 0.2  , 0.08  , 0.05  , -0.04  , -0.45  , -0.01  , -0.12  , 0.02  , -0.03  , -0.18  , 0.14  , -0.05  , 0.01  , -0.02  , 0.02  , -0.09  , -0.02  , -0.02  , -0.19  , -0.01  , -0.05  , -0.18  , -0.03  , -0.07  , -0.2  , -0.01  , -0.07  , -0.19  , -0.01  , -0.06  , -0.16  , -0.01 );
                        kernels[57] = compute_kernel(x,   -0.01  , -0.03  , 0.02  , -0.01  , 0.0  , -0.02  , 0.02  , 0.01  , 0.48  , 0.04  , -0.01  , 0.05  , 0.13  , -0.05  , -0.54  , 0.08  , 0.01  , -0.16  , 0.05  , 0.21  , 0.12  , -0.0  , 0.11  , 0.09  , 0.01  , 0.07  , -0.01  , 0.0  , 0.08  , -0.01  , 0.03  , 0.11  , 0.01  , 0.04  , 0.12  , 0.01  , 0.04  , 0.12  , 0.02  , 0.04  , 0.13  , 0.02 );
                        kernels[58] = compute_kernel(x,   -0.01  , -0.03  , 0.05  , 0.01  , -0.03  , -0.05  , 0.14  , 0.16  , 0.29  , 0.03  , -0.01  , 0.19  , 0.09  , 0.02  , -0.18  , 0.09  , -0.07  , -0.3  , -0.06  , -0.26  , -0.08  , -0.08  , -0.2  , 0.27  , -0.11  , -0.01  , 0.11  , -0.09  , -0.12  , 0.01  , -0.06  , -0.1  , 0.03  , -0.07  , -0.12  , -0.01  , -0.11  , -0.21  , -0.02  , -0.08  , -0.16  , 0.01 );
                        kernels[59] = compute_kernel(x,   0.01  , 0.02  , 0.01  , -0.0  , 0.11  , -0.03  , 0.0  , -0.15  , 0.11  , 0.09  , 0.08  , -0.15  , 0.11  , 0.14  , -0.12  , 0.06  , 0.29  , 0.06  , -0.06  , 0.14  , 0.11  , -0.06  , 0.05  , -0.08  , -0.03  , 0.16  , 0.02  , -0.02  , 0.16  , -0.05  , -0.02  , 0.16  , 0.02  , -0.01  , 0.17  , 0.01  , -0.01  , 0.17  , -0.0  , -0.02  , 0.16  , 0.02 );
                        kernels[60] = compute_kernel(x,   0.01  , 0.02  , 0.02  , 0.01  , 0.01  , -0.03  , 0.05  , 0.04  , 0.25  , 0.02  , -0.12  , 0.14  , 0.13  , 0.09  , -0.34  , 0.17  , 0.08  , -0.23  , -0.02  , -0.24  , 0.13  , -0.02  , -0.1  , 0.13  , -0.03  , -0.0  , -0.08  , -0.01  , -0.18  , 0.01  , -0.02  , -0.13  , 0.02  , -0.02  , -0.13  , 0.02  , -0.01  , -0.13  , 0.01  , -0.01  , -0.08  , -0.02 );
                        kernels[61] = compute_kernel(x,   0.13  , -0.09  , 0.97  , 0.12  , -0.1  , 0.96  , 0.12  , -0.1  , 0.99  , 0.24  , 0.05  , 1.34  , 0.09  , -0.23  , 1.02  , 0.27  , -0.05  , 0.41  , 0.1  , -0.01  , 0.9  , 0.07  , 0.29  , 1.23  , -0.11  , -0.1  , 0.98  , -0.03  , -0.11  , 0.94  , 0.01  , 0.12  , 0.95  , 0.04  , 0.17  , 1.01  , 0.05  , 0.1  , 0.98  , 0.04  , 0.08  , 0.97 );
                        kernels[62] = compute_kernel(x,   0.01  , -0.0  , -0.0  , 0.0  , -0.01  , -0.02  , -0.01  , 0.1  , 0.6  , -0.05  , 0.07  , -0.01  , 0.04  , -0.14  , -0.42  , -0.03  , -0.37  , 0.09  , -0.05  , -0.0  , 0.11  , -0.08  , -0.08  , -0.02  , -0.08  , -0.18  , 0.04  , -0.07  , -0.19  , 0.01  , 0.0  , -0.11  , -0.05  , -0.11  , -0.23  , -0.01  , -0.1  , -0.17  , -0.0  , -0.08  , -0.17  , 0.01 );
                        kernels[63] = compute_kernel(x,   -0.06  , -0.02  , 0.99  , -0.07  , 0.0  , 0.93  , -0.1  , -0.06  , 1.51  , 0.01  , -0.04  , 0.53  , 0.04  , 0.0  , 0.63  , -0.02  , 0.31  , 1.08  , -0.09  , -0.12  , 1.12  , -0.02  , 0.02  , 0.99  , -0.01  , 0.1  , 0.95  , -0.01  , 0.12  , 0.95  , -0.01  , 0.11  , 0.99  , -0.03  , 0.07  , 0.96  , -0.01  , 0.1  , 0.97  , -0.02  , 0.08  , 0.96 );
                        kernels[64] = compute_kernel(x,   -0.02  , -0.01  , 0.03  , -0.0  , 0.02  , 0.02  , -0.11  , 0.13  , -0.1  , -0.1  , 0.08  , 0.25  , -0.19  , -0.47  , 0.07  , -0.05  , -0.05  , -0.2  , -0.01  , 0.28  , -0.28  , -0.03  , 0.43  , 0.07  , -0.14  , 0.11  , 0.21  , -0.16  , 0.01  , 0.1  , -0.19  , 0.03  , 0.03  , -0.16  , 0.03  , 0.04  , -0.16  , 0.03  , 0.04  , -0.15  , 0.04  , 0.05 );
                        kernels[65] = compute_kernel(x,   -0.01  , -0.01  , -0.0  , 0.0  , -0.04  , -0.0  , 0.05  , 0.09  , 0.43  , 0.05  , 0.23  , -0.16  , 0.15  , 0.02  , -0.3  , 0.08  , -0.27  , -0.13  , -0.04  , -0.22  , 0.13  , -0.04  , 0.1  , 0.09  , -0.03  , 0.04  , -0.04  , -0.07  , -0.04  , 0.01  , -0.02  , -0.03  , -0.0  , -0.04  , -0.05  , -0.02  , -0.06  , -0.05  , 0.04  , -0.05  , -0.06  , -0.0 );
                        kernels[66] = compute_kernel(x,   0.0  , 0.04  , 0.01  , -0.0  , 0.01  , 0.03  , 0.07  , 0.13  , 0.19  , 0.09  , 0.21  , -0.21  , 0.2  , 0.07  , -0.14  , 0.08  , -0.04  , -0.06  , 0.02  , 0.05  , 0.02  , -0.14  , -0.07  , 0.13  , -0.11  , 0.15  , 0.11  , -0.09  , 0.27  , 0.04  , -0.06  , 0.1  , -0.07  , -0.01  , 0.03  , -0.03  , 0.01  , 0.08  , 0.03  , 0.0  , 0.04  , -0.01 );
                        kernels[67] = compute_kernel(x,   0.01  , 0.01  , -0.0  , 0.01  , -0.0  , -0.02  , -0.04  , 0.26  , 0.35  , 0.04  , -0.29  , 0.08  , 0.14  , -0.04  , -0.36  , 0.24  , 0.32  , -0.16  , 0.09  , 0.14  , 0.03  , 0.0  , -0.01  , 0.09  , -0.0  , -0.12  , 0.01  , -0.01  , -0.04  , -0.05  , 0.0  , -0.0  , 0.02  , 0.0  , 0.02  , -0.01  , -0.01  , 0.0  , -0.01  , 0.01  , 0.02  , -0.01 );
                        kernels[68] = compute_kernel(x,   0.01  , 0.03  , 0.03  , -0.01  , 0.01  , -0.05  , -0.1  , 0.14  , -0.06  , -0.19  , 0.12  , 0.18  , -0.18  , -0.24  , 0.18  , -0.13  , -0.21  , -0.05  , -0.03  , 0.11  , -0.19  , -0.05  , 0.19  , -0.23  , -0.12  , 0.23  , 0.07  , -0.15  , 0.06  , 0.12  , -0.16  , 0.08  , -0.03  , -0.14  , 0.08  , 0.02  , -0.14  , 0.07  , 0.01  , -0.12  , 0.08  , 0.02 );
                        kernels[69] = compute_kernel(x,   0.0  , 0.02  , -0.02  , 0.0  , 0.02  , 0.02  , -0.01  , 0.22  , 0.11  , -0.02  , -0.25  , 0.2  , 0.11  , -0.1  , -0.2  , 0.21  , 0.21  , -0.23  , 0.19  , 0.22  , -0.07  , 0.08  , 0.21  , 0.13  , -0.03  , -0.05  , 0.07  , -0.08  , -0.17  , -0.05  , -0.03  , -0.04  , -0.05  , -0.01  , 0.01  , -0.0  , -0.03  , -0.0  , 0.01  , -0.03  , 0.02  , 0.01 );
                        kernels[70] = compute_kernel(x,   0.0  , 0.0  , -0.01  , -0.0  , -0.06  , -0.01  , 0.06  , 0.08  , 0.27  , 0.13  , 0.27  , -0.17  , 0.22  , 0.09  , -0.25  , 0.1  , -0.2  , -0.04  , 0.06  , -0.09  , 0.12  , 0.01  , 0.1  , 0.04  , 0.01  , 0.08  , -0.01  , 0.03  , 0.02  , 0.02  , -0.01  , -0.1  , -0.1  , -0.01  , -0.04  , 0.01  , 0.01  , 0.01  , -0.01  , 0.01  , -0.03  , 0.01 );
                        kernels[71] = compute_kernel(x,   0.01  , -0.01  , -0.0  , 0.01  , -0.05  , 0.11  , 0.12  , 0.19  , 0.07  , 0.14  , 0.1  , -0.28  , 0.16  , 0.09  , -0.23  , 0.01  , -0.02  , 0.05  , -0.09  , 0.0  , 0.18  , -0.1  , 0.22  , 0.17  , -0.08  , 0.32  , -0.02  , 0.02  , 0.12  , -0.16  , 0.08  , 0.05  , 0.04  , 0.09  , 0.06  , -0.02  , 0.1  , 0.06  , 0.03  , 0.07  , 0.01  , 0.03 );
                        kernels[72] = compute_kernel(x,   0.02  , -0.11  , 0.99  , -0.01  , -0.19  , 1.0  , -0.01  , -0.15  , 1.03  , -0.03  , 0.04  , 0.97  , -0.01  , -0.08  , 0.99  , -0.01  , -0.06  , 0.97  , -0.01  , -0.02  , 0.98  , -0.01  , -0.05  , 0.97  , -0.04  , -0.17  , 0.94  , -0.05  , -0.18  , 0.98  , -0.08  , -0.14  , 0.88  , 0.16  , -0.32  , 0.85  , 0.39  , -0.85  , -1.57  , 0.08  , -0.62  , 0.92 );
                        kernels[73] = compute_kernel(x,   0.01  , 0.01  , -0.04  , 0.01  , 0.02  , -0.05  , -0.0  , -0.15  , 0.06  , 0.07  , 0.22  , 0.09  , 0.14  , 0.2  , -0.23  , 0.17  , -0.02  , -0.22  , 0.15  , -0.14  , -0.01  , -0.01  , -0.19  , 0.04  , -0.03  , 0.04  , 0.01  , -0.02  , 0.01  , -0.03  , -0.03  , 0.02  , -0.02  , -0.03  , -0.05  , -0.02  , -0.04  , -0.04  , -0.05  , -0.03  , -0.03  , -0.03 );
                        kernels[74] = compute_kernel(x,   -0.02  , 0.01  , 0.98  , -0.02  , 0.01  , 0.94  , -0.14  , 0.59  , 1.06  , -0.14  , -0.31  , 1.58  , -0.06  , -0.1  , 0.65  , 0.1  , 0.27  , 0.66  , 0.01  , 0.39  , 0.79  , -0.12  , 0.24  , 1.01  , -0.14  , 0.04  , 1.0  , -0.14  , 0.06  , 0.96  , -0.11  , 0.12  , 0.96  , -0.1  , 0.09  , 1.0  , -0.08  , 0.06  , 1.0  , -0.08  , 0.03  , 0.96 );
                        kernels[75] = compute_kernel(x,   0.0  , -0.01  , 0.02  , -0.0  , -0.01  , -0.01  , -0.04  , 0.28  , 0.05  , -0.02  , -0.21  , 0.31  , 0.01  , -0.03  , -0.23  , 0.1  , 0.3  , -0.26  , 0.05  , 0.31  , 0.23  , -0.06  , 0.02  , 0.11  , -0.05  , -0.01  , -0.09  , -0.01  , 0.05  , -0.03  , 0.01  , 0.05  , 0.02  , -0.0  , 0.03  , 0.03  , 0.0  , 0.02  , 0.01  , 0.0  , 0.02  , 0.01 );
                        kernels[76] = compute_kernel(x,   -0.01  , 0.01  , -0.02  , -0.01  , -0.03  , 0.05  , 0.08  , 0.11  , 0.2  , 0.1  , 0.11  , -0.19  , 0.17  , 0.12  , -0.24  , 0.03  , -0.09  , -0.1  , -0.08  , 0.01  , 0.05  , -0.17  , 0.01  , 0.11  , -0.19  , 0.16  , 0.11  , -0.15  , 0.29  , 0.01  , -0.07  , 0.11  , -0.07  , -0.02  , 0.05  , 0.01  , -0.01  , 0.07  , 0.02  , 0.01  , 0.1  , 0.04 );
                        kernels[77] = compute_kernel(x,   0.0  , -0.01  , 0.02  , -0.0  , -0.01  , 0.0  , 0.02  , 0.29  , 0.23  , -0.05  , -0.25  , 0.23  , -0.04  , 0.01  , -0.41  , 0.09  , 0.52  , -0.1  , 0.01  , 0.22  , 0.14  , -0.03  , -0.05  , -0.03  , 0.04  , 0.13  , 0.01  , 0.03  , 0.1  , -0.0  , 0.02  , 0.06  , 0.03  , 0.03  , 0.09  , 0.01  , 0.04  , 0.08  , 0.01  , 0.03  , 0.06  , 0.03 );
                        kernels[78] = compute_kernel(x,   0.01  , 0.01  , 0.01  , 0.02  , 0.01  , -0.02  , -0.03  , 0.08  , -0.1  , -0.07  , 0.13  , 0.07  , -0.05  , -0.09  , 0.15  , -0.03  , -0.17  , 0.04  , 0.04  , -0.11  , -0.06  , 0.15  , 0.15  , -0.18  , 0.11  , 0.18  , -0.17  , 0.02  , 0.07  , 0.04  , -0.04  , 0.0  , 0.1  , -0.07  , -0.04  , 0.01  , -0.07  , -0.01  , 0.05  , -0.06  , -0.05  , 0.0 );
                        kernels[79] = compute_kernel(x,   -0.01  , -0.0  , -0.0  , 0.0  , -0.05  , 0.08  , 0.08  , 0.22  , -0.01  , 0.07  , 0.04  , -0.25  , -0.01  , -0.17  , -0.16  , -0.14  , -0.08  , -0.02  , -0.17  , 0.08  , 0.26  , -0.19  , 0.2  , 0.14  , -0.14  , 0.29  , 0.0  , -0.07  , 0.04  , -0.07  , -0.02  , 0.02  , 0.03  , -0.03  , 0.0  , -0.02  , -0.03  , 0.02  , 0.01  , -0.02  , 0.01  , 0.0 );
                        kernels[80] = compute_kernel(x,   0.0  , 0.02  , 0.01  , 0.0  , 0.02  , 0.0  , -0.05  , 0.15  , 0.24  , -0.0  , -0.3  , 0.1  , 0.1  , -0.03  , -0.37  , 0.2  , 0.36  , -0.17  , 0.03  , 0.24  , 0.04  , -0.06  , 0.02  , 0.15  , -0.03  , -0.04  , -0.04  , -0.04  , 0.05  , 0.03  , -0.04  , 0.05  , 0.03  , -0.02  , 0.05  , 0.0  , -0.01  , 0.02  , 0.03  , -0.02  , 0.05  , 0.01 );
                        kernels[81] = compute_kernel(x,   -0.03  , -0.02  , 0.02  , -0.03  , 0.01  , -0.08  , -0.09  , 0.18  , 0.31  , -0.11  , -0.2  , 0.31  , -0.07  , -0.01  , -0.32  , 0.05  , 0.24  , -0.28  , 0.01  , 0.31  , -0.02  , -0.09  , 0.14  , 0.03  , -0.1  , -0.03  , 0.06  , -0.09  , 0.08  , -0.0  , -0.09  , 0.1  , -0.0  , -0.09  , 0.08  , 0.0  , -0.08  , 0.06  , 0.01  , -0.08  , 0.12  , -0.01 );
                        kernels[82] = compute_kernel(x,   -0.01  , -0.01  , -0.01  , 0.0  , -0.0  , -0.01  , -0.01  , 0.2  , 0.24  , -0.06  , -0.39  , 0.17  , 0.09  , -0.02  , -0.39  , 0.18  , 0.38  , -0.25  , -0.02  , 0.14  , 0.12  , -0.09  , 0.0  , 0.13  , -0.06  , -0.13  , -0.11  , -0.04  , -0.03  , -0.01  , -0.06  , 0.01  , 0.0  , -0.06  , -0.02  , -0.02  , -0.02  , 0.08  , -0.04  , -0.05  , -0.0  , -0.01 );
                        kernels[83] = compute_kernel(x,   0.0  , -0.02  , 0.0  , 0.0  , -0.03  , 0.01  , -0.02  , -0.14  , 0.21  , 0.02  , 0.36  , 0.11  , 0.11  , 0.14  , -0.13  , 0.16  , -0.02  , -0.34  , 0.11  , 0.01  , 0.04  , 0.01  , 0.14  , 0.14  , -0.04  , 0.15  , 0.1  , -0.03  , 0.22  , -0.03  , 0.02  , 0.09  , 0.01  , 0.0  , 0.03  , -0.01  , 0.01  , 0.02  , 0.01  , 0.03  , 0.04  , 0.03 );
                        kernels[84] = compute_kernel(x,   0.03  , 0.11  , 0.03  , 0.0  , 0.06  , 0.08  , -0.03  , 0.06  , 0.01  , -0.06  , 0.04  , 0.04  , -0.06  , 0.06  , 0.02  , -0.08  , -0.01  , 0.01  , -0.07  , 0.01  , 0.04  , -0.06  , 0.04  , 0.03  , -0.08  , -0.03  , -0.0  , -0.06  , 0.01  , 0.02  , -0.06  , -0.01  , -0.0  , -0.05  , 0.03  , 0.02  , -0.03  , -0.06  , -0.05  , -0.08  , 0.01  , -0.06 );
                        kernels[85] = compute_kernel(x,   0.01  , 0.01  , -0.02  , 0.01  , 0.07  , -0.05  , -0.03  , -0.21  , 0.35  , 0.1  , -0.21  , -0.2  , 0.22  , 0.27  , -0.31  , 0.12  , 0.17  , -0.03  , 0.04  , 0.13  , 0.21  , -0.06  , -0.09  , 0.03  , -0.03  , -0.06  , -0.03  , -0.02  , -0.02  , 0.01  , -0.02  , 0.01  , 0.01  , -0.03  , -0.01  , -0.0  , -0.02  , -0.0  , 0.0  , -0.03  , -0.0  , 0.01 );
                        kernels[86] = compute_kernel(x,   0.0  , -0.02  , 0.02  , 0.0  , -0.03  , 0.02  , -0.0  , 0.14  , -0.06  , 0.04  , -0.07  , 0.36  , -0.0  , -0.24  , -0.07  , 0.12  , 0.19  , -0.35  , 0.08  , 0.28  , 0.13  , -0.06  , -0.07  , 0.19  , -0.05  , -0.1  , 0.0  , -0.02  , 0.03  , -0.0  , -0.02  , 0.03  , 0.0  , -0.02  , 0.02  , 0.02  , -0.02  , -0.01  , -0.0  , -0.01  , 0.0  , 0.01 );
                        kernels[87] = compute_kernel(x,   0.01  , -0.03  , -0.02  , 0.01  , -0.05  , -0.02  , -0.11  , -0.01  , -0.21  , -0.14  , -0.02  , 0.19  , -0.17  , -0.4  , 0.18  , -0.06  , -0.32  , -0.13  , 0.02  , 0.05  , -0.31  , 0.01  , 0.17  , -0.12  , -0.12  , 0.09  , 0.07  , -0.14  , -0.05  , 0.17  , -0.11  , -0.0  , -0.01  , -0.11  , -0.03  , -0.01  , -0.1  , -0.04  , -0.0  , -0.09  , -0.03  , 0.01 );
                        kernels[88] = compute_kernel(x,   0.01  , -0.01  , -0.02  , 0.01  , 0.02  , 0.01  , 0.02  , 0.23  , 0.06  , -0.06  , -0.19  , 0.25  , 0.12  , 0.21  , -0.2  , 0.01  , 0.07  , -0.09  , 0.02  , 0.19  , 0.13  , -0.03  , 0.01  , 0.19  , 0.03  , 0.12  , -0.15  , 0.05  , 0.12  , -0.13  , 0.02  , 0.27  , 0.13  , 0.01  , 0.14  , -0.01  , -0.07  , 0.03  , 0.03  , -0.02  , 0.14  , 0.01 );
                        kernels[89] = compute_kernel(x,   0.02  , 0.01  , -0.0  , 0.01  , -0.01  , -0.0  , 0.06  , 0.01  , 0.06  , 0.03  , 0.03  , 0.25  , 0.04  , 0.05  , -0.16  , 0.06  , -0.01  , -0.14  , 0.06  , -0.1  , 0.02  , 0.03  , 0.05  , 0.28  , 0.05  , 0.01  , -0.07  , 0.06  , -0.03  , -0.27  , 0.11  , -0.07  , 0.06  , 0.04  , -0.07  , 0.07  , -0.0  , 0.03  , 0.03  , -0.02  , -0.03  , -0.03 );
                        kernels[90] = compute_kernel(x,   -0.0  , -0.03  , -0.01  , -0.01  , 0.01  , 0.0  , -0.03  , -0.05  , 0.01  , -0.02  , -0.1  , 0.31  , -0.06  , 0.08  , -0.19  , -0.05  , -0.06  , -0.11  , -0.07  , -0.17  , 0.19  , -0.13  , -0.05  , 0.12  , -0.02  , 0.04  , -0.35  , -0.1  , -0.32  , 0.06  , -0.1  , -0.14  , 0.05  , -0.17  , -0.05  , -0.02  , -0.12  , -0.17  , 0.0  , -0.07  , -0.13  , -0.01 );
                        kernels[91] = compute_kernel(x,   -0.01  , -0.01  , -0.02  , -0.02  , -0.03  , -0.01  , -0.04  , 0.13  , 0.11  , -0.11  , -0.11  , -0.07  , -0.01  , 0.18  , -0.32  , -0.04  , 0.29  , 0.2  , -0.02  , 0.05  , 0.17  , 0.01  , 0.11  , -0.24  , 0.08  , 0.31  , 0.03  , 0.01  , 0.25  , 0.07  , -0.07  , 0.11  , 0.03  , -0.05  , 0.13  , -0.01  , -0.03  , 0.14  , 0.03  , -0.03  , 0.14  , 0.03 );
                        kernels[92] = compute_kernel(x,   -0.01  , -0.01  , 0.02  , -0.06  , -0.17  , 0.0  , 0.06  , 0.14  , 0.35  , -0.02  , 0.04  , -0.3  , 0.03  , 0.03  , -0.02  , -0.15  , -0.08  , 0.59  , -0.0  , 0.05  , 0.07  , -0.01  , -0.08  , -0.25  , -0.01  , -0.19  , -0.0  , -0.06  , -0.21  , 0.11  , -0.06  , 0.04  , 0.05  , -0.13  , -0.15  , 0.04  , -0.14  , -0.18  , -0.0  , -0.14  , -0.2  , 0.03 );
                        kernels[93] = compute_kernel(x,   -0.01  , -0.02  , -0.02  , -0.03  , 0.01  , -0.04  , -0.03  , -0.05  , 0.16  , 0.04  , -0.01  , -0.13  , 0.06  , 0.11  , -0.23  , 0.0  , 0.19  , 0.04  , 0.05  , 0.01  , 0.26  , 0.09  , 0.16  , -0.27  , 0.1  , 0.2  , -0.08  , 0.09  , 0.32  , 0.04  , -0.04  , 0.1  , 0.07  , 0.03  , 0.16  , -0.01  , -0.04  , 0.1  , -0.03  , -0.01  , 0.13  , 0.01 );
                        kernels[94] = compute_kernel(x,   0.01  , -0.01  , -0.01  , -0.01  , 0.04  , -0.04  , 0.14  , 0.06  , 0.22  , 0.05  , 0.11  , -0.21  , 0.08  , 0.24  , -0.13  , 0.07  , 0.15  , 0.23  , -0.01  , -0.02  , -0.0  , 0.1  , 0.14  , -0.26  , 0.12  , 0.29  , 0.05  , -0.04  , 0.21  , 0.18  , -0.02  , 0.08  , -0.03  , 0.0  , 0.17  , 0.02  , 0.01  , 0.19  , 0.04  , 0.0  , 0.14  , 0.03 );
                        kernels[95] = compute_kernel(x,   -0.01  , -0.01  , 0.01  , -0.01  , -0.0  , -0.01  , -0.08  , -0.2  , 0.03  , 0.01  , 0.11  , 0.01  , 0.01  , 0.01  , -0.3  , -0.0  , -0.12  , 0.07  , 0.0  , 0.08  , 0.27  , 0.01  , 0.08  , -0.2  , 0.0  , -0.09  , -0.0  , -0.05  , -0.18  , 0.06  , -0.1  , -0.01  , -0.02  , -0.08  , -0.1  , 0.02  , -0.08  , -0.13  , -0.02  , -0.07  , -0.12  , -0.02 );
                        kernels[96] = compute_kernel(x,   0.02  , 0.01  , -0.0  , -0.01  , -0.07  , -0.01  , 0.05  , -0.01  , 0.16  , -0.06  , 0.07  , -0.04  , -0.03  , -0.16  , -0.2  , 0.03  , -0.08  , 0.16  , 0.04  , 0.06  , 0.21  , 0.03  , -0.0  , -0.22  , -0.06  , -0.23  , 0.0  , -0.08  , -0.22  , 0.13  , -0.08  , -0.15  , 0.02  , -0.06  , -0.14  , 0.01  , -0.08  , -0.21  , -0.01  , -0.06  , -0.18  , -0.05 );
                        kernels[97] = compute_kernel(x,   0.01  , -0.01  , -0.01  , -0.04  , 0.05  , 0.04  , -0.05  , -0.05  , 0.04  , -0.07  , -0.1  , -0.19  , -0.02  , 0.15  , -0.08  , 0.05  , 0.2  , 0.28  , -0.04  , -0.01  , 0.01  , -0.0  , 0.07  , -0.29  , 0.01  , 0.23  , 0.04  , -0.04  , 0.1  , 0.05  , -0.08  , 0.08  , -0.01  , -0.05  , 0.1  , -0.01  , -0.04  , 0.11  , 0.05  , -0.04  , 0.15  , -0.01 );
                        kernels[98] = compute_kernel(x,   0.02  , -0.0  , -0.02  , 0.01  , -0.0  , -0.02  , 0.07  , 0.21  , 0.08  , -0.06  , -0.01  , 0.29  , 0.02  , 0.17  , -0.53  , 0.01  , 0.34  , 0.1  , -0.04  , 0.06  , 0.31  , -0.02  , 0.12  , -0.26  , 0.02  , 0.21  , -0.11  , 0.01  , 0.34  , 0.15  , -0.12  , 0.07  , 0.04  , -0.09  , 0.12  , -0.03  , -0.01  , 0.21  , 0.04  , -0.02  , 0.19  , 0.01 );
                        kernels[99] = compute_kernel(x,   0.01  , -0.01  , -0.0  , -0.01  , -0.03  , 0.01  , -0.22  , -0.39  , -0.13  , -0.04  , 0.2  , 0.1  , 0.02  , 0.06  , -0.3  , -0.0  , -0.15  , 0.08  , 0.08  , 0.03  , 0.41  , -0.0  , 0.03  , -0.24  , 0.05  , -0.08  , -0.13  , 0.0  , -0.15  , 0.11  , -0.13  , -0.15  , -0.11  , -0.1  , -0.23  , 0.01  , -0.06  , -0.17  , -0.04  , -0.03  , -0.16  , -0.02 );
                        kernels[100] = compute_kernel(x,   0.01  , 0.02  , -0.04  , 0.01  , 0.01  , -0.04  , -0.12  , 0.13  , -0.11  , -0.1  , -0.11  , 0.3  , 0.05  , 0.03  , -0.46  , 0.01  , 0.11  , -0.02  , 0.1  , 0.17  , 0.14  , 0.03  , 0.05  , -0.07  , 0.04  , 0.01  , -0.33  , 0.1  , 0.23  , 0.03  , -0.01  , 0.12  , 0.01  , -0.05  , -0.03  , 0.03  , 0.03  , 0.04  , -0.02  , 0.01  , 0.07  , -0.03 );
                        kernels[101] = compute_kernel(x,   0.01  , 0.01  , -0.0  , -0.01  , -0.01  , -0.0  , 0.17  , 0.09  , 0.05  , -0.03  , 0.29  , 0.28  , -0.02  , 0.14  , -0.47  , -0.05  , -0.15  , 0.11  , 0.01  , 0.12  , 0.4  , -0.05  , 0.02  , -0.3  , -0.05  , -0.13  , -0.11  , -0.04  , -0.19  , 0.06  , -0.11  , -0.09  , 0.03  , -0.1  , -0.23  , -0.11  , -0.06  , -0.18  , -0.03  , -0.03  , -0.18  , -0.03 );
                        kernels[102] = compute_kernel(x,   -0.01  , 0.0  , -0.02  , -0.02  , -0.05  , -0.01  , -0.01  , -0.07  , 0.13  , -0.05  , 0.04  , -0.07  , 0.01  , -0.0  , -0.32  , 0.05  , -0.16  , 0.21  , 0.01  , 0.17  , 0.25  , 0.01  , -0.0  , -0.21  , -0.02  , -0.19  , -0.11  , -0.08  , -0.3  , 0.18  , 0.04  , -0.01  , -0.03  , -0.03  , -0.01  , -0.05  , -0.1  , -0.22  , 0.07  , -0.07  , -0.19  , -0.01 );
                        kernels[103] = compute_kernel(x,   -0.02  , -0.07  , -0.0  , 0.01  , -0.06  , -0.01  , -0.36  , -0.31  , 0.46  , -0.04  , -0.13  , -0.49  , -0.11  , 0.16  , 0.03  , -0.12  , -0.03  , 0.27  , -0.11  , -0.05  , -0.05  , -0.07  , -0.01  , -0.3  , -0.01  , 0.26  , 0.17  , -0.14  , -0.01  , 0.06  , -0.09  , 0.07  , -0.0  , -0.03  , 0.1  , -0.05  , -0.09  , 0.03  , 0.01  , -0.08  , 0.02  , -0.01 );
                        kernels[104] = compute_kernel(x,   0.03  , -0.02  , 0.05  , 0.03  , 0.05  , 0.06  , 0.09  , 0.1  , 0.18  , -0.01  , -0.01  , -0.11  , 0.1  , 0.08  , -0.14  , 0.11  , 0.3  , 0.22  , 0.04  , 0.03  , 0.24  , 0.04  , 0.01  , -0.26  , 0.11  , 0.17  , 0.08  , 0.05  , 0.18  , 0.19  , 0.0  , 0.04  , 0.07  , 0.07  , 0.1  , 0.04  , 0.02  , 0.06  , 0.07  , 0.04  , 0.06  , 0.07 );
                        kernels[105] = compute_kernel(x,   -0.01  , 0.0  , 0.02  , -0.04  , -0.05  , 0.05  , -0.06  , 0.09  , 0.46  , -0.1  , -0.1  , -0.22  , -0.09  , -0.25  , -0.27  , -0.13  , -0.3  , 0.16  , -0.09  , -0.07  , 0.27  , -0.13  , -0.16  , -0.38  , -0.2  , -0.38  , 0.1  , -0.13  , -0.29  , 0.12  , -0.17  , -0.17  , -0.01  , -0.19  , -0.3  , 0.06  , -0.1  , -0.27  , 0.03  , -0.15  , -0.32  , 0.01 );
                        kernels[106] = compute_kernel(x,   0.0  , -0.01  , -0.01  , 0.02  , 0.01  , -0.02  , -0.01  , -0.06  , -0.02  , 0.05  , -0.05  , 0.25  , 0.03  , 0.2  , -0.27  , 0.0  , -0.12  , -0.06  , 0.07  , -0.06  , 0.4  , -0.0  , -0.03  , -0.04  , -0.04  , -0.16  , -0.23  , 0.05  , -0.14  , 0.11  , 0.03  , -0.02  , 0.0  , -0.03  , -0.12  , 0.0  , -0.02  , -0.15  , -0.02  , -0.04  , -0.19  , -0.05 );
                        kernels[107] = compute_kernel(x,   0.01  , 0.05  , 0.0  , -0.02  , 0.0  , 0.0  , -0.07  , -0.05  , -0.05  , -0.03  , 0.16  , 0.15  , 0.02  , 0.06  , -0.31  , 0.02  , -0.04  , 0.03  , -0.0  , -0.04  , 0.2  , -0.05  , 0.06  , 0.01  , 0.06  , 0.1  , -0.33  , -0.03  , -0.14  , 0.07  , -0.0  , -0.11  , 0.09  , -0.04  , 0.03  , -0.02  , -0.11  , -0.16  , 0.44  , -0.05  , -0.17  , -0.02 );
                        kernels[108] = compute_kernel(x,   0.05  , 0.02  , 0.0  , 0.02  , 0.01  , -0.01  , 0.17  , 0.37  , 0.03  , -0.05  , -0.11  , 0.09  , 0.09  , 0.15  , -0.35  , 0.08  , 0.33  , 0.18  , 0.01  , 0.08  , 0.29  , 0.02  , 0.07  , -0.09  , 0.11  , 0.14  , -0.22  , 0.09  , 0.33  , 0.16  , -0.01  , 0.13  , 0.08  , 0.04  , 0.18  , 0.19  , 0.13  , 0.22  , 0.0  , 0.09  , 0.18  , 0.02 );
                        kernels[109] = compute_kernel(x,   -0.0  , -0.02  , -0.04  , 0.01  , 0.0  , -0.03  , 0.03  , 0.12  , 0.3  , -0.06  , -0.13  , -0.3  , 0.03  , 0.18  , -0.17  , 0.03  , 0.26  , 0.28  , -0.07  , -0.01  , -0.05  , -0.03  , 0.02  , -0.31  , 0.01  , 0.26  , 0.06  , -0.1  , 0.07  , -0.01  , -0.09  , 0.01  , -0.11  , -0.08  , 0.13  , 0.12  , -0.07  , 0.05  , -0.02  , -0.07  , 0.06  , -0.02 );
                        decisions[0] = -0.063369917077
                        + kernels[0] * 0.671731192549
                        + kernels[1] * 0.156240368855
                        + kernels[2]
                        + kernels[3] * 0.672443743683
                        + kernels[6]
                        + kernels[7] * 0.854116220767
                        + kernels[10] * 0.020299025645
                        + kernels[12] * 0.848548304634
                        + kernels[14]
                        + kernels[15] * 0.397973702189
                        + kernels[16]
                        + kernels[19] * -0.709087276063
                        - kernels[22]
                        - kernels[26]
                        + kernels[28] * -0.63203970431
                        - kernels[30]
                        + kernels[34] * -0.479275874493
                        + kernels[35] * -0.299496060071
                        - kernels[36]
                        - kernels[37]
                        + kernels[38] * -0.501453643385
                        ;
                        decisions[1] = -0.233645348862
                        + kernels[0] * 0.903463093884
                        + kernels[1]
                        + kernels[2]
                        + kernels[3] * 0.287722880592
                        + kernels[6]
                        + kernels[7] * 0.410354890049
                        + kernels[10] * 0.663453757704
                        + kernels[12]
                        + kernels[14]
                        + kernels[15] * 0.609178495974
                        + kernels[16]
                        + kernels[17] * 0.366828793987
                        + kernels[41] * -0.948812186487
                        - kernels[42]
                        + kernels[43] * -0.683318708661
                        + kernels[46] * -0.79035703514
                        + kernels[49] * -0.963219881385
                        + kernels[50] * -0.535736704921
                        + kernels[51] * -0.991059366299
                        + kernels[53] * -0.480154030625
                        + kernels[54] * -0.366175378037
                        + kernels[58] * -0.023725526834
                        - kernels[59]
                        + kernels[60] * -0.082468355167
                        + kernels[61] * -0.754654869662
                        + kernels[63] * -0.621319868972
                        ;
                        decisions[2] = -0.256929859342
                        + kernels[0] * 0.838506058097
                        + kernels[1]
                        + kernels[3]
                        + kernels[5] * 0.206261348132
                        + kernels[6]
                        + kernels[7]
                        + kernels[9] * 0.411843638107
                        + kernels[10] * 0.97036766103
                        + kernels[12] * 0.870379669842
                        + kernels[14]
                        + kernels[15] * 0.354241942238
                        + kernels[16]
                        + kernels[64] * -0.055687156439
                        + kernels[66] * -0.806736253736
                        + kernels[68] * -0.82243977523
                        + kernels[70] * -0.090871784332
                        - kernels[71]
                        + kernels[72] * -0.743518890907
                        - kernels[73]
                        + kernels[74] * -0.770445509026
                        + kernels[77] * -0.788953378656
                        - kernels[78]
                        + kernels[79] * -0.4492053998
                        + kernels[82] * -0.101899002689
                        - kernels[84]
                        - kernels[85]
                        + kernels[87] * -0.02184316663
                        ;
                        decisions[3] = -0.213718233381
                        + kernels[0] * 0.817115165641
                        + kernels[1] * 0.41356784445
                        + kernels[2]
                        + kernels[4]
                        + kernels[5]
                        + kernels[6]
                        + kernels[7]
                        + kernels[8] * 0.12244226632
                        + kernels[10]
                        + kernels[11] * 0.268148327966
                        + kernels[12] * 0.817453904545
                        + kernels[13] * 0.368487266127
                        + kernels[14]
                        + kernels[15] * 0.130310441277
                        + kernels[16]
                        + kernels[17]
                        + kernels[18] * 0.216163606386
                        + kernels[88] * -0.834361386446
                        - kernels[89]
                        + kernels[90] * -0.464185219085
                        + kernels[91] * -0.76200848497
                        - kernels[92]
                        - kernels[93]
                        - kernels[94]
                        - kernels[95]
                        - kernels[97]
                        + kernels[98] * -0.006427612948
                        + kernels[99] * -0.653023425361
                        + kernels[100] * -0.061194053862
                        - kernels[103]
                        + kernels[104] * -0.887736513381
                        + kernels[105] * -0.044986615008
                        + kernels[107] * -0.439765511651
                        - kernels[109]
                        ;
                        decisions[4] = -0.616021884719
                        + kernels[19]
                        + kernels[20]
                        + kernels[22]
                        + kernels[23]
                        + kernels[24]
                        + kernels[26]
                        + kernels[27]
                        + kernels[28]
                        + kernels[29] * 0.583655493486
                        + kernels[30] * 0.868801179625
                        + kernels[31] * 0.245460704552
                        + kernels[34]
                        + kernels[35]
                        + kernels[36]
                        + kernels[37]
                        + kernels[38] * 0.548783235436
                        - kernels[42]
                        - kernels[43]
                        + kernels[44] * -0.362164729248
                        - kernels[45]
                        + kernels[46] * -0.601646656455
                        - kernels[48]
                        - kernels[49]
                        - kernels[50]
                        - kernels[51]
                        - kernels[53]
                        - kernels[54]
                        - kernels[57]
                        + kernels[58] * -0.439233495905
                        - kernels[59]
                        - kernels[60]
                        + kernels[61] * -0.448869260644
                        + kernels[63] * -0.394786470848
                        ;
                        decisions[5] = -0.599071577768
                        + kernels[19]
                        + kernels[21]
                        + kernels[22]
                        + kernels[23]
                        + kernels[25]
                        + kernels[26]
                        + kernels[27]
                        + kernels[28]
                        + kernels[29] * 0.889933954227
                        + kernels[30]
                        + kernels[32] * 0.875797910846
                        + kernels[33] * 0.949712904327
                        + kernels[34]
                        + kernels[35]
                        + kernels[36]
                        + kernels[37]
                        + kernels[38] * 0.592584931667
                        + kernels[39] * 0.649098608431
                        - kernels[64]
                        - kernels[67]
                        + kernels[68] * -0.226967882535
                        - kernels[69]
                        + kernels[71] * -0.742667278856
                        + kernels[72] * -0.401172165341
                        - kernels[73]
                        + kernels[74] * -0.723151756202
                        - kernels[75]
                        + kernels[76] * -0.958937753285
                        - kernels[77]
                        + kernels[78] * -0.36738149315
                        + kernels[79] * -0.536849980129
                        - kernels[80]
                        - kernels[81]
                        - kernels[82]
                        - kernels[83]
                        - kernels[84]
                        - kernels[85]
                        - kernels[86]
                        ;
                        decisions[6] = -0.129069358847
                        + kernels[19]
                        + kernels[20]
                        + kernels[22]
                        + kernels[26]
                        + kernels[27]
                        + kernels[28]
                        + kernels[30] * 0.601661824598
                        + kernels[34] * 0.601072735971
                        + kernels[35]
                        + kernels[36]
                        + kernels[37]
                        + kernels[38]
                        - kernels[88]
                        - kernels[89]
                        - kernels[90]
                        + kernels[91] * -0.928702167879
                        + kernels[95] * -0.700585711403
                        + kernels[96] * -0.104042980166
                        + kernels[98] * -0.912829311239
                        - kernels[100]
                        + kernels[103] * -0.475876147533
                        + kernels[104] * -0.855530035966
                        + kernels[105] * -0.575168579674
                        + kernels[106] * -0.64999962671
                        - kernels[108]
                        - kernels[109]
                        ;
                        decisions[7] = 0.047588320619
                        + kernels[40] * 0.489293440155
                        + kernels[41]
                        + kernels[42]
                        + kernels[43]
                        + kernels[44]
                        + kernels[45] * 0.850456622962
                        + kernels[46] * 0.677956746329
                        + kernels[48]
                        + kernels[49]
                        + kernels[50]
                        + kernels[51]
                        + kernels[53]
                        + kernels[54]
                        + kernels[57]
                        + kernels[58]
                        + kernels[59]
                        + kernels[60]
                        + kernels[61] * 0.968505184776
                        + kernels[62] * 0.549484528788
                        + kernels[63] * 0.683981593526
                        + kernels[64] * -0.117881589562
                        - kernels[65]
                        + kernels[66] * -0.395175319056
                        - kernels[67]
                        + kernels[69] * -0.035702008962
                        - kernels[70]
                        + kernels[71] * -0.995600673215
                        - kernels[72]
                        - kernels[73]
                        - kernels[74]
                        + kernels[75] * -0.81297203232
                        - kernels[76]
                        - kernels[77]
                        + kernels[78] * -0.713678387361
                        + kernels[79] * -0.353659622002
                        - kernels[80]
                        - kernels[81]
                        + kernels[82] * -0.417835543051
                        - kernels[83]
                        - kernels[84]
                        - kernels[85]
                        + kernels[86] * -0.843172232669
                        + kernels[87] * -0.534000708337
                        ;
                        decisions[8] = 0.108481343574
                        + kernels[41]
                        + kernels[42]
                        + kernels[43] * 0.971898838575
                        + kernels[44]
                        + kernels[45]
                        + kernels[46] * 0.551430896938
                        + kernels[47] * 0.195811478273
                        + kernels[48] * 0.692738216004
                        + kernels[49]
                        + kernels[51]
                        + kernels[52]
                        + kernels[53] * 0.820595169529
                        + kernels[54]
                        + kernels[55]
                        + kernels[56]
                        + kernels[59]
                        + kernels[60] * 0.437070702715
                        + kernels[61] * 0.751526708842
                        + kernels[62] * 0.615798864944
                        + kernels[63] * 0.611937229195
                        - kernels[88]
                        - kernels[89]
                        - kernels[90]
                        + kernels[92] * -0.228375499461
                        + kernels[93] * -0.775619608574
                        + kernels[94] * -0.993403442345
                        - kernels[95]
                        - kernels[96]
                        - kernels[98]
                        + kernels[99] * -0.402635616771
                        - kernels[100]
                        - kernels[101]
                        + kernels[102] * -0.452793624784
                        - kernels[103]
                        + kernels[104] * -0.427208819015
                        - kernels[105]
                        - kernels[106]
                        + kernels[107] * -0.713633742817
                        - kernels[108]
                        + kernels[109] * -0.655137751247
                        ;
                        decisions[9] = 0.187478578831
                        + kernels[65] * 0.925558943586
                        + kernels[68] * 0.611470971583
                        + kernels[70]
                        + kernels[71]
                        + kernels[72] * 0.81285597801
                        + kernels[73]
                        + kernels[74] * 0.812497759513
                        + kernels[75]
                        + kernels[77]
                        + kernels[78]
                        + kernels[79] * 0.485607661334
                        + kernels[80] * 0.132614979927
                        + kernels[81] * 0.358363879152
                        + kernels[82] * 0.505348251918
                        + kernels[84]
                        + kernels[85]
                        + kernels[86] * 0.13357211502
                        + kernels[87] * 0.304174364376
                        - kernels[88]
                        - kernels[89]
                        - kernels[90]
                        + kernels[92] * -0.304520205491
                        + kernels[93] * -0.738540225164
                        + kernels[94] * -0.953237966368
                        - kernels[95]
                        + kernels[96] * -0.774492924831
                        + kernels[98] * -0.322468365288
                        - kernels[100]
                        + kernels[101] * -0.061787247132
                        + kernels[103] * -0.968625539999
                        + kernels[104] * -0.438936351255
                        + kernels[105] * -0.665313858386
                        + kernels[106] * -0.451441942722
                        + kernels[107] * -0.894235762461
                        + kernels[108] * -0.746628667771
                        + kernels[109] * -0.761835847549
                        ;
                        votes[decisions[0] > 0 ? 0 : 1] += 1;
                        votes[decisions[1] > 0 ? 0 : 2] += 1;
                        votes[decisions[2] > 0 ? 0 : 3] += 1;
                        votes[decisions[3] > 0 ? 0 : 4] += 1;
                        votes[decisions[4] > 0 ? 1 : 2] += 1;
                        votes[decisions[5] > 0 ? 1 : 3] += 1;
                        votes[decisions[6] > 0 ? 1 : 4] += 1;
                        votes[decisions[7] > 0 ? 2 : 3] += 1;
                        votes[decisions[8] > 0 ? 2 : 4] += 1;
                        votes[decisions[9] > 0 ? 3 : 4] += 1;
                        int val = votes[0];
                        int idx = 0;

                        for (int i = 1; i < 5; i++) {
                            if (votes[i] > val) {
                                val = votes[i];
                                idx = i;
                            }
                        }

                        return idx;
                    }

                protected:
                    /**
                    * Compute kernel between feature vector and support vector.
                    * Kernel type: rbf
                    */
                    float compute_kernel(float *x, ...) {
                        va_list w;
                        va_start(w, 42);
                        float kernel = 0.0;

                        for (uint16_t i = 0; i < 42; i++) {
                            kernel += pow(x[i] - va_arg(w, double), 2);
                        }

                        return exp(-0.99 * kernel);
                    }
                };
            }
        }
    }