#pragma once
#include <cstdarg>
namespace Eloquent {
    namespace ML {
        namespace Port {
            class DecisionTree {
                public:
                    /**
                    * Predict class for features vector
                    */
                    int predict(float *x) {
                        if (x[16] <= 2.046604871749878) {
                            if (x[10] <= -0.18513905256986618) {
                                if (x[2] <= 0.3702399879693985) {
                                    if (x[5] <= -0.7660228908061981) {
                                        if (x[0] <= -0.4329248070716858) {
                                            return 2;
                                        }

                                        else {
                                            if (x[19] <= -0.5623660981655121) {
                                                return 1;
                                            }

                                            else {
                                                if (x[27] <= 1.2068833112716675) {
                                                    if (x[26] <= -0.4073338955640793) {
                                                        if (x[2] <= -0.7636382579803467) {
                                                            return 0;
                                                        }

                                                        else {
                                                            return 3;
                                                        }
                                                    }

                                                    else {
                                                        return 3;
                                                    }
                                                }

                                                else {
                                                    return 1;
                                                }
                                            }
                                        }
                                    }

                                    else {
                                        if (x[0] <= 0.31864455342292786) {
                                            if (x[2] <= -0.4451744854450226) {
                                                if (x[5] <= -0.6597542464733124) {
                                                    if (x[4] <= -0.8488815724849701) {
                                                        if (x[5] <= -0.754130631685257) {
                                                            return 2;
                                                        }

                                                        else {
                                                            return 0;
                                                        }
                                                    }

                                                    else {
                                                        if (x[27] <= 0.20123013108968735) {
                                                            if (x[22] <= -0.3928753584623337) {
                                                                return 2;
                                                            }

                                                            else {
                                                                return 3;
                                                            }
                                                        }

                                                        else {
                                                            return 1;
                                                        }
                                                    }
                                                }

                                                else {
                                                    if (x[7] <= -0.43449798226356506) {
                                                        return 2;
                                                    }

                                                    else {
                                                        return 4;
                                                    }
                                                }
                                            }

                                            else {
                                                if (x[2] <= 0.16665883362293243) {
                                                    if (x[27] <= 1.3243334889411926) {
                                                        if (x[30] <= 0.3263934403657913) {
                                                            if (x[12] <= -0.3632197827100754) {
                                                                if (x[18] <= -0.2663900554180145) {
                                                                    if (x[5] <= -0.6886439621448517) {
                                                                        return 0;
                                                                    }

                                                                    else {
                                                                        if (x[5] <= 0.37396033108234406) {
                                                                            return 2;
                                                                        }

                                                                        else {
                                                                            return 0;
                                                                        }
                                                                    }
                                                                }

                                                                else {
                                                                    if (x[10] <= -0.37226857244968414) {
                                                                        return 3;
                                                                    }

                                                                    else {
                                                                        if (x[20] <= -0.0060808658599853516) {
                                                                            return 2;
                                                                        }

                                                                        else {
                                                                            return 0;
                                                                        }
                                                                    }
                                                                }
                                                            }

                                                            else {
                                                                if (x[26] <= -0.5013306587934494) {
                                                                    return 0;
                                                                }

                                                                else {
                                                                    if (x[15] <= -0.20016149431467056) {
                                                                        return 1;
                                                                    }

                                                                    else {
                                                                        if (x[1] <= 0.49718746542930603) {
                                                                            return 0;
                                                                        }

                                                                        else {
                                                                            return 3;
                                                                        }
                                                                    }
                                                                }
                                                            }
                                                        }

                                                        else {
                                                            return 0;
                                                        }
                                                    }

                                                    else {
                                                        if (x[15] <= 0.5418625622987747) {
                                                            return 1;
                                                        }

                                                        else {
                                                            return 4;
                                                        }
                                                    }
                                                }

                                                else {
                                                    return 3;
                                                }
                                            }
                                        }

                                        else {
                                            if (x[6] <= -0.15758736059069633) {
                                                if (x[23] <= 0.31046611070632935) {
                                                    if (x[29] <= -0.5638962388038635) {
                                                        return 3;
                                                    }

                                                    else {
                                                        if (x[16] <= -0.46735072135925293) {
                                                            return 0;
                                                        }

                                                        else {
                                                            if (x[15] <= -0.12576709315180779) {
                                                                return 2;
                                                            }

                                                            else {
                                                                if (x[2] <= 0.17097989842295647) {
                                                                    return 2;
                                                                }

                                                                else {
                                                                    return 0;
                                                                }
                                                            }
                                                        }
                                                    }
                                                }

                                                else {
                                                    if (x[14] <= 0.08139651664532721) {
                                                        if (x[5] <= -0.11077032890170813) {
                                                            if (x[12] <= -0.18240810930728912) {
                                                                return 3;
                                                            }

                                                            else {
                                                                if (x[27] <= 1.2626234963536263) {
                                                                    return 0;
                                                                }

                                                                else {
                                                                    return 4;
                                                                }
                                                            }
                                                        }

                                                        else {
                                                            return 1;
                                                        }
                                                    }

                                                    else {
                                                        return 2;
                                                    }
                                                }
                                            }

                                            else {
                                                if (x[15] <= -0.22868293523788452) {
                                                    if (x[9] <= -0.39205439388751984) {
                                                        return 1;
                                                    }

                                                    else {
                                                        return 0;
                                                    }
                                                }

                                                else {
                                                    if (x[2] <= -0.07683214684948325) {
                                                        return 2;
                                                    }

                                                    else {
                                                        if (x[12] <= -0.11606713570654392) {
                                                            return 3;
                                                        }

                                                        else {
                                                            return 1;
                                                        }
                                                    }
                                                }
                                            }
                                        }
                                    }
                                }

                                else {
                                    if (x[9] <= -0.13728231191635132) {
                                        if (x[9] <= -0.5310893356800079) {
                                            return 2;
                                        }

                                        else {
                                            if (x[8] <= -0.25142495334148407) {
                                                if (x[1] <= 2.5200355052948) {
                                                    if (x[16] <= -0.5009954571723938) {
                                                        return 0;
                                                    }

                                                    else {
                                                        return 3;
                                                    }
                                                }

                                                else {
                                                    if (x[0] <= 2.5629130601882935) {
                                                        return 2;
                                                    }

                                                    else {
                                                        return 0;
                                                    }
                                                }
                                            }

                                            else {
                                                if (x[6] <= 0.3921419829130173) {
                                                    if (x[6] <= -0.03745627123862505) {
                                                        if (x[18] <= -0.0031680725514888763) {
                                                            return 2;
                                                        }

                                                        else {
                                                            return 3;
                                                        }
                                                    }

                                                    else {
                                                        if (x[0] <= 1.0195241570472717) {
                                                            return 1;
                                                        }

                                                        else {
                                                            return 0;
                                                        }
                                                    }
                                                }

                                                else {
                                                    if (x[7] <= 0.8775327801704407) {
                                                        return 3;
                                                    }

                                                    else {
                                                        return 2;
                                                    }
                                                }
                                            }
                                        }
                                    }

                                    else {
                                        if (x[7] <= 0.6067922413349152) {
                                            if (x[7] <= 0.03896316606551409) {
                                                if (x[9] <= -0.062152186408638954) {
                                                    return 3;
                                                }

                                                else {
                                                    return 2;
                                                }
                                            }

                                            else {
                                                return 2;
                                            }
                                        }

                                        else {
                                            if (x[8] <= 0.3207538351416588) {
                                                return 3;
                                            }

                                            else {
                                                if (x[23] <= 0.6582719832658768) {
                                                    return 4;
                                                }

                                                else {
                                                    return 1;
                                                }
                                            }
                                        }
                                    }
                                }
                            }

                            else {
                                if (x[14] <= 0.012654113117605448) {
                                    if (x[3] <= 0.2603922188282013) {
                                        if (x[8] <= 0.5330398678779602) {
                                            if (x[28] <= 1.2862287759780884) {
                                                if (x[7] <= 0.12515543401241302) {
                                                    if (x[3] <= 0.047528669936582446) {
                                                        if (x[6] <= -0.4070920944213867) {
                                                            if (x[25] <= -0.16806501150131226) {
                                                                if (x[17] <= 0.0032731741666793823) {
                                                                    if (x[19] <= -0.2847558930516243) {
                                                                        if (x[23] <= -0.21752484142780304) {
                                                                            return 2;
                                                                        }

                                                                        else {
                                                                            return 1;
                                                                        }
                                                                    }

                                                                    else {
                                                                        return 0;
                                                                    }
                                                                }

                                                                else {
                                                                    return 3;
                                                                }
                                                            }

                                                            else {
                                                                return 4;
                                                            }
                                                        }

                                                        else {
                                                            return 4;
                                                        }
                                                    }

                                                    else {
                                                        if (x[2] <= 0.04058183170855045) {
                                                            return 0;
                                                        }

                                                        else {
                                                            return 2;
                                                        }
                                                    }
                                                }

                                                else {
                                                    if (x[0] <= -0.13235206436365843) {
                                                        return 0;
                                                    }

                                                    else {
                                                        if (x[5] <= 0.4331347793340683) {
                                                            if (x[25] <= -0.15221939980983734) {
                                                                return 2;
                                                            }

                                                            else {
                                                                return 1;
                                                            }
                                                        }

                                                        else {
                                                            return 3;
                                                        }
                                                    }
                                                }
                                            }

                                            else {
                                                if (x[4] <= -0.39658261835575104) {
                                                    if (x[25] <= 3.1081360578536987) {
                                                        return 1;
                                                    }

                                                    else {
                                                        return 3;
                                                    }
                                                }

                                                else {
                                                    return 0;
                                                }
                                            }
                                        }

                                        else {
                                            if (x[2] <= 0.6805386543273926) {
                                                if (x[13] <= 0.11908013373613358) {
                                                    if (x[18] <= -0.40822044014930725) {
                                                        if (x[3] <= 0.05319927027449012) {
                                                            return 0;
                                                        }

                                                        else {
                                                            return 2;
                                                        }
                                                    }

                                                    else {
                                                        return 0;
                                                    }
                                                }

                                                else {
                                                    if (x[12] <= 0.632323483005166) {
                                                        return 2;
                                                    }

                                                    else {
                                                        return 0;
                                                    }
                                                }
                                            }

                                            else {
                                                return 2;
                                            }
                                        }
                                    }

                                    else {
                                        if (x[4] <= 1.2667728066444397) {
                                            if (x[9] <= 0.9279462397098541) {
                                                if (x[31] <= 0.8193932175636292) {
                                                    if (x[9] <= -0.03865317354211584) {
                                                        if (x[8] <= -0.02881515771150589) {
                                                            return 2;
                                                        }

                                                        else {
                                                            return 1;
                                                        }
                                                    }

                                                    else {
                                                        return 2;
                                                    }
                                                }

                                                else {
                                                    if (x[31] <= 3.9542187452316284) {
                                                        return 0;
                                                    }

                                                    else {
                                                        return 1;
                                                    }
                                                }
                                            }

                                            else {
                                                if (x[2] <= 0.9587444365024567) {
                                                    if (x[6] <= 0.6808631420135498) {
                                                        return 1;
                                                    }

                                                    else {
                                                        if (x[8] <= 1.7669169902801514) {
                                                            return 0;
                                                        }

                                                        else {
                                                            return 1;
                                                        }
                                                    }
                                                }

                                                else {
                                                    return 2;
                                                }
                                            }
                                        }

                                        else {
                                            if (x[9] <= 0.2736274152994156) {
                                                return 3;
                                            }

                                            else {
                                                if (x[15] <= -0.21191459149122238) {
                                                    return 3;
                                                }

                                                else {
                                                    return 2;
                                                }
                                            }
                                        }
                                    }
                                }

                                else {
                                    if (x[2] <= -0.8156512677669525) {
                                        if (x[0] <= -0.4404595345258713) {
                                            return 3;
                                        }

                                        else {
                                            if (x[26] <= -0.1750578135251999) {
                                                if (x[8] <= 0.4396734833717346) {
                                                    if (x[23] <= -0.3465624898672104) {
                                                        return 4;
                                                    }

                                                    else {
                                                        return 2;
                                                    }
                                                }

                                                else {
                                                    return 1;
                                                }
                                            }

                                            else {
                                                if (x[1] <= -1.175048828125) {
                                                    return 4;
                                                }

                                                else {
                                                    return 2;
                                                }
                                            }
                                        }
                                    }

                                    else {
                                        if (x[11] <= 1.3451805710792542) {
                                            if (x[22] <= 0.0032221972942352295) {
                                                if (x[13] <= -0.009778992272913456) {
                                                    if (x[27] <= -0.14128394983708858) {
                                                        return 2;
                                                    }

                                                    else {
                                                        if (x[26] <= 0.11356398463249207) {
                                                            return 0;
                                                        }

                                                        else {
                                                            return 1;
                                                        }
                                                    }
                                                }

                                                else {
                                                    if (x[7] <= 1.2968608736991882) {
                                                        if (x[0] <= -0.31099896132946014) {
                                                            if (x[29] <= -0.08692225813865662) {
                                                                if (x[17] <= 0.03955274447798729) {
                                                                    return 4;
                                                                }

                                                                else {
                                                                    return 3;
                                                                }
                                                            }

                                                            else {
                                                                return 0;
                                                            }
                                                        }

                                                        else {
                                                            if (x[4] <= 1.6216673254966736) {
                                                                if (x[23] <= -0.5769298672676086) {
                                                                    return 0;
                                                                }

                                                                else {
                                                                    if (x[15] <= 0.9161492884159088) {
                                                                        if (x[4] <= -0.7027224004268646) {
                                                                            if (x[24] <= -0.47648611664772034) {
                                                                                return 4;
                                                                            }

                                                                            else {
                                                                                return 0;
                                                                            }
                                                                        }

                                                                        else {
                                                                            return 4;
                                                                        }
                                                                    }

                                                                    else {
                                                                        if (x[6] <= 0.5540450066328049) {
                                                                            return 0;
                                                                        }

                                                                        else {
                                                                            return 4;
                                                                        }
                                                                    }
                                                                }
                                                            }

                                                            else {
                                                                return 3;
                                                            }
                                                        }
                                                    }

                                                    else {
                                                        if (x[18] <= 0.13699553906917572) {
                                                            return 2;
                                                        }

                                                        else {
                                                            return 4;
                                                        }
                                                    }
                                                }
                                            }

                                            else {
                                                if (x[23] <= 0.011042341560823843) {
                                                    if (x[10] <= 0.11750051379203796) {
                                                        if (x[21] <= 0.27325309813022614) {
                                                            return 2;
                                                        }

                                                        else {
                                                            if (x[31] <= 1.0658665001392365) {
                                                                return 1;
                                                            }

                                                            else {
                                                                return 2;
                                                            }
                                                        }
                                                    }

                                                    else {
                                                        if (x[25] <= 0.07128491625189781) {
                                                            return 0;
                                                        }

                                                        else {
                                                            if (x[16] <= 0.8018741309642792) {
                                                                return 3;
                                                            }

                                                            else {
                                                                return 4;
                                                            }
                                                        }
                                                    }
                                                }

                                                else {
                                                    if (x[25] <= 6.458405256271362) {
                                                        if (x[16] <= 0.08852920308709145) {
                                                            if (x[23] <= 0.6280215680599213) {
                                                                if (x[22] <= 0.1603759229183197) {
                                                                    return 4;
                                                                }

                                                                else {
                                                                    if (x[28] <= -0.1750451624393463) {
                                                                        if (x[20] <= 0.1732899360358715) {
                                                                            return 3;
                                                                        }

                                                                        else {
                                                                            return 2;
                                                                        }
                                                                    }

                                                                    else {
                                                                        return 1;
                                                                    }
                                                                }
                                                            }

                                                            else {
                                                                if (x[13] <= 0.8711297810077667) {
                                                                    return 3;
                                                                }

                                                                else {
                                                                    return 0;
                                                                }
                                                            }
                                                        }

                                                        else {
                                                            if (x[4] <= 1.4588587284088135) {
                                                                if (x[4] <= 0.360442116856575) {
                                                                    if (x[13] <= 0.4515732526779175) {
                                                                        if (x[5] <= 0.17116501927375793) {
                                                                            return 4;
                                                                        }

                                                                        else {
                                                                            if (x[29] <= 0.05306078866124153) {
                                                                                return 1;
                                                                            }

                                                                            else {
                                                                                if (x[21] <= 1.8732088804244995) {
                                                                                    return 0;
                                                                                }

                                                                                else {
                                                                                    return 4;
                                                                                }
                                                                            }
                                                                        }
                                                                    }

                                                                    else {
                                                                        if (x[27] <= 1.0378310084342957) {
                                                                            if (x[15] <= 0.9273640811443329) {
                                                                                return 2;
                                                                            }

                                                                            else {
                                                                                if (x[18] <= 1.508570373058319) {
                                                                                    return 0;
                                                                                }

                                                                                else {
                                                                                    if (x[9] <= 0.11555710434913635) {
                                                                                        return 1;
                                                                                    }

                                                                                    else {
                                                                                        return 4;
                                                                                    }
                                                                                }
                                                                            }
                                                                        }

                                                                        else {
                                                                            if (x[15] <= 0.7206710875034332) {
                                                                                return 4;
                                                                            }

                                                                            else {
                                                                                return 3;
                                                                            }
                                                                        }
                                                                    }
                                                                }

                                                                else {
                                                                    return 4;
                                                                }
                                                            }

                                                            else {
                                                                if (x[11] <= 0.19144225120544434) {
                                                                    return 2;
                                                                }

                                                                else {
                                                                    if (x[17] <= 1.548107624053955) {
                                                                        return 3;
                                                                    }

                                                                    else {
                                                                        return 4;
                                                                    }
                                                                }
                                                            }
                                                        }
                                                    }

                                                    else {
                                                        if (x[26] <= 21.603529930114746) {
                                                            return 1;
                                                        }

                                                        else {
                                                            return 0;
                                                        }
                                                    }
                                                }
                                            }
                                        }

                                        else {
                                            if (x[3] <= 0.5815389752388) {
                                                if (x[4] <= -0.1917976811528206) {
                                                    if (x[12] <= 1.2342776358127594) {
                                                        return 0;
                                                    }

                                                    else {
                                                        if (x[30] <= 0.33171506226062775) {
                                                            return 1;
                                                        }

                                                        else {
                                                            return 4;
                                                        }
                                                    }
                                                }

                                                else {
                                                    if (x[24] <= 0.7022516131401062) {
                                                        return 0;
                                                    }

                                                    else {
                                                        if (x[31] <= -0.17907770723104477) {
                                                            return 4;
                                                        }

                                                        else {
                                                            if (x[23] <= 0.3407907783985138) {
                                                                return 2;
                                                            }

                                                            else {
                                                                return 0;
                                                            }
                                                        }
                                                    }
                                                }
                                            }

                                            else {
                                                if (x[1] <= -0.586090624332428) {
                                                    return 1;
                                                }

                                                else {
                                                    return 4;
                                                }
                                            }
                                        }
                                    }
                                }
                            }
                        }

                        else {
                            if (x[8] <= 0.8814603388309479) {
                                if (x[27] <= 12.390701293945312) {
                                    if (x[1] <= -0.5273822546005249) {
                                        if (x[17] <= 5.1444315910339355) {
                                            if (x[18] <= 4.744769334793091) {
                                                if (x[25] <= -0.2780903950333595) {
                                                    if (x[24] <= -0.1301981476135552) {
                                                        return 1;
                                                    }

                                                    else {
                                                        return 0;
                                                    }
                                                }

                                                else {
                                                    return 1;
                                                }
                                            }

                                            else {
                                                return 2;
                                            }
                                        }

                                        else {
                                            if (x[10] <= 0.31141518149524927) {
                                                return 3;
                                            }

                                            else {
                                                return 2;
                                            }
                                        }
                                    }

                                    else {
                                        if (x[7] <= 0.5636189579963684) {
                                            return 1;
                                        }

                                        else {
                                            if (x[27] <= 1.2128077819943428) {
                                                return 1;
                                            }

                                            else {
                                                return 4;
                                            }
                                        }
                                    }
                                }

                                else {
                                    return 3;
                                }
                            }

                            else {
                                if (x[21] <= 6.497498512268066) {
                                    if (x[8] <= 1.6031799912452698) {
                                        if (x[23] <= 1.335065484046936) {
                                            return 0;
                                        }

                                        else {
                                            return 4;
                                        }
                                    }

                                    else {
                                        return 2;
                                    }
                                }

                                else {
                                    return 1;
                                }
                            }
                        }
                    }

                protected:
                };
            }
        }
    }