#pragma once
#include <cstdarg>
namespace Eloquent {
    namespace ML {
        namespace Port {
            class SVM {
                public:
                    /**
                    * Predict class for features vector
                    */
                    int predict(float *x) {
                        float kernels[180] = { 0 };
                        float decisions[3] = { 0 };
                        int votes[3] = { 0 };
                        kernels[0] = compute_kernel(x,   5074.86  , 5080.03  , 5077.57  , 5071.78  , 5080.47  , 5078.79  , 5073.1  , 5074.4  , 5073.23  , 5075.15  , 5077.63  , 5076.69  , 5078.44  , 5079.84  , 5078.47  , 5078.37  , 5072.18  , 5077.8  , 5064.49  , 5073.52  , 5083.72  , 5069.05  , 5073.36  , 5077.22  , 5082.69  , 5080.73  , 5087.36  , 5079.17  , 5072.47  , 5078.35  , 5076.15  , 5072.42 );
                        kernels[1] = compute_kernel(x,   5094.33  , 5094.14  , 5093.91  , 5099.87  , 5094.78  , 5089.73  , 5092.48  , 5095.66  , 5090.67  , 5092.18  , 5099.78  , 5092.72  , 5091.97  , 5093.4  , 5090.0  , 5083.98  , 5086.98  , 5083.34  , 5090.38  , 5092.79  , 5090.29  , 5076.87  , 5090.19  , 5087.14  , 5079.13  , 5082.64  , 5098.32  , 5076.96  , 5081.92  , 5082.09  , 5076.23  , 5078.05 );
                        kernels[2] = compute_kernel(x,   5060.66  , 5059.3  , 5057.99  , 5074.6  , 5052.83  , 5057.35  , 5061.99  , 5057.97  , 5071.3  , 5065.86  , 5069.99  , 5061.98  , 5066.78  , 5067.63  , 5056.53  , 5063.9  , 5069.77  , 5059.65  , 5076.68  , 5079.13  , 5069.52  , 5080.32  , 5073.36  , 5072.76  , 5065.14  , 5074.13  , 5075.81  , 5076.69  , 5084.16  , 5081.57  , 5084.4  , 5088.08 );
                        kernels[3] = compute_kernel(x,   5076.94  , 5072.2  , 5081.85  , 5072.19  , 5066.67  , 5074.38  , 5070.04  , 5066.43  , 5067.61  , 5069.19  , 5065.5  , 5064.86  , 5068.25  , 5068.55  , 5067.09  , 5080.71  , 5069.13  , 5074.46  , 5071.58  , 5073.69  , 5067.79  , 5071.58  , 5067.86  , 5066.36  , 5069.53  , 5070.38  , 5068.1  , 5090.32  , 5069.61  , 5063.8  , 5082.29  , 5077.19 );
                        kernels[4] = compute_kernel(x,   5140.05  , 5141.28  , 5130.27  , 5141.39  , 5132.85  , 5139.17  , 5134.21  , 5133.99  , 5131.75  , 5134.61  , 5138.98  , 5133.17  , 5133.93  , 5140.34  , 5133.92  , 5135.08  , 5129.36  , 5127.43  , 5135.26  , 5133.37  , 5134.18  , 5145.54  , 5153.7  , 5138.86  , 5134.92  , 5145.94  , 5140.9  , 5146.51  , 5147.93  , 5139.38  , 5150.63  , 5144.95 );
                        kernels[5] = compute_kernel(x,   5475.82  , 5463.0  , 5467.4  , 5475.94  , 5480.26  , 5478.76  , 5483.42  , 5477.4  , 5475.68  , 5479.72  , 5476.04  , 5475.89  , 5477.5  , 5464.01  , 5483.8  , 5481.21  , 5493.44  , 5495.79  , 5495.62  , 5486.74  , 5488.25  , 5490.44  , 5480.59  , 5481.64  , 5480.79  , 5475.94  , 5483.05  , 5474.23  , 5476.77  , 5460.91  , 5469.73  , 5466.75 );
                        kernels[6] = compute_kernel(x,   5050.72  , 5049.45  , 5059.49  , 5060.13  , 5053.65  , 5068.08  , 5061.98  , 5052.04  , 5066.31  , 5065.04  , 5057.92  , 5060.39  , 5061.06  , 5060.55  , 5062.14  , 5070.48  , 5061.36  , 5072.12  , 5071.82  , 5065.23  , 5059.85  , 5067.49  , 5057.2  , 5072.54  , 5078.51  , 5068.88  , 5070.24  , 5078.64  , 5068.56  , 5062.89  , 5066.44  , 5067.28 );
                        kernels[7] = compute_kernel(x,   4989.73  , 5000.97  , 4996.77  , 4992.9  , 5006.43  , 5005.02  , 4992.35  , 4993.41  , 5026.63  , 5003.13  , 4996.4  , 4998.27  , 4992.52  , 5010.22  , 4998.09  , 4991.63  , 4995.42  , 5002.29  , 5015.82  , 4999.42  , 4997.61  , 5000.99  , 5002.71  , 5023.92  , 5009.81  , 5013.11  , 5007.64  , 5012.65  , 5010.57  , 5020.93  , 5015.91  , 5016.49 );
                        kernels[8] = compute_kernel(x,   5083.69  , 5096.8  , 5089.48  , 5083.57  , 5087.19  , 5088.41  , 5081.83  , 5084.78  , 5091.99  , 5084.96  , 5086.28  , 5087.17  , 5088.93  , 5080.91  , 5080.2  , 5098.4  , 5088.33  , 5089.16  , 5081.17  , 5078.87  , 5083.42  , 5079.55  , 5081.11  , 5087.73  , 5081.66  , 5079.09  , 5087.43  , 5079.18  , 5080.6  , 5086.04  , 5091.46  , 5084.22 );
                        kernels[9] = compute_kernel(x,   5091.76  , 5091.26  , 5090.6  , 5086.35  , 5094.48  , 5083.27  , 5085.39  , 5090.47  , 5083.8  , 5092.31  , 5083.86  , 5078.01  , 5087.0  , 5085.97  , 5082.69  , 5085.24  , 5081.69  , 5082.21  , 5074.24  , 5080.89  , 5083.43  , 5077.13  , 5088.32  , 5087.39  , 5079.64  , 5089.18  , 5080.73  , 5078.61  , 5081.76  , 5077.95  , 5085.62  , 5080.77 );
                        kernels[10] = compute_kernel(x,   5136.37  , 5142.72  , 5144.56  , 5136.81  , 5138.05  , 5141.54  , 5141.85  , 5144.22  , 5144.87  , 5135.19  , 5139.51  , 5158.67  , 5135.94  , 5137.84  , 5136.11  , 5136.82  , 5130.91  , 5137.13  , 5148.86  , 5132.06  , 5135.5  , 5148.26  , 5135.66  , 5142.7  , 5140.56  , 5134.95  , 5132.36  , 5149.92  , 5143.04  , 5145.58  , 5146.47  , 5136.55 );
                        kernels[11] = compute_kernel(x,   5086.12  , 5086.85  , 5084.43  , 5085.43  , 5079.89  , 5082.69  , 5084.04  , 5092.51  , 5081.29  , 5087.35  , 5093.66  , 5076.32  , 5090.56  , 5088.53  , 5073.56  , 5083.89  , 5082.08  , 5083.32  , 5080.14  , 5082.56  , 5088.94  , 5075.38  , 5086.54  , 5078.59  , 5081.55  , 5080.58  , 5076.56  , 5079.51  , 5080.5  , 5078.17  , 5085.5  , 5087.82 );
                        kernels[12] = compute_kernel(x,   5112.69  , 5109.55  , 5111.27  , 5109.59  , 5102.62  , 5112.45  , 5104.33  , 5102.73  , 5112.39  , 5102.83  , 5103.65  , 5114.32  , 5124.35  , 5109.27  , 5107.79  , 5109.53  , 5101.87  , 5114.56  , 5122.53  , 5109.2  , 5123.41  , 5105.05  , 5106.24  , 5111.09  , 5108.72  , 5118.24  , 5100.2  , 5104.79  , 5108.99  , 5107.74  , 5107.23  , 5112.78 );
                        kernels[13] = compute_kernel(x,   5060.25  , 5070.34  , 5079.6  , 5077.2  , 5067.97  , 5070.5  , 5062.86  , 5069.48  , 5073.9  , 5067.31  , 5080.08  , 5090.43  , 5073.9  , 5076.56  , 5080.23  , 5070.76  , 5080.18  , 5076.83  , 5069.63  , 5078.45  , 5080.87  , 5081.05  , 5090.08  , 5075.49  , 5083.72  , 5080.41  , 5083.52  , 5082.44  , 5071.58  , 5096.14  , 5077.02  , 5078.14 );
                        kernels[14] = compute_kernel(x,   5137.77  , 5125.97  , 5122.23  , 5139.61  , 5123.48  , 5131.89  , 5151.02  , 5136.85  , 5131.47  , 5135.75  , 5139.71  , 5132.65  , 5138.54  , 5144.67  , 5141.9  , 5143.14  , 5156.33  , 5150.49  , 5150.83  , 5155.2  , 5154.31  , 5148.73  , 5151.45  , 5163.18  , 5152.55  , 5161.11  , 5166.12  , 5161.63  , 5168.15  , 5164.87  , 5167.79  , 5160.8 );
                        kernels[15] = compute_kernel(x,   5157.95  , 5168.57  , 5155.87  , 5161.44  , 5155.22  , 5162.67  , 5164.01  , 5155.37  , 5156.85  , 5164.6  , 5158.53  , 5156.62  , 5155.83  , 5161.62  , 5160.1  , 5159.62  , 5160.95  , 5159.16  , 5159.56  , 5191.24  , 5171.18  , 5163.31  , 5160.28  , 5170.94  , 5177.46  , 5160.61  , 5172.1  , 5160.24  , 5170.83  , 5163.58  , 5155.09  , 5157.2 );
                        kernels[16] = compute_kernel(x,   5138.69  , 5161.88  , 5143.88  , 5137.29  , 5139.01  , 5132.76  , 5135.19  , 5137.93  , 5150.78  , 5142.83  , 5146.38  , 5137.55  , 5173.42  , 5136.33  , 5141.2  , 5134.76  , 5145.15  , 5154.53  , 5139.41  , 5146.05  , 5152.21  , 5139.22  , 5140.55  , 5164.07  , 5141.39  , 5147.12  , 5161.11  , 5155.56  , 5156.72  , 5153.36  , 5165.57  , 5152.14 );
                        kernels[17] = compute_kernel(x,   5175.86  , 5161.63  , 5166.17  , 5161.29  , 5177.43  , 5154.41  , 5149.95  , 5157.53  , 5143.09  , 5147.16  , 5148.9  , 5137.46  , 5141.41  , 5143.33  , 5145.77  , 5142.08  , 5141.57  , 5140.45  , 5132.95  , 5144.45  , 5146.01  , 5146.47  , 5145.04  , 5137.77  , 5154.92  , 5145.1  , 5142.21  , 5138.28  , 5134.49  , 5133.21  , 5136.63  , 5137.23 );
                        kernels[18] = compute_kernel(x,   5079.04  , 5065.76  , 5076.74  , 5074.69  , 5074.02  , 5102.22  , 5080.24  , 5070.62  , 5077.79  , 5079.77  , 5077.0  , 5076.97  , 5078.12  , 5070.66  , 5074.33  , 5077.1  , 5074.22  , 5070.79  , 5086.44  , 5073.15  , 5070.24  , 5075.68  , 5075.76  , 5069.61  , 5073.85  , 5073.3  , 5064.83  , 5071.35  , 5073.58  , 5067.6  , 5071.0  , 5071.31 );
                        kernels[19] = compute_kernel(x,   5086.38  , 5081.13  , 5091.08  , 5089.08  , 5089.25  , 5094.45  , 5088.22  , 5078.18  , 5085.85  , 5089.75  , 5084.62  , 5087.98  , 5091.97  , 5080.05  , 5083.24  , 5087.49  , 5080.26  , 5093.35  , 5096.72  , 5090.56  , 5095.31  , 5087.05  , 5084.94  , 5085.98  , 5079.36  , 5085.52  , 5080.34  , 5091.42  , 5085.52  , 5082.84  , 5096.06  , 5090.72 );
                        kernels[20] = compute_kernel(x,   5078.89  , 5081.72  , 5085.49  , 5077.53  , 5081.06  , 5075.24  , 5078.75  , 5082.88  , 5082.24  , 5079.07  , 5085.34  , 5086.65  , 5073.29  , 5081.6  , 5087.52  , 5075.94  , 5079.55  , 5083.22  , 5074.58  , 5078.25  , 5078.96  , 5074.27  , 5072.66  , 5074.91  , 5072.92  , 5070.86  , 5078.45  , 5076.51  , 5072.33  , 5081.17  , 5071.6  , 5074.17 );
                        kernels[21] = compute_kernel(x,   5065.57  , 5068.44  , 5050.61  , 5064.51  , 5053.27  , 5049.25  , 5045.74  , 5054.27  , 5053.26  , 5060.06  , 5063.98  , 5061.3  , 5051.56  , 5054.96  , 5050.06  , 5041.16  , 5057.91  , 5052.02  , 5057.75  , 5065.38  , 5057.88  , 5054.86  , 5052.26  , 5056.5  , 5045.87  , 5047.51  , 5057.94  , 5048.62  , 5049.15  , 5060.39  , 5056.8  , 5047.9 );
                        kernels[22] = compute_kernel(x,   5136.68  , 5146.22  , 5141.79  , 5139.49  , 5147.0  , 5140.32  , 5155.89  , 5144.25  , 5147.06  , 5143.76  , 5150.0  , 5145.86  , 5156.35  , 5164.04  , 5158.89  , 5143.12  , 5154.51  , 5161.33  , 5163.64  , 5180.37  , 5166.02  , 5174.31  , 5162.4  , 5154.46  , 5146.65  , 5141.06  , 5141.5  , 5117.21  , 5116.5  , 5113.42  , 5103.75  , 5093.16 );
                        kernels[23] = compute_kernel(x,   5053.68  , 5052.21  , 5057.0  , 5053.84  , 5055.84  , 5057.62  , 5057.09  , 5057.78  , 5057.69  , 5052.19  , 5052.61  , 5065.04  , 5051.55  , 5060.18  , 5062.44  , 5061.9  , 5048.0  , 5057.51  , 5051.94  , 5053.95  , 5052.15  , 5053.03  , 5045.33  , 5056.67  , 5055.52  , 5049.8  , 5055.29  , 5049.95  , 5047.75  , 5051.17  , 5047.25  , 5047.31 );
                        kernels[24] = compute_kernel(x,   5119.15  , 5109.88  , 5108.2  , 5115.85  , 5110.67  , 5105.52  , 5123.35  , 5118.86  , 5119.93  , 5109.83  , 5110.55  , 5109.03  , 5104.64  , 5114.74  , 5099.02  , 5107.18  , 5099.7  , 5086.4  , 5088.63  , 5082.57  , 5072.94  , 5083.1  , 5081.65  , 5072.54  , 5077.95  , 5085.01  , 5087.97  , 5091.79  , 5098.64  , 5100.35  , 5090.51  , 5100.96 );
                        kernels[25] = compute_kernel(x,   5043.4  , 5034.61  , 5044.73  , 5044.9  , 5037.75  , 5041.01  , 5041.52  , 5036.55  , 5038.63  , 5031.48  , 5034.02  , 5040.29  , 5039.04  , 5035.64  , 5040.95  , 5045.1  , 5038.39  , 5039.01  , 5043.89  , 5035.92  , 5034.11  , 5041.43  , 5043.97  , 5041.52  , 5056.9  , 5045.76  , 5045.16  , 5051.2  , 5040.77  , 5046.76  , 5047.68  , 5044.06 );
                        kernels[26] = compute_kernel(x,   5062.99  , 5061.02  , 5062.47  , 5065.51  , 5061.16  , 5066.66  , 5067.85  , 5058.49  , 5068.08  , 5068.98  , 5069.72  , 5067.31  , 5068.17  , 5063.32  , 5067.92  , 5068.24  , 5064.97  , 5060.12  , 5058.65  , 5064.75  , 5067.8  , 5072.94  , 5067.27  , 5067.76  , 5062.16  , 5055.46  , 5057.32  , 5065.84  , 5069.03  , 5058.71  , 5059.86  , 5065.2 );
                        kernels[27] = compute_kernel(x,   5109.66  , 5101.45  , 5107.15  , 5113.75  , 5104.45  , 5110.98  , 5115.46  , 5108.19  , 5114.8  , 5106.07  , 5108.78  , 5103.81  , 5121.27  , 5112.73  , 5111.87  , 5112.39  , 5099.86  , 5109.42  , 5113.19  , 5114.57  , 5107.0  , 5116.91  , 5121.62  , 5111.54  , 5110.76  , 5122.16  , 5105.11  , 5128.31  , 5111.42  , 5103.77  , 5109.75  , 5112.27 );
                        kernels[28] = compute_kernel(x,   5305.0  , 5301.37  , 5307.9  , 5296.92  , 5287.37  , 5294.36  , 5290.54  , 5288.31  , 5294.9  , 5292.3  , 5287.44  , 5298.48  , 5293.31  , 5292.5  , 5287.36  , 5293.05  , 5307.12  , 5299.61  , 5310.4  , 5305.02  , 5304.58  , 5307.93  , 5304.33  , 5304.4  , 5310.11  , 5302.81  , 5302.15  , 5313.84  , 5313.91  , 5303.33  , 5296.97  , 5297.85 );
                        kernels[29] = compute_kernel(x,   5085.92  , 5092.88  , 5104.88  , 5102.92  , 5105.06  , 5091.77  , 5088.0  , 5091.8  , 5092.87  , 5093.94  , 5086.89  , 5093.9  , 5089.35  , 5089.92  , 5093.73  , 5091.52  , 5093.74  , 5096.7  , 5087.86  , 5081.52  , 5087.99  , 5084.5  , 5084.55  , 5096.78  , 5095.92  , 5093.15  , 5093.24  , 5088.92  , 5078.26  , 5087.1  , 5083.62  , 5081.69 );
                        kernels[30] = compute_kernel(x,   5108.31  , 5090.88  , 5076.04  , 5081.87  , 5063.21  , 5058.91  , 5048.03  , 5040.9  , 5027.99  , 5022.66  , 5033.8  , 5015.03  , 5034.06  , 5040.56  , 5050.04  , 5058.77  , 5082.32  , 5086.91  , 5114.52  , 5120.28  , 5131.47  , 5146.49  , 5167.89  , 5164.46  , 5169.94  , 5189.95  , 5176.05  , 5170.47  , 5176.97  , 5166.52  , 5165.58  , 5158.24 );
                        kernels[31] = compute_kernel(x,   5163.67  , 5159.77  , 5176.33  , 5159.53  , 5164.17  , 5149.0  , 5160.31  , 5159.67  , 5154.95  , 5156.65  , 5157.72  , 5152.52  , 5160.9  , 5153.98  , 5147.17  , 5154.2  , 5158.38  , 5154.54  , 5153.39  , 5160.0  , 5152.38  , 5148.38  , 5149.35  , 5150.7  , 5142.81  , 5161.84  , 5143.81  , 5139.43  , 5143.77  , 5153.26  , 5146.5  , 5145.16 );
                        kernels[32] = compute_kernel(x,   5285.67  , 5277.74  , 5278.12  , 5285.47  , 5284.97  , 5276.69  , 5280.67  , 5286.34  , 5279.45  , 5276.87  , 5285.53  , 5276.12  , 5275.55  , 5286.16  , 5277.1  , 5288.6  , 5286.5  , 5283.91  , 5273.4  , 5276.79  , 5280.13  , 5272.75  , 5275.44  , 5271.57  , 5267.8  , 5277.98  , 5276.83  , 5280.32  , 5277.03  , 5287.3  , 5290.19  , 5277.98 );
                        kernels[33] = compute_kernel(x,   5241.92  , 5232.23  , 5247.4  , 5247.89  , 5241.6  , 5246.21  , 5247.08  , 5236.65  , 5244.35  , 5245.89  , 5241.28  , 5247.43  , 5247.06  , 5239.4  , 5248.47  , 5248.44  , 5236.31  , 5235.91  , 5244.51  , 5225.61  , 5220.35  , 5224.08  , 5213.27  , 5214.06  , 5218.11  , 5214.84  , 5216.23  , 5215.61  , 5216.38  , 5215.38  , 5222.05  , 5213.94 );
                        kernels[34] = compute_kernel(x,   5171.07  , 5178.93  , 5163.86  , 5169.91  , 5163.46  , 5164.94  , 5169.81  , 5168.77  , 5169.37  , 5165.41  , 5175.97  , 5169.7  , 5170.08  , 5163.72  , 5171.27  , 5175.27  , 5168.02  , 5164.31  , 5189.62  , 5197.61  , 5182.22  , 5166.71  , 5164.32  , 5175.86  , 5172.18  , 5186.26  , 5168.38  , 5174.75  , 5177.04  , 5165.38  , 5168.72  , 5174.55 );
                        kernels[35] = compute_kernel(x,   5060.99  , 5055.13  , 5059.78  , 5067.78  , 5064.22  , 5060.6  , 5062.43  , 5057.69  , 5057.36  , 5062.31  , 5065.53  , 5057.0  , 5063.32  , 5065.74  , 5063.65  , 5062.55  , 5062.1  , 5055.18  , 5055.67  , 5060.92  , 5071.2  , 5065.0  , 5068.37  , 5060.79  , 5066.85  , 5073.6  , 5070.31  , 5067.16  , 5067.88  , 5066.01  , 5070.38  , 5075.21 );
                        kernels[36] = compute_kernel(x,   5153.06  , 5146.59  , 5151.22  , 5145.89  , 5140.92  , 5152.02  , 5136.13  , 5145.66  , 5145.22  , 5131.31  , 5129.61  , 5132.75  , 5126.8  , 5128.45  , 5135.99  , 5127.93  , 5125.5  , 5126.23  , 5138.43  , 5125.84  , 5131.56  , 5144.0  , 5133.45  , 5124.24  , 5136.58  , 5131.06  , 5121.3  , 5124.69  , 5125.8  , 5137.57  , 5129.11  , 5132.42 );
                        kernels[37] = compute_kernel(x,   5150.59  , 5138.14  , 5155.54  , 5139.76  , 5134.43  , 5138.71  , 5146.86  , 5146.96  , 5138.11  , 5128.64  , 5123.58  , 5131.73  , 5129.8  , 5120.81  , 5123.97  , 5120.53  , 5115.08  , 5125.38  , 5125.26  , 5120.47  , 5120.81  , 5126.52  , 5125.81  , 5130.63  , 5139.42  , 5146.97  , 5198.32  , 5164.6  , 5166.22  , 5177.9  , 5179.33  , 5160.28 );
                        kernels[38] = compute_kernel(x,   5051.84  , 5045.72  , 5046.21  , 5048.21  , 5039.87  , 5038.17  , 5036.48  , 5042.86  , 5029.18  , 5041.89  , 5032.31  , 5022.9  , 5029.72  , 5031.56  , 5021.06  , 5029.6  , 5034.19  , 5035.53  , 5029.27  , 5047.9  , 5040.12  , 5042.0  , 5052.08  , 5049.12  , 5049.61  , 5061.17  , 5065.29  , 5068.28  , 5079.02  , 5075.85  , 5095.85  , 5093.32 );
                        kernels[39] = compute_kernel(x,   5118.83  , 5125.41  , 5123.11  , 5102.09  , 5117.34  , 5101.11  , 5104.22  , 5098.0  , 5104.68  , 5090.52  , 5076.44  , 5089.01  , 5068.2  , 5070.62  , 5076.22  , 5082.84  , 5060.75  , 5065.77  , 5066.2  , 5059.29  , 5065.07  , 5065.3  , 5050.83  , 5102.68  , 5080.77  , 5073.16  , 5071.68  , 5086.17  , 5074.34  , 5082.78  , 5086.03  , 5078.77 );
                        kernels[40] = compute_kernel(x,   5250.01  , 5240.16  , 5240.95  , 5235.78  , 5228.98  , 5228.91  , 5221.27  , 5233.07  , 5186.53  , 5181.51  , 5192.56  , 5175.9  , 5160.39  , 5154.29  , 5160.01  , 5161.24  , 5143.34  , 5148.49  , 5132.64  , 5138.43  , 5138.57  , 5129.75  , 5149.02  , 5144.42  , 5133.82  , 5139.31  , 5132.68  , 5130.03  , 5132.99  , 5132.63  , 5144.54  , 5139.96 );
                        kernels[41] = compute_kernel(x,   5055.79  , 5052.28  , 5053.55  , 5046.29  , 5043.39  , 5047.2  , 5049.21  , 5039.98  , 5046.89  , 5049.63  , 5053.4  , 5051.49  , 5045.44  , 5049.73  , 5048.18  , 5053.79  , 5044.83  , 5044.51  , 5051.23  , 5044.52  , 5057.19  , 5055.05  , 5051.83  , 5057.69  , 5042.93  , 5045.96  , 5045.08  , 5061.67  , 5068.29  , 5043.43  , 5066.63  , 5050.76 );
                        kernels[42] = compute_kernel(x,   5167.73  , 5157.07  , 5165.47  , 5177.46  , 5168.77  , 5170.38  , 5171.67  , 5162.13  , 5165.49  , 5170.06  , 5162.35  , 5163.65  , 5163.63  , 5160.64  , 5166.28  , 5165.8  , 5154.36  , 5161.22  , 5162.61  , 5158.16  , 5158.63  , 5163.29  , 5157.42  , 5154.75  , 5159.7  , 5164.0  , 5159.41  , 5157.56  , 5164.08  , 5154.35  , 5160.88  , 5163.7 );
                        kernels[43] = compute_kernel(x,   5036.62  , 5037.4  , 5047.45  , 5036.29  , 5038.19  , 5041.49  , 5038.85  , 5048.38  , 5045.85  , 5047.74  , 5043.39  , 5042.54  , 5056.7  , 5045.12  , 5046.2  , 5043.33  , 5037.84  , 5049.93  , 5048.17  , 5048.18  , 5063.24  , 5058.41  , 5052.73  , 5048.56  , 5061.68  , 5059.71  , 5056.74  , 5066.06  , 5065.17  , 5072.17  , 5071.65  , 5070.25 );
                        kernels[44] = compute_kernel(x,   5069.86  , 5073.77  , 5074.15  , 5084.16  , 5083.43  , 5081.06  , 5072.41  , 5083.34  , 5080.36  , 5081.94  , 5083.3  , 5081.29  , 5082.91  , 5089.96  , 5084.85  , 5081.61  , 5086.67  , 5087.97  , 5087.25  , 5083.1  , 5087.04  , 5089.58  , 5088.31  , 5096.7  , 5093.97  , 5090.93  , 5098.38  , 5091.79  , 5088.06  , 5095.1  , 5098.57  , 5092.17 );
                        kernels[45] = compute_kernel(x,   5098.58  , 5105.67  , 5103.63  , 5096.85  , 5106.3  , 5104.42  , 5105.39  , 5110.03  , 5105.73  , 5095.86  , 5101.47  , 5101.83  , 5097.35  , 5092.92  , 5098.66  , 5089.37  , 5090.49  , 5093.07  , 5090.79  , 5088.69  , 5095.3  , 5082.76  , 5085.01  , 5088.06  , 5089.87  , 5091.07  , 5082.9  , 5086.03  , 5079.91  , 5092.74  , 5091.47  , 5079.99 );
                        kernels[46] = compute_kernel(x,   5074.27  , 5062.16  , 5071.72  , 5080.84  , 5065.32  , 5062.81  , 5079.37  , 5074.01  , 5064.6  , 5087.58  , 5078.56  , 5066.91  , 5072.17  , 5069.19  , 5069.07  , 5068.62  , 5068.4  , 5067.21  , 5070.9  , 5072.5  , 5064.39  , 5065.67  , 5069.44  , 5074.97  , 5074.54  , 5076.09  , 5067.67  , 5072.74  , 5074.7  , 5064.46  , 5074.45  , 5070.58 );
                        kernels[47] = compute_kernel(x,   5070.51  , 5071.27  , 5068.91  , 5079.09  , 5070.65  , 5065.7  , 5080.99  , 5077.53  , 5065.77  , 5074.11  , 5071.47  , 5071.11  , 5081.8  , 5077.28  , 5070.78  , 5070.12  , 5080.58  , 5072.15  , 5073.53  , 5074.29  , 5067.79  , 5073.38  , 5077.38  , 5069.91  , 5076.74  , 5079.56  , 5081.68  , 5071.69  , 5079.0  , 5076.85  , 5077.27  , 5076.26 );
                        kernels[48] = compute_kernel(x,   5110.25  , 5082.34  , 5090.29  , 5091.11  , 5086.69  , 5080.76  , 5086.21  , 5082.54  , 5078.18  , 5088.19  , 5080.88  , 5074.48  , 5075.12  , 5081.44  , 5079.89  , 5084.65  , 5082.09  , 5089.62  , 5080.81  , 5090.29  , 5078.68  , 5073.14  , 5092.34  , 5088.34  , 5072.35  , 5086.85  , 5083.75  , 5071.72  , 5081.49  , 5076.55  , 5070.72  , 5076.29 );
                        kernels[49] = compute_kernel(x,   5152.11  , 5177.14  , 5177.88  , 5168.86  , 5157.56  , 5159.65  , 5153.75  , 5152.44  , 5159.79  , 5156.9  , 5160.52  , 5155.78  , 5155.33  , 5154.62  , 5153.66  , 5154.79  , 5149.35  , 5142.63  , 5146.48  , 5145.15  , 5143.41  , 5156.37  , 5143.96  , 5158.97  , 5150.84  , 5143.44  , 5151.16  , 5153.96  , 5141.12  , 5146.55  , 5153.12  , 5146.47 );
                        kernels[50] = compute_kernel(x,   5093.4  , 5083.5  , 5095.66  , 5084.06  , 5084.08  , 5094.9  , 5090.12  , 5084.18  , 5092.23  , 5090.98  , 5085.15  , 5089.0  , 5105.23  , 5087.18  , 5087.76  , 5092.58  , 5081.92  , 5084.05  , 5084.87  , 5086.0  , 5091.47  , 5088.64  , 5090.86  , 5088.12  , 5104.4  , 5105.45  , 5092.97  , 5093.31  , 5091.74  , 5090.34  , 5090.85  , 5088.93 );
                        kernels[51] = compute_kernel(x,   5103.77  , 5111.5  , 5108.16  , 5092.45  , 5102.29  , 5100.62  , 5098.21  , 5100.75  , 5101.27  , 5100.37  , 5095.44  , 5109.53  , 5099.09  , 5096.37  , 5100.51  , 5092.12  , 5094.21  , 5095.4  , 5090.2  , 5091.48  , 5098.43  , 5103.17  , 5093.44  , 5102.47  , 5091.31  , 5086.09  , 5094.72  , 5091.86  , 5087.08  , 5105.75  , 5102.44  , 5093.03 );
                        kernels[52] = compute_kernel(x,   5151.93  , 5161.68  , 5156.88  , 5150.35  , 5148.17  , 5159.13  , 5152.18  , 5154.19  , 5153.94  , 5148.37  , 5149.39  , 5155.25  , 5155.38  , 5148.13  , 5160.67  , 5150.18  , 5147.78  , 5151.05  , 5145.89  , 5144.65  , 5160.12  , 5156.62  , 5179.95  , 5163.74  , 5173.88  , 5182.25  , 5165.07  , 5169.85  , 5173.89  , 5177.19  , 5177.78  , 5174.56 );
                        kernels[53] = compute_kernel(x,   5086.98  , 5087.43  , 5083.49  , 5079.44  , 5081.94  , 5081.93  , 5083.44  , 5085.25  , 5093.86  , 5085.27  , 5087.69  , 5094.06  , 5085.58  , 5084.38  , 5084.8  , 5086.87  , 5084.56  , 5092.49  , 5093.76  , 5097.79  , 5102.76  , 5094.75  , 5091.38  , 5103.56  , 5099.03  , 5093.43  , 5093.93  , 5090.27  , 5093.55  , 5090.14  , 5100.49  , 5092.96 );
                        kernels[54] = compute_kernel(x,   5086.57  , 5082.24  , 5093.87  , 5088.53  , 5085.35  , 5083.56  , 5080.47  , 5086.54  , 5089.55  , 5082.53  , 5083.62  , 5092.34  , 5089.69  , 5088.22  , 5090.15  , 5087.16  , 5078.77  , 5082.36  , 5080.18  , 5084.33  , 5079.17  , 5092.44  , 5081.0  , 5077.75  , 5082.38  , 5074.24  , 5074.96  , 5071.26  , 5075.06  , 5079.29  , 5080.36  , 5072.21 );
                        kernels[55] = compute_kernel(x,   5072.18  , 5077.72  , 5063.76  , 5069.68  , 5077.3  , 5082.13  , 5078.76  , 5077.95  , 5077.49  , 5071.11  , 5082.5  , 5075.14  , 5070.03  , 5078.35  , 5070.7  , 5071.23  , 5084.0  , 5083.86  , 5083.96  , 5071.59  , 5067.46  , 5074.0  , 5079.06  , 5086.62  , 5075.07  , 5081.87  , 5088.01  , 5073.66  , 5079.66  , 5080.85  , 5074.76  , 5076.62 );
                        kernels[56] = compute_kernel(x,   5078.7  , 5071.92  , 5071.93  , 5081.1  , 5087.22  , 5099.47  , 5086.93  , 5092.18  , 5085.01  , 5078.44  , 5076.64  , 5083.08  , 5082.9  , 5097.39  , 5084.56  , 5091.42  , 5090.42  , 5085.0  , 5081.16  , 5084.88  , 5079.78  , 5077.05  , 5082.36  , 5079.42  , 5086.86  , 5122.35  , 5097.26  , 5106.96  , 5091.67  , 5084.41  , 5077.65  , 5088.17 );
                        kernels[57] = compute_kernel(x,   5046.02  , 5048.16  , 5051.03  , 5060.36  , 5058.54  , 5052.77  , 5047.65  , 5053.88  , 5046.78  , 5051.48  , 5052.07  , 5044.62  , 5047.58  , 5049.76  , 5050.51  , 5043.12  , 5052.42  , 5046.66  , 5037.11  , 5045.84  , 5045.63  , 5039.88  , 5044.24  , 5041.4  , 5046.31  , 5043.93  , 5041.64  , 5036.87  , 5033.64  , 5045.28  , 5033.11  , 5028.68 );
                        kernels[58] = compute_kernel(x,   5053.94  , 5055.26  , 5058.5  , 5051.37  , 5058.59  , 5062.68  , 5056.2  , 5047.4  , 5055.4  , 5056.37  , 5055.39  , 5062.76  , 5067.46  , 5059.21  , 5073.02  , 5082.93  , 5071.37  , 5064.16  , 5072.08  , 5061.87  , 5064.46  , 5067.58  , 5079.38  , 5078.57  , 5068.16  , 5065.32  , 5076.62  , 5084.85  , 5068.83  , 5066.63  , 5080.43  , 5073.64 );
                        kernels[59] = compute_kernel(x,   5083.87  , 5082.09  , 5086.17  , 5084.6  , 5084.62  , 5087.08  , 5089.01  , 5083.01  , 5083.9  , 5087.65  , 5080.77  , 5092.66  , 5089.79  , 5083.26  , 5085.92  , 5086.34  , 5082.88  , 5072.13  , 5094.67  , 5090.24  , 5079.2  , 5084.56  , 5091.62  , 5078.13  , 5090.99  , 5083.91  , 5077.39  , 5084.4  , 5081.1  , 5080.17  , 5082.51  , 5094.26 );
                        kernels[60] = compute_kernel(x,   5081.07  , 5078.73  , 5065.87  , 5065.33  , 5079.85  , 5065.16  , 5067.86  , 5070.6  , 5059.83  , 5068.9  , 5066.58  , 5066.39  , 5073.73  , 5071.83  , 5072.37  , 5057.73  , 5064.25  , 5069.07  , 5063.82  , 5072.59  , 5066.04  , 5062.1  , 5062.71  , 5073.1  , 5064.82  , 5063.51  , 5068.22  , 5062.64  , 5063.97  , 5068.84  , 5064.81  , 5060.33 );
                        kernels[61] = compute_kernel(x,   5165.74  , 5171.79  , 5177.9  , 5171.67  , 5165.41  , 5170.81  , 5172.32  , 5166.12  , 5177.96  , 5171.72  , 5169.75  , 5172.58  , 5179.43  , 5168.47  , 5172.27  , 5183.0  , 5169.43  , 5170.45  , 5172.64  , 5175.02  , 5170.49  , 5163.93  , 5164.77  , 5173.31  , 5168.49  , 5168.33  , 5168.16  , 5174.12  , 5168.78  , 5180.36  , 5185.1  , 5181.35 );
                        kernels[62] = compute_kernel(x,   5064.03  , 5059.34  , 5068.31  , 5068.77  , 5060.33  , 5071.9  , 5069.24  , 5061.71  , 5068.78  , 5069.27  , 5061.39  , 5065.29  , 5064.48  , 5065.47  , 5068.65  , 5077.74  , 5070.74  , 5070.32  , 5075.42  , 5072.54  , 5071.58  , 5078.93  , 5071.48  , 5078.26  , 5082.3  , 5080.91  , 5075.91  , 5078.44  , 5080.61  , 5076.69  , 5086.16  , 5082.74 );
                        kernels[63] = compute_kernel(x,   5064.86  , 5048.34  , 5053.61  , 5064.62  , 5055.86  , 5057.65  , 5060.82  , 5060.78  , 5064.98  , 5054.51  , 5054.6  , 5047.75  , 5063.59  , 5058.04  , 5062.53  , 5068.46  , 5059.23  , 5056.93  , 5067.49  , 5048.01  , 5048.56  , 5053.67  , 5054.03  , 5047.95  , 5061.13  , 5058.24  , 5058.1  , 5060.05  , 5075.37  , 5051.21  , 5057.28  , 5055.6 );
                        kernels[64] = compute_kernel(x,   5091.77  , 5089.06  , 5115.43  , 5096.0  , 5102.14  , 5106.6  , 5090.09  , 5091.78  , 5095.09  , 5095.42  , 5087.85  , 5097.15  , 5088.62  , 5086.78  , 5094.61  , 5100.82  , 5080.07  , 5091.77  , 5088.6  , 5084.96  , 5087.06  , 5084.4  , 5090.04  , 5087.22  , 5098.33  , 5082.62  , 5085.64  , 5089.32  , 5080.08  , 5093.01  , 5087.75  , 5081.45 );
                        kernels[65] = compute_kernel(x,   5063.91  , 5061.5  , 5057.45  , 5062.08  , 5054.43  , 5060.39  , 5064.46  , 5054.51  , 5050.44  , 5068.85  , 5057.59  , 5058.41  , 5064.82  , 5065.73  , 5060.02  , 5071.94  , 5061.92  , 5058.24  , 5064.64  , 5067.25  , 5062.12  , 5068.35  , 5076.95  , 5073.17  , 5065.72  , 5071.93  , 5070.89  , 5065.07  , 5070.54  , 5078.06  , 5065.59  , 5073.43 );
                        kernels[66] = compute_kernel(x,   5051.52  , 5055.39  , 5048.8  , 5065.47  , 5066.66  , 5057.69  , 5061.07  , 5061.34  , 5054.57  , 5048.22  , 5057.28  , 5053.6  , 5057.79  , 5064.41  , 5065.62  , 5059.9  , 5065.4  , 5063.94  , 5053.76  , 5054.33  , 5055.93  , 5057.3  , 5059.42  , 5065.87  , 5056.79  , 5061.2  , 5072.03  , 5055.58  , 5057.87  , 5067.36  , 5055.31  , 5055.25 );
                        kernels[67] = compute_kernel(x,   5153.39  , 5162.85  , 5163.03  , 5158.95  , 5159.29  , 5154.62  , 5154.06  , 5155.58  , 5159.95  , 5159.34  , 5157.02  , 5157.6  , 5160.72  , 5152.01  , 5154.73  , 5145.93  , 5146.73  , 5152.08  , 5138.05  , 5137.73  , 5146.34  , 5137.48  , 5135.9  , 5150.24  , 5140.2  , 5135.38  , 5149.15  , 5152.36  , 5135.63  , 5142.09  , 5147.34  , 5137.54 );
                        kernels[68] = compute_kernel(x,   5073.9  , 5066.7  , 5072.2  , 5073.71  , 5079.62  , 5076.71  , 5067.54  , 5075.48  , 5068.37  , 5066.02  , 5072.72  , 5068.22  , 5071.78  , 5077.02  , 5074.42  , 5075.4  , 5074.28  , 5076.53  , 5067.5  , 5073.29  , 5076.36  , 5074.65  , 5087.72  , 5085.31  , 5077.36  , 5076.85  , 5080.64  , 5076.52  , 5077.95  , 5077.43  , 5075.61  , 5081.62 );
                        kernels[69] = compute_kernel(x,   5153.58  , 5157.94  , 5157.87  , 5151.09  , 5154.38  , 5148.58  , 5170.78  , 5175.17  , 5158.74  , 5160.97  , 5183.21  , 5153.64  , 5153.61  , 5159.66  , 5165.25  , 5175.76  , 5168.77  , 5173.3  , 5163.09  , 5177.08  , 5169.56  , 5157.96  , 5164.01  , 5164.62  , 5170.63  , 5176.55  , 5166.42  , 5160.62  , 5172.11  , 5179.11  , 5164.99  , 5179.76 );
                        kernels[70] = compute_kernel(x,   5087.93  , 5063.24  , 5076.34  , 5076.84  , 5069.94  , 5078.58  , 5073.84  , 5077.37  , 5074.91  , 5070.87  , 5067.06  , 5073.05  , 5072.36  , 5078.83  , 5076.44  , 5069.63  , 5073.21  , 5073.28  , 5079.05  , 5065.31  , 5074.85  , 5073.71  , 5072.89  , 5072.17  , 5071.19  , 5073.86  , 5069.51  , 5076.08  , 5077.37  , 5081.21  , 5084.24  , 5074.07 );
                        kernels[71] = compute_kernel(x,   5070.36  , 5061.17  , 5064.25  , 5068.56  , 5062.36  , 5058.48  , 5063.92  , 5061.85  , 5064.91  , 5063.17  , 5070.0  , 5066.17  , 5068.24  , 5074.34  , 5059.17  , 5059.2  , 5065.06  , 5056.34  , 5063.63  , 5063.14  , 5065.18  , 5063.71  , 5069.46  , 5069.62  , 5058.56  , 5064.99  , 5069.19  , 5065.59  , 5066.7  , 5070.83  , 5071.61  , 5073.29 );
                        kernels[72] = compute_kernel(x,   3123.76  , 3111.53  , 3123.4  , 3102.51  , 3120.1  , 3105.03  , 3108.77  , 3098.6  , 3109.18  , 3090.46  , 3123.85  , 3095.02  , 3109.39  , 3093.33  , 3107.59  , 3090.39  , 3102.79  , 3089.99  , 3113.83  , 3084.57  , 3107.38  , 3103.34  , 3103.5  , 3090.53  , 3099.96  , 3076.87  , 3103.02  , 3083.99  , 3098.52  , 3087.38  , 3096.08  , 3071.33 );
                        kernels[73] = compute_kernel(x,   3402.06  , 3421.14  , 3416.59  , 3424.85  , 3420.58  , 3414.2  , 3414.77  , 3426.65  , 3400.41  , 3418.44  , 3407.85  , 3421.98  , 3420.2  , 3427.76  , 3413.05  , 3428.2  , 3424.28  , 3422.08  , 3410.08  , 3433.03  , 3423.22  , 3419.67  , 3416.08  , 3422.8  , 3419.03  , 3428.45  , 3420.22  , 3434.06  , 3416.59  , 3425.89  , 3441.06  , 3423.06 );
                        kernels[74] = compute_kernel(x,   3375.79  , 3391.12  , 3367.51  , 3395.74  , 3383.63  , 3407.26  , 3382.77  , 3396.49  , 3385.44  , 3414.24  , 3375.63  , 3409.72  , 3389.82  , 3401.83  , 3385.09  , 3407.18  , 3387.13  , 3403.86  , 3413.62  , 3467.91  , 3395.82  , 3422.63  , 3416.14  , 3398.64  , 3407.16  , 3419.6  , 3385.59  , 3414.78  , 3390.29  , 3410.81  , 3397.95  , 3426.43 );
                        kernels[75] = compute_kernel(x,   3435.28  , 3414.21  , 3426.8  , 3402.67  , 3420.98  , 3394.73  , 3404.0  , 3404.56  , 3432.23  , 3388.2  , 3411.56  , 3398.32  , 3401.01  , 3391.52  , 3419.39  , 3390.66  , 3415.31  , 3396.32  , 3406.15  , 3394.92  , 3448.4  , 3404.42  , 3411.21  , 3396.31  , 3412.93  , 3393.03  , 3419.17  , 3401.2  , 3415.9  , 3402.28  , 3421.2  , 3391.28 );
                        kernels[76] = compute_kernel(x,   3401.18  , 3410.55  , 3404.34  , 3412.08  , 3399.11  , 3418.69  , 3400.21  , 3414.99  , 3421.02  , 3419.88  , 3433.93  , 3447.89  , 3407.45  , 3433.1  , 3424.17  , 3427.9  , 3422.27  , 3434.13  , 3422.45  , 3425.98  , 3413.77  , 3454.28  , 3401.89  , 3418.85  , 3422.56  , 3431.73  , 3403.06  , 3424.24  , 3409.99  , 3417.76  , 3407.24  , 3419.53 );
                        kernels[77] = compute_kernel(x,   3119.62  , 3121.83  , 3125.9  , 3118.6  , 3118.48  , 3120.33  , 3127.77  , 3114.75  , 3125.61  , 3124.19  , 3125.84  , 3114.66  , 3131.76  , 3118.04  , 3122.97  , 3120.84  , 3121.63  , 3114.75  , 3126.39  , 3127.15  , 3121.7  , 3121.16  , 3114.24  , 3109.99  , 3122.32  , 3125.14  , 3119.85  , 3112.56  , 3122.84  , 3108.5  , 3118.69  , 3110.67 );
                        kernels[78] = compute_kernel(x,   3407.82  , 3428.52  , 3402.81  , 3423.03  , 3406.81  , 3400.6  , 3395.55  , 3399.53  , 3401.73  , 3415.08  , 3398.81  , 3421.04  , 3403.28  , 3415.21  , 3398.47  , 3416.14  , 3394.06  , 3448.48  , 3382.84  , 3428.6  , 3385.2  , 3413.79  , 3395.71  , 3405.67  , 3397.87  , 3443.04  , 3384.38  , 3412.19  , 3391.4  , 3402.2  , 3378.05  , 3409.25 );
                        kernels[79] = compute_kernel(x,   3109.19  , 3107.64  , 3123.3  , 3116.27  , 3108.95  , 3115.93  , 3146.88  , 3112.72  , 3115.78  , 3121.37  , 3108.42  , 3116.97  , 3120.6  , 3125.08  , 3114.97  , 3118.12  , 3130.54  , 3102.72  , 3174.97  , 3215.84  , 3127.34  , 3194.52  , 3313.53  , 3252.72  , 3125.57  , 3142.18  , 3189.99  , 3122.01  , 3246.36  , 3122.56  , 3373.48  , 3118.67 );
                        kernels[80] = compute_kernel(x,   3421.18  , 3422.64  , 3402.96  , 3408.07  , 3395.56  , 3394.64  , 3386.65  , 3400.52  , 3389.73  , 3403.84  , 3388.91  , 3402.84  , 3381.22  , 3398.7  , 3393.2  , 3393.54  , 3386.44  , 3406.33  , 3374.66  , 3410.94  , 3401.4  , 3403.95  , 3396.84  , 3411.13  , 3405.51  , 3412.75  , 3420.84  , 3423.82  , 3401.17  , 3422.12  , 3404.91  , 3431.4 );
                        kernels[81] = compute_kernel(x,   3374.09  , 3391.7  , 3370.49  , 3387.96  , 3383.01  , 3394.98  , 3378.8  , 3391.58  , 3390.5  , 3386.73  , 3403.63  , 3395.18  , 3395.35  , 3422.76  , 3376.78  , 3398.44  , 3393.01  , 3401.35  , 3397.32  , 3405.39  , 3385.57  , 3430.31  , 3383.22  , 3408.14  , 3372.65  , 3389.43  , 3380.05  , 3389.15  , 3379.84  , 3395.0  , 3375.4  , 3385.61 );
                        kernels[82] = compute_kernel(x,   3128.09  , 3168.24  , 3141.1  , 3111.8  , 3128.74  , 3215.56  , 3164.1  , 3145.22  , 3152.36  , 3167.31  , 3133.81  , 3119.53  , 3143.5  , 3125.58  , 3127.69  , 3110.12  , 3127.54  , 3129.94  , 3129.76  , 3099.52  , 3108.78  , 3111.56  , 3108.43  , 3117.73  , 3128.96  , 3102.23  , 3113.96  , 3104.32  , 3107.25  , 3098.02  , 3115.55  , 3097.99 );
                        kernels[83] = compute_kernel(x,   3091.33  , 3089.99  , 3093.62  , 3081.76  , 3093.57  , 3072.45  , 3093.99  , 3108.84  , 3102.12  , 3077.37  , 3105.37  , 3095.53  , 3094.79  , 3085.52  , 3143.02  , 3106.36  , 3105.72  , 3116.29  , 3115.82  , 3093.23  , 3121.86  , 3121.81  , 3104.19  , 3099.96  , 3112.32  , 3094.16  , 3111.41  , 3092.3  , 3103.33  , 3089.44  , 3108.55  , 3088.55 );
                        kernels[84] = compute_kernel(x,   3421.65  , 3427.68  , 3404.3  , 3421.54  , 3411.43  , 3429.88  , 3409.24  , 3430.13  , 3412.72  , 3429.73  , 3426.99  , 3439.18  , 3416.39  , 3451.31  , 3433.83  , 3436.95  , 3430.7  , 3452.05  , 3441.71  , 3456.0  , 3435.97  , 3464.33  , 3438.48  , 3446.7  , 3428.13  , 3449.43  , 3454.75  , 3452.12  , 3433.35  , 3477.47  , 3462.86  , 3448.74 );
                        kernels[85] = compute_kernel(x,   3391.5  , 3415.15  , 3394.94  , 3406.36  , 3413.15  , 3406.28  , 3383.7  , 3402.31  , 3390.48  , 3403.2  , 3387.33  , 3410.44  , 3380.35  , 3397.6  , 3385.9  , 3409.19  , 3383.4  , 3405.61  , 3385.21  , 3397.38  , 3385.17  , 3415.51  , 3376.16  , 3408.22  , 3380.83  , 3392.6  , 3383.68  , 3397.98  , 3372.39  , 3398.25  , 3377.59  , 3399.15 );
                        kernels[86] = compute_kernel(x,   3106.96  , 3139.13  , 3097.15  , 3120.7  , 3106.35  , 3124.07  , 3094.08  , 3131.15  , 3101.87  , 3108.73  , 3101.5  , 3117.41  , 3102.77  , 3118.42  , 3089.4  , 3105.5  , 3102.78  , 3110.71  , 3078.08  , 3125.23  , 3087.2  , 3106.77  , 3105.72  , 3109.37  , 3083.22  , 3100.89  , 3114.65  , 3095.08  , 3092.36  , 3101.18  , 3070.69  , 3086.98 );
                        kernels[87] = compute_kernel(x,   3437.44  , 3433.22  , 3431.91  , 3440.82  , 3425.13  , 3432.04  , 3424.69  , 3432.33  , 3433.29  , 3436.07  , 3430.25  , 3455.32  , 3443.16  , 3425.49  , 3420.79  , 3429.42  , 3423.04  , 3428.96  , 3422.81  , 3431.85  , 3407.2  , 3434.06  , 3407.38  , 3418.96  , 3416.16  , 3419.88  , 3409.15  , 3425.47  , 3410.62  , 3420.97  , 3423.72  , 3420.45 );
                        kernels[88] = compute_kernel(x,   3093.92  , 3088.56  , 3093.23  , 3099.66  , 3089.24  , 3095.81  , 3090.66  , 3084.74  , 3095.47  , 3096.6  , 3077.3  , 3082.8  , 3098.88  , 3079.55  , 3087.69  , 3089.65  , 3078.44  , 3088.78  , 3092.61  , 3094.84  , 3085.63  , 3085.27  , 3089.45  , 3079.74  , 3091.04  , 3081.52  , 3086.33  , 3092.41  , 3089.45  , 3082.14  , 3093.41  , 3090.92 );
                        kernels[89] = compute_kernel(x,   3122.71  , 3109.29  , 3136.39  , 3113.05  , 3115.92  , 3110.26  , 3162.39  , 3099.63  , 3115.66  , 3110.47  , 3113.3  , 3106.93  , 3128.57  , 3101.43  , 3118.09  , 3110.36  , 3109.79  , 3095.82  , 3110.69  , 3094.66  , 3111.72  , 3097.95  , 3106.97  , 3101.07  , 3111.92  , 3096.58  , 3111.8  , 3089.6  , 3110.13  , 3107.82  , 3108.39  , 3093.93 );
                        kernels[90] = compute_kernel(x,   3449.29  , 3435.99  , 3435.03  , 3424.15  , 3434.4  , 3448.99  , 3454.19  , 3425.57  , 3443.78  , 3465.06  , 3449.06  , 3423.08  , 3443.15  , 3436.85  , 3454.05  , 3441.32  , 3442.46  , 3419.87  , 3447.27  , 3428.55  , 3445.37  , 3430.13  , 3462.55  , 3435.4  , 3464.97  , 3439.59  , 3445.55  , 3435.67  , 3450.11  , 3421.38  , 3459.05  , 3433.37 );
                        kernels[91] = compute_kernel(x,   3419.46  , 3420.54  , 3408.46  , 3428.76  , 3415.24  , 3437.42  , 3420.67  , 3423.06  , 3414.06  , 3444.6  , 3410.71  , 3424.55  , 3409.45  , 3426.87  , 3405.4  , 3432.51  , 3413.12  , 3422.59  , 3411.03  , 3447.92  , 3398.73  , 3437.72  , 3420.92  , 3424.72  , 3410.26  , 3440.05  , 3405.01  , 3430.61  , 3422.24  , 3426.0  , 3412.64  , 3434.96 );
                        kernels[92] = compute_kernel(x,   3129.51  , 3097.75  , 3098.6  , 3098.28  , 3116.4  , 3086.68  , 3084.89  , 3098.2  , 3100.24  , 3080.56  , 3110.33  , 3101.12  , 3110.54  , 3093.0  , 3089.81  , 3085.41  , 3081.35  , 3085.88  , 3095.03  , 3083.56  , 3087.59  , 3087.38  , 3085.04  , 3088.28  , 3114.97  , 3090.41  , 3086.57  , 3091.01  , 3078.8  , 3090.42  , 3091.19  , 3080.52 );
                        kernels[93] = compute_kernel(x,   3074.68  , 3088.49  , 3116.43  , 3113.21  , 3079.99  , 3090.09  , 3119.1  , 3087.66  , 3057.93  , 3078.18  , 3067.19  , 3087.53  , 3070.59  , 3096.52  , 3056.19  , 3104.08  , 3072.75  , 3141.68  , 3072.47  , 3075.27  , 3045.3  , 3083.98  , 3058.96  , 3074.94  , 3047.25  , 3077.33  , 3087.11  , 3070.65  , 3066.66  , 3084.45  , 3070.49  , 3079.15 );
                        kernels[94] = compute_kernel(x,   3110.21  , 3095.88  , 3120.41  , 3081.54  , 3090.39  , 3071.59  , 3086.46  , 3087.13  , 3089.64  , 3076.23  , 3084.54  , 3082.78  , 3091.96  , 3070.62  , 3076.47  , 3078.12  , 3092.45  , 3062.84  , 3089.85  , 3073.12  , 3098.58  , 3071.47  , 3078.15  , 3060.43  , 3076.04  , 3053.2  , 3081.77  , 3068.99  , 3086.2  , 3060.44  , 3070.1  , 3089.55 );
                        kernels[95] = compute_kernel(x,   3067.58  , 3064.59  , 3066.39  , 3051.53  , 3070.0  , 3073.6  , 3074.14  , 3061.0  , 3065.01  , 3055.51  , 3070.51  , 3061.4  , 3071.83  , 3058.37  , 3073.61  , 3057.82  , 3076.63  , 3064.59  , 3070.01  , 3064.4  , 3075.26  , 3078.05  , 3074.88  , 3071.1  , 3073.69  , 3069.15  , 3078.7  , 3066.97  , 3069.33  , 3073.33  , 3081.18  , 3065.18 );
                        kernels[96] = compute_kernel(x,   2016.33  , 2055.4  , 2087.95  , 2060.81  , 2068.23  , 2112.3  , 2087.84  , 2107.25  , 2122.67  , 2107.75  , 2102.34  , 2106.28  , 2038.52  , 2019.84  , 1890.95  , 1858.91  , 1797.44  , 1792.88  , 1772.89  , 1786.58  , 1784.38  , 1821.08  , 1847.51  , 1886.9  , 1918.06  , 1878.81  , 1877.85  , 1920.47  , 1925.15  , 1924.09  , 1918.71  , 1950.57 );
                        kernels[97] = compute_kernel(x,   3139.18  , 3116.52  , 3132.81  , 3129.24  , 3132.66  , 3116.37  , 3130.51  , 3107.29  , 3126.88  , 3112.15  , 3130.54  , 3118.78  , 3124.53  , 3119.68  , 3131.35  , 3101.14  , 3121.26  , 3103.26  , 3128.57  , 3095.66  , 3140.97  , 3113.17  , 3115.26  , 3096.6  , 3111.82  , 3101.13  , 3141.24  , 3095.44  , 3123.24  , 3092.18  , 3153.18  , 3122.38 );
                        kernels[98] = compute_kernel(x,   3087.97  , 3060.44  , 3074.39  , 3130.95  , 3076.88  , 3061.93  , 3076.23  , 3087.02  , 3077.43  , 3064.94  , 3074.97  , 3073.0  , 3079.12  , 3079.46  , 3081.99  , 3074.01  , 3088.24  , 3065.09  , 3092.03  , 3078.04  , 3074.56  , 3077.8  , 3092.16  , 3070.14  , 3121.66  , 3063.18  , 3097.49  , 3073.78  , 3101.51  , 3094.21  , 3116.92  , 3085.64 );
                        kernels[99] = compute_kernel(x,   3076.54  , 3099.04  , 3079.08  , 3095.86  , 3089.91  , 3100.54  , 3079.29  , 3098.38  , 3085.23  , 3092.6  , 3086.26  , 3113.47  , 3085.46  , 3104.47  , 3115.8  , 3097.36  , 3087.66  , 3111.79  , 3083.21  , 3089.78  , 3094.27  , 3097.87  , 3089.69  , 3097.12  , 3098.77  , 3100.69  , 3086.38  , 3095.19  , 3086.26  , 3104.01  , 3089.69  , 3101.4 );
                        kernels[100] = compute_kernel(x,   3171.34  , 3178.37  , 3167.94  , 3166.3  , 3154.37  , 3164.26  , 3156.59  , 3169.81  , 3142.08  , 3173.79  , 3153.22  , 3157.88  , 3147.86  , 3170.16  , 3153.07  , 3171.97  , 3147.59  , 3161.53  , 3142.64  , 3160.4  , 3139.7  , 3155.96  , 3162.4  , 3166.13  , 3150.27  , 3156.57  , 3140.8  , 3168.5  , 3183.21  , 3157.06  , 3148.41  , 3164.94 );
                        kernels[101] = compute_kernel(x,   2366.87  , 2353.11  , 2366.35  , 2335.32  , 2358.05  , 2335.95  , 2297.76  , 2212.37  , 2159.02  , 2080.22  , 2084.66  , 2093.84  , 2126.03  , 2144.64  , 2149.01  , 2105.88  , 2117.67  , 2050.17  , 2021.24  , 1956.43  , 1974.15  , 1961.82  , 1957.99  , 2019.41  , 1952.18  , 1952.26  , 1980.54  , 1969.82  , 1986.32  , 1989.03  , 1981.62  , 1965.27 );
                        kernels[102] = compute_kernel(x,   3489.86  , 3452.4  , 3478.21  , 3435.59  , 3448.63  , 3432.37  , 3454.23  , 3429.24  , 3477.03  , 3440.62  , 3445.77  , 3438.68  , 3459.86  , 3438.87  , 3463.29  , 3430.82  , 3453.48  , 3411.13  , 3435.88  , 3413.8  , 3411.01  , 3413.41  , 3412.81  , 3411.71  , 3429.28  , 3390.71  , 3403.38  , 3389.6  , 3407.91  , 3381.62  , 3411.98  , 3391.18 );
                        kernels[103] = compute_kernel(x,   3400.75  , 3419.66  , 3404.4  , 3384.73  , 3414.28  , 3400.02  , 3398.95  , 3413.07  , 3403.85  , 3395.31  , 3413.15  , 3397.06  , 3409.82  , 3402.61  , 3415.31  , 3410.79  , 3401.26  , 3412.35  , 3412.98  , 3399.38  , 3422.22  , 3402.06  , 3413.31  , 3413.62  , 3409.02  , 3402.89  , 3423.53  , 3400.12  , 3415.19  , 3416.8  , 3422.78  , 3400.69 );
                        kernels[104] = compute_kernel(x,   3166.43  , 3155.6  , 3162.92  , 3151.85  , 3167.42  , 3150.04  , 3162.74  , 3149.79  , 3170.95  , 3143.23  , 3167.21  , 3154.42  , 3168.94  , 3144.56  , 3171.72  , 3164.27  , 3192.7  , 3155.58  , 3175.46  , 3151.61  , 3175.88  , 3171.41  , 3172.96  , 3153.72  , 3172.79  , 3151.21  , 3181.05  , 3163.73  , 3169.4  , 3156.73  , 3175.61  , 3158.61 );
                        kernels[105] = compute_kernel(x,   3138.47  , 3163.54  , 3149.82  , 3143.49  , 3151.6  , 3155.14  , 3136.8  , 3147.35  , 3131.05  , 3146.87  , 3143.89  , 3152.77  , 3143.73  , 3143.65  , 3135.44  , 3151.3  , 3199.39  , 3153.15  , 3137.77  , 3143.64  , 3137.78  , 3142.26  , 3135.54  , 3157.0  , 3154.8  , 3146.68  , 3129.07  , 3138.18  , 3133.54  , 3139.82  , 3117.56  , 3166.84 );
                        kernels[106] = compute_kernel(x,   3439.69  , 3431.63  , 3452.35  , 3441.27  , 3469.18  , 3438.24  , 3445.43  , 3431.97  , 3487.97  , 3440.54  , 3443.66  , 3457.62  , 3459.32  , 3434.64  , 3453.82  , 3447.3  , 3457.04  , 3433.53  , 3448.65  , 3432.12  , 3451.36  , 3432.12  , 3451.34  , 3425.66  , 3454.51  , 3436.93  , 3451.04  , 3436.57  , 3448.55  , 3448.04  , 3464.46  , 3433.18 );
                        kernels[107] = compute_kernel(x,   3150.6  , 3146.42  , 3141.92  , 3157.05  , 3164.1  , 3147.07  , 3151.0  , 3151.13  , 3158.21  , 3169.61  , 3147.44  , 3151.37  , 3147.05  , 3147.98  , 3152.37  , 3149.9  , 3152.69  , 3141.39  , 3149.39  , 3152.14  , 3142.91  , 3152.44  , 3150.82  , 3144.57  , 3150.36  , 3156.07  , 3142.79  , 3151.53  , 3151.02  , 3147.24  , 3141.77  , 3149.62 );
                        kernels[108] = compute_kernel(x,   3451.0  , 3455.21  , 3457.92  , 3440.62  , 3433.89  , 3446.76  , 3427.39  , 3447.58  , 3444.2  , 3448.76  , 3420.44  , 3435.66  , 3418.22  , 3411.39  , 3407.45  , 3398.21  , 3385.33  , 3383.22  , 3363.93  , 3359.89  , 3343.62  , 3348.15  , 3322.3  , 3325.25  , 3310.35  , 3309.26  , 3301.83  , 3287.87  , 3262.85  , 3259.19  , 3249.62  , 3248.02 );
                        kernels[109] = compute_kernel(x,   3067.77  , 3088.44  , 3064.17  , 3080.76  , 3081.69  , 3088.59  , 3059.72  , 3095.1  , 3073.19  , 3092.2  , 3076.59  , 3090.78  , 3086.19  , 3096.75  , 3084.32  , 3096.2  , 3088.46  , 3104.5  , 3087.16  , 3106.84  , 3097.72  , 3116.32  , 3094.28  , 3122.92  , 3102.25  , 3118.77  , 3122.36  , 3133.4  , 3118.26  , 3142.11  , 3112.44  , 3138.03 );
                        kernels[110] = compute_kernel(x,   3454.77  , 3454.8  , 3463.52  , 3431.75  , 3455.26  , 3459.02  , 3451.86  , 3434.77  , 3443.52  , 3428.43  , 3447.36  , 3434.18  , 3445.49  , 3432.49  , 3435.8  , 3420.94  , 3446.04  , 3432.18  , 3439.32  , 3423.8  , 3441.42  , 3416.58  , 3436.21  , 3421.2  , 3426.9  , 3406.75  , 3433.82  , 3415.0  , 3434.85  , 3416.67  , 3430.17  , 3419.07 );
                        kernels[111] = compute_kernel(x,   3113.43  , 3116.72  , 3080.97  , 3110.47  , 3095.23  , 3094.51  , 3089.72  , 3098.83  , 3086.99  , 3110.78  , 3087.99  , 3097.86  , 3111.58  , 3101.22  , 3107.45  , 3110.97  , 3089.76  , 3105.28  , 3090.68  , 3118.69  , 3091.49  , 3122.4  , 3105.58  , 3099.42  , 3093.03  , 3105.31  , 3106.76  , 3109.04  , 3094.36  , 3110.11  , 3102.24  , 3122.46 );
                        kernels[112] = compute_kernel(x,   3358.66  , 3371.21  , 3368.13  , 3367.11  , 3373.99  , 3374.63  , 3361.62  , 3364.87  , 3365.08  , 3370.17  , 3357.87  , 3375.89  , 3358.02  , 3371.53  , 3362.45  , 3386.19  , 3359.1  , 3372.05  , 3368.87  , 3370.28  , 3362.19  , 3375.53  , 3383.15  , 3375.72  , 3373.51  , 3376.15  , 3369.39  , 3381.24  , 3362.15  , 3381.31  , 3365.23  , 3367.59 );
                        kernels[113] = compute_kernel(x,   3245.32  , 3279.9  , 3251.21  , 3275.49  , 3253.49  , 3279.68  , 3274.74  , 3305.53  , 3290.64  , 3319.72  , 3312.45  , 3347.8  , 3344.36  , 3370.74  , 3365.47  , 3402.84  , 3390.46  , 3435.61  , 3420.01  , 3443.07  , 3443.34  , 3484.51  , 3466.75  , 3494.2  , 3499.82  , 3521.06  , 3513.05  , 3538.4  , 3539.07  , 3544.5  , 3545.75  , 3564.73 );
                        kernels[114] = compute_kernel(x,   3114.61  , 3153.22  , 3118.42  , 3094.05  , 3116.53  , 3136.4  , 3115.8  , 3138.02  , 3112.82  , 3101.41  , 3126.42  , 3113.95  , 3132.19  , 3120.23  , 3182.86  , 3098.7  , 3190.82  , 3096.46  , 3243.83  , 3094.1  , 3138.13  , 3088.72  , 3105.85  , 3084.31  , 3112.34  , 3075.96  , 3090.98  , 3102.66  , 3085.89  , 3098.66  , 3111.23  , 3069.76 );
                        kernels[115] = compute_kernel(x,   3423.34  , 3395.92  , 3398.59  , 3410.67  , 3415.53  , 3406.05  , 3411.53  , 3413.46  , 3427.82  , 3404.46  , 3407.58  , 3397.83  , 3454.55  , 3429.79  , 3413.28  , 3403.37  , 3420.99  , 3401.37  , 3433.09  , 3425.04  , 3408.94  , 3408.14  , 3420.14  , 3391.21  , 3436.18  , 3397.77  , 3416.18  , 3400.54  , 3446.62  , 3399.19  , 3415.9  , 3401.5 );
                        kernels[116] = compute_kernel(x,   3114.37  , 3088.75  , 3112.51  , 3099.47  , 3116.4  , 3093.2  , 3121.05  , 3093.79  , 3117.74  , 3107.74  , 3123.11  , 3107.26  , 3123.11  , 3108.77  , 3125.31  , 3103.97  , 3128.64  , 3104.61  , 3127.73  , 3110.19  , 3117.56  , 3102.62  , 3120.45  , 3096.63  , 3120.32  , 3101.72  , 3120.27  , 3101.73  , 3124.69  , 3108.07  , 3112.15  , 3102.73 );
                        kernels[117] = compute_kernel(x,   3402.87  , 3382.45  , 3426.46  , 3394.81  , 3400.68  , 3410.13  , 3424.35  , 3403.66  , 3411.34  , 3387.8  , 3399.17  , 3370.42  , 3384.08  , 3370.19  , 3385.3  , 3385.72  , 3386.17  , 3392.57  , 3392.61  , 3373.58  , 3424.94  , 3383.61  , 3395.33  , 3372.17  , 3417.46  , 3370.02  , 3390.06  , 3371.23  , 3393.43  , 3374.69  , 3398.13  , 3372.77 );
                        kernels[118] = compute_kernel(x,   3388.04  , 3376.18  , 3387.16  , 3390.69  , 3393.22  , 3379.55  , 3384.33  , 3383.53  , 3387.19  , 3377.69  , 3403.48  , 3387.39  , 3386.77  , 3393.2  , 3388.65  , 3392.56  , 3395.1  , 3383.69  , 3392.71  , 3387.28  , 3385.52  , 3383.17  , 3405.45  , 3404.1  , 3375.14  , 3372.11  , 3389.08  , 3377.99  , 3382.8  , 3392.68  , 3377.86  , 3378.22 );
                        kernels[119] = compute_kernel(x,   3121.27  , 3104.85  , 3115.17  , 3099.93  , 3120.79  , 3110.29  , 3123.55  , 3102.96  , 3121.3  , 3102.49  , 3143.05  , 3109.46  , 3119.75  , 3109.06  , 3123.54  , 3100.0  , 3127.35  , 3106.37  , 3119.1  , 3105.38  , 3121.1  , 3104.2  , 3124.29  , 3118.68  , 3127.15  , 3104.33  , 3132.56  , 3111.52  , 3125.22  , 3115.77  , 3129.25  , 3108.99 );
                        kernels[120] = compute_kernel(x,   3427.66  , 3445.04  , 3423.73  , 3432.83  , 3425.3  , 3437.98  , 3428.21  , 3432.66  , 3421.87  , 3431.86  , 3429.9  , 3442.4  , 3416.94  , 3452.15  , 3432.78  , 3438.56  , 3434.03  , 3443.59  , 3426.47  , 3444.0  , 3434.53  , 3440.28  , 3435.87  , 3448.04  , 3408.76  , 3463.37  , 3458.77  , 3433.71  , 3420.42  , 3436.87  , 3409.15  , 3434.55 );
                        kernels[121] = compute_kernel(x,   3422.32  , 3427.92  , 3445.09  , 3418.96  , 3439.72  , 3425.16  , 3422.56  , 3429.77  , 3433.31  , 3420.39  , 3437.29  , 3425.71  , 3434.5  , 3438.45  , 3448.05  , 3431.19  , 3451.26  , 3436.97  , 3437.32  , 3434.91  , 3439.73  , 3428.33  , 3434.47  , 3445.27  , 3430.19  , 3428.57  , 3432.66  , 3433.24  , 3436.67  , 3450.82  , 3432.64  , 3430.92 );
                        kernels[122] = compute_kernel(x,   3385.92  , 3392.6  , 3400.87  , 3389.22  , 3402.39  , 3393.03  , 3395.82  , 3389.0  , 3396.55  , 3389.56  , 3392.38  , 3397.07  , 3391.82  , 3387.9  , 3398.81  , 3400.75  , 3393.34  , 3393.53  , 3402.03  , 3399.78  , 3400.65  , 3406.18  , 3403.94  , 3397.05  , 3405.85  , 3395.93  , 3401.15  , 3403.02  , 3401.95  , 3407.54  , 3411.75  , 3400.03 );
                        kernels[123] = compute_kernel(x,   3419.41  , 3415.21  , 3418.63  , 3422.17  , 3415.53  , 3430.23  , 3430.87  , 3422.54  , 3422.73  , 3422.41  , 3419.68  , 3424.95  , 3429.73  , 3421.16  , 3420.68  , 3428.38  , 3424.71  , 3427.07  , 3429.62  , 3426.77  , 3420.62  , 3435.57  , 3426.21  , 3430.06  , 3426.52  , 3434.5  , 3426.42  , 3442.77  , 3436.37  , 3429.14  , 3435.5  , 3434.81 );
                        kernels[124] = compute_kernel(x,   3397.67  , 3401.49  , 3399.76  , 3410.92  , 3402.54  , 3397.82  , 3394.26  , 3402.2  , 3396.87  , 3415.51  , 3388.13  , 3395.26  , 3398.12  , 3388.74  , 3387.9  , 3402.5  , 3381.72  , 3391.04  , 3387.95  , 3385.99  , 3386.54  , 3389.78  , 3413.17  , 3390.32  , 3385.28  , 3384.38  , 3378.15  , 3382.85  , 3385.42  , 3375.66  , 3382.08  , 3381.74 );
                        kernels[125] = compute_kernel(x,   3119.27  , 3181.25  , 3128.27  , 3155.23  , 3118.04  , 3164.16  , 3124.84  , 3142.3  , 3140.67  , 3152.24  , 3133.12  , 3143.92  , 3125.76  , 3153.46  , 3135.38  , 3149.33  , 3132.51  , 3142.43  , 3129.39  , 3133.29  , 3139.95  , 3203.5  , 3139.9  , 3154.16  , 3132.63  , 3142.03  , 3126.73  , 3152.92  , 3117.24  , 3156.16  , 3123.42  , 3146.5 );
                        kernels[126] = compute_kernel(x,   3091.9  , 3073.82  , 3087.46  , 3082.67  , 3109.34  , 3098.68  , 3100.79  , 3084.28  , 3090.28  , 3089.47  , 3086.76  , 3098.75  , 3085.07  , 3091.69  , 3081.89  , 3108.06  , 3109.67  , 3097.97  , 3103.38  , 3100.44  , 3096.39  , 3104.45  , 3094.46  , 3094.19  , 3094.23  , 3107.79  , 3095.14  , 3099.93  , 3108.8  , 3117.79  , 3089.54  , 3103.17 );
                        kernels[127] = compute_kernel(x,   3379.95  , 3359.9  , 3387.47  , 3356.76  , 3379.29  , 3353.77  , 3376.78  , 3348.3  , 3364.5  , 3349.95  , 3367.7  , 3347.18  , 3365.9  , 3367.76  , 3364.51  , 3344.37  , 3369.23  , 3340.33  , 3356.41  , 3347.98  , 3361.6  , 3336.18  , 3360.5  , 3342.78  , 3353.61  , 3354.91  , 3368.96  , 3338.07  , 3363.86  , 3349.2  , 3354.14  , 3343.02 );
                        kernels[128] = compute_kernel(x,   3411.21  , 3422.38  , 3412.43  , 3433.7  , 3423.88  , 3441.19  , 3416.13  , 3490.02  , 3428.42  , 3429.98  , 3404.88  , 3447.02  , 3419.74  , 3416.59  , 3407.12  , 3430.14  , 3409.49  , 3417.46  , 3407.81  , 3425.24  , 3425.07  , 3429.47  , 3418.66  , 3420.46  , 3416.3  , 3429.63  , 3410.04  , 3431.5  , 3420.06  , 3433.44  , 3415.02  , 3436.46 );
                        kernels[129] = compute_kernel(x,   3118.22  , 3141.67  , 3107.41  , 3136.34  , 3141.83  , 3145.03  , 3125.17  , 3132.88  , 3126.51  , 3133.95  , 3122.23  , 3139.58  , 3118.84  , 3138.5  , 3125.09  , 3123.48  , 3119.54  , 3130.21  , 3108.36  , 3131.43  , 3113.94  , 3123.53  , 3114.23  , 3130.81  , 3108.18  , 3126.75  , 3116.45  , 3122.76  , 3119.53  , 3146.72  , 3109.97  , 3127.05 );
                        kernels[130] = compute_kernel(x,   3116.1  , 3118.88  , 3107.3  , 3136.85  , 3113.98  , 3158.01  , 3121.75  , 3123.82  , 3107.13  , 3128.02  , 3110.04  , 3122.97  , 3112.33  , 3123.28  , 3103.22  , 3137.32  , 3124.4  , 3128.92  , 3119.5  , 3123.62  , 3106.18  , 3130.83  , 3109.06  , 3130.44  , 3122.98  , 3190.45  , 3114.37  , 3143.12  , 3108.67  , 3121.89  , 3112.98  , 3135.81 );
                        kernels[131] = compute_kernel(x,   3429.56  , 3453.26  , 3425.49  , 3455.85  , 3444.59  , 3453.12  , 3432.27  , 3459.27  , 3434.71  , 3448.05  , 3440.53  , 3453.37  , 3449.28  , 3462.01  , 3434.9  , 3470.66  , 3447.38  , 3459.11  , 3433.1  , 3464.49  , 3439.89  , 3453.74  , 3444.25  , 3466.29  , 3457.1  , 3478.48  , 3451.97  , 3458.98  , 3446.76  , 3472.05  , 3449.89  , 3467.89 );
                        kernels[132] = compute_kernel(x,   3111.93  , 3103.5  , 3106.47  , 3106.0  , 3114.7  , 3099.82  , 3118.65  , 3104.68  , 3119.21  , 3088.01  , 3116.5  , 3094.21  , 3123.37  , 3090.44  , 3101.15  , 3085.91  , 3105.15  , 3096.23  , 3102.58  , 3113.34  , 3122.1  , 3101.82  , 3101.65  , 3100.81  , 3113.2  , 3097.93  , 3098.13  , 3104.61  , 3118.35  , 3099.36  , 3094.81  , 3092.23 );
                        kernels[133] = compute_kernel(x,   1700.97  , 1715.76  , 1684.9  , 1667.34  , 1695.85  , 1677.7  , 1697.24  , 1666.84  , 1717.62  , 1726.78  , 1762.66  , 1785.6  , 1811.49  , 1815.95  , 1850.84  , 1848.68  , 1860.91  , 1864.52  , 1863.01  , 1843.98  , 1836.08  , 1813.13  , 1805.55  , 1818.84  , 1809.15  , 1803.07  , 1832.4  , 1829.93  , 1850.2  , 1838.62  , 1865.76  , 1823.76 );
                        kernels[134] = compute_kernel(x,   3373.18  , 3386.18  , 3369.67  , 3394.25  , 3368.29  , 3394.85  , 3375.89  , 3393.17  , 3384.78  , 3399.2  , 3374.09  , 3400.41  , 3387.13  , 3400.22  , 3383.91  , 3407.78  , 3388.58  , 3402.16  , 3391.91  , 3415.55  , 3403.64  , 3410.52  , 3390.59  , 3403.32  , 3396.88  , 3418.7  , 3402.54  , 3416.89  , 3404.43  , 3409.43  , 3397.06  , 3435.88 );
                        kernels[135] = compute_kernel(x,   3089.44  , 3118.87  , 3088.64  , 3099.98  , 3120.95  , 3132.3  , 3107.6  , 3100.98  , 3111.57  , 3109.91  , 3104.58  , 3107.01  , 3109.99  , 3098.21  , 3093.17  , 3106.51  , 3090.73  , 3104.99  , 3106.92  , 3102.03  , 3099.35  , 3103.9  , 3272.51  , 3158.53  , 3082.38  , 3091.8  , 3114.74  , 3088.36  , 3078.49  , 3114.73  , 3104.88  , 3075.4 );
                        kernels[136] = compute_kernel(x,   3135.6  , 3159.91  , 3142.04  , 3149.01  , 3131.71  , 3156.33  , 3127.84  , 3149.82  , 3186.34  , 3142.17  , 3127.54  , 3146.44  , 3121.19  , 3148.1  , 3128.11  , 3143.26  , 3132.17  , 3151.65  , 3127.92  , 3142.0  , 3133.29  , 3141.91  , 3117.25  , 3145.98  , 3130.74  , 3148.64  , 3125.25  , 3142.95  , 3143.62  , 3141.47  , 3151.77  , 3148.01 );
                        kernels[137] = compute_kernel(x,   3410.88  , 3394.36  , 3421.11  , 3399.77  , 3404.5  , 3396.31  , 3410.78  , 3393.67  , 3415.79  , 3405.5  , 3407.95  , 3408.53  , 3412.33  , 3387.25  , 3408.39  , 3408.25  , 3404.84  , 3394.4  , 3419.55  , 3399.29  , 3410.44  , 3604.24  , 3800.47  , 3660.41  , 3908.42  , 3781.86  , 3694.21  , 3419.39  , 3441.01  , 3444.46  , 3494.36  , 3445.76 );
                        kernels[138] = compute_kernel(x,   3101.2  , 3093.26  , 3105.8  , 3095.59  , 3105.69  , 3090.4  , 3100.46  , 3089.31  , 3110.6  , 3099.4  , 3123.7  , 3112.52  , 3111.1  , 3099.77  , 3106.85  , 3097.7  , 3107.9  , 3096.44  , 3099.57  , 3107.68  , 3119.45  , 3092.79  , 3108.17  , 3097.08  , 3108.85  , 3115.09  , 3115.19  , 3087.62  , 3109.77  , 3100.8  , 3107.91  , 3109.66 );
                        kernels[139] = compute_kernel(x,   3621.09  , 3613.39  , 3548.92  , 3493.41  , 3399.75  , 3266.44  , 3192.74  , 3128.58  , 3044.88  , 2955.01  , 2958.97  , 3097.82  , 3251.25  , 3514.0  , 3608.05  , 3471.6  , 3235.73  , 3154.9  , 3359.61  , 3863.15  , 4122.81  , 4397.99  , 4475.5  , 4641.54  , 4721.07  , 4924.73  , 4944.97  , 4834.89  , 4420.8  , 3330.72  , 2493.12  , 1831.37 );
                        kernels[140] = compute_kernel(x,   3071.49  , 3075.05  , 3065.47  , 3075.37  , 3072.22  , 3102.0  , 3067.54  , 3084.34  , 3086.47  , 3081.68  , 3067.61  , 3079.52  , 3082.22  , 3083.33  , 3069.9  , 3089.85  , 3084.28  , 3095.18  , 3069.95  , 3102.22  , 3073.13  , 3110.02  , 3081.57  , 3087.74  , 3076.22  , 3095.36  , 3082.69  , 3097.5  , 3085.48  , 3093.53  , 3084.61  , 3095.81 );
                        kernels[141] = compute_kernel(x,   3444.44  , 3437.51  , 3426.53  , 3440.44  , 3447.91  , 3440.01  , 3453.2  , 3434.96  , 3427.92  , 3435.13  , 3441.53  , 3448.2  , 3436.89  , 3434.81  , 3437.13  , 3431.29  , 3459.55  , 3451.49  , 3432.67  , 3449.69  , 3442.0  , 3430.39  , 3438.72  , 3455.03  , 3424.49  , 3442.27  , 3432.3  , 3423.69  , 3431.01  , 3432.26  , 3423.95  , 3426.45 );
                        kernels[142] = compute_kernel(x,   3116.28  , 3105.27  , 3105.92  , 3112.53  , 3113.65  , 3106.48  , 3112.98  , 3113.85  , 3103.02  , 3109.41  , 3118.59  , 3103.19  , 3108.35  , 3119.87  , 3108.35  , 3110.23  , 3108.42  , 3099.21  , 3103.14  , 3110.25  , 3100.75  , 3106.97  , 3115.43  , 3108.47  , 3103.38  , 3107.04  , 3135.89  , 3109.31  , 3123.78  , 3117.1  , 3109.49  , 3124.96 );
                        kernels[143] = compute_kernel(x,   3089.02  , 3078.82  , 3083.9  , 3108.47  , 3102.96  , 3078.76  , 3089.53  , 3094.26  , 3101.19  , 3101.17  , 3117.14  , 3090.59  , 3105.21  , 3093.87  , 3097.25  , 3096.99  , 3099.6  , 3086.47  , 3087.64  , 3106.6  , 3116.77  , 3098.23  , 3095.11  , 3089.07  , 3091.81  , 3112.74  , 3093.19  , 3084.41  , 3094.07  , 3101.67  , 3087.03  , 3116.21 );
                        kernels[144] = compute_kernel(x,   4246.41  , 4242.5  , 4230.16  , 4242.56  , 4237.73  , 4233.73  , 4240.61  , 4240.7  , 4231.22  , 4245.32  , 4239.51  , 4235.95  , 4238.95  , 4248.51  , 4233.17  , 4240.71  , 4250.74  , 4236.62  , 4243.86  , 4248.17  , 4236.45  , 4238.68  , 4249.68  , 4240.75  , 4242.23  , 4255.73  , 4248.3  , 4241.58  , 4257.03  , 4250.33  , 4244.41  , 4250.51 );
                        kernels[145] = compute_kernel(x,   4242.12  , 4232.3  , 4237.22  , 4244.82  , 4238.58  , 4228.97  , 4245.85  , 4241.75  , 4237.27  , 4236.3  , 4244.51  , 4228.76  , 4251.54  , 4239.11  , 4239.84  , 4235.35  , 4254.01  , 4233.57  , 4260.42  , 4249.19  , 4252.12  , 4234.88  , 4258.28  , 4238.72  , 4252.7  , 4245.57  , 4249.21  , 4234.22  , 4258.89  , 4244.01  , 4251.59  , 4262.04 );
                        kernels[146] = compute_kernel(x,   4213.3  , 4222.55  , 4183.72  , 4230.6  , 4180.53  , 4210.87  , 4190.24  , 4211.27  , 4177.68  , 4205.3  , 4196.75  , 4210.76  , 4306.05  , 4250.34  , 4220.51  , 4248.15  , 4196.71  , 4207.22  , 4186.08  , 4225.86  , 4247.07  , 4232.37  , 4198.34  , 4221.98  , 4226.29  , 4320.22  , 4249.27  , 4243.73  , 4206.49  , 4221.49  , 4209.96  , 4272.04 );
                        kernels[147] = compute_kernel(x,   4216.21  , 4220.23  , 4211.09  , 4225.34  , 4207.5  , 4221.05  , 4215.07  , 4213.3  , 4208.44  , 4246.91  , 4204.13  , 4216.71  , 4205.33  , 4212.16  , 4200.6  , 4223.21  , 4206.0  , 4213.3  , 4206.76  , 4225.86  , 4201.57  , 4223.2  , 4210.0  , 4213.26  , 4213.41  , 4232.78  , 4205.23  , 4231.6  , 4220.48  , 4225.99  , 4213.12  , 4240.14 );
                        kernels[148] = compute_kernel(x,   4205.12  , 4233.83  , 4199.78  , 4231.69  , 4212.63  , 4230.7  , 4207.38  , 4234.27  , 4208.23  , 4226.15  , 4208.8  , 4232.33  , 4202.0  , 4231.64  , 4215.5  , 4234.24  , 4212.61  , 4237.17  , 4206.49  , 4236.24  , 4215.49  , 4232.26  , 4216.37  , 4243.43  , 4211.97  , 4233.26  , 4225.57  , 4247.36  , 4221.7  , 4243.88  , 4216.87  , 4235.02 );
                        kernels[149] = compute_kernel(x,   4257.59  , 4274.79  , 4255.96  , 4263.73  , 4262.27  , 4275.23  , 4259.05  , 4271.06  , 4267.68  , 4259.09  , 4266.52  , 4276.85  , 4260.6  , 4265.89  , 4265.95  , 4274.71  , 4266.24  , 4270.27  , 4256.46  , 4274.67  , 4274.31  , 4266.2  , 4265.67  , 4275.34  , 4266.85  , 4274.87  , 4275.96  , 4271.64  , 4264.32  , 4277.1  , 4275.36  , 4266.75 );
                        kernels[150] = compute_kernel(x,   4233.56  , 4260.46  , 4228.74  , 4257.17  , 4235.93  , 4245.31  , 4224.36  , 4259.94  , 4230.99  , 4244.46  , 4237.25  , 4246.29  , 4215.71  , 4261.89  , 4225.43  , 4237.43  , 4232.5  , 4252.55  , 4214.58  , 4245.7  , 4223.04  , 4238.24  , 4222.86  , 4247.51  , 4213.68  , 4240.59  , 4221.71  , 4237.34  , 4216.78  , 4245.36  , 4213.51  , 4234.24 );
                        kernels[151] = compute_kernel(x,   4244.62  , 4249.77  , 4245.24  , 4246.78  , 4255.8  , 4243.37  , 4249.12  , 4253.97  , 4249.75  , 4249.87  , 4259.0  , 4259.39  , 4246.37  , 4251.6  , 4253.81  , 4248.7  , 4253.4  , 4251.15  , 4250.99  , 4258.43  , 4257.65  , 4245.43  , 4256.76  , 4254.91  , 4261.26  , 4255.3  , 4252.58  , 4261.23  , 4259.48  , 4262.59  , 4258.47  , 4261.74 );
                        kernels[152] = compute_kernel(x,   4196.92  , 4219.33  , 4201.68  , 4219.72  , 4195.48  , 4227.07  , 4197.91  , 4217.4  , 4204.35  , 4218.62  , 4195.43  , 4224.38  , 4198.33  , 4211.64  , 4205.67  , 4221.55  , 4210.2  , 4227.69  , 4206.52  , 4221.34  , 4204.98  , 4232.08  , 4198.84  , 4229.06  , 4212.81  , 4252.01  , 4205.18  , 4230.65  , 4206.21  , 4224.22  , 4207.75  , 4218.79 );
                        kernels[153] = compute_kernel(x,   4237.75  , 4221.13  , 4214.87  , 4220.91  , 4230.09  , 4211.28  , 4219.16  , 4224.48  , 4224.42  , 4213.59  , 4217.52  , 4203.78  , 4212.62  , 4213.23  , 4214.34  , 4200.81  , 4218.36  , 4231.89  , 4270.5  , 4248.69  , 4218.79  , 4196.63  , 4215.0  , 4220.91  , 4218.48  , 4221.71  , 4233.16  , 4224.19  , 4213.76  , 4209.54  , 4197.04  , 4204.18 );
                        kernels[154] = compute_kernel(x,   4221.24  , 4196.7  , 4207.01  , 4197.52  , 4219.48  , 4185.79  , 4222.22  , 4200.18  , 4214.29  , 4198.62  , 4226.94  , 4200.55  , 4222.12  , 4207.82  , 4214.4  , 4207.05  , 4231.04  , 4202.74  , 4224.81  , 4215.0  , 4231.23  , 4209.65  , 4233.67  , 4211.55  , 4236.92  , 4218.18  , 4235.52  , 4208.98  , 4237.12  , 4220.17  , 4228.28  , 4218.35 );
                        kernels[155] = compute_kernel(x,   4245.8  , 4264.44  , 4254.8  , 4263.1  , 4249.05  , 4274.34  , 4250.54  , 4262.35  , 4251.76  , 4262.74  , 4243.73  , 4271.38  , 4250.03  , 4258.41  , 4253.71  , 4264.35  , 4247.93  , 4274.09  , 4257.94  , 4265.02  , 4250.14  , 4273.08  , 4249.28  , 4273.98  , 4257.75  , 4267.43  , 4253.85  , 4277.09  , 4250.88  , 4273.02  , 4259.05  , 4269.18 );
                        kernels[156] = compute_kernel(x,   4227.84  , 4253.54  , 4235.58  , 4242.03  , 4232.86  , 4249.65  , 4224.24  , 4245.81  , 4231.58  , 4238.0  , 4221.5  , 4252.06  , 4220.34  , 4238.75  , 4234.53  , 4240.47  , 4223.03  , 4254.57  , 4224.42  , 4238.12  , 4232.0  , 4248.19  , 4222.12  , 4252.21  , 4232.49  , 4241.44  , 4227.88  , 4251.11  , 4218.14  , 4246.38  , 4232.37  , 4240.59 );
                        kernels[157] = compute_kernel(x,   4205.62  , 4211.04  , 4204.63  , 4221.75  , 4197.44  , 4221.91  , 4200.1  , 4214.09  , 4217.24  , 4220.43  , 4196.49  , 4231.63  , 4205.8  , 4219.52  , 4214.55  , 4234.67  , 4199.05  , 4228.0  , 4216.52  , 4220.99  , 4210.12  , 4234.95  , 4202.36  , 4227.87  , 4213.07  , 4228.06  , 4211.19  , 4238.16  , 4209.26  , 4231.55  , 4212.21  , 4230.29 );
                        kernels[158] = compute_kernel(x,   4230.7  , 4213.83  , 4230.95  , 4224.09  , 4226.25  , 4227.98  , 4235.55  , 4211.91  , 4236.89  , 4223.94  , 4227.32  , 4227.76  , 4233.23  , 4214.75  , 4230.1  , 4220.2  , 4234.1  , 4216.83  , 4233.48  , 4207.06  , 4230.35  , 4213.64  , 4230.02  , 4210.93  , 4223.9  , 4208.1  , 4225.4  , 4208.45  , 4229.07  , 4203.79  , 4221.33  , 4212.74 );
                        kernels[159] = compute_kernel(x,   4191.45  , 4184.74  , 4195.89  , 4171.24  , 4200.11  , 4174.3  , 4190.05  , 4180.09  , 4204.18  , 4172.17  , 4211.2  , 4188.32  , 4201.95  , 4192.3  , 4223.02  , 4195.84  , 4232.27  , 4213.6  , 4216.25  , 4198.02  , 4226.8  , 4194.77  , 4216.66  , 4205.19  , 4225.24  , 4195.87  , 4225.0  , 4196.08  , 4211.74  , 4201.97  , 4220.77  , 4202.1 );
                        kernels[160] = compute_kernel(x,   4201.96  , 4181.97  , 4197.31  , 4190.13  , 4210.51  , 4171.47  , 4205.27  , 4194.66  , 4203.33  , 4187.84  , 4217.63  , 4179.52  , 4203.79  , 4193.71  , 4210.07  , 4185.9  , 4222.46  , 4187.67  , 4206.05  , 4206.81  , 4227.72  , 4194.32  , 4219.37  , 4195.66  , 4220.57  , 4191.98  , 4218.78  , 4189.65  , 4214.05  , 4191.94  , 4212.43  , 4194.17 );
                        kernels[161] = compute_kernel(x,   4231.12  , 4242.3  , 4244.32  , 4246.47  , 4230.28  , 4250.92  , 4231.26  , 4240.75  , 4238.1  , 4244.4  , 4226.31  , 4241.26  , 4228.45  , 4234.88  , 4231.82  , 4241.98  , 4220.09  , 4232.7  , 4227.56  , 4228.27  , 4225.45  , 4236.19  , 4214.83  , 4228.56  , 4222.78  , 4227.65  , 4219.5  , 4234.15  , 4211.23  , 4220.28  , 4226.77  , 4225.08 );
                        kernels[162] = compute_kernel(x,   4253.97  , 4204.8  , 4221.72  , 4191.76  , 4228.9  , 4203.38  , 4213.8  , 4198.28  , 4224.5  , 4187.46  , 4211.41  , 4212.79  , 4216.88  , 4194.8  , 4239.49  , 4188.15  , 4211.81  , 4201.38  , 4210.92  , 4196.59  , 4213.09  , 4204.98  , 4224.73  , 4185.32  , 4225.21  , 4195.98  , 4209.69  , 4187.29  , 4207.12  , 4186.07  , 4212.12  , 4181.26 );
                        kernels[163] = compute_kernel(x,   4208.88  , 4229.53  , 4217.14  , 4241.39  , 4209.3  , 4235.73  , 4220.17  , 4232.28  , 4222.45  , 4241.98  , 4216.0  , 4239.55  , 4223.64  , 4232.49  , 4227.63  , 4242.95  , 4219.68  , 4233.9  , 4235.24  , 4233.24  , 4230.88  , 4243.8  , 4214.73  , 4240.39  , 4227.26  , 4241.78  , 4218.8  , 4254.2  , 4221.76  , 4234.6  , 4225.59  , 4245.75 );
                        kernels[164] = compute_kernel(x,   4236.32  , 4210.78  , 4250.79  , 4217.01  , 4228.36  , 4214.35  , 4250.88  , 4214.63  , 4231.8  , 4221.36  , 4229.92  , 4213.58  , 4239.83  , 4216.39  , 4242.79  , 4220.17  , 4227.39  , 4212.4  , 4241.28  , 4205.87  , 4225.11  , 4215.91  , 4232.04  , 4213.66  , 4223.47  , 4212.45  , 4216.92  , 4214.31  , 4225.72  , 4200.45  , 4223.13  , 4213.94 );
                        kernels[165] = compute_kernel(x,   4198.4  , 4195.38  , 4207.67  , 4186.52  , 4209.22  , 4202.97  , 4198.01  , 4185.61  , 4204.85  , 4193.75  , 4195.56  , 4199.63  , 4215.57  , 4197.52  , 4214.08  , 4202.59  , 4209.51  , 4217.74  , 4205.19  , 4193.38  , 4201.98  , 4200.63  , 4201.73  , 4194.76  , 4206.53  , 4191.05  , 4205.41  , 4204.33  , 4194.97  , 4191.09  , 4209.39  , 4196.59 );
                        kernels[166] = compute_kernel(x,   4256.77  , 4277.91  , 4268.7  , 4276.32  , 4258.11  , 4290.02  , 4255.18  , 4271.25  , 4265.12  , 4274.23  , 4250.49  , 4278.17  , 4257.35  , 4268.9  , 4258.95  , 4279.06  , 4252.58  , 4276.53  , 4260.77  , 4268.83  , 4255.82  , 4276.12  , 4256.18  , 4267.78  , 4259.77  , 4267.07  , 4252.33  , 4272.39  , 4251.21  , 4263.82  , 4256.11  , 4265.77 );
                        kernels[167] = compute_kernel(x,   4235.2  , 4231.62  , 4244.11  , 4227.54  , 4245.16  , 4238.63  , 4238.02  , 4232.02  , 4248.13  , 4221.05  , 4246.55  , 4236.74  , 4244.3  , 4226.6  , 4253.53  , 4230.9  , 4248.3  , 4239.96  , 4245.16  , 4233.53  , 4259.35  , 4240.78  , 4264.06  , 4240.79  , 4246.15  , 4242.88  , 4259.06  , 4246.85  , 4251.02  , 4248.8  , 4263.42  , 4243.11 );
                        kernels[168] = compute_kernel(x,   4182.9  , 4192.96  , 4169.91  , 4200.83  , 4175.18  , 4191.5  , 4175.95  , 4194.64  , 4163.99  , 4192.99  , 4172.76  , 4181.39  , 4171.37  , 4190.3  , 4160.48  , 4190.07  , 4168.62  , 4181.58  , 4162.76  , 4191.07  , 4159.2  , 4186.22  , 4170.39  , 4184.07  , 4159.39  , 4188.35  , 4158.93  , 4181.56  , 4172.13  , 4183.85  , 4160.05  , 4191.85 );
                        kernels[169] = compute_kernel(x,   4161.71  , 4179.06  , 4174.78  , 4175.05  , 4166.65  , 4193.2  , 4179.78  , 4182.77  , 4179.99  , 4187.54  , 4174.84  , 4193.07  , 4184.58  , 4182.08  , 4184.19  , 4195.4  , 4179.71  , 4196.38  , 4193.31  , 4194.72  , 4179.62  , 4202.12  , 4183.38  , 4195.56  , 4190.7  , 4199.3  , 4184.28  , 4208.21  , 4189.04  , 4197.58  , 4201.91  , 4209.34 );
                        kernels[170] = compute_kernel(x,   4281.52  , 4268.8  , 4282.28  , 4256.94  , 4276.78  , 4277.04  , 4274.19  , 4263.76  , 4285.99  , 4254.0  , 4274.82  , 4274.28  , 4272.36  , 4258.18  , 4280.09  , 4260.54  , 4270.34  , 4267.64  , 4276.92  , 4252.32  , 4285.03  , 4257.06  , 4269.08  , 4259.17  , 4276.85  , 4250.48  , 4276.09  , 4259.75  , 4266.36  , 4271.5  , 4285.29  , 4258.85 );
                        kernels[171] = compute_kernel(x,   4227.42  , 4245.23  , 4245.24  , 4246.41  , 4221.92  , 4253.46  , 4231.33  , 4230.84  , 4224.09  , 4243.44  , 4213.79  , 4251.34  , 4220.3  , 4233.28  , 4217.54  , 4240.32  , 4212.7  , 4242.23  , 4219.69  , 4234.46  , 4222.58  , 4239.31  , 4216.62  , 4240.5  , 4218.71  , 4229.11  , 4207.89  , 4241.06  , 4215.42  , 4228.3  , 4220.9  , 4236.88 );
                        kernels[172] = compute_kernel(x,   4244.74  , 4219.73  , 4231.1  , 4219.27  , 4236.33  , 4202.39  , 4237.44  , 4214.09  , 4224.41  , 4201.87  , 4233.1  , 4205.39  , 4229.34  , 4215.33  , 4226.68  , 4196.37  , 4234.05  , 4200.1  , 4215.97  , 4207.6  , 4222.68  , 4188.81  , 4223.55  , 4201.47  , 4214.6  , 4203.78  , 4228.2  , 4195.41  , 4225.45  , 4203.17  , 4216.56  , 4195.32 );
                        kernels[173] = compute_kernel(x,   4235.55  , 4238.91  , 4224.27  , 4234.89  , 4229.02  , 4224.42  , 4233.6  , 4221.21  , 4220.8  , 4224.98  , 4227.6  , 4218.52  , 4221.16  , 4219.78  , 4212.51  , 4219.66  , 4221.49  , 4206.99  , 4218.83  , 4218.53  , 4213.15  , 4212.7  , 4218.4  , 4211.56  , 4214.53  , 4219.6  , 4210.83  , 4213.21  , 4219.78  , 4214.01  , 4209.07  , 4222.66 );
                        kernels[174] = compute_kernel(x,   4192.8  , 4223.65  , 4207.22  , 4224.58  , 4205.57  , 4233.44  , 4199.5  , 4221.27  , 4215.79  , 4228.5  , 4205.29  , 4231.86  , 4202.98  , 4228.08  , 4215.19  , 4232.38  , 4209.26  , 4234.65  , 4208.69  , 4227.48  , 4218.63  , 4239.8  , 4216.34  , 4238.01  , 4220.62  , 4234.17  , 4218.04  , 4239.35  , 4204.6  , 4236.22  , 4218.28  , 4228.68 );
                        kernels[175] = compute_kernel(x,   4252.89  , 4224.24  , 4254.03  , 4233.21  , 4248.95  , 4223.48  , 4257.66  , 4234.2  , 4247.04  , 4226.76  , 4254.49  , 4219.85  , 4251.16  , 4229.74  , 4244.78  , 4232.79  , 4253.91  , 4222.47  , 4254.34  , 4237.82  , 4250.72  , 4229.12  , 4266.29  , 4229.96  , 4249.73  , 4237.16  , 4258.55  , 4225.0  , 4261.78  , 4241.55  , 4249.4  , 4240.67 );
                        kernels[176] = compute_kernel(x,   4211.93  , 4228.79  , 4216.82  , 4218.64  , 4226.4  , 4224.06  , 4206.1  , 4229.31  , 4221.19  , 4211.14  , 4213.52  , 4216.36  , 4214.76  , 4212.74  , 4210.41  , 4204.56  , 4201.19  , 4219.3  , 4196.87  , 4208.71  , 4210.65  , 4205.97  , 4199.25  , 4216.2  , 4214.08  , 4213.07  , 4209.51  , 4208.91  , 4198.47  , 4216.47  , 4208.25  , 4207.63 );
                        kernels[177] = compute_kernel(x,   4228.14  , 4237.04  , 4225.15  , 4239.8  , 4213.5  , 4230.56  , 4224.5  , 4226.36  , 4221.05  , 4242.92  , 4214.78  , 4226.78  , 4223.29  , 4226.73  , 4211.09  , 4237.73  , 4222.82  , 4225.41  , 4219.05  , 4226.47  , 4196.95  , 4229.09  , 4205.4  , 4205.46  , 4214.69  , 4216.49  , 4206.06  , 4209.16  , 4193.2  , 4202.67  , 4187.72  , 4218.78 );
                        kernels[178] = compute_kernel(x,   4198.44  , 4192.93  , 4186.88  , 4198.63  , 4183.55  , 4201.91  , 4188.06  , 4194.02  , 4211.64  , 4192.98  , 4177.28  , 4186.56  , 4186.51  , 4194.79  , 4180.48  , 4193.07  , 4176.53  , 4180.56  , 4177.39  , 4187.03  , 4163.68  , 4176.42  , 4170.62  , 4169.64  , 4159.96  , 4179.6  , 4173.09  , 4171.49  , 4168.01  , 4173.94  , 4167.46  , 4181.02 );
                        kernels[179] = compute_kernel(x,   4267.3  , 4236.35  , 4253.42  , 4243.31  , 4265.22  , 4235.17  , 4262.73  , 4241.51  , 4254.73  , 4239.43  , 4268.61  , 4232.17  , 4258.39  , 4246.93  , 4256.48  , 4238.92  , 4267.75  , 4230.98  , 4253.04  , 4251.87  , 4256.3  , 4234.52  , 4260.43  , 4237.5  , 4250.41  , 4241.39  , 4257.59  , 4224.66  , 4260.05  , 4234.87  , 4250.64  , 4234.74 );
                        decisions[0] = -0.0
                        + kernels[0]
                        + kernels[1]
                        + kernels[2]
                        + kernels[3]
                        + kernels[4]
                        + kernels[5]
                        + kernels[6]
                        + kernels[7]
                        + kernels[8]
                        + kernels[9]
                        + kernels[10]
                        + kernels[11]
                        + kernels[12]
                        + kernels[13]
                        + kernels[14]
                        + kernels[15]
                        + kernels[16]
                        + kernels[17]
                        + kernels[18]
                        + kernels[19]
                        + kernels[20]
                        + kernels[21]
                        + kernels[22]
                        + kernels[23]
                        + kernels[24]
                        + kernels[25]
                        + kernels[26]
                        + kernels[27]
                        + kernels[28]
                        + kernels[29]
                        + kernels[30]
                        + kernels[31]
                        + kernels[32]
                        + kernels[33]
                        + kernels[34]
                        + kernels[35]
                        + kernels[36]
                        + kernels[37]
                        + kernels[38]
                        + kernels[39]
                        + kernels[40]
                        + kernels[41]
                        + kernels[42]
                        + kernels[43]
                        + kernels[44]
                        + kernels[45]
                        + kernels[46]
                        + kernels[47]
                        + kernels[48]
                        + kernels[49]
                        + kernels[50]
                        + kernels[51]
                        + kernels[52]
                        + kernels[53]
                        + kernels[54]
                        + kernels[55]
                        + kernels[56]
                        + kernels[57]
                        + kernels[58]
                        + kernels[59]
                        + kernels[60]
                        + kernels[61]
                        + kernels[62]
                        + kernels[63]
                        + kernels[64]
                        + kernels[65]
                        + kernels[66]
                        + kernels[67]
                        + kernels[68]
                        + kernels[69]
                        + kernels[70]
                        + kernels[71]
                        - kernels[72]
                        - kernels[73]
                        - kernels[74]
                        - kernels[75]
                        - kernels[76]
                        - kernels[77]
                        - kernels[78]
                        - kernels[79]
                        - kernels[80]
                        - kernels[81]
                        - kernels[82]
                        - kernels[83]
                        - kernels[84]
                        - kernels[85]
                        - kernels[86]
                        - kernels[87]
                        - kernels[88]
                        - kernels[89]
                        - kernels[90]
                        - kernels[91]
                        - kernels[92]
                        - kernels[93]
                        - kernels[94]
                        - kernels[95]
                        - kernels[96]
                        - kernels[97]
                        - kernels[98]
                        - kernels[99]
                        - kernels[100]
                        - kernels[101]
                        - kernels[102]
                        - kernels[103]
                        - kernels[104]
                        - kernels[105]
                        - kernels[106]
                        - kernels[107]
                        - kernels[108]
                        - kernels[109]
                        - kernels[110]
                        - kernels[111]
                        - kernels[112]
                        - kernels[113]
                        - kernels[114]
                        - kernels[115]
                        - kernels[116]
                        - kernels[117]
                        - kernels[118]
                        - kernels[119]
                        - kernels[120]
                        - kernels[121]
                        - kernels[122]
                        - kernels[123]
                        - kernels[124]
                        - kernels[125]
                        - kernels[126]
                        - kernels[127]
                        - kernels[128]
                        - kernels[129]
                        - kernels[130]
                        - kernels[131]
                        - kernels[132]
                        - kernels[133]
                        - kernels[134]
                        - kernels[135]
                        - kernels[136]
                        - kernels[137]
                        - kernels[138]
                        - kernels[139]
                        - kernels[140]
                        - kernels[141]
                        - kernels[142]
                        - kernels[143]
                        ;
                        decisions[1] = 0.5
                        + kernels[0] * 0.5
                        + kernels[1] * 0.5
                        + kernels[2] * 0.5
                        + kernels[3] * 0.5
                        + kernels[4] * 0.5
                        + kernels[5] * 0.5
                        + kernels[6] * 0.5
                        + kernels[7] * 0.5
                        + kernels[8] * 0.5
                        + kernels[9] * 0.5
                        + kernels[10] * 0.5
                        + kernels[11] * 0.5
                        + kernels[12] * 0.5
                        + kernels[13] * 0.5
                        + kernels[14] * 0.5
                        + kernels[15] * 0.5
                        + kernels[16] * 0.5
                        + kernels[17] * 0.5
                        + kernels[18] * 0.5
                        + kernels[19] * 0.5
                        + kernels[20] * 0.5
                        + kernels[21] * 0.5
                        + kernels[22] * 0.5
                        + kernels[23] * 0.5
                        + kernels[24] * 0.5
                        + kernels[25] * 0.5
                        + kernels[26] * 0.5
                        + kernels[27] * 0.5
                        + kernels[28] * 0.5
                        + kernels[29] * 0.5
                        + kernels[30] * 0.5
                        + kernels[31] * 0.5
                        + kernels[32] * 0.5
                        + kernels[33] * 0.5
                        + kernels[34] * 0.5
                        + kernels[35] * 0.5
                        + kernels[36] * 0.5
                        + kernels[37] * 0.5
                        + kernels[38] * 0.5
                        + kernels[39] * 0.5
                        + kernels[40] * 0.5
                        + kernels[41] * 0.5
                        + kernels[42] * 0.5
                        + kernels[43] * 0.5
                        + kernels[44] * 0.5
                        + kernels[45] * 0.5
                        + kernels[46] * 0.5
                        + kernels[47] * 0.5
                        + kernels[48] * 0.5
                        + kernels[49] * 0.5
                        + kernels[50] * 0.5
                        + kernels[51] * 0.5
                        + kernels[52] * 0.5
                        + kernels[53] * 0.5
                        + kernels[54] * 0.5
                        + kernels[55] * 0.5
                        + kernels[56] * 0.5
                        + kernels[57] * 0.5
                        + kernels[58] * 0.5
                        + kernels[59] * 0.5
                        + kernels[60] * 0.5
                        + kernels[61] * 0.5
                        + kernels[62] * 0.5
                        + kernels[63] * 0.5
                        + kernels[64] * 0.5
                        + kernels[65] * 0.5
                        + kernels[66] * 0.5
                        + kernels[67] * 0.5
                        + kernels[68] * 0.5
                        + kernels[69] * 0.5
                        + kernels[70] * 0.5
                        + kernels[71] * 0.5
                        - kernels[144]
                        - kernels[145]
                        - kernels[146]
                        - kernels[147]
                        - kernels[148]
                        - kernels[149]
                        - kernels[150]
                        - kernels[151]
                        - kernels[152]
                        - kernels[153]
                        - kernels[154]
                        - kernels[155]
                        - kernels[156]
                        - kernels[157]
                        - kernels[158]
                        - kernels[159]
                        - kernels[160]
                        - kernels[161]
                        - kernels[162]
                        - kernels[163]
                        - kernels[164]
                        - kernels[165]
                        - kernels[166]
                        - kernels[167]
                        - kernels[168]
                        - kernels[169]
                        - kernels[170]
                        - kernels[171]
                        - kernels[172]
                        - kernels[173]
                        - kernels[174]
                        - kernels[175]
                        - kernels[176]
                        - kernels[177]
                        - kernels[178]
                        - kernels[179]
                        ;
                        decisions[2] = 0.5
                        + kernels[72] * 0.5
                        + kernels[73] * 0.5
                        + kernels[74] * 0.5
                        + kernels[75] * 0.5
                        + kernels[76] * 0.5
                        + kernels[77] * 0.5
                        + kernels[78] * 0.5
                        + kernels[79] * 0.5
                        + kernels[80] * 0.5
                        + kernels[81] * 0.5
                        + kernels[82] * 0.5
                        + kernels[83] * 0.5
                        + kernels[84] * 0.5
                        + kernels[85] * 0.5
                        + kernels[86] * 0.5
                        + kernels[87] * 0.5
                        + kernels[88] * 0.5
                        + kernels[89] * 0.5
                        + kernels[90] * 0.5
                        + kernels[91] * 0.5
                        + kernels[92] * 0.5
                        + kernels[93] * 0.5
                        + kernels[94] * 0.5
                        + kernels[95] * 0.5
                        + kernels[96] * 0.5
                        + kernels[97] * 0.5
                        + kernels[98] * 0.5
                        + kernels[99] * 0.5
                        + kernels[100] * 0.5
                        + kernels[101] * 0.5
                        + kernels[102] * 0.5
                        + kernels[103] * 0.5
                        + kernels[104] * 0.5
                        + kernels[105] * 0.5
                        + kernels[106] * 0.5
                        + kernels[107] * 0.5
                        + kernels[108] * 0.5
                        + kernels[109] * 0.5
                        + kernels[110] * 0.5
                        + kernels[111] * 0.5
                        + kernels[112] * 0.5
                        + kernels[113] * 0.5
                        + kernels[114] * 0.5
                        + kernels[115] * 0.5
                        + kernels[116] * 0.5
                        + kernels[117] * 0.5
                        + kernels[118] * 0.5
                        + kernels[119] * 0.5
                        + kernels[120] * 0.5
                        + kernels[121] * 0.5
                        + kernels[122] * 0.5
                        + kernels[123] * 0.5
                        + kernels[124] * 0.5
                        + kernels[125] * 0.5
                        + kernels[126] * 0.5
                        + kernels[127] * 0.5
                        + kernels[128] * 0.5
                        + kernels[129] * 0.5
                        + kernels[130] * 0.5
                        + kernels[131] * 0.5
                        + kernels[132] * 0.5
                        + kernels[133] * 0.5
                        + kernels[134] * 0.5
                        + kernels[135] * 0.5
                        + kernels[136] * 0.5
                        + kernels[137] * 0.5
                        + kernels[138] * 0.5
                        + kernels[139] * 0.5
                        + kernels[140] * 0.5
                        + kernels[141] * 0.5
                        + kernels[142] * 0.5
                        + kernels[143] * 0.5
                        - kernels[144]
                        - kernels[145]
                        - kernels[146]
                        - kernels[147]
                        - kernels[148]
                        - kernels[149]
                        - kernels[150]
                        - kernels[151]
                        - kernels[152]
                        - kernels[153]
                        - kernels[154]
                        - kernels[155]
                        - kernels[156]
                        - kernels[157]
                        - kernels[158]
                        - kernels[159]
                        - kernels[160]
                        - kernels[161]
                        - kernels[162]
                        - kernels[163]
                        - kernels[164]
                        - kernels[165]
                        - kernels[166]
                        - kernels[167]
                        - kernels[168]
                        - kernels[169]
                        - kernels[170]
                        - kernels[171]
                        - kernels[172]
                        - kernels[173]
                        - kernels[174]
                        - kernels[175]
                        - kernels[176]
                        - kernels[177]
                        - kernels[178]
                        - kernels[179]
                        ;
                        votes[decisions[0] > 0 ? 0 : 1] += 1;
                        votes[decisions[1] > 0 ? 0 : 2] += 1;
                        votes[decisions[2] > 0 ? 1 : 2] += 1;
                        int val = votes[0];
                        int idx = 0;

                        for (int i = 1; i < 3; i++) {
                            if (votes[i] > val) {
                                val = votes[i];
                                idx = i;
                            }
                        }

                        return idx;
                    }

                protected:
                    /**
                    * Compute kernel between feature vector and support vector.
                    * Kernel type: rbf
                    */
                    float compute_kernel(float *x, ...) {
                        va_list w;
                        va_start(w, 32);
                        float kernel = 0.0;

                        for (uint16_t i = 0; i < 32; i++) {
                            kernel += pow(x[i] - va_arg(w, double), 2);
                        }

                        return exp(-0.05 * kernel);
                    }
                };
            }
        }
    }