#pragma once
#include <cstdarg>
namespace Eloquent {
    namespace ML {
        namespace Port {
            class DecisionTree {
                public:
                    /**
                    * Predict class for features vector
                    */
                    int predict(float *x) {
                        if (x[16] <= 2.122604012489319) {
                            if (x[10] <= -0.18205661326646805) {
                                if (x[2] <= 0.3859654814004898) {
                                    if (x[6] <= -0.573891818523407) {
                                        if (x[15] <= -0.4903387725353241) {
                                            return 0;
                                        }

                                        else {
                                            if (x[12] <= -0.43486620485782623) {
                                                if (x[20] <= -0.48724769055843353) {
                                                    if (x[2] <= -0.2300921082496643) {
                                                        return 1;
                                                    }

                                                    else {
                                                        return 2;
                                                    }
                                                }

                                                else {
                                                    return 3;
                                                }
                                            }

                                            else {
                                                if (x[0] <= 0.37068377435207367) {
                                                    if (x[21] <= -0.30966717004776) {
                                                        if (x[4] <= -0.9250824749469757) {
                                                            if (x[15] <= -0.19355354458093643) {
                                                                return 1;
                                                            }

                                                            else {
                                                                if (x[5] <= -0.7640059888362885) {
                                                                    return 3;
                                                                }

                                                                else {
                                                                    return 4;
                                                                }
                                                            }
                                                        }

                                                        else {
                                                            return 0;
                                                        }
                                                    }

                                                    else {
                                                        if (x[23] <= -0.2675415500998497) {
                                                            return 3;
                                                        }

                                                        else {
                                                            if (x[1] <= -0.6377941817045212) {
                                                                return 2;
                                                            }

                                                            else {
                                                                return 1;
                                                            }
                                                        }
                                                    }
                                                }

                                                else {
                                                    if (x[10] <= -0.36161938309669495) {
                                                        return 3;
                                                    }

                                                    else {
                                                        return 2;
                                                    }
                                                }
                                            }
                                        }
                                    }

                                    else {
                                        if (x[3] <= -0.2823847383260727) {
                                            if (x[0] <= 0.307705357670784) {
                                                if (x[30] <= 0.012277526780962944) {
                                                    if (x[5] <= -0.6533990800380707) {
                                                        if (x[4] <= -0.5650964379310608) {
                                                            return 2;
                                                        }

                                                        else {
                                                            return 1;
                                                        }
                                                    }

                                                    else {
                                                        if (x[2] <= -0.42360393702983856) {
                                                            if (x[3] <= -0.36794158816337585) {
                                                                return 4;
                                                            }

                                                            else {
                                                                return 2;
                                                            }
                                                        }

                                                        else {
                                                            if (x[23] <= -0.3308779150247574) {
                                                                return 1;
                                                            }

                                                            else {
                                                                return 2;
                                                            }
                                                        }
                                                    }
                                                }

                                                else {
                                                    if (x[17] <= -0.04752663383260369) {
                                                        if (x[16] <= -0.43926674127578735) {
                                                            if (x[27] <= 0.3583953082561493) {
                                                                return 4;
                                                            }

                                                            else {
                                                                return 0;
                                                            }
                                                        }

                                                        else {
                                                            return 1;
                                                        }
                                                    }

                                                    else {
                                                        return 0;
                                                    }
                                                }
                                            }

                                            else {
                                                if (x[26] <= -0.46029217541217804) {
                                                    return 3;
                                                }

                                                else {
                                                    if (x[2] <= 0.25488191097974777) {
                                                        return 2;
                                                    }

                                                    else {
                                                        return 0;
                                                    }
                                                }
                                            }
                                        }

                                        else {
                                            if (x[3] <= 0.5306032598018646) {
                                                if (x[1] <= 0.6341637670993805) {
                                                    if (x[21] <= 0.5942791402339935) {
                                                        if (x[9] <= -0.36632584035396576) {
                                                            if (x[4] <= 0.08255519531667233) {
                                                                if (x[7] <= -0.202748641371727) {
                                                                    if (x[1] <= -0.2503315806388855) {
                                                                        if (x[7] <= -0.40824365615844727) {
                                                                            return 3;
                                                                        }

                                                                        else {
                                                                            return 1;
                                                                        }
                                                                    }

                                                                    else {
                                                                        return 0;
                                                                    }
                                                                }

                                                                else {
                                                                    if (x[28] <= -0.20240510255098343) {
                                                                        if (x[14] <= -0.36443372070789337) {
                                                                            return 2;
                                                                        }

                                                                        else {
                                                                            return 0;
                                                                        }
                                                                    }

                                                                    else {
                                                                        return 1;
                                                                    }
                                                                }
                                                            }

                                                            else {
                                                                if (x[14] <= -0.4178801327943802) {
                                                                    return 1;
                                                                }

                                                                else {
                                                                    return 3;
                                                                }
                                                            }
                                                        }

                                                        else {
                                                            if (x[21] <= -0.34298577904701233) {
                                                                if (x[6] <= 0.5123054683208466) {
                                                                    return 2;
                                                                }

                                                                else {
                                                                    return 0;
                                                                }
                                                            }

                                                            else {
                                                                if (x[28] <= -0.5189778208732605) {
                                                                    return 1;
                                                                }

                                                                else {
                                                                    return 0;
                                                                }
                                                            }
                                                        }
                                                    }

                                                    else {
                                                        return 1;
                                                    }
                                                }

                                                else {
                                                    if (x[12] <= -0.20672445744276047) {
                                                        return 2;
                                                    }

                                                    else {
                                                        return 4;
                                                    }
                                                }
                                            }

                                            else {
                                                return 3;
                                            }
                                        }
                                    }
                                }

                                else {
                                    if (x[9] <= -0.1414695754647255) {
                                        if (x[8] <= -0.22947994619607925) {
                                            if (x[1] <= 2.6160476207733154) {
                                                if (x[9] <= -0.5554473102092743) {
                                                    return 2;
                                                }

                                                else {
                                                    if (x[16] <= -0.49844159185886383) {
                                                        return 0;
                                                    }

                                                    else {
                                                        return 3;
                                                    }
                                                }
                                            }

                                            else {
                                                if (x[0] <= 2.5057948231697083) {
                                                    return 2;
                                                }

                                                else {
                                                    return 0;
                                                }
                                            }
                                        }

                                        else {
                                            if (x[0] <= 1.2754608988761902) {
                                                if (x[14] <= -0.3984480947256088) {
                                                    if (x[30] <= 0.2993956431746483) {
                                                        return 2;
                                                    }

                                                    else {
                                                        return 1;
                                                    }
                                                }

                                                else {
                                                    if (x[0] <= 1.0782202184200287) {
                                                        return 3;
                                                    }

                                                    else {
                                                        return 0;
                                                    }
                                                }
                                            }

                                            else {
                                                return 2;
                                            }
                                        }
                                    }

                                    else {
                                        if (x[7] <= 0.6377987861633301) {
                                            if (x[4] <= 1.262494146823883) {
                                                return 2;
                                            }

                                            else {
                                                if (x[23] <= -0.4543704241514206) {
                                                    return 2;
                                                }

                                                else {
                                                    return 3;
                                                }
                                            }
                                        }

                                        else {
                                            if (x[9] <= 0.14917872101068497) {
                                                return 3;
                                            }

                                            else {
                                                if (x[13] <= -0.04217332601547241) {
                                                    return 1;
                                                }

                                                else {
                                                    return 4;
                                                }
                                            }
                                        }
                                    }
                                }
                            }

                            else {
                                if (x[14] <= 0.01730977278202772) {
                                    if (x[3] <= 0.09605124965310097) {
                                        if (x[7] <= 0.1592778116464615) {
                                            if (x[24] <= 1.7216522097587585) {
                                                if (x[28] <= -0.5827383100986481) {
                                                    if (x[9] <= -0.12031259387731552) {
                                                        return 0;
                                                    }

                                                    else {
                                                        return 1;
                                                    }
                                                }

                                                else {
                                                    if (x[10] <= 0.44441865384578705) {
                                                        if (x[3] <= -1.0458041429519653) {
                                                            return 0;
                                                        }

                                                        else {
                                                            if (x[14] <= 0.009898404590785503) {
                                                                if (x[0] <= 1.2173272967338562) {
                                                                    return 4;
                                                                }

                                                                else {
                                                                    if (x[29] <= -0.3656579256057739) {
                                                                        return 4;
                                                                    }

                                                                    else {
                                                                        return 3;
                                                                    }
                                                                }
                                                            }

                                                            else {
                                                                return 3;
                                                            }
                                                        }
                                                    }

                                                    else {
                                                        if (x[16] <= -0.40011225640773773) {
                                                            if (x[2] <= -0.5713706836104393) {
                                                                return 4;
                                                            }

                                                            else {
                                                                return 1;
                                                            }
                                                        }

                                                        else {
                                                            return 2;
                                                        }
                                                    }
                                                }
                                            }

                                            else {
                                                if (x[26] <= 3.568055033683777) {
                                                    return 0;
                                                }

                                                else {
                                                    if (x[0] <= -0.08397702500224113) {
                                                        return 3;
                                                    }

                                                    else {
                                                        return 1;
                                                    }
                                                }
                                            }
                                        }

                                        else {
                                            if (x[13] <= 0.09060576185584068) {
                                                if (x[25] <= -0.5334009826183319) {
                                                    return 3;
                                                }

                                                else {
                                                    if (x[10] <= -0.13680022209882736) {
                                                        return 1;
                                                    }

                                                    else {
                                                        return 0;
                                                    }
                                                }
                                            }

                                            else {
                                                if (x[2] <= -0.6389283537864685) {
                                                    return 0;
                                                }

                                                else {
                                                    return 2;
                                                }
                                            }
                                        }
                                    }

                                    else {
                                        if (x[0] <= 0.07062654197216034) {
                                            if (x[3] <= 0.945912629365921) {
                                                if (x[8] <= 0.6728748381137848) {
                                                    if (x[8] <= 0.5270947217941284) {
                                                        return 3;
                                                    }

                                                    else {
                                                        if (x[13] <= 0.07101618871092796) {
                                                            return 2;
                                                        }

                                                        else {
                                                            return 1;
                                                        }
                                                    }
                                                }

                                                else {
                                                    if (x[1] <= -0.7786878347396851) {
                                                        return 1;
                                                    }

                                                    else {
                                                        return 0;
                                                    }
                                                }
                                            }

                                            else {
                                                if (x[7] <= 2.03525447845459) {
                                                    return 2;
                                                }

                                                else {
                                                    return 3;
                                                }
                                            }
                                        }

                                        else {
                                            if (x[9] <= 0.05452055833302438) {
                                                if (x[4] <= 1.3518003225326538) {
                                                    if (x[9] <= -0.18201350420713425) {
                                                        return 2;
                                                    }

                                                    else {
                                                        if (x[12] <= -0.1372227743268013) {
                                                            return 1;
                                                        }

                                                        else {
                                                            return 0;
                                                        }
                                                    }
                                                }

                                                else {
                                                    return 3;
                                                }
                                            }

                                            else {
                                                if (x[22] <= -0.5731107294559479) {
                                                    if (x[28] <= -0.5247400552034378) {
                                                        return 0;
                                                    }

                                                    else {
                                                        return 1;
                                                    }
                                                }

                                                else {
                                                    if (x[16] <= 0.25923098623752594) {
                                                        if (x[13] <= 0.2032298892736435) {
                                                            return 2;
                                                        }

                                                        else {
                                                            return 1;
                                                        }
                                                    }

                                                    else {
                                                        return 3;
                                                    }
                                                }
                                            }
                                        }
                                    }
                                }

                                else {
                                    if (x[11] <= 1.4533575177192688) {
                                        if (x[31] <= 2.635193347930908) {
                                            if (x[6] <= 1.7712950706481934) {
                                                if (x[15] <= -0.11466531455516815) {
                                                    if (x[10] <= 0.10872359946370125) {
                                                        return 2;
                                                    }

                                                    else {
                                                        if (x[0] <= 0.10305598378181458) {
                                                            return 2;
                                                        }

                                                        else {
                                                            return 4;
                                                        }
                                                    }
                                                }

                                                else {
                                                    if (x[4] <= 0.16016755253076553) {
                                                        if (x[5] <= 0.2408590465784073) {
                                                            if (x[23] <= 1.0264092981815338) {
                                                                if (x[18] <= 0.09937382489442825) {
                                                                    if (x[9] <= 0.883967787027359) {
                                                                        return 4;
                                                                    }

                                                                    else {
                                                                        if (x[16] <= -0.08347899839282036) {
                                                                            return 3;
                                                                        }

                                                                        else {
                                                                            return 1;
                                                                        }
                                                                    }
                                                                }

                                                                else {
                                                                    if (x[4] <= -0.17140762507915497) {
                                                                        if (x[25] <= -0.06392362993210554) {
                                                                            if (x[9] <= -0.05238315183669329) {
                                                                                return 2;
                                                                            }

                                                                            else {
                                                                                if (x[0] <= 1.4640740752220154) {
                                                                                    return 0;
                                                                                }

                                                                                else {
                                                                                    return 1;
                                                                                }
                                                                            }
                                                                        }

                                                                        else {
                                                                            if (x[16] <= 0.2763069123029709) {
                                                                                return 1;
                                                                            }

                                                                            else {
                                                                                if (x[12] <= 0.37170109152793884) {
                                                                                    if (x[4] <= -0.9020019173622131) {
                                                                                        return 2;
                                                                                    }

                                                                                    else {
                                                                                        return 4;
                                                                                    }
                                                                                }

                                                                                else {
                                                                                    if (x[24] <= -0.21782178059220314) {
                                                                                        return 3;
                                                                                    }

                                                                                    else {
                                                                                        if (x[6] <= -0.43695858120918274) {
                                                                                            return 1;
                                                                                        }

                                                                                        else {
                                                                                            return 2;
                                                                                        }
                                                                                    }
                                                                                }
                                                                            }
                                                                        }
                                                                    }

                                                                    else {
                                                                        if (x[14] <= 0.1643930971622467) {
                                                                            return 1;
                                                                        }

                                                                        else {
                                                                            if (x[24] <= 1.1903589367866516) {
                                                                                return 4;
                                                                            }

                                                                            else {
                                                                                return 1;
                                                                            }
                                                                        }
                                                                    }
                                                                }
                                                            }

                                                            else {
                                                                if (x[29] <= 1.044096678495407) {
                                                                    if (x[24] <= 1.5638915449380875) {
                                                                        return 1;
                                                                    }

                                                                    else {
                                                                        return 2;
                                                                    }
                                                                }

                                                                else {
                                                                    if (x[12] <= 0.22912818449549377) {
                                                                        return 4;
                                                                    }

                                                                    else {
                                                                        if (x[13] <= 1.2113842964172363) {
                                                                            return 3;
                                                                        }

                                                                        else {
                                                                            return 0;
                                                                        }
                                                                    }
                                                                }
                                                            }
                                                        }

                                                        else {
                                                            if (x[14] <= 1.4330137372016907) {
                                                                return 0;
                                                            }

                                                            else {
                                                                return 2;
                                                            }
                                                        }
                                                    }

                                                    else {
                                                        if (x[11] <= 0.0626958254724741) {
                                                            if (x[4] <= 0.34175409376621246) {
                                                                return 4;
                                                            }

                                                            else {
                                                                if (x[24] <= -0.09482549130916595) {
                                                                    return 1;
                                                                }

                                                                else {
                                                                    if (x[29] <= 1.55253005027771) {
                                                                        return 2;
                                                                    }

                                                                    else {
                                                                        return 0;
                                                                    }
                                                                }
                                                            }
                                                        }

                                                        else {
                                                            if (x[14] <= 0.36768344044685364) {
                                                                if (x[2] <= -0.1252080425620079) {
                                                                    return 0;
                                                                }

                                                                else {
                                                                    if (x[4] <= 0.8313360512256622) {
                                                                        if (x[8] <= 1.058811068534851) {
                                                                            return 4;
                                                                        }

                                                                        else {
                                                                            if (x[5] <= 0.5714866518974304) {
                                                                                return 1;
                                                                            }

                                                                            else {
                                                                                return 2;
                                                                            }
                                                                        }
                                                                    }

                                                                    else {
                                                                        if (x[20] <= 0.45179374516010284) {
                                                                            return 3;
                                                                        }

                                                                        else {
                                                                            if (x[29] <= 0.5272361636161804) {
                                                                                return 4;
                                                                            }

                                                                            else {
                                                                                return 1;
                                                                            }
                                                                        }
                                                                    }
                                                                }
                                                            }

                                                            else {
                                                                if (x[3] <= 0.14543043822050095) {
                                                                    if (x[25] <= -0.20701151341199875) {
                                                                        return 0;
                                                                    }

                                                                    else {
                                                                        return 4;
                                                                    }
                                                                }

                                                                else {
                                                                    return 4;
                                                                }
                                                            }
                                                        }
                                                    }
                                                }
                                            }

                                            else {
                                                if (x[21] <= 2.1846208572387695) {
                                                    return 3;
                                                }

                                                else {
                                                    return 4;
                                                }
                                            }
                                        }

                                        else {
                                            if (x[0] <= 1.0571998953819275) {
                                                if (x[6] <= 0.35321731865406036) {
                                                    return 1;
                                                }

                                                else {
                                                    if (x[9] <= 0.8666848689317703) {
                                                        return 2;
                                                    }

                                                    else {
                                                        return 1;
                                                    }
                                                }
                                            }

                                            else {
                                                return 3;
                                            }
                                        }
                                    }

                                    else {
                                        if (x[3] <= 0.6237200498580933) {
                                            if (x[4] <= -0.32759228348731995) {
                                                if (x[0] <= -0.44214609265327454) {
                                                    return 3;
                                                }

                                                else {
                                                    if (x[8] <= 1.279725193977356) {
                                                        if (x[26] <= 0.15699799358844757) {
                                                            return 1;
                                                        }

                                                        else {
                                                            return 4;
                                                        }
                                                    }

                                                    else {
                                                        return 2;
                                                    }
                                                }
                                            }

                                            else {
                                                if (x[1] <= -0.8036159873008728) {
                                                    if (x[12] <= 2.141252040863037) {
                                                        return 4;
                                                    }

                                                    else {
                                                        return 1;
                                                    }
                                                }

                                                else {
                                                    if (x[18] <= 0.9713923633098602) {
                                                        return 0;
                                                    }

                                                    else {
                                                        if (x[5] <= 0.25192106515169144) {
                                                            return 0;
                                                        }

                                                        else {
                                                            if (x[9] <= 1.371207356452942) {
                                                                return 1;
                                                            }

                                                            else {
                                                                if (x[23] <= 1.5781598538160324) {
                                                                    return 2;
                                                                }

                                                                else {
                                                                    return 4;
                                                                }
                                                            }
                                                        }
                                                    }
                                                }
                                            }
                                        }

                                        else {
                                            return 4;
                                        }
                                    }
                                }
                            }
                        }

                        else {
                            if (x[28] <= 1.9702869057655334) {
                                if (x[4] <= -0.9071716666221619) {
                                    return 2;
                                }

                                else {
                                    if (x[14] <= 1.4464686512947083) {
                                        return 4;
                                    }

                                    else {
                                        if (x[17] <= 1.3972158432006836) {
                                            return 0;
                                        }

                                        else {
                                            if (x[15] <= 7.969140529632568) {
                                                if (x[1] <= -0.9618964791297913) {
                                                    if (x[11] <= 1.3298685848712921) {
                                                        return 1;
                                                    }

                                                    else {
                                                        return 0;
                                                    }
                                                }

                                                else {
                                                    if (x[5] <= -0.7449060678482056) {
                                                        if (x[22] <= 2.6921398639678955) {
                                                            return 1;
                                                        }

                                                        else {
                                                            return 2;
                                                        }
                                                    }

                                                    else {
                                                        return 1;
                                                    }
                                                }
                                            }

                                            else {
                                                return 2;
                                            }
                                        }
                                    }
                                }
                            }

                            else {
                                if (x[17] <= 5.22760534286499) {
                                    if (x[27] <= 2.2513381242752075) {
                                        return 2;
                                    }

                                    else {
                                        if (x[14] <= 2.770832061767578) {
                                            if (x[13] <= 1.6166415810585022) {
                                                return 4;
                                            }

                                            else {
                                                return 0;
                                            }
                                        }

                                        else {
                                            return 1;
                                        }
                                    }
                                }

                                else {
                                    if (x[9] <= 1.5783910751342773) {
                                        return 3;
                                    }

                                    else {
                                        return 4;
                                    }
                                }
                            }
                        }
                    }

                protected:
                };
            }
        }
    }