#pragma once
#include <cstdarg>
namespace Eloquent {
    namespace ML {
        namespace Port {
            class RandomForest {
                public:
                    /**
                    * Predict class for features vector
                    */
                    int predict(float *x) {
                        uint8_t votes[4] = { 0 };
                        // tree #1
                        if (x[21] <= 0.4171545207500458) {
                            if (x[2] <= -0.8391313552856445) {
                                if (x[16] <= -0.3276246637105942) {
                                    if (x[4] <= -0.9478465914726257) {
                                        votes[1] += 1;
                                    }

                                    else {
                                        if (x[8] <= -0.5327387452125549) {
                                            votes[0] += 1;
                                        }

                                        else {
                                            votes[3] += 1;
                                        }
                                    }
                                }

                                else {
                                    if (x[15] <= 1.2992579936981201) {
                                        if (x[23] <= -0.33893778920173645) {
                                            if (x[18] <= -0.16492070257663727) {
                                                if (x[6] <= -0.6927434206008911) {
                                                    votes[0] += 1;
                                                }

                                                else {
                                                    votes[3] += 1;
                                                }
                                            }

                                            else {
                                                votes[2] += 1;
                                            }
                                        }

                                        else {
                                            if (x[3] <= 0.07973036170005798) {
                                                if (x[27] <= 0.6246452629566193) {
                                                    votes[2] += 1;
                                                }

                                                else {
                                                    votes[1] += 1;
                                                }
                                            }

                                            else {
                                                votes[1] += 1;
                                            }
                                        }
                                    }

                                    else {
                                        votes[1] += 1;
                                    }
                                }
                            }

                            else {
                                if (x[9] <= 0.5632685720920563) {
                                    if (x[12] <= 0.03776303119957447) {
                                        if (x[23] <= 0.16291572153568268) {
                                            if (x[20] <= -0.38473522663116455) {
                                                if (x[11] <= -0.32966889441013336) {
                                                    if (x[3] <= -0.4840257316827774) {
                                                        if (x[6] <= -0.6785164177417755) {
                                                            votes[2] += 1;
                                                        }

                                                        else {
                                                            votes[3] += 1;
                                                        }
                                                    }

                                                    else {
                                                        if (x[29] <= -0.07416973635554314) {
                                                            votes[2] += 1;
                                                        }

                                                        else {
                                                            if (x[25] <= -0.06327493758726632) {
                                                                if (x[19] <= -0.4330892264842987) {
                                                                    votes[2] += 1;
                                                                }

                                                                else {
                                                                    votes[0] += 1;
                                                                }
                                                            }

                                                            else {
                                                                votes[1] += 1;
                                                            }
                                                        }
                                                    }
                                                }

                                                else {
                                                    votes[3] += 1;
                                                }
                                            }

                                            else {
                                                if (x[3] <= 0.3950224965810776) {
                                                    if (x[6] <= 0.06087611801922321) {
                                                        if (x[6] <= -0.6048076152801514) {
                                                            if (x[19] <= -0.024253534618765116) {
                                                                votes[0] += 1;
                                                            }

                                                            else {
                                                                votes[1] += 1;
                                                            }
                                                        }

                                                        else {
                                                            if (x[25] <= -0.013636840973049402) {
                                                                if (x[8] <= -0.457270011305809) {
                                                                    votes[2] += 1;
                                                                }

                                                                else {
                                                                    if (x[10] <= -0.43976178765296936) {
                                                                        votes[2] += 1;
                                                                    }

                                                                    else {
                                                                        votes[3] += 1;
                                                                    }
                                                                }
                                                            }

                                                            else {
                                                                if (x[11] <= -0.45416882634162903) {
                                                                    if (x[20] <= -0.22849399968981743) {
                                                                        votes[2] += 1;
                                                                    }

                                                                    else {
                                                                        votes[1] += 1;
                                                                    }
                                                                }

                                                                else {
                                                                    votes[2] += 1;
                                                                }
                                                            }
                                                        }
                                                    }

                                                    else {
                                                        if (x[15] <= -0.3754565566778183) {
                                                            votes[1] += 1;
                                                        }

                                                        else {
                                                            if (x[0] <= -0.17757586762309074) {
                                                                votes[0] += 1;
                                                            }

                                                            else {
                                                                if (x[13] <= -0.18048036843538284) {
                                                                    votes[0] += 1;
                                                                }

                                                                else {
                                                                    if (x[30] <= -0.07976385951042175) {
                                                                        if (x[12] <= -0.0635034516453743) {
                                                                            votes[3] += 1;
                                                                        }

                                                                        else {
                                                                            if (x[31] <= -0.1639360934495926) {
                                                                                votes[0] += 1;
                                                                            }

                                                                            else {
                                                                                votes[1] += 1;
                                                                            }
                                                                        }
                                                                    }

                                                                    else {
                                                                        votes[2] += 1;
                                                                    }
                                                                }
                                                            }
                                                        }
                                                    }
                                                }

                                                else {
                                                    if (x[11] <= -0.51260806620121) {
                                                        votes[0] += 1;
                                                    }

                                                    else {
                                                        if (x[14] <= -0.10753168910741806) {
                                                            if (x[31] <= -0.6047454476356506) {
                                                                if (x[5] <= 0.32507965341210365) {
                                                                    votes[1] += 1;
                                                                }

                                                                else {
                                                                    votes[2] += 1;
                                                                }
                                                            }

                                                            else {
                                                                votes[2] += 1;
                                                            }
                                                        }

                                                        else {
                                                            if (x[7] <= 0.3724563419818878) {
                                                                votes[1] += 1;
                                                            }

                                                            else {
                                                                votes[2] += 1;
                                                            }
                                                        }
                                                    }
                                                }
                                            }
                                        }

                                        else {
                                            if (x[9] <= 0.07247637957334518) {
                                                if (x[1] <= -0.6160821616649628) {
                                                    votes[3] += 1;
                                                }

                                                else {
                                                    if (x[3] <= -0.34042513370513916) {
                                                        if (x[5] <= -0.7349758446216583) {
                                                            votes[0] += 1;
                                                        }

                                                        else {
                                                            if (x[9] <= -0.17716019693762064) {
                                                                votes[2] += 1;
                                                            }

                                                            else {
                                                                votes[3] += 1;
                                                            }
                                                        }
                                                    }

                                                    else {
                                                        votes[0] += 1;
                                                    }
                                                }
                                            }

                                            else {
                                                if (x[8] <= 0.13891807198524475) {
                                                    votes[2] += 1;
                                                }

                                                else {
                                                    votes[0] += 1;
                                                }
                                            }
                                        }
                                    }

                                    else {
                                        if (x[15] <= 1.2456706166267395) {
                                            if (x[14] <= -0.20733484625816345) {
                                                if (x[30] <= -0.392915815114975) {
                                                    votes[2] += 1;
                                                }

                                                else {
                                                    votes[0] += 1;
                                                }
                                            }

                                            else {
                                                if (x[9] <= -0.23421268910169601) {
                                                    votes[2] += 1;
                                                }

                                                else {
                                                    if (x[1] <= 1.52167147397995) {
                                                        if (x[29] <= 0.5918638408184052) {
                                                            votes[3] += 1;
                                                        }

                                                        else {
                                                            if (x[3] <= -0.060551658272743225) {
                                                                votes[0] += 1;
                                                            }

                                                            else {
                                                                votes[2] += 1;
                                                            }
                                                        }
                                                    }

                                                    else {
                                                        votes[2] += 1;
                                                    }
                                                }
                                            }
                                        }

                                        else {
                                            if (x[19] <= 1.9956138134002686) {
                                                votes[1] += 1;
                                            }

                                            else {
                                                votes[0] += 1;
                                            }
                                        }
                                    }
                                }

                                else {
                                    if (x[17] <= 0.2854655236005783) {
                                        if (x[8] <= 1.5081053972244263) {
                                            if (x[2] <= 1.4446746706962585) {
                                                if (x[6] <= 1.406718134880066) {
                                                    if (x[0] <= -0.4469865411520004) {
                                                        votes[1] += 1;
                                                    }

                                                    else {
                                                        if (x[31] <= 0.35778307914733887) {
                                                            votes[0] += 1;
                                                        }

                                                        else {
                                                            if (x[6] <= 0.2640877589583397) {
                                                                votes[3] += 1;
                                                            }

                                                            else {
                                                                votes[0] += 1;
                                                            }
                                                        }
                                                    }
                                                }

                                                else {
                                                    votes[2] += 1;
                                                }
                                            }

                                            else {
                                                if (x[16] <= 0.06987355649471283) {
                                                    votes[0] += 1;
                                                }

                                                else {
                                                    votes[3] += 1;
                                                }
                                            }
                                        }

                                        else {
                                            votes[2] += 1;
                                        }
                                    }

                                    else {
                                        if (x[20] <= 0.2502701207995415) {
                                            if (x[13] <= 0.829675704240799) {
                                                votes[3] += 1;
                                            }

                                            else {
                                                if (x[16] <= 1.5405471622943878) {
                                                    votes[2] += 1;
                                                }

                                                else {
                                                    votes[0] += 1;
                                                }
                                            }
                                        }

                                        else {
                                            votes[1] += 1;
                                        }
                                    }
                                }
                            }
                        }

                        else {
                            if (x[14] <= 1.220167338848114) {
                                if (x[15] <= 0.1068363506346941) {
                                    if (x[1] <= 0.35098397731781006) {
                                        if (x[5] <= -0.3483089506626129) {
                                            votes[0] += 1;
                                        }

                                        else {
                                            votes[1] += 1;
                                        }
                                    }

                                    else {
                                        if (x[28] <= 2.6899629831314087) {
                                            votes[2] += 1;
                                        }

                                        else {
                                            votes[1] += 1;
                                        }
                                    }
                                }

                                else {
                                    if (x[29] <= 14.68261981010437) {
                                        if (x[1] <= 1.2599368691444397) {
                                            if (x[25] <= 6.445924758911133) {
                                                if (x[9] <= -0.31075356900691986) {
                                                    votes[1] += 1;
                                                }

                                                else {
                                                    if (x[24] <= -0.005969788879156113) {
                                                        votes[0] += 1;
                                                    }

                                                    else {
                                                        if (x[10] <= 0.11721236258745193) {
                                                            if (x[9] <= 0.19374123960733414) {
                                                                if (x[12] <= 0.002308480441570282) {
                                                                    if (x[29] <= -0.15036527812480927) {
                                                                        votes[3] += 1;
                                                                    }

                                                                    else {
                                                                        votes[2] += 1;
                                                                    }
                                                                }

                                                                else {
                                                                    votes[3] += 1;
                                                                }
                                                            }

                                                            else {
                                                                if (x[13] <= 0.07826527208089828) {
                                                                    votes[0] += 1;
                                                                }

                                                                else {
                                                                    votes[2] += 1;
                                                                }
                                                            }
                                                        }

                                                        else {
                                                            if (x[3] <= -0.7949059009552002) {
                                                                votes[1] += 1;
                                                            }

                                                            else {
                                                                if (x[21] <= 0.586834728717804) {
                                                                    votes[0] += 1;
                                                                }

                                                                else {
                                                                    votes[3] += 1;
                                                                }
                                                            }
                                                        }
                                                    }
                                                }
                                            }

                                            else {
                                                votes[1] += 1;
                                            }
                                        }

                                        else {
                                            if (x[5] <= -0.11712297797203064) {
                                                votes[1] += 1;
                                            }

                                            else {
                                                if (x[31] <= 1.8763531148433685) {
                                                    votes[2] += 1;
                                                }

                                                else {
                                                    votes[0] += 1;
                                                }
                                            }
                                        }
                                    }

                                    else {
                                        votes[0] += 1;
                                    }
                                }
                            }

                            else {
                                if (x[9] <= 1.2374310493469238) {
                                    if (x[2] <= -0.6465662717819214) {
                                        if (x[15] <= 2.944107413291931) {
                                            votes[1] += 1;
                                        }

                                        else {
                                            votes[2] += 1;
                                        }
                                    }

                                    else {
                                        if (x[17] <= 5.273691654205322) {
                                            votes[1] += 1;
                                        }

                                        else {
                                            if (x[27] <= 1.327553778886795) {
                                                votes[1] += 1;
                                            }

                                            else {
                                                votes[2] += 1;
                                            }
                                        }
                                    }
                                }

                                else {
                                    if (x[25] <= 0.1787475198507309) {
                                        votes[2] += 1;
                                    }

                                    else {
                                        if (x[12] <= 2.208561599254608) {
                                            votes[1] += 1;
                                        }

                                        else {
                                            if (x[14] <= 4.636642932891846) {
                                                votes[3] += 1;
                                            }

                                            else {
                                                votes[1] += 1;
                                            }
                                        }
                                    }
                                }
                            }
                        }

                        // tree #2
                        if (x[20] <= 0.5621795058250427) {
                            if (x[14] <= 0.1298869475722313) {
                                if (x[2] <= 0.4005657285451889) {
                                    if (x[18] <= -0.14970868825912476) {
                                        if (x[3] <= -0.4840257316827774) {
                                            if (x[6] <= -0.6966933310031891) {
                                                if (x[12] <= -0.14133799076080322) {
                                                    votes[0] += 1;
                                                }

                                                else {
                                                    votes[3] += 1;
                                                }
                                            }

                                            else {
                                                if (x[14] <= -0.3500310629606247) {
                                                    votes[3] += 1;
                                                }

                                                else {
                                                    if (x[22] <= -0.3442259579896927) {
                                                        votes[3] += 1;
                                                    }

                                                    else {
                                                        if (x[20] <= -0.34834620356559753) {
                                                            if (x[20] <= -0.46430638432502747) {
                                                                votes[1] += 1;
                                                            }

                                                            else {
                                                                votes[2] += 1;
                                                            }
                                                        }

                                                        else {
                                                            if (x[13] <= 0.43174559623003006) {
                                                                votes[0] += 1;
                                                            }

                                                            else {
                                                                votes[1] += 1;
                                                            }
                                                        }
                                                    }
                                                }
                                            }
                                        }

                                        else {
                                            if (x[8] <= -0.4200736880302429) {
                                                if (x[13] <= -0.34172458946704865) {
                                                    votes[2] += 1;
                                                }

                                                else {
                                                    if (x[1] <= -0.010777205228805542) {
                                                        votes[1] += 1;
                                                    }

                                                    else {
                                                        votes[0] += 1;
                                                    }
                                                }
                                            }

                                            else {
                                                if (x[0] <= 1.0290902256965637) {
                                                    if (x[12] <= -0.42533309757709503) {
                                                        if (x[20] <= -0.26370110735297203) {
                                                            votes[2] += 1;
                                                        }

                                                        else {
                                                            votes[0] += 1;
                                                        }
                                                    }

                                                    else {
                                                        votes[0] += 1;
                                                    }
                                                }

                                                else {
                                                    if (x[31] <= -0.38200757652521133) {
                                                        votes[1] += 1;
                                                    }

                                                    else {
                                                        votes[3] += 1;
                                                    }
                                                }
                                            }
                                        }
                                    }

                                    else {
                                        if (x[5] <= -0.823733001947403) {
                                            votes[2] += 1;
                                        }

                                        else {
                                            if (x[28] <= 0.26304665952920914) {
                                                if (x[15] <= 0.13792112469673157) {
                                                    if (x[12] <= -0.15903633832931519) {
                                                        if (x[0] <= 0.16386284679174423) {
                                                            if (x[21] <= -0.13877573609352112) {
                                                                votes[1] += 1;
                                                            }

                                                            else {
                                                                if (x[3] <= -0.11918121576309204) {
                                                                    votes[3] += 1;
                                                                }

                                                                else {
                                                                    votes[0] += 1;
                                                                }
                                                            }
                                                        }

                                                        else {
                                                            if (x[22] <= -0.3379456698894501) {
                                                                votes[2] += 1;
                                                            }

                                                            else {
                                                                votes[0] += 1;
                                                            }
                                                        }
                                                    }

                                                    else {
                                                        if (x[25] <= -0.37725795805454254) {
                                                            if (x[8] <= 0.32430145144462585) {
                                                                votes[3] += 1;
                                                            }

                                                            else {
                                                                votes[0] += 1;
                                                            }
                                                        }

                                                        else {
                                                            if (x[7] <= -0.1968800574541092) {
                                                                votes[2] += 1;
                                                            }

                                                            else {
                                                                if (x[27] <= -0.0466274693608284) {
                                                                    votes[3] += 1;
                                                                }

                                                                else {
                                                                    votes[2] += 1;
                                                                }
                                                            }
                                                        }
                                                    }
                                                }

                                                else {
                                                    votes[0] += 1;
                                                }
                                            }

                                            else {
                                                if (x[18] <= 0.13914616405963898) {
                                                    if (x[20] <= 0.1923198625445366) {
                                                        if (x[14] <= -0.056282988749444485) {
                                                            votes[1] += 1;
                                                        }

                                                        else {
                                                            votes[0] += 1;
                                                        }
                                                    }

                                                    else {
                                                        votes[0] += 1;
                                                    }
                                                }

                                                else {
                                                    if (x[17] <= 0.20223485678434372) {
                                                        votes[1] += 1;
                                                    }

                                                    else {
                                                        votes[3] += 1;
                                                    }
                                                }
                                            }
                                        }
                                    }
                                }

                                else {
                                    if (x[18] <= -0.28415581583976746) {
                                        if (x[9] <= -0.16355400532484055) {
                                            if (x[0] <= 2.0019919872283936) {
                                                votes[1] += 1;
                                            }

                                            else {
                                                votes[2] += 1;
                                            }
                                        }

                                        else {
                                            if (x[26] <= -0.45361997187137604) {
                                                votes[0] += 1;
                                            }

                                            else {
                                                if (x[16] <= -0.21320044994354248) {
                                                    votes[3] += 1;
                                                }

                                                else {
                                                    votes[2] += 1;
                                                }
                                            }
                                        }
                                    }

                                    else {
                                        if (x[7] <= -0.44816526770591736) {
                                            if (x[7] <= -0.48314422369003296) {
                                                votes[2] += 1;
                                            }

                                            else {
                                                votes[0] += 1;
                                            }
                                        }

                                        else {
                                            if (x[7] <= 1.474550724029541) {
                                                if (x[14] <= 0.002357463352382183) {
                                                    if (x[0] <= 0.11426398158073425) {
                                                        if (x[0] <= -0.33053721487522125) {
                                                            votes[2] += 1;
                                                        }

                                                        else {
                                                            if (x[9] <= 0.23862915113568306) {
                                                                votes[2] += 1;
                                                            }

                                                            else {
                                                                votes[0] += 1;
                                                            }
                                                        }
                                                    }

                                                    else {
                                                        if (x[4] <= 1.0574041903018951) {
                                                            votes[2] += 1;
                                                        }

                                                        else {
                                                            if (x[1] <= 2.6740318536758423) {
                                                                votes[2] += 1;
                                                            }

                                                            else {
                                                                votes[0] += 1;
                                                            }
                                                        }
                                                    }
                                                }

                                                else {
                                                    if (x[19] <= -0.1399353127926588) {
                                                        votes[2] += 1;
                                                    }

                                                    else {
                                                        votes[3] += 1;
                                                    }
                                                }
                                            }

                                            else {
                                                if (x[14] <= -0.12419651448726654) {
                                                    votes[2] += 1;
                                                }

                                                else {
                                                    if (x[1] <= 0.6933952867984772) {
                                                        votes[1] += 1;
                                                    }

                                                    else {
                                                        votes[0] += 1;
                                                    }
                                                }
                                            }
                                        }
                                    }
                                }
                            }

                            else {
                                if (x[17] <= 1.281726360321045) {
                                    if (x[13] <= 0.9391092956066132) {
                                        if (x[1] <= -1.217691719532013) {
                                            votes[1] += 1;
                                        }

                                        else {
                                            if (x[10] <= 0.8047795295715332) {
                                                if (x[9] <= -0.23421268910169601) {
                                                    votes[2] += 1;
                                                }

                                                else {
                                                    if (x[15] <= -0.1004316620528698) {
                                                        votes[1] += 1;
                                                    }

                                                    else {
                                                        if (x[8] <= -0.20725906640291214) {
                                                            if (x[27] <= 0.09849963150918484) {
                                                                votes[3] += 1;
                                                            }

                                                            else {
                                                                votes[0] += 1;
                                                            }
                                                        }

                                                        else {
                                                            if (x[9] <= 0.7534419298171997) {
                                                                votes[3] += 1;
                                                            }

                                                            else {
                                                                if (x[18] <= 0.5573857128620148) {
                                                                    votes[3] += 1;
                                                                }

                                                                else {
                                                                    votes[0] += 1;
                                                                }
                                                            }
                                                        }
                                                    }
                                                }
                                            }

                                            else {
                                                if (x[16] <= 0.2208007127046585) {
                                                    if (x[4] <= 0.5791599154472351) {
                                                        votes[0] += 1;
                                                    }

                                                    else {
                                                        votes[2] += 1;
                                                    }
                                                }

                                                else {
                                                    if (x[14] <= 0.397087424993515) {
                                                        votes[1] += 1;
                                                    }

                                                    else {
                                                        votes[3] += 1;
                                                    }
                                                }
                                            }
                                        }
                                    }

                                    else {
                                        if (x[16] <= 0.08681650087237358) {
                                            votes[0] += 1;
                                        }

                                        else {
                                            if (x[13] <= 1.2727785110473633) {
                                                if (x[12] <= 1.0419345200061798) {
                                                    votes[3] += 1;
                                                }

                                                else {
                                                    votes[0] += 1;
                                                }
                                            }

                                            else {
                                                votes[2] += 1;
                                            }
                                        }
                                    }
                                }

                                else {
                                    votes[1] += 1;
                                }
                            }
                        }

                        else {
                            if (x[13] <= 1.1775087118148804) {
                                if (x[15] <= 0.6074621379375458) {
                                    if (x[9] <= 0.2932419776916504) {
                                        if (x[22] <= 2.3906469345092773) {
                                            if (x[20] <= 1.388955533504486) {
                                                votes[2] += 1;
                                            }

                                            else {
                                                votes[1] += 1;
                                            }
                                        }

                                        else {
                                            if (x[25] <= 4.392804026603699) {
                                                votes[3] += 1;
                                            }

                                            else {
                                                votes[0] += 1;
                                            }
                                        }
                                    }

                                    else {
                                        if (x[16] <= 0.4962405562400818) {
                                            if (x[30] <= 2.9073206186294556) {
                                                votes[0] += 1;
                                            }

                                            else {
                                                votes[2] += 1;
                                            }
                                        }

                                        else {
                                            if (x[11] <= 0.3870939053595066) {
                                                votes[2] += 1;
                                            }

                                            else {
                                                votes[3] += 1;
                                            }
                                        }
                                    }
                                }

                                else {
                                    if (x[18] <= 2.08284854888916) {
                                        if (x[7] <= 0.45476119220256805) {
                                            if (x[28] <= 3.5995126962661743) {
                                                votes[3] += 1;
                                            }

                                            else {
                                                if (x[15] <= 0.982024759054184) {
                                                    votes[1] += 1;
                                                }

                                                else {
                                                    if (x[21] <= 2.3233612775802612) {
                                                        votes[0] += 1;
                                                    }

                                                    else {
                                                        votes[3] += 1;
                                                    }
                                                }
                                            }
                                        }

                                        else {
                                            votes[3] += 1;
                                        }
                                    }

                                    else {
                                        if (x[25] <= 2.953634738922119) {
                                            votes[1] += 1;
                                        }

                                        else {
                                            if (x[17] <= 1.8815450072288513) {
                                                votes[2] += 1;
                                            }

                                            else {
                                                if (x[4] <= 0.15925659239292145) {
                                                    votes[0] += 1;
                                                }

                                                else {
                                                    votes[1] += 1;
                                                }
                                            }
                                        }
                                    }
                                }
                            }

                            else {
                                if (x[17] <= 1.2212921380996704) {
                                    if (x[3] <= -0.11543294787406921) {
                                        votes[1] += 1;
                                    }

                                    else {
                                        votes[3] += 1;
                                    }
                                }

                                else {
                                    if (x[7] <= 0.08178678154945374) {
                                        if (x[1] <= -0.562041625380516) {
                                            if (x[14] <= 1.7526289224624634) {
                                                votes[1] += 1;
                                            }

                                            else {
                                                votes[2] += 1;
                                            }
                                        }

                                        else {
                                            votes[1] += 1;
                                        }
                                    }

                                    else {
                                        if (x[27] <= 1.54502890445292) {
                                            votes[0] += 1;
                                        }

                                        else {
                                            if (x[7] <= 1.7353630065917969) {
                                                votes[3] += 1;
                                            }

                                            else {
                                                votes[1] += 1;
                                            }
                                        }
                                    }
                                }
                            }
                        }

                        // tree #3
                        if (x[12] <= 0.954651951789856) {
                            if (x[15] <= -0.029028632678091526) {
                                if (x[1] <= 0.8732986152172089) {
                                    if (x[8] <= 0.03905303683131933) {
                                        if (x[16] <= -0.10049832239747047) {
                                            if (x[29] <= 0.9333384037017822) {
                                                if (x[20] <= -0.46018755435943604) {
                                                    if (x[14] <= -0.32008083164691925) {
                                                        if (x[15] <= -0.3655015230178833) {
                                                            votes[3] += 1;
                                                        }

                                                        else {
                                                            votes[2] += 1;
                                                        }
                                                    }

                                                    else {
                                                        votes[1] += 1;
                                                    }
                                                }

                                                else {
                                                    if (x[7] <= -0.2506767138838768) {
                                                        if (x[12] <= -0.3469257950782776) {
                                                            if (x[11] <= -0.5026615709066391) {
                                                                if (x[16] <= -0.22817722707986832) {
                                                                    if (x[22] <= -0.27439095824956894) {
                                                                        votes[0] += 1;
                                                                    }

                                                                    else {
                                                                        if (x[28] <= -0.27781508304178715) {
                                                                            votes[3] += 1;
                                                                        }

                                                                        else {
                                                                            votes[2] += 1;
                                                                        }
                                                                    }
                                                                }

                                                                else {
                                                                    votes[2] += 1;
                                                                }
                                                            }

                                                            else {
                                                                if (x[29] <= 0.3055418413132429) {
                                                                    votes[1] += 1;
                                                                }

                                                                else {
                                                                    votes[0] += 1;
                                                                }
                                                            }
                                                        }

                                                        else {
                                                            if (x[0] <= 0.2319236397743225) {
                                                                if (x[15] <= -0.19697453081607819) {
                                                                    votes[2] += 1;
                                                                }

                                                                else {
                                                                    if (x[13] <= -0.1252995878458023) {
                                                                        votes[0] += 1;
                                                                    }

                                                                    else {
                                                                        votes[3] += 1;
                                                                    }
                                                                }
                                                            }

                                                            else {
                                                                votes[2] += 1;
                                                            }
                                                        }
                                                    }

                                                    else {
                                                        if (x[25] <= -0.25314172357320786) {
                                                            if (x[0] <= 0.4153537005186081) {
                                                                votes[0] += 1;
                                                            }

                                                            else {
                                                                if (x[18] <= -0.2648228406906128) {
                                                                    votes[1] += 1;
                                                                }

                                                                else {
                                                                    votes[2] += 1;
                                                                }
                                                            }
                                                        }

                                                        else {
                                                            if (x[9] <= -0.4340386390686035) {
                                                                if (x[21] <= -0.2633892595767975) {
                                                                    votes[1] += 1;
                                                                }

                                                                else {
                                                                    votes[0] += 1;
                                                                }
                                                            }

                                                            else {
                                                                if (x[16] <= -0.38248075544834137) {
                                                                    votes[1] += 1;
                                                                }

                                                                else {
                                                                    votes[3] += 1;
                                                                }
                                                            }
                                                        }
                                                    }
                                                }
                                            }

                                            else {
                                                if (x[25] <= 0.3619637042284012) {
                                                    votes[0] += 1;
                                                }

                                                else {
                                                    votes[3] += 1;
                                                }
                                            }
                                        }

                                        else {
                                            if (x[1] <= 0.7142133116722107) {
                                                if (x[13] <= -0.19872024655342102) {
                                                    votes[0] += 1;
                                                }

                                                else {
                                                    votes[3] += 1;
                                                }
                                            }

                                            else {
                                                votes[2] += 1;
                                            }
                                        }
                                    }

                                    else {
                                        if (x[7] <= -0.03089691326022148) {
                                            votes[3] += 1;
                                        }

                                        else {
                                            if (x[31] <= -0.6762459576129913) {
                                                votes[2] += 1;
                                            }

                                            else {
                                                if (x[4] <= 1.4165104031562805) {
                                                    if (x[0] <= 0.17084753513336182) {
                                                        if (x[13] <= -0.03389521688222885) {
                                                            if (x[2] <= -0.34640978276729584) {
                                                                if (x[7] <= 0.3196784406900406) {
                                                                    votes[3] += 1;
                                                                }

                                                                else {
                                                                    votes[0] += 1;
                                                                }
                                                            }

                                                            else {
                                                                votes[0] += 1;
                                                            }
                                                        }

                                                        else {
                                                            if (x[3] <= 0.1531113088130951) {
                                                                votes[2] += 1;
                                                            }

                                                            else {
                                                                votes[0] += 1;
                                                            }
                                                        }
                                                    }

                                                    else {
                                                        if (x[29] <= -0.5594763457775116) {
                                                            votes[0] += 1;
                                                        }

                                                        else {
                                                            if (x[31] <= -0.36505043879151344) {
                                                                votes[2] += 1;
                                                            }

                                                            else {
                                                                votes[1] += 1;
                                                            }
                                                        }
                                                    }
                                                }

                                                else {
                                                    votes[2] += 1;
                                                }
                                            }
                                        }
                                    }
                                }

                                else {
                                    if (x[24] <= -0.4661880135536194) {
                                        if (x[2] <= 0.7200500071048737) {
                                            votes[1] += 1;
                                        }

                                        else {
                                            votes[0] += 1;
                                        }
                                    }

                                    else {
                                        if (x[19] <= -0.3651658892631531) {
                                            if (x[13] <= -0.07902811653912067) {
                                                votes[2] += 1;
                                            }

                                            else {
                                                votes[3] += 1;
                                            }
                                        }

                                        else {
                                            if (x[14] <= 0.10342644853517413) {
                                                if (x[6] <= -0.2890978455543518) {
                                                    if (x[7] <= -0.2206525355577469) {
                                                        votes[2] += 1;
                                                    }

                                                    else {
                                                        votes[3] += 1;
                                                    }
                                                }

                                                else {
                                                    votes[2] += 1;
                                                }
                                            }

                                            else {
                                                if (x[31] <= 0.28620605915784836) {
                                                    votes[2] += 1;
                                                }

                                                else {
                                                    votes[1] += 1;
                                                }
                                            }
                                        }
                                    }
                                }
                            }

                            else {
                                if (x[9] <= -0.28273598849773407) {
                                    if (x[16] <= 0.546289712190628) {
                                        if (x[7] <= -0.12036446947604418) {
                                            if (x[14] <= -0.21467433124780655) {
                                                votes[0] += 1;
                                            }

                                            else {
                                                if (x[21] <= -0.3538031131029129) {
                                                    votes[0] += 1;
                                                }

                                                else {
                                                    votes[2] += 1;
                                                }
                                            }
                                        }

                                        else {
                                            votes[1] += 1;
                                        }
                                    }

                                    else {
                                        votes[1] += 1;
                                    }
                                }

                                else {
                                    if (x[28] <= 0.19698665291070938) {
                                        if (x[15] <= 0.048344871029257774) {
                                            if (x[5] <= -0.0008943602442741394) {
                                                votes[3] += 1;
                                            }

                                            else {
                                                votes[0] += 1;
                                            }
                                        }

                                        else {
                                            if (x[14] <= -0.004889123665634543) {
                                                if (x[16] <= -0.02608901634812355) {
                                                    votes[3] += 1;
                                                }

                                                else {
                                                    votes[2] += 1;
                                                }
                                            }

                                            else {
                                                if (x[4] <= -0.5487892627716064) {
                                                    if (x[3] <= -0.46738293766975403) {
                                                        votes[2] += 1;
                                                    }

                                                    else {
                                                        votes[1] += 1;
                                                    }
                                                }

                                                else {
                                                    if (x[9] <= 0.9913092851638794) {
                                                        if (x[9] <= -0.1505022794008255) {
                                                            if (x[7] <= -0.10819136910140514) {
                                                                votes[1] += 1;
                                                            }

                                                            else {
                                                                votes[3] += 1;
                                                            }
                                                        }

                                                        else {
                                                            votes[3] += 1;
                                                        }
                                                    }

                                                    else {
                                                        if (x[11] <= 0.985109955072403) {
                                                            votes[3] += 1;
                                                        }

                                                        else {
                                                            votes[0] += 1;
                                                        }
                                                    }
                                                }
                                            }
                                        }
                                    }

                                    else {
                                        if (x[3] <= -0.3034718483686447) {
                                            if (x[7] <= -0.2765180319547653) {
                                                if (x[4] <= -0.8292283713817596) {
                                                    votes[2] += 1;
                                                }

                                                else {
                                                    votes[1] += 1;
                                                }
                                            }

                                            else {
                                                if (x[12] <= 0.832088440656662) {
                                                    votes[3] += 1;
                                                }

                                                else {
                                                    votes[1] += 1;
                                                }
                                            }
                                        }

                                        else {
                                            if (x[3] <= 0.17363281548023224) {
                                                if (x[8] <= 0.3145071789622307) {
                                                    if (x[16] <= 0.5763856470584869) {
                                                        votes[2] += 1;
                                                    }

                                                    else {
                                                        votes[1] += 1;
                                                    }
                                                }

                                                else {
                                                    votes[0] += 1;
                                                }
                                            }

                                            else {
                                                if (x[23] <= 1.4200178980827332) {
                                                    if (x[26] <= 0.7454210519790649) {
                                                        if (x[2] <= 0.35920728743076324) {
                                                            if (x[11] <= 0.14909624680876732) {
                                                                votes[2] += 1;
                                                            }

                                                            else {
                                                                votes[1] += 1;
                                                            }
                                                        }

                                                        else {
                                                            votes[3] += 1;
                                                        }
                                                    }

                                                    else {
                                                        votes[2] += 1;
                                                    }
                                                }

                                                else {
                                                    if (x[20] <= 0.451448455452919) {
                                                        votes[3] += 1;
                                                    }

                                                    else {
                                                        votes[1] += 1;
                                                    }
                                                }
                                            }
                                        }
                                    }
                                }
                            }
                        }

                        else {
                            if (x[17] <= 0.8625599443912506) {
                                if (x[20] <= 0.7838446497917175) {
                                    if (x[2] <= -0.9986676275730133) {
                                        if (x[20] <= 0.2650979310274124) {
                                            votes[1] += 1;
                                        }

                                        else {
                                            votes[2] += 1;
                                        }
                                    }

                                    else {
                                        if (x[18] <= -0.25905846059322357) {
                                            votes[1] += 1;
                                        }

                                        else {
                                            votes[0] += 1;
                                        }
                                    }
                                }

                                else {
                                    votes[3] += 1;
                                }
                            }

                            else {
                                if (x[4] <= 0.6043914556503296) {
                                    if (x[31] <= 1.7669348120689392) {
                                        if (x[20] <= 4.56444787979126) {
                                            if (x[14] <= 1.8137836456298828) {
                                                if (x[1] <= -0.9921113848686218) {
                                                    if (x[23] <= 0.15341099072247744) {
                                                        votes[0] += 1;
                                                    }

                                                    else {
                                                        votes[1] += 1;
                                                    }
                                                }

                                                else {
                                                    votes[1] += 1;
                                                }
                                            }

                                            else {
                                                votes[1] += 1;
                                            }
                                        }

                                        else {
                                            if (x[14] <= 2.8284857869148254) {
                                                votes[2] += 1;
                                            }

                                            else {
                                                votes[1] += 1;
                                            }
                                        }
                                    }

                                    else {
                                        if (x[31] <= 6.240154027938843) {
                                            if (x[24] <= 5.247262001037598) {
                                                if (x[27] <= 3.580759882926941) {
                                                    votes[2] += 1;
                                                }

                                                else {
                                                    votes[0] += 1;
                                                }
                                            }

                                            else {
                                                votes[3] += 1;
                                            }
                                        }

                                        else {
                                            votes[1] += 1;
                                        }
                                    }
                                }

                                else {
                                    if (x[2] <= 1.7544225454330444) {
                                        votes[3] += 1;
                                    }

                                    else {
                                        votes[1] += 1;
                                    }
                                }
                            }
                        }

                        // tree #4
                        if (x[18] <= 1.5649462938308716) {
                            if (x[14] <= 0.0023284307098947465) {
                                if (x[1] <= 0.7590948343276978) {
                                    if (x[3] <= -0.451403871178627) {
                                        if (x[5] <= -0.7620978057384491) {
                                            if (x[31] <= 0.425968661904335) {
                                                if (x[22] <= -0.40328580141067505) {
                                                    votes[1] += 1;
                                                }

                                                else {
                                                    if (x[11] <= -0.5583191215991974) {
                                                        votes[0] += 1;
                                                    }

                                                    else {
                                                        if (x[17] <= -0.1859702244400978) {
                                                            if (x[18] <= -0.10551786422729492) {
                                                                if (x[2] <= -1.0871295034885406) {
                                                                    votes[0] += 1;
                                                                }

                                                                else {
                                                                    votes[2] += 1;
                                                                }
                                                            }

                                                            else {
                                                                votes[0] += 1;
                                                            }
                                                        }

                                                        else {
                                                            votes[2] += 1;
                                                        }
                                                    }
                                                }
                                            }

                                            else {
                                                if (x[17] <= -0.06008013058453798) {
                                                    if (x[31] <= 0.7564418017864227) {
                                                        votes[1] += 1;
                                                    }

                                                    else {
                                                        votes[3] += 1;
                                                    }
                                                }

                                                else {
                                                    votes[0] += 1;
                                                }
                                            }
                                        }

                                        else {
                                            if (x[13] <= -0.3847397416830063) {
                                                votes[3] += 1;
                                            }

                                            else {
                                                if (x[19] <= -0.3593592494726181) {
                                                    if (x[25] <= -0.09247875958681107) {
                                                        votes[1] += 1;
                                                    }

                                                    else {
                                                        votes[2] += 1;
                                                    }
                                                }

                                                else {
                                                    if (x[22] <= -0.4705522954463959) {
                                                        votes[0] += 1;
                                                    }

                                                    else {
                                                        if (x[10] <= 0.45338064432144165) {
                                                            if (x[27] <= 0.34892771393060684) {
                                                                votes[3] += 1;
                                                            }

                                                            else {
                                                                if (x[10] <= -0.33530664443969727) {
                                                                    votes[2] += 1;
                                                                }

                                                                else {
                                                                    votes[3] += 1;
                                                                }
                                                            }
                                                        }

                                                        else {
                                                            votes[0] += 1;
                                                        }
                                                    }
                                                }
                                            }
                                        }
                                    }

                                    else {
                                        if (x[2] <= 0.5192162692546844) {
                                            if (x[7] <= 0.44837386906147003) {
                                                if (x[1] <= -0.32979319989681244) {
                                                    if (x[20] <= -0.19495829939842224) {
                                                        if (x[9] <= -0.45375844836235046) {
                                                            votes[2] += 1;
                                                        }

                                                        else {
                                                            votes[0] += 1;
                                                        }
                                                    }

                                                    else {
                                                        votes[1] += 1;
                                                    }
                                                }

                                                else {
                                                    if (x[21] <= -0.2953313738107681) {
                                                        if (x[12] <= -0.1863967403769493) {
                                                            if (x[31] <= -0.20445475727319717) {
                                                                votes[1] += 1;
                                                            }

                                                            else {
                                                                votes[0] += 1;
                                                            }
                                                        }

                                                        else {
                                                            if (x[19] <= -0.3205939084291458) {
                                                                votes[3] += 1;
                                                            }

                                                            else {
                                                                if (x[9] <= -0.004339322447776794) {
                                                                    votes[2] += 1;
                                                                }

                                                                else {
                                                                    votes[0] += 1;
                                                                }
                                                            }
                                                        }
                                                    }

                                                    else {
                                                        if (x[12] <= -0.27197250723838806) {
                                                            votes[0] += 1;
                                                        }

                                                        else {
                                                            if (x[18] <= -0.12012701481580734) {
                                                                if (x[22] <= 0.2765679210424423) {
                                                                    if (x[23] <= -0.2057485207915306) {
                                                                        votes[1] += 1;
                                                                    }

                                                                    else {
                                                                        votes[0] += 1;
                                                                    }
                                                                }

                                                                else {
                                                                    votes[1] += 1;
                                                                }
                                                            }

                                                            else {
                                                                votes[2] += 1;
                                                            }
                                                        }
                                                    }
                                                }
                                            }

                                            else {
                                                votes[0] += 1;
                                            }
                                        }

                                        else {
                                            if (x[7] <= 1.3665088415145874) {
                                                if (x[19] <= -0.33611348271369934) {
                                                    votes[0] += 1;
                                                }

                                                else {
                                                    if (x[16] <= 0.008522322634235024) {
                                                        votes[2] += 1;
                                                    }

                                                    else {
                                                        if (x[18] <= 0.10201628506183624) {
                                                            votes[0] += 1;
                                                        }

                                                        else {
                                                            votes[2] += 1;
                                                        }
                                                    }
                                                }
                                            }

